<?xml version="1.0"?>
<opencv_storage>
<my_svm type_id="opencv-ml-svm">
  <svm_type>C_SVC</svm_type>
  <kernel><type>LINEAR</type></kernel>
  <C>2.6699999999999999e+00</C>
  <term_criteria><epsilon>1.1920928955078125e-07</epsilon>
    <iterations>1000</iterations></term_criteria>
  <var_all>3780</var_all>
  <var_count>3780</var_count>
  <class_count>2</class_count>
  <class_labels type_id="opencv-matrix">
    <rows>1</rows>
    <cols>2</cols>
    <dt>i</dt>
    <data>
      -1 1</data></class_labels>
  <sv_total>1</sv_total>
  <support_vectors>
    <_>
      0. 0. 0. 0. 1.11025475e-01 4.56905514e-02 -3.80373895e-02
      7.08785877e-02 -2.77084470e-01 0. 0. 0. 0. -7.49877989e-02
      6.06131665e-02 -8.22652057e-02 -1.18185103e-01 2.96968482e-02 0.
      0. 0. 0. 1.26194894e-01 1.07385954e-02 3.74495238e-02
      5.00746146e-02 1.36720300e-01 0. 0. 0. 0. 9.95112583e-02
      -7.84097612e-02 2.47883216e-01 5.76389991e-02 -1.94912747e-01 0.
      0. 0. 0. 1.09821163e-01 6.02015220e-02 -2.09389478e-01
      -1.07771948e-01 -7.51971975e-02 0. 0. 0. 0. 2.38903034e-02
      -7.98560530e-02 -1.21154830e-01 -1.55857086e-01 -1.07621126e-01 0.
      0. 0. 0. 6.48936927e-02 -8.36053193e-02 -1.32889017e-01
      1.50851486e-02 2.15112984e-01 0. 0. 0. 0. 2.46554241e-01
      5.20616844e-02 1.53218895e-01 5.89175038e-02 -2.60607868e-01 0. 0.
      0. 0. -1.06566243e-01 -6.82966411e-02 6.69351593e-02
      -1.18859880e-01 -3.54749151e-02 0. 0. 0. 0. -6.66865520e-03
      -4.34956625e-02 -2.98777521e-01 7.01839104e-02 -2.49778405e-01 0.
      0. 0. 0. 1.44499406e-01 3.75584513e-02 -2.01829344e-01
      7.25013316e-02 1.90693274e-01 0. 0. 0. 0. -4.84229326e-02
      -8.62033889e-02 5.94640151e-02 5.76006807e-02 -1.41831264e-01 0.
      0. 0. 0. -3.60335141e-01 -5.60038202e-02 -1.12824894e-01
      5.72925918e-02 1.15405284e-01 0. 0. 0. 0. 2.53706835e-02
      -2.51246169e-02 5.68598229e-03 -1.00709744e-01 6.20849542e-02 0.
      0. 0. 0. -2.53874719e-01 -5.21170348e-02 -1.17074102e-01
      8.12411010e-02 -5.50762713e-02 0. 0. 0. 0. -1.76549807e-01
      -1.04284421e-01 -2.22049937e-01 7.67441243e-02 3.26405987e-02 0.
      0. 0. 0. -7.13148564e-02 -1.60230603e-02 -3.23699087e-01
      -1.05544262e-01 -9.33592767e-02 0. 0. 0. 0. 1.04681633e-01
      7.12069310e-03 -9.66262668e-02 1.31243557e-01 -4.29791100e-02 0.
      0. 0. 0. -1.04155190e-01 -6.97476864e-02 -1.03993826e-01
      4.56817783e-02 1.42177967e-02 0. 0. 0. 0. 7.40264133e-02
      -2.17233431e-02 -2.83991605e-01 -3.51379290e-02 7.90808871e-02 0.
      0. 0. 0. -1.94983989e-01 7.85509869e-03 6.07162118e-02
      2.99325101e-02 -1.13537662e-01 0. 0. 0. 0. -2.10368529e-01
      -5.81075326e-02 -1.82535917e-01 7.89873898e-02 -2.30444923e-01 0.
      0. 0. 0. -2.05634441e-02 -5.92625253e-02 1.19398490e-01
      -3.64478715e-02 -1.45974442e-01 0. 0. 0. 0. 9.13624540e-02
      -5.28831780e-02 2.68968567e-02 -1.16473660e-02 -7.99022764e-02 0.
      0. 0. 0. 7.57357180e-02 -5.59952296e-02 -2.13373229e-01
      7.19163492e-02 -3.94809656e-02 0. 0. 0. 0. -1.61092579e-01
      -6.05242811e-02 -1.05537891e-01 1.23834761e-05 7.65770720e-03 0.
      0. 0. 0. -1.78954080e-01 -6.62046149e-02 -6.11525320e-04
      -2.07176507e-02 -8.75559971e-02 0. 0. 0. 0. 1.60802901e-01
      -3.99161093e-02 5.36304675e-02 -3.28908265e-01 8.16031545e-02 0.
      0. 0. 0. -1.98403448e-01 -1.93578880e-02 -2.36677945e-01
      -2.80944747e-03 -2.71836936e-01 0. 0. 0. 0. 2.21381485e-02
      -7.76032805e-02 4.67039458e-02 -9.36058583e-04 -1.54546453e-02 0.
      0. 0. 0. 3.78748685e-01 -1.68099944e-02 -2.59711761e-02
      -1.89476386e-01 2.22533569e-01 0. 0. 0. 0. 7.95086771e-02
      6.26045913e-02 1.85445789e-02 8.19256231e-02 -2.73219585e-01 0. 0.
      0. 0. -4.18024957e-02 -8.62089172e-02 1.51767032e-02
      -3.83801609e-02 -6.35455269e-03 0. 0. 0. 0. 3.92608345e-02
      -2.10379134e-03 -2.38205329e-01 6.22132532e-02 -8.17019269e-02 0.
      0. 0. 0. -2.43757904e-01 4.56876233e-02 -2.86673605e-01
      7.78265893e-02 2.87009984e-01 0. 0. 0. 0. -2.55986992e-02
      -6.44653887e-02 -1.83594376e-02 -8.12949091e-02 -7.26963133e-02 0.
      0. 0. 0. -1.83058560e-01 3.70372050e-02 -8.36453363e-02
      6.45369366e-02 -1.08750183e-02 0. 0. 0. 0. -9.87375900e-03
      -6.35775477e-02 -1.86824590e-01 5.47264144e-02 -1.69760376e-01 0.
      0. 0. 0. 4.41486239e-02 -6.43825680e-02 4.88844924e-02
      -2.16774340e-03 -1.73997417e-01 0. 0. 0. 0. 8.93668234e-02
      -1.29627243e-01 -9.82315242e-02 -3.39355171e-01 -1.58804730e-01 0.
      0. 0. 0. -3.65878820e-01 -4.68353219e-02 1.14198551e-01
      6.99816197e-02 1.04093410e-01 0. 0. 0. 0. -2.48818263e-01
      -9.85308215e-02 -2.11439833e-01 4.96774502e-02 1.99068859e-02 0.
      0. 0. 0. -1.82361796e-01 -2.85152420e-02 -2.32957453e-02
      -2.25260690e-01 3.14708740e-01 0. 0. 0. 0. -1.41938077e-02
      -1.80415452e-01 -1.58689439e-01 2.73501296e-02 -8.09324086e-02 0.
      0. 0. 0. 5.39179258e-02 -7.28298202e-02 1.72977746e-01
      6.38030022e-02 -1.86630562e-01 0. 0. 0. 0. 2.58472133e-02
      -2.66696662e-02 -3.61747235e-01 -4.57896106e-02 2.11199030e-01 0.
      0. 0. 0. -5.68068326e-02 -1.36075497e-01 -5.39498590e-02
      -9.46239382e-03 5.62551394e-02 0. 0. 0. 0. -1.87871903e-01
      3.04665286e-02 -2.16697916e-01 -6.17639944e-02 -2.27605202e-03 0.
      0. 0. 0. -1.73794612e-01 -5.00183925e-02 -8.73998106e-02
      -2.25787237e-02 -2.15853631e-01 0. 0. 0. 0. 6.99868575e-02
      -9.14002433e-02 -2.14084715e-01 -2.31122877e-02 1.50225818e-01 0.
      0. 0. 0. 4.23135459e-01 2.99960114e-02 -1.69025660e-01
      -2.30811555e-02 1.21240072e-01 0. 0. 0. 0. -3.21048319e-01
      -1.80670135e-02 -4.19701226e-02 -8.45468789e-02 -1.15792684e-01 0.
      0. 0. 0. -1.51056021e-01 -1.02488019e-01 -1.06986471e-01
      1.44560868e-03 -2.72845268e-01 0. 0. 0. 0. -2.42434427e-01
      -6.96851453e-03 1.42336652e-01 -2.78864771e-01 -1.87460005e-01 0.
      0. 0. 0. 3.94052863e-01 -1.93853937e-02 8.25829878e-02
      -8.83575231e-02 3.22686993e-02 0. 0. 0. 0. 1.43794790e-01
      9.19872820e-02 1.34007651e-02 -1.78633928e-01 -3.53028804e-01 0.
      0. 0. 0. 7.04993457e-02 2.82428041e-02 -1.55731216e-01
      -1.50819436e-01 3.85898660e-04 0. 0. 0. 0. 1.75602958e-02
      6.13950565e-02 4.38367277e-02 8.28207061e-02 -2.18514085e-01 0. 0.
      0. 0. -2.11843342e-01 -2.70669788e-01 9.64772999e-02
      -1.66325346e-01 -3.91222648e-02 0. 0. 0. 0. 5.10184839e-02
      -9.96448696e-02 -1.49252743e-01 1.18936606e-01 -1.13047868e-01 0.
      0. 0. 0. -3.91968161e-01 4.64974418e-02 -1.65082484e-01
      7.18460456e-02 5.45007549e-02 0. 0. 0. 0. -2.05668822e-01
      -3.87530476e-02 -2.16417477e-01 -1.71057992e-02 -1.85435414e-01 0.
      0. 0. 0. 6.01175800e-03 -7.37946928e-02 1.40354246e-01
      9.28911790e-02 1.23118140e-01 0. 0. 0. 0. -4.10497561e-02
      -1.56453121e-02 2.75172405e-02 2.29900539e-01 2.03522176e-01 0. 0.
      0. 0. 1.07732423e-01 -3.57131027e-02 9.53918993e-02
      -1.98193695e-02 -8.97339582e-02 0. 0. 0. 0. 2.77996391e-01
      -1.16228824e-02 -3.71148318e-01 -2.01257735e-01 2.50262380e-01 0.
      0. 0. 0. -2.79519949e-02 2.81802304e-02 5.77439591e-02
      2.57020205e-01 1.32602602e-01 0. 0. 0. 0. 1.83287919e-01
      -3.35578352e-01 -3.81496847e-01 -2.09899873e-01 -3.52107197e-01 0.
      0. 0. 0. 3.32606733e-02 4.86429268e-03 9.50450972e-02
      -1.75832093e-01 1.99166387e-01 0. 0. 0. 0. 8.44275858e-03
      -9.18838084e-02 2.75746267e-02 9.07543227e-02 -1.50353417e-01 0.
      0. 0. 0. 2.41421059e-01 -2.10815504e-01 7.90445507e-02
      -1.70694456e-01 1.84247777e-01 0. 0. 0. 0. -1.10700145e-01
      -2.68293530e-01 2.34200448e-01 -1.35279909e-01 -2.74432838e-01 0.
      0. 0. 0. 1.78079709e-01 -4.95549589e-02 9.03161690e-02
      7.22916350e-02 4.61082384e-02 0. 0. 0. 0. -3.26168269e-01
      4.51398827e-02 -8.88967291e-02 -1.34215644e-02 -2.56561071e-01 0.
      0. 0. 0. -1.38681652e-02 -1.77648202e-01 6.00026129e-03
      -1.36264235e-01 -1.92730859e-01 0. 0. 0. 0. 1.67724505e-01
      1.04778856e-01 2.35161628e-03 3.31328064e-02 6.27023950e-02 0. 0.
      0. 0. -2.24405125e-01 3.69315334e-02 2.05445722e-01
      -1.85630657e-02 -2.99737126e-01 0. 0. 0. 0. 2.13546362e-02
      1.18874442e-02 -2.17549697e-01 -7.10806847e-02 -4.42254953e-02 0.
      0. 0. 0. 5.25499731e-02 9.06780809e-02 -8.51771832e-02
      1.28752412e-02 1.63081720e-01 0. 0. 0. 0. -3.92321646e-01
      8.18777457e-02 -8.67493376e-02 -1.53001979e-01 2.32192665e-01 0.
      0. 0. 0. -5.19583225e-01 2.23069917e-03 -1.43953254e-02
      -8.15768242e-02 1.84825897e-01 0. 0. 0. 0. 1.19343551e-03
      9.08570364e-02 1.80423066e-01 -1.49934769e-01 -2.89539754e-01 0.
      0. 0. 0. -2.48735063e-02 4.55510356e-02 2.27674562e-02
      -1.39768735e-01 7.66129000e-03 0. 0. 0. 0. -1.22121893e-01
      -7.24790618e-02 -3.68505977e-02 -2.00245585e-02 -2.80716747e-01 0.
      0. 0. 0. 1.56822987e-02 -2.38581896e-01 -1.62005037e-01
      -1.82818308e-01 -1.59111947e-01 0. 0. 0. 0. -1.23187304e-01
      -5.56848533e-02 -1.57051578e-01 1.22284494e-01 -2.82984432e-02 0.
      0. 0. 0. 1.79711953e-01 -5.94401695e-02 3.47839743e-02
      -1.75633043e-01 1.74039692e-01 0. 0. 0. 0. 2.46382475e-01
      -3.82839702e-02 -4.44507077e-02 -6.54892474e-02 -5.70291542e-02 0.
      0. 0. 0. -1.84174955e-01 -4.10200283e-02 9.81057286e-02
      1.00106940e-01 -1.76901534e-01 0. 0. 0. 0. -2.57012360e-02
      -2.51886174e-02 -5.55429980e-03 2.22027972e-01 6.84171841e-02 0.
      0. 0. 0. -1.99901342e-01 -5.63516244e-02 -1.37646124e-01
      -6.79301322e-02 8.79549682e-02 0. 0. 0. 0. -1.40811041e-01
      -9.63687822e-02 -1.29842877e-01 -1.96253747e-01 -6.00114875e-02 0.
      0. 0. 0. -1.30152389e-01 -9.40375123e-03 -1.76614881e-01
      2.02837363e-01 7.13279052e-03 0. 0. 0. 0. -6.68914765e-02
      -2.55684227e-01 -3.06830436e-01 -1.52867466e-01 1.60090536e-01 0.
      0. 0. 0. -8.07128549e-02 -7.03152418e-02 9.36482549e-02
      -1.54231980e-01 7.06069022e-02 0. 0. 0. 0. 2.68321633e-01
      -2.33124405e-01 4.65183482e-02 -5.22653498e-02 -4.98167649e-02 0.
      0. 0. 0. 3.01747620e-02 -2.26254508e-01 1.08941741e-01
      -1.78149208e-01 1.03538692e-01 0. 0. 0. 0. 4.90810573e-02
      -3.10691237e-01 -2.10884050e-01 -1.03173673e-01 7.03385547e-02 0.
      0. 0. 0. 1.29540876e-01 -1.91878363e-01 2.54637212e-01
      -2.43273820e-03 7.25548044e-02 0. 0. 0. 0. 3.96686718e-02
      -3.97063583e-01 3.63157503e-02 1.69494841e-02 7.97002986e-02 0. 0.
      0. 0. -2.94357259e-02 -2.39137992e-01 2.91195542e-01
      -9.71723422e-02 -4.87504341e-02 0. 0. 0. 0. 8.99429321e-02
      6.62279082e-03 -2.95460410e-02 4.78156023e-02 -1.59153400e-03 0.
      0. 0. 0. 8.12070444e-02 -3.56843323e-01 1.64941326e-01
      5.67250885e-02 -2.09863096e-01 0. 0. 0. 0. -3.35433856e-02
      -7.16065317e-02 -2.38837656e-02 -7.55202174e-02 5.01377881e-02 0.
      0. 0. 0. -5.06726094e-02 -9.10769217e-03 -2.76076853e-01
      1.46088451e-02 -4.52408660e-03 0. 0. 0. 0. -1.37583703e-01
      4.02874053e-02 -1.12746485e-01 -1.81366503e-01 -2.50469930e-02 0.
      0. 0. 0. 7.37758279e-02 -1.13768175e-01 -4.06922311e-01
      -1.19632527e-01 5.74928224e-02 0. 0. 0. 0. 2.76776671e-01
      8.58087912e-02 -9.64913443e-02 -8.34338591e-02 1.47872478e-01 0.
      0. 0. 0. 1.34569854e-01 2.12027356e-02 3.84558104e-02
      -1.64869383e-01 -3.32020730e-01 0. 0. 0. 0. -2.24723503e-01
      -7.29692355e-02 -1.08784534e-01 -2.67325491e-02 -1.30230218e-01 0.
      0. 0. 0. 2.01225560e-02 7.02203810e-02 -2.26869240e-01
      -1.16830871e-01 -1.02649234e-01 0. 0. 0. 0. 1.39625715e-02
      -9.35443565e-02 3.06828618e-01 -5.08783981e-02 -3.65560800e-02 0.
      0. 0. 0. -8.69627893e-02 -7.29877909e-04 -3.25213075e-01
      -1.06121145e-01 1.36527017e-01 0. 0. 0. 0. -5.65458685e-02
      -3.52008641e-02 -1.49712235e-01 -3.84990498e-02 2.42831577e-02 0.
      0. 0. 0. -5.06425910e-02 -1.01807393e-01 -7.01790154e-02
      -2.89431307e-02 -4.25675809e-02 0. 0. 0. 0. -1.19841538e-01
      -2.40908712e-02 -2.06158496e-02 -1.42191902e-01 1.45852137e-02 0.
      0. 0. 0. -1.85960233e-01 -2.50896048e-02 2.23786756e-01
      -3.78317907e-02 5.46137467e-02 0. 0. 0. 0. -6.14662506e-02
      -4.89322618e-02 -1.61246568e-01 -8.80879685e-02 -2.75988609e-01 0.
      0. 0. 0. 1.28843002e-02 -2.46546362e-02 -1.79513186e-01
      3.49415801e-02 -2.24106908e-01 0. 0. 0. 0. 2.13314816e-01
      -7.76326507e-02 1.31792024e-01 -3.17500710e-01 -1.12342685e-01 0.
      0. 0. 0. 2.26047989e-02 -7.38275051e-02 -1.09429829e-01
      -1.46859139e-01 7.87693262e-02 0. 0. 0. 0. 2.73041781e-02
      -1.77411690e-01 -3.05459112e-01 1.83754209e-02 4.21297029e-02 0.
      0. 0. 0. 1.73372835e-01 -9.50634181e-02 1.89212158e-01
      -2.63955981e-01 5.77889942e-02 0. 0. 0. 0. 1.36321068e-01
      6.29201457e-02 -3.30151945e-01 2.52178609e-02 -1.99015569e-02 0.
      0. 0. 0. -8.77364352e-02 -1.79999545e-01 -4.12063189e-02
      -5.40009737e-02 1.52386762e-02 0. 0. 0. 0. 1.57108113e-01
      -4.32188630e-01 -3.36246677e-02 3.25472876e-02 -2.26802435e-02 0.
      0. 0. 0. 1.84988141e-01 7.03781098e-02 -1.50988698e-01
      1.97664946e-02 -1.64774343e-01 0. 0. 0. 0. 4.21966910e-01
      5.07813096e-02 -2.64728963e-01 -8.18750411e-02 5.99917881e-02 0.
      0. 0. 0. -2.32825503e-01 -3.51529658e-01 1.89420655e-01
      4.97959405e-02 -2.66403049e-01 0. 0. 0. 0. -2.50089616e-01
      -1.46390349e-01 2.10386157e-01 -8.09530988e-02 1.01030730e-01 0.
      0. 0. 0. -1.14164844e-01 7.33640939e-02 -7.47969523e-02
      -7.06687048e-02 5.23813851e-02 0. 0. 0. 0. 2.04911813e-01
      1.37036736e-03 1.56628504e-01 1.05849328e-02 -1.16845369e-01 0. 0.
      0. 0. -1.79165974e-01 -1.13702841e-01 1.93703473e-01
      -9.48544294e-02 -3.35410893e-01 0. 0. 0. 0. -2.31974587e-01
      9.11804959e-02 -2.52409056e-02 -9.27798301e-02 -2.50489032e-03 0.
      0. 0. 0. 1.74396127e-01 3.43688987e-02 -1.69645265e-01
      1.55584412e-02 -3.39825451e-03 0. 0. 0. 0. 7.42403092e-03
      8.90506059e-02 -4.37905490e-02 -1.93689957e-01 3.32925916e-02 0.
      0. 0. 0. 1.89030636e-02 6.19225241e-02 9.70288217e-02
      -1.33858934e-01 -1.67564735e-01 0. 0. 0. 0. -3.56399536e-01
      -9.80711430e-02 -4.38090980e-01 -3.84024866e-02 -2.60676652e-01 0.
      0. 0. 0. 3.00647225e-02 7.79557452e-02 -1.21920243e-01
      -2.20676944e-01 5.42769209e-02 0. 0. 0. 0. -1.22534677e-01
      1.89142391e-01 -1.33200973e-01 -6.19172417e-02 2.24655509e-01 0.
      0. 0. 0. -1.82894111e-01 -1.05235793e-01 -1.22619703e-01
      -4.05671969e-02 -2.44751990e-01 0. 0. 0. 0. 1.05866082e-01
      -2.03340240e-02 -1.11890823e-01 4.74718139e-02 -2.16695964e-01 0.
      0. 0. 0. -2.08311915e-01 4.95373420e-02 -9.37815905e-02
      5.21521717e-02 -1.00062184e-01 0. 0. 0. 0. 1.82502240e-01
      1.31372631e-01 1.81279361e-01 -2.13602602e-01 3.14304084e-02 0. 0.
      0. 0. -1.07899375e-01 -1.10640591e-02 -4.96924780e-02
      3.21197100e-02 2.60416567e-01 0. 0. 0. 0. -4.85625677e-03
      -6.83903843e-02 -2.04656273e-01 -2.53211528e-01 -1.55142695e-01 0.
      0. 0. 0. -5.77898212e-02 1.17755443e-01 -1.17356136e-01
      -8.94963890e-02 -2.91366153e-03 0. 0. 0. 0. 1.02243118e-01
      2.22134907e-02 4.49324176e-02 -1.56923398e-01 -5.84663749e-02 0.
      0. 0. 0. -5.68490028e-02 -6.59129396e-02 -3.27279270e-01
      -2.79796273e-01 9.25101712e-02 0. 0. 0. 0. 2.96649575e-01
      1.05456233e-01 -3.22165042e-01 2.26226430e-02 -5.42111099e-01 0.
      0. 0. 0. 1.57259375e-01 8.81069712e-03 -1.01181880e-01
      -1.72869101e-01 2.42240131e-01 0. 0. 0. 0. 2.16661826e-01
      -5.00686131e-02 2.91903526e-01 1.91954784e-02 1.00882240e-01 0. 0.
      0. 0. -1.32955626e-01 7.65575916e-02 5.09086587e-02 2.55371397e-03
      9.27997306e-02 0. 0. 0. 0. -4.14965212e-01 5.06929904e-02
      -3.61537725e-01 -6.75335601e-02 -7.89127722e-02 0. 0. 0. 0.
      3.80963176e-01 -4.07690592e-02 -1.37341678e-01 3.13445716e-03
      -4.62718308e-02 0. 0. 0. 0. 2.59938259e-02 7.66143575e-02
      -5.27709052e-02 -5.31100929e-02 -4.73877639e-02 0. 0. 0. 0.
      -5.40474840e-02 6.63250908e-02 1.42537564e-01 -7.75356218e-02
      -2.19682559e-01 0. 0. 0. 0. -1.67760581e-01 1.42460754e-02
      -2.44841486e-01 1.45932650e-02 -2.23300438e-02 0. 0. 0. 0.
      -3.29444483e-02 1.05846442e-01 -5.09864837e-02 -1.87237915e-02
      -1.46349236e-01 0. 0. 0. 0. 1.86086357e-01 1.22147165e-01
      -8.91176686e-02 -1.63019612e-01 -3.77928391e-02 0. 0. 0. 0.
      -2.51343042e-01 3.79342698e-02 4.51652482e-02 -2.34593567e-03
      -4.07626450e-01 0. 0. 0. 0. 1.33600041e-01 8.78960416e-02
      -1.90516133e-02 -1.70536906e-01 2.77320892e-01 0. 0. 0. 0.
      9.95941237e-02 9.35387686e-02 -1.85792178e-01 -1.22060224e-01
      -5.84584810e-02 0. 0. 0. 0. 1.68944642e-01 -6.61280984e-03
      -8.50625411e-02 -5.45303188e-02 -3.56486857e-01 0. 0. 0. 0.
      -3.35264981e-01 9.84298065e-02 -9.30492729e-02 -2.16862246e-01
      -4.34198380e-01 0. 0. 0. 0. 1.70715898e-01 1.82349429e-01
      -2.30741069e-01 -5.93022890e-02 -1.31080300e-01 0. 0. 0. 0.
      1.67905465e-01 -2.94819511e-02 -7.93545786e-03 -5.15760221e-02
      -8.07153583e-02 0. 0. 0. 0. 1.94361299e-01 3.55890356e-02
      1.50205627e-01 3.93895730e-02 1.36678282e-03 0. 0. 0. 0.
      4.01628129e-02 1.27690043e-02 -1.12542517e-01 6.07233606e-02
      -4.10018638e-02 0. 0. 0. 0. 1.64383665e-01 7.14623109e-02
      -4.39267382e-02 -1.30744070e-01 -7.95385391e-02 0. 0. 0. 0.
      -8.42383280e-02 4.72417325e-02 -2.57693946e-01 -5.03298342e-02
      9.09464061e-02 0. 0. 0. 0. 9.75890383e-02 1.94094107e-02
      -1.73031196e-01 -9.24632624e-02 -1.19398363e-01 0. 0. 0. 0.
      -2.93820649e-01 7.12446496e-02 2.82131284e-01 -1.10473581e-01
      1.42867848e-01 0. 0. 0. 0. -2.65745223e-01 -2.28118873e-03
      -1.86746176e-02 -1.92471862e-01 -1.02011673e-01 0. 0. 0. 0.
      -4.20069061e-02 2.63568312e-02 -8.79007950e-02 -5.23799099e-02
      1.97715029e-01 0. 0. 0. 0. -2.02615783e-01 -1.87785134e-01
      1.33861244e-01 -1.85121641e-01 -1.67421356e-01 0. 0. 0. 0.
      6.98158816e-02 -8.99479166e-03 3.35128866e-02 -2.03318596e-01
      -1.55843526e-01 0. 0. 0. 0. 4.14709114e-02 -5.15783466e-02
      -6.32930845e-02 6.94117043e-03 -1.61824226e-01 0. 0. 0. 0.
      1.99175879e-01 -2.18962133e-01 -3.09156757e-02 -1.96527436e-01
      -1.87018942e-02 0. 0. 0. 0. 2.22970665e-01 9.69683528e-02
      -1.12845756e-01 7.03464821e-02 -8.36258903e-02 0. 0. 0. 0.
      -3.77627090e-02 -3.55487168e-02 -1.74563795e-01 -3.67387980e-02
      -1.01159163e-01 0. 0. 0. 0. -1.26818940e-01 1.09977372e-01
      -2.41311014e-01 -4.99612987e-02 -1.48576885e-01 0. 0. 0. 0.
      3.63767326e-01 8.03990513e-02 -9.00833607e-02 2.51088496e-02
      -5.86745851e-02 0. 0. 0. 0. -1.30412027e-01 5.79776131e-02
      1.14468150e-01 -2.60546029e-01 6.24741986e-02 0. 0. 0. 0.
      -1.81307361e-01 1.28128693e-01 4.98512447e-01 -3.04230154e-02
      -1.38130561e-01 0. 0. 0. 0. -1.57455057e-01 1.24017216e-01
      4.06126715e-02 -1.94944099e-01 -1.97862387e-01 0. 0. 0. 0.
      -2.86696881e-01 3.59406210e-02 -1.59991324e-01 -2.23755643e-01
      5.46553507e-02 0. 0. 0. 0. 4.66781743e-02 -1.11859940e-01
      3.91795635e-02 -1.16175018e-01 1.46961629e-01 0. 0. 0. 0.
      4.37411293e-02 8.95373747e-02 -4.94988486e-02 -1.70505926e-01
      -1.67339683e-01 0. 0. 0. 0. -1.03729963e-02 -2.15465482e-02
      -1.78952619e-01 -7.74410218e-02 7.96002299e-02 0. 0. 0. 0.
      8.90195668e-02 -9.16633531e-02 -7.17789903e-02 -1.54283896e-01
      2.06033841e-01 0. 0. 0. 0. -1.78390875e-01 -1.12879194e-01
      6.76136464e-02 -1.10395245e-01 1.35549426e-01 0. 0. 0. 0.
      -4.69746217e-02 -4.00500856e-02 -1.15336729e-02 -8.40223730e-02
      -1.12335384e-01 0. 0. 0. 0. -4.53934297e-02 3.88577767e-02
      -1.26273865e-02 3.07409242e-02 -4.05732304e-01 0. 0. 0. 0.
      -6.85759932e-02 -8.57875273e-02 -2.01384589e-01 -5.46476394e-02
      4.01774198e-02 0. 0. 0. 0. -1.41852990e-01 2.76618525e-02
      5.57689294e-02 -5.55732213e-02 2.87106693e-01 0. 0. 0. 0.
      3.27675968e-01 2.27500666e-02 -1.24406904e-01 -7.89988711e-02
      -7.84155950e-02 0. 0. 0. 0. -1.09837942e-01 -2.15721782e-02
      -1.03162117e-01 -7.66651481e-02 1.60140038e-01 0. 0. 0. 0.
      2.28938103e-01 -4.79598194e-02 -2.50152975e-01 -3.78060229e-02
      -2.12082505e-01 0. 0. 0. 0. -3.56563091e-01 -7.94409513e-02
      -1.45253181e-01 1.01515330e-01 4.09381151e-01 0. 0. 0. 0.
      -1.57435194e-01 6.82786899e-03 3.38397115e-01 -6.53926358e-02
      1.30739152e-01 0. 0. 0. 0. -3.84638235e-02 -2.01470807e-01
      -1.04255863e-01 -2.13006541e-01 -1.55426383e-01 0. 0. 0. 0.
      -5.36014326e-02 -1.04365304e-01 -2.03449488e-01 1.12161331e-01
      3.40498984e-01 0. 0. 0. 0. 1.26282990e-01 1.41917448e-03
      -3.07713240e-01 -1.28800154e-01 -3.32065150e-02 0. 0. 0. 0.
      -2.10904211e-01 -2.00195506e-01 1.01441979e-01 -2.34465554e-01
      -1.01134151e-01 0. 0. 0. 0. -2.31261253e-01 7.98899233e-02
      2.40525290e-01 8.19902346e-02 -4.04105298e-02 0. 0. 0. 0.
      -1.26448438e-01 -6.37678849e-03 6.92530349e-02 -1.52739406e-01
      2.06566393e-01 0. 0. 0. 0. 1.47298453e-02 8.96924511e-02
      -8.97273794e-02 2.61822585e-02 -3.81828278e-01 0. 0. 0. 0.
      -4.96230394e-01 6.99493811e-02 -7.85221681e-02 1.89123712e-02
      -9.22745839e-02 0. 0. 0. 0. 1.54343888e-01 7.34828636e-02
      -1.39803007e-01 -2.16733068e-01 -1.99607223e-01 0. 0. 0. 0.
      9.62054133e-02 7.72938356e-02 -5.21071516e-02 -1.61531963e-04
      2.01817662e-01 0. 0. 0. 0. -8.01683366e-02 3.23485658e-02
      -4.24327031e-02 8.15946013e-02 -1.07118823e-01 0. 0. 0. 0.
      3.82051975e-01 5.88954873e-02 -3.92026789e-02 -2.43561551e-01
      -1.30636543e-01 0. 0. 0. 0. 1.95457086e-01 -1.08514182e-01
      -3.20387125e-01 -1.08600050e-01 -3.76839787e-01 0. 0. 0. 0.
      -1.04055658e-01 3.06474604e-02 -9.52039659e-02 7.43615031e-02
      2.15372309e-01 0. 0. 0. 0. -1.18312448e-01 -4.56549488e-02
      -1.31887257e-01 -1.73368707e-01 -1.37507141e-01 0. 0. 0. 0.
      -1.78764224e-01 -8.88360515e-02 5.36158727e-03 -1.70399144e-01
      -2.91463554e-01 0. 0. 0. 0. 1.08325943e-01 -1.21522583e-01
      2.03371271e-01 -1.20817438e-01 3.90094668e-02 0. 0. 0. 0.
      6.75771013e-02 -6.22608811e-02 -1.91314235e-01 -1.80458501e-01
      1.16896182e-01 0. 0. 0. 0. -1.02561237e-02 -4.96838689e-02
      -1.70836031e-01 2.11243238e-02 2.37225324e-01 0. 0. 0. 0.
      1.25118509e-01 -1.52062654e-01 -5.87756969e-02 -1.29789084e-01
      -2.96597511e-01 0. 0. 0. 0. -1.44610301e-01 3.31197046e-02
      -2.00070783e-01 -6.92451149e-02 -3.45027864e-01 0. 0. 0. 0.
      -3.31923991e-01 -1.80323701e-02 1.71533138e-01 2.52338536e-02
      -3.27117182e-02 0. 0. 0. 0. 2.15963572e-01 -1.45762935e-02
      1.01962052e-01 9.50484425e-02 -2.22520493e-02 0. 0. 0. 0.
      -3.04445237e-01 -5.25661930e-02 5.78640439e-02 -5.39679378e-02
      -2.01502725e-01 0. 0. 0. 0. -1.03058316e-01 -7.59329870e-02
      -8.84026140e-02 1.00319833e-01 -2.14346260e-01 0. 0. 0. 0.
      1.41559690e-01 1.03696130e-01 -3.01994056e-01 -5.81593104e-02
      -1.84409786e-02 0. 0. 0. 0. 1.85580269e-01 1.71677757e-03
      9.05487761e-02 1.51528016e-01 -1.27378851e-01 0. 0. 0. 0.
      -5.55444881e-02 -9.56370011e-02 1.66183755e-01 1.05997577e-01
      -2.23888025e-01 0. 0. 0. 0. 6.10954426e-02 -8.12929031e-03
      -7.67260492e-02 -1.32195994e-01 -1.09594837e-01 0. 0. 0. 0.
      1.65027142e-01 -1.02993920e-02 1.06317110e-01 1.05541080e-01
      6.65085241e-02 0. 0. 0. 0. -3.67321144e-03 -7.39931688e-02
      -1.16827376e-01 -1.75647542e-01 -1.98021680e-01 0. 0. 0. 0.
      3.56584489e-02 -1.97019298e-02 3.37969840e-01 -1.52233809e-01
      -1.76923543e-01 0. 0. 0. 0. 4.14586999e-02 1.02103002e-01
      -2.20991999e-01 1.92358438e-02 -1.99646667e-01 0. 0. 0. 0.
      -3.70342255e-01 -7.18812868e-02 2.61213124e-01 -1.91362441e-01
      1.08004473e-01 0. 0. 0. 0. 1.63134690e-02 6.08575046e-02
      2.21479580e-01 -1.69554323e-01 2.35807449e-01 0. 0. 0. 0.
      -4.30607647e-01 1.02266759e-01 1.16076544e-01 -3.75921401e-04
      1.97556689e-02 0. 0. 0. 0. -4.60543670e-03 5.20350747e-02
      1.49278268e-01 1.13681830e-01 -4.58769724e-02 0. 0. 0. 0.
      2.55940527e-01 6.99289218e-02 -2.55859882e-01 -2.09407702e-01
      -1.73687637e-02 0. 0. 0. 0. -1.42685145e-01 2.79021338e-02
      -2.62222700e-02 -1.64479315e-02 5.95657788e-02 0. 0. 0. 0.
      -3.15071881e-01 3.67373563e-02 9.63020418e-03 8.86027142e-02
      -3.03814909e-03 0. 0. 0. 0. -6.15798794e-02 -3.17181535e-02
      1.96766824e-01 -1.61990628e-01 -2.57883012e-01 0. 0. 0. 0.
      -1.24445960e-01 3.09359003e-03 -7.26928189e-02 -4.84971739e-02
      3.37540597e-01 0. 0. 0. 0. -2.45828647e-02 3.81007865e-02
      2.27969829e-02 -1.03422001e-01 5.48925102e-02 0. 0. 0. 0.
      -4.00931448e-01 -8.69259015e-02 4.30776700e-02 -1.95768192e-01
      -1.95314139e-01 0. 0. 0. 0. -1.70351937e-01 -5.31714149e-02
      -2.19175249e-01 -1.69572141e-02 4.71462272e-02 0. 0. 0. 0.
      -1.39300451e-01 -1.01100029e-02 -6.11531511e-02 -1.09991096e-01
      8.93563181e-02 0. 0. 0. 0. 2.71708220e-01 -8.09594467e-02
      3.42890978e-01 1.74534577e-03 1.73358589e-01 0. 0. 0. 0.
      -7.34944493e-02 -9.53362137e-02 3.49341333e-01 -3.03223040e-02
      -2.12022990e-01 0. 0. 0. 0. -3.88428457e-02 -6.35651350e-02
      -1.98918477e-01 9.01367143e-02 1.07616380e-01 0. 0. 0. 0.
      -2.90067792e-01 -1.08458333e-01 -2.53845572e-01 1.05202440e-02
      -9.90180820e-02 0. 0. 0. 0. -4.87428298e-03 -1.16267405e-01
      1.74393013e-01 -6.77307621e-02 5.03909528e-01 0. 0. 0. 0.
      -2.21678883e-01 8.25819522e-02 2.34712452e-01 -9.13875625e-02
      1.32241189e-01 0. 0. 0. 0. 1.20984524e-01 -1.21477284e-02
      -2.04285607e-01 1.46506637e-01 -9.02629122e-02 0. 0. 0. 0.
      -3.90294194e-02 -8.20605531e-02 -7.22364262e-02 -1.46509081e-01
      1.88316908e-02 0. 0. 0. 0. -2.68326938e-01 -6.69126734e-02
      -1.84316165e-03 5.59484307e-03 -3.10639217e-02 0. 0. 0. 0.
      -4.16529000e-01 5.47867408e-03 2.30738729e-01 1.19855881e-01
      -3.64095680e-02 0. 0. 0. 0. -4.49334607e-02 -4.38437052e-02
      -1.34645060e-01 -1.70093641e-01 7.17580318e-02 0. 0. 0. 0.
      2.18755137e-02 -5.10626659e-02 -1.24658242e-01 -2.01602615e-02
      -6.50930852e-02 0. 0. 0. 0. -3.19725201e-02 -9.11015347e-02
      6.26226440e-02 -2.11396441e-01 9.18445960e-02 0. 0. 0. 0.
      -3.86631750e-02 -4.72420938e-02 2.92608887e-01 -1.76630780e-01
      -7.20909536e-02 0. 0. 0. 0. -2.62528539e-01 9.75323990e-02
      -8.00870582e-02 -1.81665778e-01 5.65915257e-02 0. 0. 0. 0.
      -8.00695792e-02 -9.61365849e-02 -5.79627156e-02 -1.62303671e-01
      1.73226327e-01 0. 0. 0. 0. 4.40325588e-02 5.26202358e-02
      -1.17346875e-01 -1.44135416e-01 1.13382235e-01 0. 0. 0. 0.
      -2.53503889e-01 1.03798561e-01 2.19357684e-01 -2.04180121e-01
      3.31783056e-01 0. 0. 0. 0. 1.47130355e-01 4.72632535e-02
      2.49144256e-01 1.11568430e-02 9.54587832e-02 0. 0. 0. 0.
      -2.75993168e-01 4.54640724e-02 -2.19217390e-01 -1.73928171e-01
      4.59516235e-02 0. 0. 0. 0. -2.48453364e-01 6.16390556e-02
      -7.47481640e-03 -3.47920716e-01 1.99959166e-02 0. 0. 0. 0.
      -4.42673750e-02 2.02087387e-02 1.07629143e-01 -2.16501411e-02
      -3.44214365e-02 0. 0. 0. 0. -9.45947915e-02 5.05401976e-02
      1.12609193e-01 -9.26911384e-02 -4.94816065e-01 0. 0. 0. 0.
      -8.58278573e-02 3.98725830e-02 -1.52159780e-01 -3.07288587e-01
      6.73892274e-02 0. 0. 0. 0. 1.44902200e-01 -6.82550250e-04
      -2.09816936e-02 1.51285448e-03 4.73668277e-02 0. 0. 0. 0.
      -2.52753884e-01 1.45226093e-02 -4.05888334e-02 -5.74630722e-02
      -2.19792843e-01 0. 0. 0. 0. 1.91765666e-01 -7.76747093e-02
      -3.44790727e-01 6.10839459e-04 1.72786191e-01 0. 0. 0. 0.
      9.55718234e-02 -3.20117921e-02 8.81156325e-02 3.14142630e-02
      6.04831688e-02 0. 0. 0. 0. -4.88958061e-01 -6.46103844e-02
      -1.26945570e-01 -2.65610870e-03 2.09677070e-01 0. 0. 0. 0.
      -2.22591788e-01 -8.43882710e-02 -2.15883434e-01 -1.10847130e-02
      7.03696758e-02 0. 0. 0. 0. -3.22068520e-02 -1.08222783e-01
      -9.57525820e-02 -8.09969157e-02 2.72235304e-01 0. 0. 0. 0.
      1.72460690e-01 -1.01453893e-01 -3.46592903e-01 -3.52527052e-02
      -3.16533178e-01 0. 0. 0. 0. 1.95375476e-02 -2.04584301e-02
      2.03499258e-01 -2.17036866e-02 -9.29874331e-02 0. 0. 0. 0.
      4.93538240e-03 -7.48454854e-02 -3.93729433e-02 -1.54856056e-01
      -2.17093065e-01 0. 0. 0. 0. -1.16175778e-01 -9.39097852e-02
      -1.37578592e-01 2.56580813e-03 -1.69370666e-01 0. 0. 0. 0.
      1.69069231e-01 -3.27606313e-02 -1.58856824e-01 6.33059070e-03
      1.83067724e-01 0. 0. 0. 0. 1.44541442e-01 9.22888890e-02
      5.91125712e-03 -1.89394861e-01 -2.76939988e-01 0. 0. 0. 0.
      -6.69694096e-02 -4.90741283e-02 1.99553400e-01 -2.40395106e-02
      -2.05617212e-02 0. 0. 0. 0. 3.37305754e-01 -6.39197454e-02
      -2.17955887e-01 -2.20165715e-01 -5.06853819e-01 0. 0. 0. 0.
      4.22966965e-02 1.41825661e-01 7.01855272e-02 -1.99155718e-01
      2.28768468e-01 0. 0. 0. 0. -9.00792778e-02 -3.72078680e-02
      -4.59482856e-02 -2.07064554e-01 -7.88554698e-02 0. 0. 0. 0.
      -2.90631950e-01 -4.13988754e-02 8.44977796e-02 -1.64286703e-01
      -2.94786468e-02 0. 0. 0. 0. 2.33520076e-01 7.35030770e-02
      -2.30246246e-01 -1.22181110e-01 -6.60029203e-02 0. 0. 0. 0.
      -8.33159983e-02 -1.65756401e-02 -1.32263675e-02 -1.49129152e-01
      -2.44033352e-01 0. 0. 0. 0. 1.00939237e-02 -1.82109341e-01
      9.21253115e-03 -2.81039596e-01 2.46912211e-01 0. 0. 0. 0.
      -2.87321597e-01 8.57970119e-02 7.66577423e-02 -1.50798291e-01
      2.65317447e-02 0. 0. 0. 0. -1.53158844e-01 5.55038899e-02
      8.93196613e-02 -2.86250085e-01 -2.70285845e-01 0. 0. 0. 0.
      -8.30104202e-02 -1.80625588e-01 -5.70908859e-02 -2.77421772e-01
      2.40030408e-01 0. 0. 0. 0. -2.33124066e-02 -8.25570524e-02
      3.61193448e-01 -2.83320189e-01 9.26724225e-02 0. 0. 0. 0.
      -3.91144827e-02 4.97371964e-02 2.08912715e-02 -2.89568037e-01
      -5.56669414e-01 0. 0. 0. 0. 3.34428757e-01 7.36555681e-02
      -1.85670003e-01 -1.42102074e-02 -9.71199274e-02 0. 0. 0. 0.
      1.34875141e-02 -1.00603223e-01 -4.42230105e-02 -3.17234099e-01
      -1.09959729e-01 0. 0. 0. 0. -1.04135625e-01 3.09490617e-02
      2.23434880e-01 -7.07035065e-02 -2.94338018e-01 0. 0. 0. 0.
      -1.82922572e-01 4.91363183e-02 1.51797399e-01 -2.88343225e-02
      -1.15671255e-01 0. 0. 0. 0. -5.93947805e-02 -1.04028238e-02
      -2.41224796e-01 -4.38434854e-02 -2.26030737e-01 0. 0. 0. 0.
      2.20844112e-02 2.58559156e-02 -2.55337059e-01 -8.65814462e-02
      -1.74934909e-01 0. 0. 0. 0. -2.70678522e-03 -2.27715238e-03
      -2.15522423e-01 -3.66286896e-02 -5.63779920e-02 0. 0. 0. 0.
      -1.72992647e-01 -6.45980388e-02 9.26648751e-02 -4.17752601e-02
      -2.68442929e-01 0. 0. 0. 0. 7.75394542e-03 -1.91054512e-02
      -2.49132082e-01 -1.47646461e-02 -1.86196551e-01 0. 0. 0. 0.
      -1.57889739e-01 -4.97400127e-02 1.71723217e-01 -6.67559505e-02
      -4.13809866e-01 0. 0. 0. 0. -2.71782041e-01 3.23538855e-02
      1.55746922e-01 5.05813435e-02 -4.01273109e-02 0. 0. 0. 0.
      -4.07020226e-02 -5.57300076e-03 3.87079306e-02 -6.89258613e-03
      -5.47797084e-02 0. 0. 0. 0. 7.26329088e-02 1.43812105e-01
      -1.05490848e-01 -2.45039582e-01 -2.27623418e-01 0. 0. 0. 0.
      1.92032740e-01 -2.18117252e-01 -2.67243624e-01 6.36873692e-02
      1.01096600e-01 0. 0. 0. 0. -2.29140110e-02 -8.34434479e-02
      -1.29979372e-01 -5.46710826e-02 -2.14499310e-01 0. 0. 0. 0.
      -2.31153876e-01 1.58002362e-01 1.00029312e-01 -2.43256465e-01
      1.79484174e-01 0. 0. 0. 0. -1.43899262e-01 -4.50668409e-02
      -2.99218744e-01 -2.37298995e-01 1.43035248e-01 0. 0. 0. 0.
      -6.07770756e-02 -6.85542449e-02 -1.37365431e-01 -2.70603411e-02
      2.04335481e-01 0. 0. 0. 0. -1.34393767e-01 -2.47808546e-01
      -1.53330207e-01 7.99074546e-02 4.21034656e-02 0. 0. 0. 0.
      1.48488298e-01 -3.06878760e-02 1.23072945e-01 -1.76052377e-01
      -2.42595345e-01 0. 0. 0. 0. -2.67229527e-02 -1.85321644e-01
      -9.09606889e-02 -2.98568159e-01 1.05856627e-01 0. 0. 0. 0.
      3.13211977e-02 -2.49034822e-01 -6.48836866e-02 1.01096287e-01
      -3.60130891e-02 0. 0. 0. 0. -5.78399375e-02 -2.69025564e-01
      -1.50136292e-01 -1.05189756e-01 2.77508855e-01 0. 0. 0. 0.
      -1.74710318e-01 -1.78140819e-01 -1.11953124e-01 -2.89934576e-01
      -6.09495863e-02 0. 0. 0. 0. 5.69421127e-02 -4.96726520e-02
      -3.18194740e-02 -2.94270456e-01 1.01575047e-01 0. 0. 0. 0.
      4.22136076e-02 -2.50000596e-01 1.58786811e-02 -8.02771300e-02
      5.87862395e-02 0. 0. 0. 0. 1.16086178e-01 -2.90565223e-01
      4.85809296e-02 -9.64739546e-02 -5.64730167e-02 0. 0. 0. 0.
      1.83971412e-02 -6.17558882e-02 -3.32363814e-01 -3.62035424e-01
      -5.40877640e-01 0. 0. 0. 0. 3.28143016e-02 3.05389520e-02
      -2.75778696e-02 -8.05396289e-02 -6.50829896e-02 0. 0. 0. 0.
      9.08195525e-02 -2.82620758e-01 -3.11942901e-02 -1.17725834e-01
      -1.62667096e-01 0. 0. 0. 0. 1.32285029e-01 -5.51252700e-02
      7.25147203e-02 -7.34165907e-02 2.07754254e-01 0. 0. 0. 0.
      -1.31577298e-01 3.88290510e-02 -2.90170074e-01 -9.35430527e-02
      -1.31610796e-01 0. 0. 0. 0. 9.61137656e-03 2.37055542e-03
      -4.35143650e-01 -6.59566149e-02 7.13770688e-02 0. 0. 0. 0.
      -1.56997770e-01 -3.71484235e-02 -1.29063696e-01 -6.85173199e-02
      2.01530308e-02 0. 0. 0. 0. -1.59270328e-03 -9.45477560e-02
      -1.34432331e-01 -4.88094427e-02 2.94618253e-02 0. 0. 0. 0.
      -2.20219195e-01 -2.72464827e-02 7.03392997e-02 -1.05194949e-01
      4.64283898e-02 0. 0. 0. 0. 1.35060519e-01 7.69450516e-02
      -7.72313252e-02 5.01915999e-02 1.59261636e-02 0. 0. 0. 0.
      -3.74093473e-01 -1.32031322e-01 -3.76615345e-01 -6.61235154e-02
      -5.31397223e-01 0. 0. 0. 0. -1.00518040e-01 1.43718729e-02
      3.37620974e-01 5.59959598e-02 -3.83670814e-02 0. 0. 0. 0.
      -1.70497552e-01 -2.52217650e-01 1.60062194e-01 2.28228625e-02
      -3.42720479e-01 0. 0. 0. 0. -2.46140212e-02 -1.14004157e-01
      -3.74212004e-02 -9.33168530e-02 -8.72126520e-02 0. 0. 0. 0.
      6.84549706e-03 -7.06832111e-02 -1.93236068e-01 -4.14767452e-02
      -3.31003405e-02 0. 0. 0. 0. 2.59662475e-02 -1.11681126e-01
      5.76318987e-02 1.92176756e-02 -2.91906774e-01 0. 0. 0. 0.
      -3.92869078e-02 -1.00806236e-01 2.04411030e-01 -7.27640912e-02
      -3.10692549e-01 0. 0. 0. 0. -2.30121668e-02 -2.52084464e-01
      -6.82433043e-03 4.48056608e-02 1.21718153e-01 0. 0. 0. 0.
      -1.03375107e-01 -9.78785008e-02 -4.15942371e-01 5.01933172e-02
      -1.41444253e-02 0. 0. 0. 0. -1.73238024e-01 -7.86469057e-02
      -4.15132269e-02 1.13152720e-01 1.84110906e-02 0. 0. 0. 0.
      -2.38101244e-01 -2.36723617e-01 3.43989223e-01 8.82633328e-02
      -4.17849988e-01 0. 0. 0. 0. -1.26104474e-01 -2.84087867e-01
      -2.06168611e-02 -1.14623189e-01 3.00815552e-01 0. 0. 0. 0.
      -2.75146186e-01 -5.93223684e-02 1.28832489e-01 1.15993164e-01
      1.17213078e-01 0. 0. 0. 0. -9.62678716e-02 -3.96772511e-02
      -6.86539561e-02 -4.59670350e-02 -2.40078997e-02 0. 0. 0. 0.
      -5.39454281e-01 -2.66240448e-01 1.09246537e-01 -8.08908343e-02
      -1.99001998e-01 0. 0. 0. 0. -7.26496801e-02 -2.73130238e-01
      -1.12009957e-01 -9.30283666e-02 -3.47668417e-02 0. 0. 0. 0.
      4.70253736e-01 -2.99320258e-02 5.37664108e-02 -2.02011019e-02
      -8.10962617e-02 0. 0. 0. 0. 1.72999769e-01 -6.94567189e-02
      -4.29465175e-02 3.93391699e-02 1.61219135e-01 0. 0. 0. 0.
      -5.48967831e-02 -2.59627730e-01 -1.85094681e-02 -1.14521436e-01
      -8.76086354e-02 0. 0. 0. 0. 2.41637319e-01 1.99809652e-02
      -1.99030042e-01 -9.52759311e-02 -2.45235920e-01 0. 0. 0. 0.
      -3.06876093e-01 -7.15646073e-02 -2.61536092e-01 3.59034352e-02
      -1.61018199e-03 0. 0. 0. 0. 2.43120074e-01 -1.39631063e-03
      4.08972763e-02 -4.36394922e-02 9.63160619e-02 0. 0. 0. 0.
      -2.04231694e-01 -5.96242677e-03 -8.56733695e-02 -8.32974911e-02
      -7.89784789e-02 0. 0. 0. 0. 1.28421485e-01 -8.67869258e-02
      4.21247911e-03 -2.97881998e-02 2.52144814e-01 0. 0. 0. 0.
      -6.87918887e-02 -3.85894254e-02 1.15539245e-02 -6.08802810e-02
      -3.58701319e-01 0. 0. 0. 0. -1.18936710e-01 -1.16689593e-01
      -1.80043980e-01 1.57965962e-02 1.94392547e-01 0. 0. 0. 0.
      2.25646924e-02 -1.15640186e-01 3.40002507e-01 -3.13208736e-02
      1.10297883e-02 0. 0. 0. 0. -2.38184899e-01 3.15271579e-02
      -1.17850423e-01 5.36556654e-02 -4.59789075e-02 0. 0. 0. 0.
      -1.87049493e-01 -1.09189868e-01 -1.74323991e-01 1.20283784e-02
      -4.18624729e-01 0. 0. 0. 0. 4.40979898e-01 -1.14585660e-01
      -2.01827571e-01 2.16292143e-01 -9.79001224e-02 0. 0. 0. 0.
      -4.57892299e-01 -1.57784428e-02 -1.13673478e-01 -3.24415267e-02
      5.14496453e-02 0. 0. 0. 0. -4.24085855e-02 -1.14327848e-01
      -2.18413681e-01 2.75472570e-02 -2.42371112e-01 0. 0. 0. 0.
      -1.65861502e-01 -2.22303644e-02 -2.44774178e-01 9.49609950e-02
      2.90213913e-01 0. 0. 0. 0. 8.53354391e-03 3.92405596e-03
      2.06557021e-01 1.17511615e-01 -1.40598752e-02 0. 0. 0. 0.
      8.57738107e-02 -9.00128484e-02 -1.06066383e-01 5.58174662e-02
      -1.40460268e-01 0. 0. 0. 0. 7.81435817e-02 -9.82525870e-02
      -5.03108501e-01 1.17628582e-01 -9.85683650e-02 0. 0. 0. 0.
      1.66829050e-01 -1.16765741e-02 -1.22663490e-01 1.28213003e-01
      -6.86089098e-02 0. 0. 0. 0. 1.34825096e-01 -1.27163127e-01
      -2.99274802e-01 1.36169329e-01 -1.49217144e-01 0. 0. 0. 0.
      1.45288259e-01 -9.52185392e-02 1.36314601e-01 1.07313320e-01
      -5.91029376e-02 0. 0. 0. 0. 8.58400166e-02 -5.76183349e-02
      1.93548232e-01 -4.47714925e-02 -3.62098292e-02 0. 0. 0. 0.
      -3.65250587e-01 -1.19317964e-01 -1.81058630e-01 1.45419195e-01
      -2.91204989e-01 0. 0. 0. 0. -2.68535882e-01 -1.55221820e-01
      -3.83305848e-02 6.68658018e-02 -1.81763455e-01 0. 0. 0. 0.
      -4.51618195e-01 -1.84695125e-02 2.92746454e-01 -4.69432808e-02
      -6.35615271e-03 0. 0. 0. 0. 1.12313144e-02 -7.37780705e-02
      -1.59749519e-02 1.67018212e-02 -1.29429668e-01 0. 0. 0. 0.
      9.10822004e-02 -1.33141980e-01 -4.34161782e-01 7.72232637e-02
      -2.15536892e-01 0. 0. 0. 0. 1.66209191e-01 -8.18851292e-02
      1.77677974e-01 -5.19728810e-02 2.88428009e-01 0. 0. 0. 0.
      1.50089219e-01 -1.01334348e-01 5.93457110e-02 -4.67243465e-03
      -3.06776464e-01 0. 0. 0. 0. 2.97098868e-02 5.60949231e-03
      -2.22610191e-01 -8.97252336e-02 -4.80026826e-02 0. 0. 0. 0.
      -1.05571449e-02 -1.24607973e-01 5.09880832e-04 -3.90055105e-02
      -1.91337571e-01 0. 0. 0. 0. 1.70230865e-02 1.95510574e-02
      -9.47642326e-02 7.03225583e-02 1.94253221e-01 0. 0. 0. 0.
      -3.80731702e-01 -3.06138918e-02 -1.20504722e-01 -8.92534778e-02
      -2.51139462e-01 0. 0. 0. 0. 1.94223657e-01 -1.33687124e-01
      -3.55587244e-01 5.70970215e-02 2.28209674e-01 0. 0. 0. 0.
      -1.46201387e-01 8.71863030e-03 -8.41717049e-02 7.43966997e-02
      9.90497693e-02 0. 0. 0. 0. -3.18660997e-02 -7.48238415e-02
      -1.60039276e-01 -8.41443148e-03 -7.32542649e-02 0. 0. 0. 0.
      4.80702147e-02 -9.68826190e-02 3.02378327e-01 4.52483632e-02
      -1.82474762e-01 0. 0. 0. 0. -5.20485878e-01 -1.29330456e-01
      1.62973002e-01 2.29673266e-01 2.83701539e-01 0. 0. 0. 0.
      1.90053865e-01 -4.56908233e-02 -8.62677842e-02 1.22795841e-02
      -2.07334742e-01 0. 0. 0. 0. -2.53991246e-01 -4.43273857e-02
      -1.38782457e-01 5.56944683e-02 1.26291156e-01 0. 0. 0. 0.
      -4.32972461e-02 -3.37922871e-02 5.57869598e-02 8.76268670e-02
      1.23961240e-01 0. 0. 0. 0. -4.52188224e-01 -9.43393484e-02
      -2.81330705e-01 9.68388170e-02 8.67778510e-02 0. 0. 0. 0.
      -4.41514738e-02 -2.58176066e-02 3.37333858e-01 1.55050129e-01
      2.23844677e-01 0. 0. 0. 0. -3.79024968e-02 -3.68298759e-04
      1.39226943e-01 4.34659272e-02 -7.15059042e-02 0. 0. 0. 0.
      3.96491475e-02 -6.94550425e-02 2.28693455e-01 1.08651415e-01
      -1.04533896e-01 0. 0. 0. 0. -3.28409895e-02 -2.05487758e-01
      -3.18621635e-01 1.16707377e-01 -8.18032846e-02 0. 0. 0. 0.
      -1.14250138e-01 3.20556462e-02 9.87704471e-03 4.23569120e-02
      -1.51361585e-01 0. 0. 0. 0. -3.00220191e-01 -1.13346346e-01
      -9.60107334e-03 1.96506515e-01 2.54333287e-01 0. 0. 0. 0.
      -2.74565160e-01 -1.91163763e-01 6.62792400e-02 1.26502648e-01
      3.49470854e-01 0. 0. 0. 0. 3.04541960e-02 -1.87678352e-01
      -5.05599916e-01 4.80533391e-02 2.30682731e-01 0. 0. 0. 0.
      3.30775470e-01 -1.15145311e-01 -2.75473148e-01 2.03280672e-01
      -1.59597218e-01 0. 0. 0. 0. 6.17156960e-02 -1.34000152e-01
      -2.49323249e-02 1.33908480e-01 -2.96849400e-01 0. 0. 0. 0.
      -1.42417848e-01 -1.79985210e-01 -3.77609283e-02 4.84573282e-02
      -1.46732777e-01 0. 0. 0. 0. 8.04105923e-02 -1.16163708e-01
      -2.16486230e-01 -7.57558718e-02 8.88763070e-02 0. 0. 0. 0.
      -1.77842811e-01 -6.82466552e-02 1.02762446e-01 1.52145892e-01
      -1.85051695e-01 0. 0. 0. 0. 1.87355876e-01 -3.44472043e-02
      -9.83310342e-02 1.13400526e-01 -8.79631415e-02 0. 0. 0. 0.
      -2.10797787e-02 -1.54053003e-01 -2.55778879e-02 -7.08508044e-02
      -2.49864116e-01 0. 0. 0. 0. -1.31638393e-01 -2.18587890e-02
      -2.14752719e-01 4.22507934e-02 -1.13333464e-01 0. 0. 0. 0.
      2.65284870e-02 -3.59729938e-02 6.11189269e-02 1.00532159e-01
      -1.87150642e-01 0. 0. 0. 0. -9.03424248e-02 -6.64753616e-02
      2.73657590e-01 7.84328803e-02 -4.12801057e-02 0. 0. 0. 0.
      -7.18381628e-02 -2.09909715e-02 -3.27118397e-01 5.73143698e-02
      -6.84740692e-02 0. 0. 0. 0. -2.04737887e-01 -9.52230841e-02
      -3.28237832e-01 -2.13559754e-02 7.40727931e-02 0. 0. 0. 0.
      -7.35465437e-02 -6.83684796e-02 -2.52964258e-01 6.61189035e-02
      -4.45400402e-02 0. 0. 0. 0. 1.12862222e-01 -9.66049135e-02
      1.04842849e-01 1.69885993e-01 1.73032850e-01 0. 0. 0. 0.
      -2.30861291e-01 -6.10795878e-02 -6.64755255e-02 -2.03395803e-02
      9.25675500e-03 0. 0. 0. 0. 6.73953295e-02 -6.04111739e-02
      -3.61599699e-02 9.90781859e-02 1.43589064e-01 0. 0. 0. 0.
      -1.81062415e-01 -8.36437717e-02 -1.76916301e-01 1.95954815e-01
      -1.04977265e-01 0. 0. 0. 0. -1.37578836e-02 -6.18284345e-02
      2.91387409e-01 -2.55155866e-03 2.26472676e-01</_></support_vectors>
  <decision_functions>
    <_>
      <sv_count>1</sv_count>
      <rho>-4.3745944376959276e+00</rho>
      <alpha>
        1.</alpha>
      <index>
        0</index></_></decision_functions></my_svm>
</opencv_storage>
