<?xml version="1.0"?>
<opencv_storage>
<my_svm type_id="opencv-ml-svm">
  <svm_type>C_SVC</svm_type>
  <kernel><type>LINEAR</type></kernel>
  <C>2.6699999999999999e+00</C>
  <term_criteria><epsilon>1.1920928955078125e-07</epsilon>
    <iterations>1000</iterations></term_criteria>
  <var_all>3780</var_all>
  <var_count>3780</var_count>
  <class_count>2</class_count>
  <class_labels type_id="opencv-matrix">
    <rows>1</rows>
    <cols>2</cols>
    <dt>i</dt>
    <data>
      -1 1</data></class_labels>
  <sv_total>1</sv_total>
  <support_vectors>
    <_>
      0. 0. 0. 0. 1.16332591e-01 2.13771891e-02 4.40885797e-02
      5.98130412e-02 -2.76492715e-01 0. 0. 0. 0. 1.39918663e-02
      5.85742816e-02 -8.31063464e-02 -9.90168974e-02 -1.07954301e-01 0.
      0. 0. 0. -7.32740760e-02 3.06992680e-02 4.03560214e-02
      -5.48134595e-02 -1.07187293e-01 0. 0. 0. 0. -2.29360405e-02
      -5.90998381e-02 -5.15194051e-02 -1.71001945e-02 -2.52491444e-01 0.
      0. 0. 0. 2.15415701e-01 4.01964113e-02 1.80721864e-01
      -1.15363359e-01 -1.24756187e-01 0. 0. 0. 0. -1.31256878e-01
      1.62274856e-02 -2.12071821e-01 -2.03389525e-01 9.27712843e-02 0.
      0. 0. 0. -1.36369735e-01 -4.16835919e-02 -1.47481225e-02
      -7.73996720e-03 2.75250256e-01 0. 0. 0. 0. -2.25656122e-01
      6.52887300e-02 1.11605845e-01 7.70543367e-02 8.62951055e-02 0. 0.
      0. 0. 4.85305488e-02 8.11209716e-03 -4.54689655e-03
      -1.95990652e-01 -2.24285815e-02 0. 0. 0. 0. 8.38209614e-02
      1.00770488e-01 -2.69389488e-02 7.23690838e-02 -2.29102507e-01 0.
      0. 0. 0. -9.09338966e-02 1.98106598e-02 9.73906815e-02
      5.73899448e-02 2.54732389e-02 0. 0. 0. 0. -4.75829206e-02
      -4.63253856e-02 6.23574927e-02 1.21953137e-01 -4.00692940e-01 0.
      0. 0. 0. -3.32592815e-01 9.50988233e-02 2.47642919e-01
      4.71836589e-02 3.84001583e-01 0. 0. 0. 0. -2.56407052e-01
      8.51983856e-03 -9.20430496e-02 -1.02469876e-01 -5.20744137e-02 0.
      0. 0. 0. -4.27602902e-02 -5.60090728e-02 -1.33702412e-01
      1.14625521e-01 -1.69558495e-01 0. 0. 0. 0. -1.14254691e-01
      2.94973776e-02 -8.29895064e-02 1.31408006e-01 5.70289046e-03 0. 0.
      0. 0. -1.81160688e-01 2.40571089e-02 -2.31894314e-01
      -8.10316056e-02 -2.84604847e-01 0. 0. 0. 0. 1.27855062e-01
      -2.97968648e-02 -1.70577273e-01 6.91148415e-02 1.12599069e-02 0.
      0. 0. 0. -1.81671917e-01 5.46747334e-02 -4.16528843e-02
      9.73479152e-02 2.15537369e-01 0. 0. 0. 0. -1.03915101e-02
      -2.12081093e-02 -7.84671903e-02 1.16675822e-02 4.26028930e-02 0.
      0. 0. 0. -1.54129893e-01 -1.07904151e-02 1.83234200e-01
      -1.46487392e-02 -1.21274404e-01 0. 0. 0. 0. -2.00165108e-01
      -7.14423135e-02 -2.38420054e-01 2.01111764e-01 -3.55389982e-01 0.
      0. 0. 0. 3.03058550e-02 -4.54766750e-02 -9.64440554e-02
      3.49353091e-03 -5.15054315e-02 0. 0. 0. 0. 1.76004022e-01
      -7.35730752e-02 -9.83056799e-02 -5.56088611e-02 1.57750607e-01 0.
      0. 0. 0. -2.48122394e-01 -5.88111058e-02 -4.75706570e-02
      2.20699459e-01 -4.89689410e-02 0. 0. 0. 0. 2.11117845e-02
      -7.45842308e-02 -7.91116059e-02 -4.95099835e-02 -1.63393453e-01 0.
      0. 0. 0. -2.55594969e-01 -9.68937576e-02 2.13178143e-01
      -2.52058804e-02 5.28868102e-02 0. 0. 0. 0. -5.15750125e-02
      -1.21437989e-01 1.35238498e-01 -3.52796614e-01 2.97087997e-01 0.
      0. 0. 0. -1.75267309e-01 1.66450255e-02 -1.29317138e-02
      -7.49782249e-02 -1.19158321e-04 0. 0. 0. 0. 6.45400360e-02
      -8.47356096e-02 -1.52065560e-01 -5.15510701e-02 -1.29241213e-01 0.
      0. 0. 0. -2.98652519e-02 1.48847297e-01 -3.47506046e-01
      -1.79689869e-01 1.49836503e-02 0. 0. 0. 0. 2.17330351e-01
      -2.55713500e-02 -2.28933953e-02 -5.15430160e-02 -1.35374621e-01 0.
      0. 0. 0. 5.74509427e-03 -6.47412241e-02 4.32710908e-02
      -4.91814911e-02 -2.23338343e-02 0. 0. 0. 0. 1.36629537e-01
      5.57577843e-03 -1.52673528e-01 3.44602875e-02 -5.04955240e-02 0.
      0. 0. 0. -6.59043565e-02 -2.10175663e-02 -4.03102934e-01
      -2.03351788e-02 1.99885502e-01 0. 0. 0. 0. -2.45909952e-02
      7.50545133e-03 2.63876487e-02 -1.10382242e-02 8.79872888e-02 0. 0.
      0. 0. -1.01372488e-01 5.63325919e-03 -3.12253833e-02
      3.81788835e-02 1.85103521e-01 0. 0. 0. 0. 9.66535881e-02
      -3.92471999e-02 -2.46727005e-01 9.39638317e-02 -9.41276252e-02 0.
      0. 0. 0. -1.96116865e-01 -2.70733749e-03 1.47045285e-01
      1.29617359e-02 1.07246451e-01 0. 0. 0. 0. 1.61126122e-01
      -9.75814611e-02 1.14232391e-01 -3.46494466e-01 -2.36695021e-01 0.
      0. 0. 0. -2.21596852e-01 -4.20951247e-02 1.25681266e-01
      1.12557597e-01 1.34290963e-01 0. 0. 0. 0. 1.22692913e-01
      4.13937523e-04 -1.90153316e-01 8.64245817e-02 2.82192659e-02 0. 0.
      0. 0. -8.63980055e-02 3.50182247e-03 -3.87720577e-02
      -2.20868155e-01 1.74908742e-01 0. 0. 0. 0. -1.63993821e-01
      -7.69523159e-02 -1.45462736e-01 8.58954862e-02 -8.56917128e-02 0.
      0. 0. 0. 5.74486423e-03 1.39656346e-02 3.78331631e-01
      7.10897297e-02 -2.39835784e-01 0. 0. 0. 0. -2.09149286e-01
      -4.40417044e-02 2.54291575e-02 -3.73856397e-03 1.44011274e-01 0.
      0. 0. 0. -1.51410088e-01 -4.72443216e-02 1.49694711e-01
      1.90929323e-02 1.12174433e-02 0. 0. 0. 0. -9.35120732e-02
      -5.74809462e-02 -2.16119751e-01 -1.77262928e-02 -7.04917535e-02 0.
      0. 0. 0. -4.18366671e-01 -7.53305703e-02 1.52304962e-01
      3.04586766e-03 -3.51722211e-01 0. 0. 0. 0. 2.72892088e-01
      -1.10569268e-01 -3.89799960e-02 -4.92494851e-02 -1.84340049e-02 0.
      0. 0. 0. 3.81817281e-01 -1.91864539e-02 -1.67472139e-01
      6.32967055e-03 -2.27795109e-01 0. 0. 0. 0. 6.37575425e-03
      -3.62770744e-02 3.73783171e-01 -8.08566138e-02 4.74503860e-02 0.
      0. 0. 0. -1.41149744e-01 -1.51364475e-01 2.57131815e-01
      -3.86996642e-02 -1.71507329e-01 0. 0. 0. 0. -4.07642238e-02
      -6.86248839e-02 1.06154710e-01 -3.03927422e-01 1.45952523e-01 0.
      0. 0. 0. 5.32505363e-02 -1.82467122e-02 -3.79255824e-02
      -9.73775238e-02 -1.58444361e-03 0. 0. 0. 0. -1.00151837e-01
      7.11162537e-02 1.70985550e-01 -1.93217143e-01 -5.68060502e-02 0.
      0. 0. 0. -1.95380509e-01 1.78394109e-01 -2.41838202e-01
      -1.10739075e-01 -3.55589956e-01 0. 0. 0. 0. 2.11056218e-01
      -1.63442753e-02 2.24342734e-01 -5.33654094e-02 -1.64536819e-01 0.
      0. 0. 0. -8.37887079e-02 -6.63577542e-02 2.45199263e-01
      -2.26053987e-02 -1.45874768e-01 0. 0. 0. 0. 5.08348010e-02
      -1.05341218e-01 -8.19444582e-02 -3.26805376e-02 -2.54989564e-01 0.
      0. 0. 0. -1.87304795e-01 9.58590023e-03 9.96881351e-03
      -2.50983369e-02 1.25789404e-01 0. 0. 0. 0. -3.48889738e-01
      1.47513067e-02 5.49911708e-02 2.41372325e-02 -6.03123717e-02 0. 0.
      0. 0. -2.27269128e-01 -7.56084621e-02 -1.01144705e-02
      1.16393855e-02 -1.14595205e-01 0. 0. 0. 0. 9.00264736e-03
      6.13286495e-02 1.56410132e-03 2.14963540e-01 1.52062010e-02 0. 0.
      0. 0. 1.47064835e-01 9.59069293e-04 6.40085116e-02 -7.47239403e-03
      8.94448459e-02 0. 0. 0. 0. 3.54740530e-01 1.26528891e-03
      -3.27292144e-01 -1.82905585e-01 1.08736053e-01 0. 0. 0. 0.
      -1.83423132e-01 8.48477557e-02 2.27790579e-01 1.83496609e-01
      -1.48629248e-01 0. 0. 0. 0. 6.04560599e-02 -2.91141361e-01
      -2.71935314e-01 -3.14420015e-01 -4.09086436e-01 0. 0. 0. 0.
      -1.59046352e-01 3.11377347e-02 1.42924294e-01 -1.33004963e-01
      -3.09412330e-02 0. 0. 0. 0. 5.79123236e-02 1.03573129e-02
      -6.44855127e-02 1.46066532e-01 5.32699786e-02 0. 0. 0. 0.
      -1.02807418e-03 -1.69120923e-01 9.53400284e-02 -2.59362578e-01
      1.96679398e-01 0. 0. 0. 0. -6.84579462e-02 -2.96586066e-01
      -1.02960855e-01 -7.08998814e-02 -3.52576315e-01 0. 0. 0. 0.
      -1.34288117e-01 4.93113920e-02 -2.04619184e-01 1.47925243e-01
      -1.31773949e-01 0. 0. 0. 0. 1.13280723e-02 -1.49721419e-02
      3.06946840e-02 2.85820365e-02 -3.19704622e-01 0. 0. 0. 0.
      -1.29653707e-01 -2.95289010e-01 2.36494150e-02 -5.59804775e-02
      -3.24147493e-01 0. 0. 0. 0. 1.98147476e-01 6.20446838e-02
      1.18359745e-01 4.99415323e-02 -9.31223631e-02 0. 0. 0. 0.
      -4.20983106e-01 -1.13641098e-03 -8.80345553e-02 2.54475866e-02
      -2.15185344e-01 0. 0. 0. 0. 1.91648901e-01 -1.86011605e-02
      -2.44742319e-01 -9.01945531e-02 -1.70024097e-01 0. 0. 0. 0.
      -2.09552407e-01 6.08814731e-02 -1.45047188e-01 3.38216834e-02
      8.40083361e-02 0. 0. 0. 0. -1.14094898e-01 1.03316553e-01
      1.98838487e-03 5.67936823e-02 2.72079140e-01 0. 0. 0. 0.
      -2.55459189e-01 -3.50833125e-02 2.95076445e-02 -9.35404822e-02
      6.17440939e-02 0. 0. 0. 0. -2.78960407e-01 6.67442083e-02
      -2.01261379e-02 -1.93062529e-01 -6.92410693e-02 0. 0. 0. 0.
      -6.19505495e-02 1.19043805e-01 -1.40254244e-01 9.00347382e-02
      1.56254545e-01 0. 0. 0. 0. -1.26048833e-01 -1.56092748e-01
      1.66889906e-01 -7.59081692e-02 -9.54830647e-02 0. 0. 0. 0.
      8.84737298e-02 -6.34431019e-02 8.68619457e-02 -4.36544009e-02
      -9.18518901e-02 0. 0. 0. 0. -1.67006835e-01 -7.85738453e-02
      -6.64870217e-02 -2.03764345e-02 -1.27566010e-01 0. 0. 0. 0.
      1.02507897e-01 -8.69953483e-02 -8.75568092e-02 -6.90815225e-02
      2.45176926e-01 0. 0. 0. 0. 1.16911434e-01 -7.01305717e-02
      3.98335643e-02 -6.17828593e-02 -3.14549953e-01 0. 0. 0. 0.
      -2.46869221e-01 -5.72178215e-02 9.86892655e-02 -3.43182613e-03
      -3.45338807e-02 0. 0. 0. 0. -5.87101132e-02 4.28246185e-02
      -4.10825424e-02 1.95394292e-01 -1.50374894e-03 0. 0. 0. 0.
      -2.69596934e-01 -7.88897127e-02 1.23618711e-02 -3.49318162e-02
      7.44233727e-02 0. 0. 0. 0. 4.29996029e-02 4.10450213e-02
      -2.65039057e-02 -1.46910012e-01 -1.79522932e-02 0. 0. 0. 0.
      1.54241189e-01 5.51058315e-02 -1.31447176e-02 1.68686032e-01
      -6.36446625e-02 0. 0. 0. 0. -5.88345006e-02 -1.95942491e-01
      -4.88755822e-01 -2.41959438e-01 2.23346159e-01 0. 0. 0. 0.
      -4.98853289e-02 5.40651940e-02 7.30486214e-02 -1.00693054e-01
      1.19412258e-01 0. 0. 0. 0. 4.46810007e-01 -2.61320949e-01
      -1.94105119e-01 -1.01564690e-01 -2.19664320e-01 0. 0. 0. 0.
      1.56395018e-01 -1.58124521e-01 2.08152890e-01 -2.75076300e-01
      2.14783221e-01 0. 0. 0. 0. -1.31526627e-02 -3.00246388e-01
      -2.44355947e-01 -4.78022136e-02 7.91577250e-02 0. 0. 0. 0.
      -3.33880335e-02 -2.18623310e-01 1.57101620e-02 -5.97991981e-02
      -1.03053495e-01 0. 0. 0. 0. 2.62457877e-01 -5.66337764e-01
      2.01193288e-01 -5.50582707e-02 1.23477854e-01 0. 0. 0. 0.
      -6.06395155e-02 -2.24566191e-01 3.05578709e-01 -2.16251286e-03
      -2.87640393e-01 0. 0. 0. 0. 2.20300466e-01 7.69459531e-02
      -2.42650658e-02 6.68273345e-02 -9.90387201e-02 0. 0. 0. 0.
      1.41111597e-01 -5.17271519e-01 5.85179627e-02 1.19077191e-02
      -3.00347090e-01 0. 0. 0. 0. -2.56980825e-02 -2.11919501e-01
      1.15491465e-01 -9.33747739e-02 7.91167542e-02 0. 0. 0. 0.
      3.41693265e-03 5.54660708e-02 -1.41209602e-01 5.49946241e-02
      -7.65957683e-02 0. 0. 0. 0. -2.72947587e-02 1.17745176e-01
      4.03077193e-02 1.99826229e-02 -7.69950449e-02 0. 0. 0. 0.
      -6.65655956e-02 -2.30926067e-01 -2.98157960e-01 -1.73714072e-01
      9.51214805e-02 0. 0. 0. 0. 2.69838534e-02 -4.65318654e-03
      -5.63525446e-02 -7.58803785e-02 -1.26615345e-01 0. 0. 0. 0.
      -1.78521536e-02 1.44059584e-01 1.39891505e-01 6.20983243e-02
      -3.70654613e-01 0. 0. 0. 0. -5.85374124e-02 -1.25923708e-01
      -6.59760758e-02 -4.72207777e-02 -9.58847851e-02 0. 0. 0. 0.
      4.76481579e-02 -3.72839207e-03 -1.86142728e-01 -6.56174272e-02
      -2.09903270e-02 0. 0. 0. 0. 6.95058051e-03 -6.42746687e-02
      1.13796838e-01 -1.31403789e-01 -5.82839660e-02 0. 0. 0. 0.
      -7.24332184e-02 -6.96580037e-02 -3.63883078e-01 -2.08035354e-02
      1.88462242e-01 0. 0. 0. 0. -2.69316081e-02 -6.39963448e-02
      -1.08266503e-01 -2.64647156e-02 -1.24300160e-01 0. 0. 0. 0.
      1.33734867e-01 -1.49651855e-01 -8.78077224e-02 -1.25787491e-02
      -6.49887510e-03 0. 0. 0. 0. -8.16224888e-02 -9.84454677e-02
      5.00430353e-02 -1.35508358e-01 -3.59432623e-02 0. 0. 0. 0.
      -6.12585321e-02 -5.09202853e-02 9.18463096e-02 -1.86243765e-02
      -1.52421430e-01 0. 0. 0. 0. 9.26806405e-02 8.54466856e-02
      -1.92491010e-01 -4.65440340e-02 -2.02774674e-01 0. 0. 0. 0.
      1.34076580e-01 -8.98284093e-02 -1.49545282e-01 6.26732036e-02
      1.51886836e-01 0. 0. 0. 0. 1.86963707e-01 -2.62895394e-02
      1.03843153e-01 -2.64022946e-01 -6.04582466e-02 0. 0. 0. 0.
      -2.58658752e-02 8.47357437e-02 -3.89131941e-02 -7.97720402e-02
      1.63266823e-01 0. 0. 0. 0. 1.58551484e-01 -1.93391338e-01
      -3.30165863e-01 -2.30689477e-02 -2.31762114e-03 0. 0. 0. 0.
      1.08574264e-01 -4.47069295e-02 -8.83833990e-02 -2.15747461e-01
      1.27888396e-01 0. 0. 0. 0. 3.15316021e-01 -2.02570437e-03
      -1.40468284e-01 8.87397900e-02 -2.74966955e-01 0. 0. 0. 0.
      1.31074740e-02 -1.89973250e-01 3.61785293e-02 -7.03368187e-02
      -5.53492270e-02 0. 0. 0. 0. 2.35796794e-01 -5.55269718e-01
      -4.22713459e-02 -1.75151229e-02 -1.68561172e-02 0. 0. 0. 0.
      1.09642953e-01 1.30754858e-02 7.33289821e-03 9.70582962e-02
      -2.44176775e-01 0. 0. 0. 0. 3.89528245e-01 1.71442255e-01
      -2.95525938e-01 -7.43245706e-02 -3.56222466e-02 0. 0. 0. 0.
      -3.38881761e-01 -4.72481728e-01 -1.15260668e-02 2.24015824e-02
      -3.44743282e-01 0. 0. 0. 0. -2.64756441e-01 -2.72192478e-01
      1.00920849e-01 -9.07227024e-02 2.48943895e-01 0. 0. 0. 0.
      1.10289089e-01 1.85973987e-01 -4.63746302e-03 -4.76572998e-02
      6.57239109e-02 0. 0. 0. 0. 1.22597247e-01 6.83390573e-02
      1.70178071e-01 -1.30634815e-01 -4.89777327e-02 0. 0. 0. 0.
      -9.12966803e-02 -2.39181995e-01 -1.13103628e-01 -1.37641743e-01
      -1.58542946e-01 0. 0. 0. 0. 8.30736309e-02 -1.25199500e-02
      -1.25197217e-01 -6.41027316e-02 2.11901758e-02 0. 0. 0. 0.
      2.69422174e-01 8.51104781e-02 -7.80501887e-02 -1.79800898e-01
      1.08061045e-01 0. 0. 0. 0. -6.92339789e-04 1.22681692e-01
      -2.89558191e-02 -1.13847926e-01 -5.22952192e-02 0. 0. 0. 0.
      -1.44481864e-02 -2.58630291e-02 1.55648887e-01 -4.87299114e-02
      -9.30731446e-02 0. 0. 0. 0. -1.27762675e-01 -4.38513011e-02
      -1.73223451e-01 -1.06466077e-01 -6.20901398e-02 0. 0. 0. 0.
      3.34485546e-02 1.13325857e-01 -5.71722016e-02 -1.46956220e-01
      1.84147023e-02 0. 0. 0. 0. -2.89244533e-01 3.02181065e-01
      1.54576041e-02 -1.01800360e-01 -5.97474463e-02 0. 0. 0. 0.
      -2.84203626e-02 -1.45359576e-01 -7.75966868e-02 -2.64143348e-02
      -9.26502794e-02 0. 0. 0. 0. -1.55016318e-01 -1.06720217e-01
      -5.28847501e-02 3.45310904e-02 1.04852669e-01 0. 0. 0. 0.
      -1.16270013e-01 1.42928110e-02 1.94907859e-02 9.56234336e-02
      5.21476828e-02 0. 0. 0. 0. 1.08904980e-01 1.66334361e-01
      -1.19387865e-01 -1.89152122e-01 -9.42721963e-02 0. 0. 0. 0.
      -1.68519076e-02 -7.95576274e-02 4.97155711e-02 6.84631318e-02
      1.77270755e-01 0. 0. 0. 0. -2.41637588e-01 -2.98964400e-02
      -6.09032959e-02 -2.04057962e-01 -7.45324492e-02 0. 0. 0. 0.
      -1.28205210e-01 1.48316801e-01 -1.12367287e-01 -6.84250966e-02
      4.93331254e-02 0. 0. 0. 0. 7.53199086e-02 9.13245138e-03
      1.14437751e-01 -1.50380030e-01 -4.40804176e-02 0. 0. 0. 0.
      -1.76728070e-01 -2.13573854e-02 -1.96935296e-01 -2.18155220e-01
      5.23201674e-02 0. 0. 0. 0. 3.33416700e-01 -1.59051351e-03
      8.22014268e-03 8.89325738e-02 -5.42147696e-01 0. 0. 0. 0.
      7.49301538e-03 -3.32406834e-02 -2.80601144e-01 -1.70013189e-01
      7.50685558e-02 0. 0. 0. 0. 1.69777364e-01 -9.18344222e-03
      3.63500565e-01 7.43997097e-02 1.29871830e-01 0. 0. 0. 0.
      -3.35718662e-01 5.19301929e-03 1.94791798e-02 6.71773031e-02
      1.14844345e-01 0. 0. 0. 0. -2.65090734e-01 1.65630892e-01
      -2.45875016e-01 -6.09133653e-02 -1.87378764e-01 0. 0. 0. 0.
      -6.59975559e-02 -1.43354246e-03 -1.35417581e-01 8.26211497e-02
      2.23856866e-01 0. 0. 0. 0. -6.98416308e-02 -1.63189620e-02
      -4.67180982e-02 4.86651063e-02 5.87947853e-02 0. 0. 0. 0.
      -2.82700390e-01 1.89741343e-01 3.52372766e-01 -5.34823127e-02
      -4.48164880e-01 0. 0. 0. 0. 3.70107517e-02 6.53053746e-02
      -3.79996151e-01 -1.39331788e-01 -5.12621105e-02 0. 0. 0. 0.
      -2.29630582e-02 -3.59580736e-04 -4.70207930e-02 8.71838629e-02
      5.85263558e-02 0. 0. 0. 0. -2.52398215e-02 6.54568430e-04
      2.88755610e-03 -2.48377874e-01 1.63959220e-01 0. 0. 0. 0.
      -3.19090337e-02 7.70919174e-02 -1.33933842e-01 -1.79938301e-01
      -1.18685521e-01 0. 0. 0. 0. 9.28366929e-02 1.14878953e-01
      -3.54344733e-02 -8.63201544e-02 -3.54505666e-02 0. 0. 0. 0.
      -2.03437015e-01 -1.44839501e-02 -5.58061004e-02 -2.63812542e-01
      2.00654626e-01 0. 0. 0. 0. 6.71096519e-02 4.75679804e-03
      -5.59076630e-02 -6.65944591e-02 -2.03292847e-01 0. 0. 0. 0.
      -1.29572704e-01 9.74566340e-02 5.05539328e-02 -1.35703072e-01
      -3.52919489e-01 0. 0. 0. 0. -9.11463797e-02 3.09425771e-01
      -2.49565050e-01 -8.85209665e-02 -3.14117998e-01 0. 0. 0. 0.
      -5.61019927e-02 -1.93838384e-02 -1.23125441e-01 -7.49092326e-02
      9.03437734e-02 0. 0. 0. 0. 1.16339281e-01 1.77948661e-02
      1.06888995e-01 9.05380845e-02 1.57976761e-01 0. 0. 0. 0.
      1.61959883e-02 1.00120120e-02 -2.83029586e-01 8.99814293e-02
      6.68810681e-02 0. 0. 0. 0. 4.38875891e-02 1.32620960e-01
      -1.46638945e-01 -9.59210396e-02 -2.36971334e-01 0. 0. 0. 0.
      1.29158497e-01 2.68496852e-02 1.86226338e-01 -9.01125837e-03
      2.31512263e-01 0. 0. 0. 0. 1.14132449e-01 -5.46275126e-03
      -2.80196160e-01 -7.53801465e-02 -3.43342960e-01 0. 0. 0. 0.
      -7.08426237e-02 1.39605314e-01 2.90461183e-01 -6.64824098e-02
      -5.41134030e-02 0. 0. 0. 0. -3.58223245e-02 5.52053470e-03
      -1.56049669e-01 -1.66740716e-01 -1.06136471e-01 0. 0. 0. 0.
      -3.81272823e-01 5.02329413e-03 4.18716343e-03 -2.52805185e-02
      1.20680653e-01 0. 0. 0. 0. 1.32114023e-01 -9.16041434e-02
      1.61550030e-01 -4.72242758e-02 -3.48836482e-01 0. 0. 0. 0.
      1.27100870e-01 -3.52794700e-03 -2.91439742e-01 -1.83080867e-01
      -1.88619137e-01 0. 0. 0. 0. 3.20664868e-02 -9.98297613e-03
      -4.61306535e-02 6.62709028e-02 -1.05219707e-01 0. 0. 0. 0.
      3.03392589e-01 -1.09213382e-01 -2.16601864e-01 -1.00392573e-01
      7.16592222e-02 0. 0. 0. 0. 1.51541412e-01 1.13604486e-01
      -4.18546535e-02 7.77152404e-02 -2.03212202e-02 0. 0. 0. 0.
      -2.18284428e-01 -1.65535249e-02 -1.32947326e-01 3.73455845e-02
      -9.57291648e-02 0. 0. 0. 0. -2.18695268e-01 4.63041756e-03
      -3.85469824e-01 6.34338036e-02 -1.05932742e-01 0. 0. 0. 0.
      2.32515424e-01 1.01914264e-01 -1.42792225e-01 8.14993232e-02
      8.75719115e-02 0. 0. 0. 0. 7.47695491e-02 -6.44465312e-02
      2.50517502e-02 -1.48578838e-01 1.36613578e-01 0. 0. 0. 0.
      -2.83816848e-02 1.84558239e-02 2.42591813e-01 7.71899372e-02
      -2.20249131e-01 0. 0. 0. 0. -2.16786295e-01 -3.04587418e-03
      1.76489741e-01 -2.72229165e-01 -1.30501002e-01 0. 0. 0. 0.
      -1.14646472e-01 -6.26550689e-02 -3.03723335e-01 -9.37185958e-02
      2.48384356e-01 0. 0. 0. 0. -1.72129750e-01 -1.53417125e-01
      3.20562065e-01 -1.42230675e-01 2.24935189e-01 0. 0. 0. 0.
      -6.21472858e-02 -1.06190937e-02 -5.63680194e-03 -2.69066781e-01
      -1.02904048e-02 0. 0. 0. 0. -1.34176627e-01 -8.84173438e-03
      -1.71960309e-01 -7.07327873e-02 -1.77606028e-02 0. 0. 0. 0.
      -3.22521925e-02 -1.17403306e-01 7.01704621e-02 -1.74164504e-01
      1.85281053e-01 0. 0. 0. 0. -1.31154120e-01 -3.47970910e-02
      6.75792247e-02 1.15897888e-02 -2.49763522e-02 0. 0. 0. 0.
      -5.71834370e-02 -1.33230714e-02 1.08713686e-01 -8.78153443e-02
      -1.04476698e-01 0. 0. 0. 0. -2.38604829e-01 1.64706074e-02
      9.56022143e-02 8.77680629e-02 -1.45950705e-01 0. 0. 0. 0.
      -3.17989029e-02 -4.75684144e-02 -2.24444211e-01 1.15033649e-02
      -2.64324266e-02 0. 0. 0. 0. -1.88019350e-01 9.86898392e-02
      4.48513441e-02 -5.07783778e-02 3.32576372e-02 0. 0. 0. 0.
      4.60138172e-03 3.38633768e-02 -3.97462863e-04 -3.11503839e-02
      2.30616957e-01 0. 0. 0. 0. -1.88531443e-01 -2.85603460e-02
      -1.53594032e-01 -4.80907038e-02 2.59528130e-01 0. 0. 0. 0.
      2.62119472e-01 -1.20092677e-02 -3.22454721e-02 -2.99141482e-02
      -1.52471453e-01 0. 0. 0. 0. -3.16306621e-01 -1.56149687e-02
      -2.26008326e-01 6.77582100e-02 -1.51025960e-02 0. 0. 0. 0.
      -1.79603770e-01 -6.60196925e-03 3.23634326e-01 -4.07000929e-02
      2.42826492e-02 0. 0. 0. 0. -1.07976615e-01 -6.58813417e-02
      -2.33354464e-01 -6.46555275e-02 -6.45446479e-02 0. 0. 0. 0.
      5.85282873e-03 -2.26615332e-02 -1.27522454e-01 7.52478912e-02
      4.69426751e-01 0. 0. 0. 0. 1.29185632e-01 -6.08670898e-02
      -2.91957319e-01 -1.73434496e-01 -7.12414086e-02 0. 0. 0. 0.
      -1.67855144e-01 -5.90888485e-02 -1.65700361e-01 -9.81505513e-02
      -5.02969809e-02 0. 0. 0. 0. -9.89954248e-02 1.20202057e-01
      9.12060440e-02 9.85689387e-02 4.11176076e-03 0. 0. 0. 0.
      -6.87036961e-02 -7.46780559e-02 -6.11666776e-02 -1.63815469e-01
      9.27646235e-02 0. 0. 0. 0. -2.55544856e-02 1.70426458e-01
      9.02059022e-03 -2.28954591e-02 -2.59534746e-01 0. 0. 0. 0.
      -3.81796151e-01 1.07034825e-01 1.02949431e-02 8.29251632e-02
      1.75541744e-01 0. 0. 0. 0. 1.56436369e-01 -5.59585504e-02
      -2.02428758e-01 -8.58934596e-02 -1.84195861e-01 0. 0. 0. 0.
      -3.76399308e-01 1.41139701e-01 -2.31611192e-01 -3.90193313e-02
      3.59149486e-01 0. 0. 0. 0. -1.65988788e-01 1.18627265e-01
      -3.67918983e-02 8.88097510e-02 -1.71040684e-01 0. 0. 0. 0.
      3.77521366e-01 -6.07123300e-02 -1.40164778e-01 -1.01551622e-01
      -1.87230274e-01 0. 0. 0. 0. 1.36053041e-01 -1.51778236e-01
      -2.03163892e-01 -1.30280256e-01 -2.63545930e-01 0. 0. 0. 0.
      -7.71111771e-02 1.06406674e-01 1.24058567e-01 9.18306187e-02
      -1.57209090e-03 0. 0. 0. 0. -6.45338893e-02 -3.21757160e-02
      -3.36386412e-01 -3.88537608e-02 -3.65665734e-01 0. 0. 0. 0.
      -1.37028739e-01 -1.19519956e-01 4.63744998e-02 -1.74300730e-01
      -2.68291086e-01 0. 0. 0. 0. -6.46475479e-02 -4.50732782e-02
      2.08834812e-01 8.25745799e-03 -2.04827070e-01 0. 0. 0. 0.
      1.04725607e-01 -3.89840081e-02 -2.22623050e-01 -1.74708478e-02
      -4.27342430e-02 0. 0. 0. 0. -1.09469391e-01 -1.32926211e-01
      3.84381972e-02 1.65355485e-02 9.10080224e-03 0. 0. 0. 0.
      -4.31146994e-02 -3.28637883e-02 -9.03401524e-02 2.75501236e-02
      -1.29898190e-01 0. 0. 0. 0. -2.79884636e-02 1.03903733e-01
      -1.95537180e-01 -5.48858084e-02 -1.97625056e-01 0. 0. 0. 0.
      -4.73175675e-01 -1.31750539e-01 5.55325449e-02 3.42500433e-02
      -1.39784098e-01 0. 0. 0. 0. 1.39159322e-01 -1.13158196e-01
      7.71845728e-02 3.94523963e-02 -1.32383987e-01 0. 0. 0. 0.
      -2.93055832e-01 -7.01588020e-03 1.44974083e-01 -4.03766930e-02
      -2.28423223e-01 0. 0. 0. 0. 1.84547707e-01 -5.00327628e-03
      -8.10457617e-02 7.04479069e-02 -2.90821135e-01 0. 0. 0. 0.
      -1.21235594e-01 1.18329398e-01 -2.03700334e-01 -4.88048606e-02
      -1.31346002e-01 0. 0. 0. 0. -2.24018872e-01 8.87830630e-02
      -6.48609996e-02 1.05738103e-01 -9.96250287e-02 0. 0. 0. 0.
      6.61651194e-02 -2.73399465e-02 2.19883427e-01 7.84167498e-02
      -1.29382446e-01 0. 0. 0. 0. -1.16639405e-01 -4.91808578e-02
      -9.53215882e-02 -1.85799927e-01 1.51373423e-03 0. 0. 0. 0.
      1.49635896e-01 7.69204125e-02 -3.61115746e-02 8.19793791e-02
      1.22272812e-01 0. 0. 0. 0. 1.86681852e-01 -1.19956516e-01
      -1.56264290e-01 -1.82990089e-01 -2.64106780e-01 0. 0. 0. 0.
      -2.66313478e-02 -8.13213363e-02 1.84415951e-01 -1.80568218e-01
      -1.48401275e-01 0. 0. 0. 0. 6.09499030e-02 1.80201322e-01
      -1.10461771e-01 -2.64203399e-02 -2.86767948e-02 0. 0. 0. 0.
      -1.59265324e-01 -1.07166275e-01 1.48352280e-01 -1.66698232e-01
      6.58753440e-02 0. 0. 0. 0. -8.23554844e-02 1.69571657e-02
      -3.97413261e-02 -1.40169263e-01 2.59414166e-01 0. 0. 0. 0.
      -5.29841721e-01 1.72776282e-01 1.23181745e-01 -4.69850190e-02
      -4.87768697e-03 0. 0. 0. 0. 6.49399459e-02 1.23134956e-01
      3.94418947e-02 1.16255611e-01 -1.32884070e-01 0. 0. 0. 0.
      1.74574643e-01 1.61893759e-02 -2.92523921e-01 -1.74836785e-01
      8.80600363e-02 0. 0. 0. 0. 1.86707139e-01 4.80070245e-03
      -2.51170564e-02 3.59181091e-02 -3.53149138e-02 0. 0. 0. 0.
      -1.51069999e-01 1.22728795e-01 2.70515736e-02 9.58826616e-02
      -9.82543901e-02 0. 0. 0. 0. 1.54089138e-01 -1.97303351e-02
      -2.86314972e-02 -1.98527668e-02 -2.97147900e-01 0. 0. 0. 0.
      -1.58923298e-01 -2.53097657e-02 -2.40117535e-01 1.13428002e-02
      1.25039995e-01 0. 0. 0. 0. 5.35113961e-02 -8.17004666e-02
      1.78456053e-01 -1.22920722e-01 1.74749345e-02 0. 0. 0. 0.
      -3.68185759e-01 -6.39363676e-02 -5.29914116e-03 -3.54973823e-02
      -2.08300143e-01 0. 0. 0. 0. -2.14504451e-01 -1.41642317e-01
      -2.10591927e-01 -1.71722155e-02 7.92966858e-02 0. 0. 0. 0.
      -2.47167781e-01 -1.11129403e-01 -6.65273294e-02 -1.28257349e-01
      -7.87786907e-04 0. 0. 0. 0. 3.23691756e-01 -2.67283991e-02
      1.90951347e-01 1.59977954e-02 4.53593224e-01 0. 0. 0. 0.
      -1.25597278e-02 -1.64980009e-01 3.05679113e-01 -2.36125709e-03
      -2.49925837e-01 0. 0. 0. 0. -1.37549907e-01 -1.30293131e-01
      -9.20725092e-02 4.20217067e-02 -1.29113600e-01 0. 0. 0. 0.
      -2.99040198e-01 -8.31675716e-03 -1.47721559e-01 4.99276966e-02
      -1.36915669e-01 0. 0. 0. 0. 7.46276528e-02 -7.37043424e-03
      3.55470404e-02 -5.63649870e-02 1.12948537e-01 0. 0. 0. 0.
      -3.61360818e-01 1.04298167e-01 3.39205116e-01 -6.54268712e-02
      9.03020129e-02 0. 0. 0. 0. 3.07073295e-01 6.87961727e-02
      -2.48399273e-01 9.35667902e-02 8.43837764e-03 0. 0. 0. 0.
      1.50376558e-02 -7.04049319e-02 -3.32462460e-01 -1.55072153e-01
      -7.91928098e-02 0. 0. 0. 0. -2.68442273e-01 -1.06900103e-01
      -1.70462713e-01 2.74837501e-02 8.50491505e-03 0. 0. 0. 0.
      -5.53676903e-01 9.96017009e-02 1.10812791e-01 1.08312421e-01
      1.18698843e-01 0. 0. 0. 0. 1.69847868e-02 -8.50039572e-02
      -1.55215308e-01 -1.83870777e-01 -1.11194476e-01 0. 0. 0. 0.
      2.23031491e-01 -8.01047310e-02 -1.69511229e-01 1.93561316e-02
      6.89996928e-02 0. 0. 0. 0. 2.57839225e-02 -1.27279788e-01
      -8.76063481e-02 -1.13189220e-01 1.96223795e-01 0. 0. 0. 0.
      -1.12713732e-01 -8.95692334e-02 1.63350508e-01 -1.80598989e-01
      -2.89661791e-02 0. 0. 0. 0. -3.19585174e-01 3.06971613e-02
      -3.16277385e-01 -1.36659026e-01 3.63040537e-01 0. 0. 0. 0.
      1.14492141e-01 -1.26660615e-01 -2.97012717e-01 -7.87329748e-02
      1.27488926e-01 0. 0. 0. 0. 1.68992549e-01 3.93886492e-02
      9.79584903e-02 -2.18777791e-01 3.50056365e-02 0. 0. 0. 0.
      -2.38462105e-01 2.15327255e-02 1.82496607e-01 -1.65776253e-01
      4.11745489e-01 0. 0. 0. 0. 1.56342894e-01 1.06405448e-02
      5.00530414e-02 3.56994905e-02 -7.08039477e-02 0. 0. 0. 0.
      -2.73046196e-01 2.60189809e-02 1.35387378e-02 -2.60272950e-01
      -7.98575804e-02 0. 0. 0. 0. -2.39546552e-01 5.22662736e-02
      4.98572737e-02 -2.14632243e-01 3.11143626e-03 0. 0. 0. 0.
      -4.88307653e-03 -7.28314882e-03 3.22830267e-02 2.40194425e-02
      -2.94664294e-01 0. 0. 0. 0. 1.00116408e-03 -6.50379956e-02
      1.53544590e-01 -1.17634393e-01 -2.53374696e-01 0. 0. 0. 0.
      -6.91640079e-02 2.39016544e-02 -2.18316644e-01 -1.53553963e-01
      8.90649930e-02 0. 0. 0. 0. 2.04960749e-01 -9.83040780e-02
      9.77795273e-02 -4.68180701e-02 3.37251574e-02 0. 0. 0. 0.
      -4.28345233e-01 -9.03473794e-02 -1.31618246e-01 -8.14528540e-02
      -1.03749380e-01 0. 0. 0. 0. 1.48631064e-02 -2.78894976e-03
      -1.92161173e-01 1.38155129e-02 8.90454873e-02 0. 0. 0. 0.
      6.94784001e-02 -9.39062983e-02 -2.95360535e-02 1.20634492e-02
      1.22867174e-01 0. 0. 0. 0. -2.74914503e-01 -1.43089756e-01
      1.12543786e-02 -7.53137693e-02 3.61967474e-01 0. 0. 0. 0.
      -2.40110159e-01 -7.53340963e-03 4.36355025e-02 2.64491271e-02
      -2.54429072e-01 0. 0. 0. 0. -1.23460360e-01 2.01652851e-02
      -4.75806922e-01 -7.16142431e-02 7.85307735e-02 0. 0. 0. 0.
      3.68473887e-01 -1.93929106e-01 -3.06175739e-01 -9.39519852e-02
      -3.00128818e-01 0. 0. 0. 0. 1.63243160e-01 -5.33233769e-02
      -6.01598211e-02 -1.63586140e-01 -5.57664558e-02 0. 0. 0. 0.
      1.62523717e-01 -9.03895125e-02 -3.15167308e-02 -1.84439003e-01
      9.37072113e-02 0. 0. 0. 0. -7.42346942e-02 -1.27153829e-01
      -3.19283307e-01 3.05973757e-02 -5.20352185e-01 0. 0. 0. 0.
      1.99697405e-01 1.83073133e-01 -1.64737478e-01 4.61746305e-02
      1.79435804e-01 0. 0. 0. 0. 4.30490375e-02 9.42337960e-02
      1.25308722e-01 -1.01643309e-01 -2.56000489e-01 0. 0. 0. 0.
      -1.74805164e-01 -9.30205435e-02 2.95043260e-01 9.79446899e-03
      -8.30283761e-02 0. 0. 0. 0. 4.26461101e-01 -1.31966963e-01
      -1.62222221e-01 -1.07493170e-01 -1.60700604e-01 0. 0. 0. 0.
      -1.39034376e-01 1.00491121e-01 -3.17882113e-02 -1.16715930e-01
      1.72797903e-01 0. 0. 0. 0. -2.10864142e-01 -1.31988466e-01
      -4.19197455e-02 -1.09627485e-01 -3.31844389e-02 0. 0. 0. 0.
      -2.61276245e-01 -1.09369181e-01 1.20348386e-01 -8.92616734e-02
      6.81629851e-02 0. 0. 0. 0. 1.95032343e-01 5.84664606e-02
      9.08431932e-02 -1.85184956e-01 -1.80043831e-01 0. 0. 0. 0.
      -1.88604563e-01 -1.29444420e-01 -9.83755738e-02 -6.15170784e-02
      -1.20930038e-01 0. 0. 0. 0. 8.15974921e-02 -1.62037507e-01
      2.56586850e-01 -1.93610251e-01 1.85139209e-01 0. 0. 0. 0.
      -5.38032711e-01 5.36159277e-02 2.45221242e-01 -2.40590230e-01
      4.11191136e-02 0. 0. 0. 0. -6.37304969e-03 4.76442836e-02
      1.14090636e-01 -1.39162973e-01 -1.12779841e-01 0. 0. 0. 0.
      1.08256362e-01 -1.83519021e-01 2.22658664e-01 -2.14576378e-01
      2.65523344e-01 0. 0. 0. 0. -3.60448569e-01 -1.59529805e-01
      3.84838194e-01 -2.31727839e-01 1.17134012e-01 0. 0. 0. 0.
      -5.10138646e-02 4.01778109e-02 3.35508257e-01 -1.42944992e-01
      -4.04632926e-01 0. 0. 0. 0. 5.13982587e-02 -6.47005141e-02
      -1.25724271e-01 -5.57858832e-02 -5.64297028e-02 0. 0. 0. 0.
      3.78232032e-01 -1.68902442e-01 -1.89818852e-02 -2.43139803e-01
      5.78452051e-02 0. 0. 0. 0. -1.98835060e-01 2.96282442e-03
      9.14229974e-02 -3.03906929e-02 -2.06125319e-01 0. 0. 0. 0.
      -4.44135964e-01 -6.36013225e-02 3.55749547e-01 -4.70492765e-02
      -4.54094037e-02 0. 0. 0. 0. 8.25686008e-02 -1.25386775e-01
      -4.44562733e-02 -1.10232145e-01 -8.46302435e-02 0. 0. 0. 0.
      1.30651910e-02 1.29284395e-03 -1.80535257e-01 -3.31327170e-02
      -1.08139805e-01 0. 0. 0. 0. 1.23992436e-01 8.50328207e-02
      -2.54388060e-03 -8.60560611e-02 -2.24381715e-01 0. 0. 0. 0.
      -2.00930446e-01 -1.89865828e-01 1.76220581e-01 -1.00744084e-01
      -2.21201137e-01 0. 0. 0. 0. 4.81722951e-02 -8.97377431e-02
      -2.55883098e-01 -1.53071448e-01 -1.52422935e-01 0. 0. 0. 0.
      -1.32034153e-01 4.74617966e-02 1.14024073e-01 -8.10474679e-02
      -3.34239244e-01 0. 0. 0. 0. -2.20678478e-01 2.39301547e-02
      1.35821283e-01 -1.86171047e-02 1.59614921e-01 0. 0. 0. 0.
      -2.52407312e-01 2.15913773e-01 -2.41320729e-02 3.05268466e-02
      4.02306244e-02 0. 0. 0. 0. 2.59076744e-01 1.23745054e-01
      -2.00184897e-01 -1.82550177e-01 -2.89491802e-01 0. 0. 0. 0.
      9.87620130e-02 -1.79272026e-01 -1.94887504e-01 5.02747148e-02
      1.67745724e-02 0. 0. 0. 0. -3.82883549e-02 -4.43121605e-02
      -1.55221030e-01 3.41778696e-02 -2.14125335e-01 0. 0. 0. 0.
      -1.49876863e-01 1.15607940e-01 -1.67279184e-01 -1.76821649e-01
      1.23920329e-01 0. 0. 0. 0. 1.56542212e-02 -1.43937036e-01
      -6.40002638e-02 -1.29538119e-01 9.57238749e-02 0. 0. 0. 0.
      -2.96841133e-02 -1.85154490e-02 -7.79055506e-02 3.87954302e-02
      1.29844798e-02 0. 0. 0. 0. -1.91786110e-01 -1.82206109e-01
      5.51908128e-02 6.40903786e-02 -1.13729164e-02 0. 0. 0. 0.
      1.14561155e-01 -1.22495942e-01 3.92977260e-02 -8.67323130e-02
      -7.97922909e-02 0. 0. 0. 0. 2.14222390e-02 -1.56160802e-01
      -1.43607408e-01 -2.18238398e-01 -1.60337776e-01 0. 0. 0. 0.
      3.18342000e-02 -1.78104863e-01 2.12097517e-03 8.10307488e-02
      -2.13427007e-01 0. 0. 0. 0. 1.40679730e-02 -2.53172696e-01
      2.01097429e-01 -4.94859256e-02 3.14610511e-01 0. 0. 0. 0.
      -1.83591202e-01 -1.59396797e-01 1.00726232e-01 -2.16938138e-01
      -1.09599277e-01 0. 0. 0. 0. -7.96850100e-02 -1.37384564e-01
      -9.46354568e-02 -2.37444684e-01 1.92443550e-01 0. 0. 0. 0.
      2.69716024e-01 -2.42944628e-01 -7.27029052e-03 -5.20766899e-02
      2.08650216e-01 0. 0. 0. 0. -6.13170154e-02 -2.14323089e-01
      1.98690534e-01 -1.69491127e-01 1.33796141e-01 0. 0. 0. 0.
      -1.45154312e-01 -1.60881892e-01 -1.02501221e-01 -2.90862054e-01
      -3.69955331e-01 0. 0. 0. 0. -1.33408725e-01 1.30516859e-02
      -2.39768609e-01 -2.57973373e-02 -4.45358455e-02 0. 0. 0. 0.
      2.14049712e-01 -2.04423651e-01 3.90808992e-02 -1.69960260e-01
      1.34842917e-01 0. 0. 0. 0. 1.94803327e-01 -1.62350591e-02
      2.40130156e-01 5.29081225e-02 -5.39885322e-03 0. 0. 0. 0.
      -2.18972474e-01 1.52025204e-02 3.94572318e-02 -2.67802496e-02
      -9.58473906e-02 0. 0. 0. 0. -2.61968076e-01 8.46781507e-02
      -1.27356991e-01 -9.47174653e-02 -1.26456738e-01 0. 0. 0. 0.
      -2.26992950e-01 1.35807144e-02 -1.04647189e-01 6.41809106e-02
      1.10417075e-01 0. 0. 0. 0. 2.07174450e-01 -1.18445255e-01
      -1.95467725e-01 -4.66520563e-02 1.19463392e-01 0. 0. 0. 0.
      -8.32189396e-02 6.15978725e-02 1.59184709e-01 -1.10919259e-01
      -1.29485667e-01 0. 0. 0. 0. 2.41874874e-01 2.46553831e-02
      -7.96677098e-02 -1.42825292e-02 -5.63238189e-02 0. 0. 0. 0.
      -2.26073191e-01 -1.35055646e-01 -4.27930832e-01 -5.61448224e-02
      -3.03505123e-01 0. 0. 0. 0. 1.42994508e-01 -8.39389116e-02
      -6.03295416e-02 4.27094586e-02 -2.57320870e-02 0. 0. 0. 0.
      -2.67812878e-01 -1.97782859e-01 -2.20646411e-02 1.97020117e-02
      -1.47446871e-01 0. 0. 0. 0. -1.25179023e-01 -5.21499179e-02
      -2.50188410e-01 3.38974483e-02 1.12165790e-02 0. 0. 0. 0.
      2.43035480e-02 -2.95782145e-02 -2.64290839e-01 -4.70198952e-02
      6.78579509e-02 0. 0. 0. 0. -2.77585715e-01 -1.48064703e-01
      2.63425469e-01 3.69729847e-02 1.06426142e-02 0. 0. 0. 0.
      -2.28639260e-01 -3.09673976e-02 1.72739759e-01 3.19492705e-02
      -1.27965748e-01 0. 0. 0. 0. -1.73830852e-01 -1.77985430e-01
      -2.32437834e-01 4.37488332e-02 -3.02957408e-02 0. 0. 0. 0.
      5.05886190e-02 -1.14716381e-01 -2.49309316e-01 7.04506040e-02
      2.05788299e-01 0. 0. 0. 0. 1.60497382e-01 -9.62985232e-02
      -1.92269400e-01 8.20465460e-02 1.11656368e-01 0. 0. 0. 0.
      -5.79207689e-02 -1.78209171e-01 9.11112353e-02 8.12689811e-02
      -5.89314640e-01 0. 0. 0. 0. -3.79667729e-01 -2.76984006e-01
      5.65944426e-03 -4.55738343e-02 3.83456200e-01 0. 0. 0. 0.
      -1.04049742e-01 -7.81745762e-02 -3.66670359e-03 8.78639221e-02
      2.39264727e-01 0. 0. 0. 0. 1.65184021e-01 6.99216500e-02
      -2.26655472e-02 -3.14770602e-02 -1.04887240e-01 0. 0. 0. 0.
      -4.21540588e-01 -2.67305583e-01 2.60518044e-01 -7.42914481e-03
      -2.58888721e-01 0. 0. 0. 0. 4.10665348e-02 -1.93019733e-01
      9.26092193e-02 -1.78006247e-01 6.78116530e-02 0. 0. 0. 0.
      2.02917784e-01 7.09623396e-02 -3.25204462e-01 -4.78997407e-03
      8.92507881e-02 0. 0. 0. 0. 1.63833976e-01 -6.18292205e-02
      -7.19792023e-02 -3.50292288e-02 1.37741357e-01 0. 0. 0. 0.
      -1.31267726e-01 -1.92903578e-01 -1.46280257e-02 -1.80278167e-01
      -1.49267465e-01 0. 0. 0. 0. 1.16616353e-01 1.45581169e-02
      -1.29536733e-01 7.49264583e-02 -3.82868171e-01 0. 0. 0. 0.
      -3.20666343e-01 -5.52300476e-02 -1.31970152e-01 -1.90696009e-02
      1.61721185e-02 0. 0. 0. 0. -1.89205687e-02 3.19474488e-02
      -1.32595211e-01 -2.14953590e-02 2.27548629e-01 0. 0. 0. 0.
      -2.16972485e-01 2.61621773e-02 -2.04920471e-02 6.56193495e-02
      -5.61884902e-02 0. 0. 0. 0. 6.60461113e-02 -1.26717880e-01
      1.47371590e-01 -3.58862765e-02 -3.30520198e-02 0. 0. 0. 0.
      6.43500984e-02 8.14933702e-03 -3.30102205e-01 -2.67069452e-02
      -5.83288312e-01 0. 0. 0. 0. -1.32483274e-01 -8.50958750e-02
      -1.90711066e-01 -3.92743349e-02 2.76495010e-01 0. 0. 0. 0.
      -1.33210018e-01 -1.16045818e-01 2.38800555e-01 -3.03489193e-02
      -2.62200385e-01 0. 0. 0. 0. -2.05214515e-01 -4.77444828e-02
      -5.57560734e-02 3.02879326e-02 -1.32953435e-01 0. 0. 0. 0.
      -3.30661029e-01 -1.10095434e-01 -2.25449398e-01 -6.02567606e-02
      -2.65360087e-01 0. 0. 0. 0. 4.05072302e-01 -1.72473475e-01
      -3.23081389e-02 8.31624195e-02 -1.68832466e-01 0. 0. 0. 0.
      -2.44163528e-01 4.88038408e-03 1.26790598e-01 -3.95474620e-02
      -1.28411844e-01 0. 0. 0. 0. -2.21161902e-01 -1.55740738e-01
      -1.41139686e-01 4.17511910e-02 -1.00730564e-02 0. 0. 0. 0.
      -1.08509652e-01 -4.93819937e-02 -2.71424711e-01 6.57134205e-02
      8.13282803e-02 0. 0. 0. 0. 4.29923050e-02 -7.20481351e-02
      1.67898163e-01 1.34726629e-01 -1.61587149e-01 0. 0. 0. 0.
      -1.04289632e-02 -1.01430677e-01 -3.80582251e-02 8.43783021e-02
      -5.81642687e-02 0. 0. 0. 0. -6.78364635e-02 -1.06569722e-01
      -4.25155967e-01 9.50655192e-02 3.18885148e-02 0. 0. 0. 0.
      5.09716943e-02 -1.09813109e-01 -1.24006689e-01 1.54605970e-01
      -1.65172771e-01 0. 0. 0. 0. -1.14776261e-01 -2.20779479e-01
      -1.42212972e-01 1.52288198e-01 4.58193272e-02 0. 0. 0. 0.
      2.64925249e-02 -9.41864476e-02 2.13328928e-01 8.37733895e-02
      -4.28511612e-02 0. 0. 0. 0. -7.71739483e-02 6.24545589e-02
      1.67266431e-03 -2.13152431e-02 -7.20859542e-02 0. 0. 0. 0.
      -4.45222437e-01 -2.23788187e-01 1.90889630e-02 1.59466013e-01
      -5.89806028e-02 0. 0. 0. 0. -2.93075383e-01 -1.48459986e-01
      -1.01207502e-01 1.80454016e-01 -1.72126696e-01 0. 0. 0. 0.
      -7.21500933e-01 9.22663659e-02 1.10805139e-01 -3.28278588e-03
      -8.95443261e-02 0. 0. 0. 0. -6.48235753e-02 -5.03857695e-02
      1.28823534e-01 -4.27594073e-02 -4.83764820e-02 0. 0. 0. 0.
      7.18399510e-02 -1.22493319e-01 -1.96681872e-01 1.97909012e-01
      -1.22656608e-02 0. 0. 0. 0. 2.23471954e-01 -1.62059262e-01
      1.21642441e-01 -8.11717808e-02 1.35786563e-01 0. 0. 0. 0.
      -9.64151993e-02 -8.24895203e-02 2.05834329e-01 -4.29448634e-02
      -1.64410010e-01 0. 0. 0. 0. -1.72069520e-01 1.18026026e-02
      -1.68748483e-01 -4.94489335e-02 1.69845279e-02 0. 0. 0. 0.
      -1.52787670e-01 -1.95361882e-01 5.58480695e-02 -6.99628741e-02
      -2.11167321e-01 0. 0. 0. 0. 2.90570349e-01 -5.36680259e-02
      3.97493830e-03 1.37620002e-01 5.61676398e-02 0. 0. 0. 0.
      -1.94569230e-01 8.57644062e-03 1.44482538e-01 -3.32299247e-02
      -3.84784862e-02 0. 0. 0. 0. 1.39901564e-01 -1.07327074e-01
      -4.05179530e-01 -1.34419445e-02 1.67300269e-01 0. 0. 0. 0.
      -4.66927402e-02 -6.71962649e-02 -1.84377596e-01 1.27631754e-01
      -1.72838464e-01 0. 0. 0. 0. -2.93185651e-01 -1.54072642e-01
      -1.09536283e-01 -2.70570945e-02 -4.44813520e-02 0. 0. 0. 0.
      -1.29835084e-01 -1.07668348e-01 3.87308657e-01 -2.62973402e-02
      -1.78770781e-01 0. 0. 0. 0. -4.03598785e-01 -1.74537033e-01
      1.65824682e-01 1.08945437e-01 -3.45366895e-02 0. 0. 0. 0.
      -2.72110730e-01 -1.54026881e-01 -2.32969180e-01 -3.11990436e-02
      -2.89974529e-02 0. 0. 0. 0. -1.27462253e-01 -9.53900889e-02
      -2.11776085e-02 1.15252078e-01 1.32790565e-01 0. 0. 0. 0.
      -2.16344729e-01 -8.43735188e-02 1.78397208e-01 6.37833178e-02
      7.73347169e-02 0. 0. 0. 0. -3.05107951e-01 -1.56758487e-01
      -1.90423504e-01 1.18458658e-01 -1.15378529e-01 0. 0. 0. 0.
      -8.41621161e-02 9.96988043e-02 1.10215113e-01 1.61310092e-01
      2.13503137e-01 0. 0. 0. 0. 1.13135211e-01 1.74175724e-02
      3.16715688e-02 1.39362127e-01 2.07599878e-01 0. 0. 0. 0.
      -1.09810181e-01 -1.48995534e-01 1.77150562e-01 1.45016178e-01
      -1.53156102e-01 0. 0. 0. 0. 1.47380695e-01 -2.55733967e-01
      -8.17363486e-02 1.22144356e-01 -1.35082066e-01 0. 0. 0. 0.
      -1.64612532e-01 6.57937154e-02 -8.85126889e-02 1.41147345e-01
      -1.42703444e-01 0. 0. 0. 0. -4.04876053e-01 -7.73563161e-02
      1.08238935e-01 1.53182775e-01 3.18580121e-01 0. 0. 0. 0.
      -1.16405770e-01 -2.08293989e-01 2.04449713e-01 1.39477909e-01
      -7.82938153e-02 0. 0. 0. 0. -1.20884359e-01 -1.71647593e-01
      -4.67122465e-01 1.53251037e-01 1.12828672e-01 0. 0. 0. 0.
      8.94390494e-02 -8.30515549e-02 -2.28201777e-01 1.65235087e-01
      -6.46797866e-02 0. 0. 0. 0. 1.12221755e-01 4.47321538e-04
      -1.79004192e-01 1.53860286e-01 -1.56410754e-01 0. 0. 0. 0.
      -1.25003338e-01 -1.59955338e-01 1.15982600e-01 1.59335941e-01
      -1.22023165e-01 0. 0. 0. 0. -2.40948494e-03 -2.09529430e-01
      -3.36705327e-01 -1.05781034e-01 -3.80646214e-02 0. 0. 0. 0.
      -1.98246837e-01 5.77797228e-03 7.47440606e-02 1.69204131e-01
      -1.41738936e-01 0. 0. 0. 0. -4.19234931e-02 7.75266672e-03
      2.89727096e-02 1.03145791e-03 1.51615441e-01 0. 0. 0. 0.
      -1.41018331e-01 -2.30947003e-01 1.12293079e-01 -1.03498660e-01
      -1.94478333e-01 0. 0. 0. 0. -2.10175648e-01 -8.93088281e-02
      -1.40085697e-01 9.33250263e-02 2.34741569e-02 0. 0. 0. 0.
      7.80175030e-02 1.69763956e-02 2.02207893e-01 2.93857302e-03
      8.68771970e-02 0. 0. 0. 0. -1.83169484e-01 -5.84405027e-02
      -9.84601080e-02 7.57133812e-02 -2.48218641e-01 0. 0. 0. 0.
      -2.91195363e-01 -8.89313892e-02 -1.31082624e-01 1.15765534e-01
      -1.27604362e-02 0. 0. 0. 0. -1.71085238e-01 -1.86994746e-01
      -1.75174445e-01 -1.94382276e-02 -1.19339973e-01 0. 0. 0. 0.
      1.24475509e-01 -5.81434965e-02 -3.19732219e-01 8.34298208e-02
      5.32687129e-03 0. 0. 0. 0. -1.49055228e-01 -1.28497958e-01
      -1.03980422e-01 1.36101842e-01 2.13187784e-01 0. 0. 0. 0.
      -1.12204276e-01 -1.82221889e-01 9.60531905e-02 -3.91328596e-02
      -9.47832968e-03 0. 0. 0. 0. -2.87251562e-01 -1.16113320e-01
      -4.61632246e-03 1.51281610e-01 1.82461455e-01 0. 0. 0. 0.
      -2.72465944e-01 -1.31460965e-01 -2.62601107e-01 1.49557799e-01
      4.81553152e-02 0. 0. 0. 0. -5.20892143e-01 -4.04524617e-02
      7.39978999e-02 7.82618001e-02 2.71457434e-01</_></support_vectors>
  <decision_functions>
    <_>
      <sv_count>1</sv_count>
      <rho>-4.4103721776926790e+00</rho>
      <alpha>
        1.</alpha>
      <index>
        0</index></_></decision_functions></my_svm>
</opencv_storage>
