<?xml version="1.0"?>
<opencv_storage>
<my_svm type_id="opencv-ml-svm">
  <svm_type>C_SVC</svm_type>
  <kernel><type>LINEAR</type></kernel>
  <C>2.6699999999999999e+00</C>
  <term_criteria><epsilon>1.1920928955078125e-07</epsilon>
    <iterations>1000</iterations></term_criteria>
  <var_all>3780</var_all>
  <var_count>3780</var_count>
  <class_count>2</class_count>
  <class_labels type_id="opencv-matrix">
    <rows>1</rows>
    <cols>2</cols>
    <dt>i</dt>
    <data>
      0 1</data></class_labels>
  <sv_total>1</sv_total>
  <support_vectors>
    <_>
      -3.92317772e-02 -6.48617297e-02 -8.53297673e-03 -5.34521043e-03
      1.38236210e-01 1.38236210e-01 -3.11001225e-14 -3.11001225e-14
      -3.11001225e-14 -9.09720957e-02 1.28855243e-01 9.05867592e-02
      -8.49005673e-03 1.60518453e-01 1.60518453e-01 -3.11001225e-14
      -3.11001225e-14 -3.11001225e-14 -4.15916264e-01 -1.39508191e-02
      -5.19371405e-02 -5.94659075e-02 -4.94591817e-02 -4.94591817e-02
      -3.11001225e-14 -3.11001225e-14 -3.11001225e-14 -1.80254519e-01
      -1.09618187e-01 1.10092573e-01 1.15946963e-01 -1.98005617e-01
      -1.98005617e-01 -3.11001225e-14 -3.11001225e-14 -3.11001225e-14
      -8.13661143e-02 -1.12779029e-01 5.84741384e-02 6.47183210e-02
      -1.26428112e-01 -1.26428112e-01 -3.11001225e-14 -3.11001225e-14
      -3.11001225e-14 -1.22643247e-01 -9.60142761e-02 4.91797104e-02
      1.69723794e-01 4.00912166e-02 4.00912166e-02 -3.11001225e-14
      -3.11001225e-14 -3.11001225e-14 8.14460516e-02 1.81037590e-01
      1.41207829e-01 8.28191862e-02 3.52321491e-02 3.52321491e-02
      -3.11001225e-14 -3.11001225e-14 -3.11001225e-14 1.72333997e-02
      2.09076226e-01 -3.48830298e-02 7.37615675e-02 -5.42252399e-02
      -5.42252399e-02 -3.11001225e-14 -3.11001225e-14 -3.11001225e-14
      2.45427370e-01 1.02001145e-01 8.55020061e-03 8.71824920e-02
      -8.28796700e-02 -8.28796700e-02 -3.11001225e-14 -3.11001225e-14
      -3.11001225e-14 3.91873531e-02 8.99372697e-02 -1.12370685e-01
      -9.74714607e-02 5.86347729e-02 5.86347729e-02 -3.11001225e-14
      -3.11001225e-14 -3.11001225e-14 -1.11317620e-01 -1.49793709e-02
      -4.31710519e-02 -4.65900153e-02 -1.98716559e-02 -1.98716559e-02
      -3.11001225e-14 -3.11001225e-14 -3.11001225e-14 -1.81063488e-01
      2.89020222e-02 5.56283407e-02 9.84009728e-02 3.63501944e-02
      3.63501944e-02 -3.11001225e-14 -3.11001225e-14 -3.11001225e-14
      -4.80187871e-02 -1.99622940e-02 -5.16878143e-02 -4.14356180e-02
      2.67002899e-02 2.67002899e-02 -3.11001225e-14 -3.11001225e-14
      -3.11001225e-14 -8.51699039e-02 1.11720199e-02 -2.82811876e-02
      -9.72307324e-02 -2.86617260e-02 -2.86617260e-02 -3.11001225e-14
      -3.11001225e-14 -3.11001225e-14 8.10822174e-02 -8.38056803e-02
      9.46685672e-02 9.29182768e-02 -1.91430330e-01 -1.91430330e-01
      -3.11001225e-14 -3.11001225e-14 -3.11001225e-14 -4.76023555e-02
      3.18607539e-01 -1.31384343e-01 -7.09367990e-02 9.36829373e-02
      9.36829373e-02 -3.11001225e-14 -3.11001225e-14 -3.11001225e-14
      5.67263626e-02 3.29663754e-02 2.95936689e-02 8.43421463e-03
      -5.72033823e-02 -5.72033823e-02 -3.11001225e-14 -3.11001225e-14
      -3.11001225e-14 -1.26630604e-01 -3.13312039e-02 -8.31799805e-02
      -1.10315368e-01 5.38451262e-02 5.38451262e-02 -3.11001225e-14
      -3.11001225e-14 -3.11001225e-14 3.38026956e-02 -1.16955072e-01
      -4.22147401e-02 -2.97645442e-02 2.72598546e-02 2.72598546e-02
      -3.11001225e-14 -3.11001225e-14 -3.11001225e-14 4.55389880e-02
      7.73424804e-02 -5.25998138e-02 -1.67552270e-02 -1.44641818e-02
      -1.44641818e-02 -3.11001225e-14 -3.11001225e-14 -3.11001225e-14
      -1.12862408e-01 9.71754938e-02 -7.19256476e-02 -9.22360644e-02
      7.79667422e-02 7.79667422e-02 -3.11001225e-14 -3.11001225e-14
      -3.11001225e-14 -2.40056887e-02 2.57886112e-01 -9.86763239e-02
      -9.86761451e-02 -2.06682868e-02 -2.06682868e-02 -3.11001225e-14
      -3.11001225e-14 -3.11001225e-14 1.49867028e-01 8.23388323e-02
      -1.67515427e-02 -5.38125448e-02 3.34043503e-02 3.34043503e-02
      -3.11001225e-14 -3.11001225e-14 -3.11001225e-14 -5.71580864e-02
      5.16344011e-02 1.13560110e-01 1.70931458e-01 1.33309275e-01
      1.33309275e-01 -3.11001225e-14 -3.11001225e-14 -3.11001225e-14
      1.00397304e-01 2.21618842e-02 -3.27007957e-02 -1.77015178e-02
      1.37592964e-02 1.37592964e-02 -3.11001225e-14 -3.11001225e-14
      -3.11001225e-14 -7.73279816e-02 -1.20644838e-01 -9.07818004e-02
      -8.80306661e-02 3.19509543e-02 3.19509543e-02 -3.11001225e-14
      -3.11001225e-14 -3.11001225e-14 -6.96083754e-02 3.01096410e-01
      1.07023597e-01 5.53756766e-02 1.98370386e-02 1.98370386e-02
      -3.11001225e-14 -3.11001225e-14 -3.11001225e-14 4.65390906e-02
      2.10920796e-02 -7.48203918e-02 -1.51346400e-01 -6.55472577e-02
      -6.55472577e-02 -3.11001225e-14 -3.11001225e-14 -3.11001225e-14
      6.56439364e-02 -6.58018813e-02 -4.44679037e-02 -2.41954904e-02
      -4.61197691e-03 -4.61197691e-03 -3.11001225e-14 -3.11001225e-14
      -3.11001225e-14 1.34141177e-01 7.72805363e-02 -5.38263172e-02
      -1.42812565e-01 2.43478399e-02 2.43478399e-02 -3.11001225e-14
      -3.11001225e-14 -3.11001225e-14 1.44769907e-01 2.37914085e-01
      4.89722490e-02 1.42527241e-02 1.06984146e-01 1.06984146e-01
      -3.11001225e-14 -3.11001225e-14 -3.11001225e-14 -2.15366349e-01
      8.05636644e-02 3.63072529e-02 4.21770066e-02 -1.34486452e-01
      -1.34486452e-01 -3.11001225e-14 -3.11001225e-14 -3.11001225e-14
      -3.00469659e-02 3.82533148e-02 1.73896253e-02 -3.16468142e-02
      -3.16142738e-02 -3.16142738e-02 -3.11001225e-14 -3.11001225e-14
      -3.11001225e-14 3.59783210e-02 -2.56948382e-01 -3.63201797e-02
      -2.32702177e-02 1.16091527e-01 1.16091527e-01 -3.11001225e-14
      -3.11001225e-14 -3.11001225e-14 3.82894166e-02 2.88328566e-02
      1.37831032e-01 8.75497907e-02 -4.83339764e-02 -4.83339764e-02
      -3.11001225e-14 -3.11001225e-14 -3.11001225e-14 -5.19870482e-02
      8.45323801e-02 -2.14917455e-02 -4.67204489e-02 -4.39097285e-02
      -4.39097285e-02 -3.11001225e-14 -3.11001225e-14 -3.11001225e-14
      -2.37626266e-02 -1.63503319e-01 -4.05372027e-03 -3.71737629e-02
      7.68284826e-03 7.68284826e-03 -3.11001225e-14 -3.11001225e-14
      -3.11001225e-14 -7.98342749e-02 5.09198867e-02 9.22022983e-02
      8.79403427e-02 2.63880994e-02 2.63880994e-02 -3.11001225e-14
      -3.11001225e-14 -3.11001225e-14 1.06634825e-01 5.09142838e-02
      5.05804047e-02 3.00156660e-02 -1.01793837e-02 -1.01793837e-02
      -3.11001225e-14 -3.11001225e-14 -3.11001225e-14 4.47451472e-02
      1.09452367e-01 -9.09457430e-02 -3.29991877e-02 2.38915402e-02
      2.38915402e-02 -3.11001225e-14 -3.11001225e-14 -3.11001225e-14
      -2.30604112e-02 -4.30368073e-02 -1.44210711e-01 -1.30057946e-01
      -8.64144415e-02 -8.64144415e-02 -3.11001225e-14 -3.11001225e-14
      -3.11001225e-14 -1.38157159e-01 2.20129818e-01 5.34619614e-02
      1.52460828e-01 8.38132426e-02 8.38132426e-02 -3.11001225e-14
      -3.11001225e-14 -3.11001225e-14 8.54387432e-02 6.50996268e-02
      -4.70183045e-02 -2.41865348e-02 -5.76247880e-03 -5.76247880e-03
      -3.11001225e-14 -3.11001225e-14 -3.11001225e-14 3.16196419e-02
      -1.91748545e-01 3.95350493e-02 9.27985534e-02 -3.57954018e-02
      -3.57954018e-02 -3.11001225e-14 -3.11001225e-14 -3.11001225e-14
      -1.94241390e-01 5.75981475e-02 5.50593138e-02 6.90537095e-02
      -4.58078049e-02 -4.58078049e-02 -3.11001225e-14 -3.11001225e-14
      -3.11001225e-14 -2.63885420e-04 -7.48400912e-02 6.37937486e-02
      4.47422415e-02 5.73183410e-02 5.73183410e-02 -3.11001225e-14
      -3.11001225e-14 -3.11001225e-14 1.97204843e-01 -2.67503355e-02
      -1.35452256e-01 -1.59167632e-01 -9.59506705e-02 -9.59506705e-02
      -3.11001225e-14 -3.11001225e-14 -3.11001225e-14 -1.30455568e-01
      1.05007105e-01 1.07614197e-01 6.68597743e-02 -7.01425672e-02
      -7.01425672e-02 -3.11001225e-14 -3.11001225e-14 -3.11001225e-14
      8.81401226e-02 -7.22980276e-02 6.31473362e-02 7.89215490e-02
      5.60689270e-02 5.60689270e-02 -3.11001225e-14 -3.11001225e-14
      -3.11001225e-14 -1.36433750e-01 1.01947218e-01 -1.28166184e-01
      -1.22836351e-01 2.33735386e-02 2.33735386e-02 -3.11001225e-14
      -3.11001225e-14 -3.11001225e-14 6.69410378e-02 -2.73267590e-02
      -9.44091380e-02 -1.17239170e-01 -5.83278239e-02 -5.83278239e-02
      -3.11001225e-14 -3.11001225e-14 -3.11001225e-14 4.71405648e-02
      -1.99534222e-01 -3.77838947e-02 -3.60578708e-02 -6.57500848e-02
      -6.57500848e-02 -3.11001225e-14 -3.11001225e-14 -3.11001225e-14
      -5.10913506e-02 -4.20304015e-02 -7.01632500e-02 -3.69516499e-02
      1.26145437e-01 1.26145437e-01 -3.11001225e-14 -3.11001225e-14
      -3.11001225e-14 -1.87262878e-01 3.49080302e-02 1.10443376e-01
      6.85556531e-02 -7.01095015e-02 -7.01095015e-02 -3.11001225e-14
      -3.11001225e-14 -3.11001225e-14 1.41340271e-01 2.39471465e-01
      4.87843826e-02 3.84817012e-02 -4.87698428e-02 -4.87698428e-02
      -3.11001225e-14 -3.11001225e-14 -3.11001225e-14 8.38377848e-02
      -3.34991701e-02 4.12642062e-02 -5.12536243e-02 -2.04422399e-02
      -2.04422399e-02 -3.11001225e-14 -3.11001225e-14 -3.11001225e-14
      7.22095072e-02 -1.65166184e-02 5.55564323e-03 -4.20062840e-02
      -1.90336555e-02 -1.90336555e-02 -3.11001225e-14 -3.11001225e-14
      -3.11001225e-14 9.19898003e-02 1.44294977e-01 1.29293939e-02
      7.93539267e-03 -6.49922043e-02 -6.49922043e-02 -3.11001225e-14
      -3.11001225e-14 -3.11001225e-14 -9.35603902e-02 1.26835525e-01
      7.99657777e-02 1.21478364e-01 -2.72522904e-02 -2.72522904e-02
      -3.11001225e-14 -3.11001225e-14 -3.11001225e-14 -7.06388876e-02
      1.50801182e-01 5.73032200e-02 6.83466718e-02 1.11278161e-01
      1.11278161e-01 -3.11001225e-14 -3.11001225e-14 -3.11001225e-14
      5.70421331e-02 -6.56432807e-02 -8.11589435e-02 -6.71763644e-02
      -1.36713371e-01 -1.36713371e-01 -3.11001225e-14 -3.11001225e-14
      -3.11001225e-14 -6.20676875e-02 1.13919161e-01 5.54007478e-02
      1.01838261e-01 2.72167046e-02 2.72167046e-02 -3.11001225e-14
      -3.11001225e-14 -3.11001225e-14 2.09380556e-02 -1.94212839e-01
      -6.58790767e-02 -6.40129596e-02 2.21820939e-02 2.21820939e-02
      -3.11001225e-14 -3.11001225e-14 -3.11001225e-14 -7.14621246e-02
      9.03873369e-02 3.60877626e-02 -2.61984002e-02 3.17650102e-02
      3.17650102e-02 -3.11001225e-14 -3.11001225e-14 -3.11001225e-14
      -3.20909023e-02 -5.29313907e-02 -1.26332119e-01 -1.44258991e-01
      8.91069882e-03 8.91069882e-03 -3.11001225e-14 -3.11001225e-14
      -3.11001225e-14 2.91361324e-02 -1.04800969e-01 1.90313887e-02
      5.04011065e-02 9.34908763e-02 9.34908763e-02 -3.11001225e-14
      -3.11001225e-14 -3.11001225e-14 6.39630631e-02 2.26317942e-01
      7.19247311e-02 -5.07203154e-02 -1.29830530e-02 -1.29830530e-02
      -3.11001225e-14 -3.11001225e-14 -3.11001225e-14 -1.32251522e-02
      -2.08024252e-02 8.31592157e-02 8.19377825e-02 -4.16354127e-02
      -4.16354127e-02 -3.11001225e-14 -3.11001225e-14 -3.11001225e-14
      1.00794151e-01 -3.96578498e-02 -2.47219056e-02 -6.29845858e-02
      -4.40682769e-02 -4.40682769e-02 -3.11001225e-14 -3.11001225e-14
      -3.11001225e-14 2.53799860e-03 -5.59030734e-02 3.90227176e-02
      -1.72986835e-02 5.88424765e-02 5.88424765e-02 -3.11001225e-14
      -3.11001225e-14 -3.11001225e-14 -7.69494548e-02 2.39695773e-01
      1.42908068e-02 2.10868358e-03 -6.81911558e-02 -6.81911558e-02
      -3.11001225e-14 -3.11001225e-14 -3.11001225e-14 -2.63827648e-02
      4.54134215e-03 -7.27507547e-02 3.40154096e-02 9.25759599e-03
      9.25759599e-03 -3.11001225e-14 -3.11001225e-14 -3.11001225e-14
      1.49460167e-01 1.39601663e-01 1.51955351e-01 1.64627552e-01
      -2.55395416e-02 -2.55395416e-02 -3.11001225e-14 -3.11001225e-14
      -3.11001225e-14 3.98740731e-02 5.01755401e-02 4.08194512e-02
      2.26982795e-02 3.17787193e-02 3.17787193e-02 -3.11001225e-14
      -3.11001225e-14 -3.11001225e-14 -4.17988561e-02 -1.03888094e-01
      -5.08958139e-02 7.96322618e-03 -5.65046780e-02 -5.65046780e-02
      -3.11001225e-14 -3.11001225e-14 -3.11001225e-14 -1.91694662e-01
      1.12795331e-01 3.20876203e-03 -5.02013676e-02 6.10628584e-03
      6.10628584e-03 -3.11001225e-14 -3.11001225e-14 -3.11001225e-14
      -1.20169766e-01 -2.15230182e-01 -8.96019489e-02 -7.44494870e-02
      -6.88329861e-02 -6.88329861e-02 -3.11001225e-14 -3.11001225e-14
      -3.11001225e-14 -1.13438569e-01 -4.01464924e-02 -1.25737906e-01
      -1.04193255e-01 -7.48250447e-03 -7.48250447e-03 -3.11001225e-14
      -3.11001225e-14 -3.11001225e-14 8.78996029e-02 1.18686318e-01
      8.95728394e-02 8.42823982e-02 8.44598189e-02 8.44598189e-02
      -3.11001225e-14 -3.11001225e-14 -3.11001225e-14 1.01549394e-01
      1.46127939e-01 2.47810166e-02 -6.62575616e-03 1.29306468e-03
      1.29306468e-03 -3.11001225e-14 -3.11001225e-14 -3.11001225e-14
      -8.43183026e-02 4.21200395e-02 3.94352600e-02 1.05946623e-01
      2.73703467e-02 2.73703467e-02 -3.11001225e-14 -3.11001225e-14
      -3.11001225e-14 -6.75842818e-03 -2.81575676e-02 6.35126159e-02
      1.93531830e-02 -7.40630552e-02 -7.40630552e-02 -3.11001225e-14
      -3.11001225e-14 -3.11001225e-14 2.08679989e-01 1.00815125e-01
      2.24866662e-02 7.16695115e-02 -6.49874425e-03 -6.49874425e-03
      -3.11001225e-14 -3.11001225e-14 -3.11001225e-14 -1.17603257e-01
      -1.21633720e-03 1.87435329e-01 1.15900330e-01 5.31914271e-02
      5.31914271e-02 -3.11001225e-14 -3.11001225e-14 -3.11001225e-14
      -1.28161654e-01 -1.90509737e-01 -3.78064550e-02 -3.27403545e-02
      7.41660446e-02 7.41660446e-02 -3.11001225e-14 -3.11001225e-14
      -3.11001225e-14 1.23521000e-01 9.43933055e-02 -2.66506135e-01
      -3.56133997e-01 6.43161982e-02 6.43161982e-02 -3.11001225e-14
      -3.11001225e-14 -3.11001225e-14 -3.26293372e-02 8.08694884e-02
      -1.46262184e-01 -1.99190080e-01 -7.81473815e-02 -7.81473815e-02
      -3.11001225e-14 -3.11001225e-14 -3.11001225e-14 1.43398359e-01
      6.58258349e-02 2.63811380e-01 2.93940663e-01 4.57936041e-02
      4.57936041e-02 -3.11001225e-14 -3.11001225e-14 -3.11001225e-14
      9.17464960e-03 1.08646877e-01 1.33423284e-01 1.69060513e-01
      4.48952522e-03 4.48952522e-03 -3.11001225e-14 -3.11001225e-14
      -3.11001225e-14 2.60024872e-02 -9.09425020e-02 8.60837549e-02
      -2.37779841e-02 3.91898751e-02 3.91898751e-02 -3.11001225e-14
      -3.11001225e-14 -3.11001225e-14 8.27661753e-02 -1.89704910e-01
      -1.41789049e-01 -1.55473053e-01 -2.76141409e-02 -2.76141409e-02
      -3.11001225e-14 -3.11001225e-14 -3.11001225e-14 -1.17943324e-01
      1.72000468e-01 -7.77180046e-02 1.01905782e-02 -1.60651579e-02
      -1.60651579e-02 -3.11001225e-14 -3.11001225e-14 -3.11001225e-14
      -1.17958911e-01 -3.39719832e-01 -1.03360847e-01 -2.14270845e-01
      7.47321919e-02 7.47321919e-02 -3.11001225e-14 -3.11001225e-14
      -3.11001225e-14 3.72174978e-02 2.98552334e-01 7.89183825e-02
      1.18589692e-01 -4.38168384e-02 -4.38168384e-02 -3.11001225e-14
      -3.11001225e-14 -3.11001225e-14 -1.37774199e-02 1.62840560e-02
      3.29201221e-02 7.54718855e-02 -2.79654115e-02 -2.79654115e-02
      -3.11001225e-14 -3.11001225e-14 -3.11001225e-14 9.45188850e-02
      2.48833392e-02 -8.47769901e-03 2.02092770e-02 -2.94987089e-03
      -2.94987089e-03 -3.11001225e-14 -3.11001225e-14 -3.11001225e-14
      -3.57208438e-02 -9.96145979e-02 -4.94134650e-02 -1.07905112e-01
      -1.49678603e-01 -1.49678603e-01 -3.11001225e-14 -3.11001225e-14
      -3.11001225e-14 -1.24996684e-01 -9.90677401e-02 -1.07943527e-01
      3.50883827e-02 8.43023211e-02 8.43023211e-02 -3.11001225e-14
      -3.11001225e-14 -3.11001225e-14 5.45044951e-02 1.32644266e-01
      1.08143449e-01 5.26880920e-02 2.73617879e-02 2.73617879e-02
      -3.11001225e-14 -3.11001225e-14 -3.11001225e-14 1.06212996e-01
      6.60380423e-02 4.92135063e-02 2.01284774e-02 3.80144715e-02
      3.80144715e-02 -3.11001225e-14 -3.11001225e-14 -3.11001225e-14
      -1.82960957e-01 1.20453075e-01 -1.41739860e-01 -6.99383616e-02
      -4.64303643e-02 -4.64303643e-02 -3.11001225e-14 -3.11001225e-14
      -3.11001225e-14 1.22528411e-02 -4.14818451e-02 1.60441007e-02
      -4.74209003e-02 8.05925503e-02 8.05925503e-02 -3.11001225e-14
      -3.11001225e-14 -3.11001225e-14 8.60071629e-02 -9.62963402e-02
      1.57236204e-01 1.32893071e-01 -1.15144541e-02 -1.15144541e-02
      -3.11001225e-14 -3.11001225e-14 -3.11001225e-14 8.47009942e-02
      1.73253026e-02 -2.21030451e-02 -6.09637238e-03 -2.26477049e-02
      -2.26477049e-02 -3.11001225e-14 -3.11001225e-14 -3.11001225e-14
      -5.95199987e-02 -5.53825982e-02 -1.46923795e-01 -1.87640727e-01
      3.48714143e-02 3.48714143e-02 -3.11001225e-14 -3.11001225e-14
      -3.11001225e-14 -7.12135732e-02 -2.01726034e-01 1.02251902e-01
      9.47584510e-02 1.39953271e-02 1.39953271e-02 -3.11001225e-14
      -3.11001225e-14 -3.11001225e-14 7.98155367e-03 8.37085471e-02
      -8.90441015e-02 1.57619524e-03 -4.20369580e-02 -4.20369580e-02
      -3.11001225e-14 -3.11001225e-14 -3.11001225e-14 1.22751892e-01
      1.73400134e-01 1.33716002e-01 9.13061053e-02 -6.82969904e-03
      -6.82969904e-03 -3.11001225e-14 -3.11001225e-14 -3.11001225e-14
      -1.13513879e-01 2.03448385e-01 -4.03768569e-02 6.60443446e-03
      9.46115181e-02 9.46115181e-02 -3.11001225e-14 -3.11001225e-14
      -3.11001225e-14 -9.91013646e-03 -1.33145079e-01 -9.28655639e-02
      -1.45820633e-01 3.68508464e-03 3.68508464e-03 -3.11001225e-14
      -3.11001225e-14 -3.11001225e-14 2.39384234e-01 -8.08911398e-02
      7.14075416e-02 9.62513834e-02 -8.28547180e-02 -8.28547180e-02
      -3.11001225e-14 -3.11001225e-14 -3.11001225e-14 -1.15960300e-01
      1.05877537e-02 6.18348643e-02 4.29647863e-02 -1.54418172e-02
      -1.54418172e-02 -3.11001225e-14 -3.11001225e-14 -3.11001225e-14
      -7.13578835e-02 -1.65695529e-02 3.85259325e-03 -1.39748696e-02
      -1.75116910e-03 -1.75116910e-03 -3.11001225e-14 -3.11001225e-14
      -3.11001225e-14 -5.55832498e-02 1.19014919e-01 -1.24454454e-01
      1.10132145e-02 9.82839018e-02 9.82839018e-02 -3.11001225e-14
      -3.11001225e-14 -3.11001225e-14 4.89388183e-02 -1.84240323e-02
      1.31432442e-02 2.04479881e-02 4.87363786e-02 4.87363786e-02
      -3.11001225e-14 -3.11001225e-14 -3.11001225e-14 7.80024678e-02
      6.58282489e-02 -1.36257544e-01 -9.67160314e-02 -3.91407236e-02
      -3.91407236e-02 -3.11001225e-14 -3.11001225e-14 -3.11001225e-14
      -8.02662894e-02 1.00963116e-01 -1.14299215e-01 -1.39143050e-01
      2.60116458e-02 2.60116458e-02 -3.11001225e-14 -3.11001225e-14
      -3.11001225e-14 3.51142548e-02 1.14495710e-01 -2.69912370e-02
      5.63493557e-02 -2.17923652e-02 -2.17923652e-02 -3.11001225e-14
      -3.11001225e-14 -3.11001225e-14 4.48298976e-02 -8.36751014e-02
      4.44429107e-02 1.29497815e-02 -1.01231538e-01 -1.01231538e-01
      -3.11001225e-14 -3.11001225e-14 -3.11001225e-14 3.22245818e-04
      -1.31783798e-01 9.68476087e-02 6.98439330e-02 9.70122069e-02
      9.70122069e-02 -3.11001225e-14 -3.11001225e-14 -3.11001225e-14
      -6.51026145e-02 -3.13078076e-01 -7.96660557e-02 -5.55879213e-02
      -9.65498164e-02 -9.65498164e-02 -3.11001225e-14 -3.11001225e-14
      -3.11001225e-14 1.74321368e-01 2.40946501e-01 7.48160109e-02
      5.25138415e-02 -1.45780640e-02 -1.45780640e-02 -3.11001225e-14
      -3.11001225e-14 -3.11001225e-14 9.63016674e-02 1.29969031e-01
      3.06287669e-02 -2.55995169e-02 2.46557053e-02 2.46557053e-02
      -3.11001225e-14 -3.11001225e-14 -3.11001225e-14 -2.05520496e-01
      3.84945795e-02 -2.57788207e-02 2.86736712e-02 8.64722505e-02
      8.64722505e-02 -3.11001225e-14 -3.11001225e-14 -3.11001225e-14
      -1.52760014e-01 -2.90705025e-01 9.31546185e-03 -4.23326381e-02
      -1.14752524e-01 -1.14752524e-01 -3.11001225e-14 -3.11001225e-14
      -3.11001225e-14 9.65244472e-02 -2.42654625e-02 -9.69035700e-02
      -1.38185874e-01 -9.26584285e-03 -9.26584285e-03 -3.11001225e-14
      -3.11001225e-14 -3.11001225e-14 6.02156967e-02 -8.60499218e-02
      1.60709564e-02 2.02883929e-02 -6.99172216e-03 -6.99172216e-03
      -3.11001225e-14 -3.11001225e-14 -3.11001225e-14 -3.98009922e-03
      4.01020527e-01 7.15171918e-02 1.60230011e-01 1.31009981e-01
      1.31009981e-01 -3.11001225e-14 -3.11001225e-14 -3.11001225e-14
      -4.79737036e-02 2.67020345e-01 -6.74225092e-02 -8.39708969e-02
      -2.51856819e-02 -2.51856819e-02 -3.11001225e-14 -3.11001225e-14
      -3.11001225e-14 7.12870136e-02 -2.48728961e-01 -1.78665686e-02
      1.69567335e-02 -7.82183278e-03 -7.82183278e-03 -3.11001225e-14
      -3.11001225e-14 -3.11001225e-14 -1.27220051e-02 -2.43640557e-01
      -7.33864903e-02 7.74345535e-04 1.43321574e-01 1.43321574e-01
      -3.11001225e-14 -3.11001225e-14 -3.11001225e-14 -1.05913123e-02
      2.25349233e-01 1.14516340e-01 2.20805630e-02 -1.10314034e-01
      -1.10314034e-01 -3.11001225e-14 -3.11001225e-14 -3.11001225e-14
      -1.07668810e-01 -1.05716243e-01 2.29957681e-02 8.05718228e-02
      -5.85855823e-03 -5.85855823e-03 -3.11001225e-14 -3.11001225e-14
      -3.11001225e-14 6.18644804e-02 4.81635630e-02 1.26303332e-02
      -2.57606767e-02 -2.27783732e-02 -2.27783732e-02 -3.11001225e-14
      -3.11001225e-14 -3.11001225e-14 -2.91939005e-02 -8.82061645e-02
      9.44514647e-02 -8.52283649e-03 -7.30042392e-03 -7.30042392e-03
      -3.11001225e-14 -3.11001225e-14 -3.11001225e-14 7.49982446e-02
      1.45758897e-01 -1.30077645e-01 -4.62883711e-02 3.59373018e-02
      3.59373018e-02 -3.11001225e-14 -3.11001225e-14 -3.11001225e-14
      -8.80959630e-02 3.03954119e-03 -3.88768874e-03 -1.78070366e-02
      -8.04507453e-03 -8.04507453e-03 -3.11001225e-14 -3.11001225e-14
      -3.11001225e-14 -1.32218868e-01 1.53864592e-01 7.60449469e-02
      5.57789393e-03 -7.39083290e-02 -7.39083290e-02 -3.11001225e-14
      -3.11001225e-14 -3.11001225e-14 1.01243727e-01 -1.50634706e-01
      -1.78788975e-01 -7.74449855e-02 8.72939732e-03 8.72939732e-03
      -3.11001225e-14 -3.11001225e-14 -3.11001225e-14 1.19071178e-01
      -6.26941444e-03 1.06631681e-01 8.96742046e-02 7.32239485e-02
      7.32239485e-02 -3.11001225e-14 -3.11001225e-14 -3.11001225e-14
      1.64017361e-03 -3.69665474e-02 -8.16567391e-02 -1.04515076e-01
      1.24330103e-01 1.24330103e-01 -3.11001225e-14 -3.11001225e-14
      -3.11001225e-14 -9.05478746e-02 9.49894562e-02 6.01300970e-02
      7.51392618e-02 -6.19979016e-02 -6.19979016e-02 -3.11001225e-14
      -3.11001225e-14 -3.11001225e-14 2.36249968e-01 3.59914266e-02
      -1.20406389e-01 -3.60316448e-02 5.68232723e-02 5.68232723e-02
      -3.11001225e-14 -3.11001225e-14 -3.11001225e-14 -4.80715185e-02
      5.25641581e-03 -1.08640820e-01 -2.06800234e-02 -1.98847707e-02
      -1.98847707e-02 -3.11001225e-14 -3.11001225e-14 -3.11001225e-14
      -5.18986620e-02 -1.50507748e-01 -1.67876646e-01 -1.94681823e-01
      -1.99711788e-02 -1.99711788e-02 -3.11001225e-14 -3.11001225e-14
      -3.11001225e-14 8.78015831e-02 6.92763627e-02 1.08223386e-01
      8.05972517e-02 1.32905573e-01 1.32905573e-01 -3.11001225e-14
      -3.11001225e-14 -3.11001225e-14 -1.09517306e-01 -1.50437847e-01
      9.70036760e-02 8.84794965e-02 -9.94018912e-02 -9.94018912e-02
      -3.11001225e-14 -3.11001225e-14 -3.11001225e-14 7.36144409e-02
      2.31669262e-01 -3.73503231e-02 2.56051682e-02 -1.35324979e-02
      -1.35324979e-02 -3.11001225e-14 -3.11001225e-14 -3.11001225e-14
      -3.53358202e-02 -5.93099333e-02 -6.84448108e-02 -2.00232118e-01
      3.92973609e-02 3.92973609e-02 -3.11001225e-14 -3.11001225e-14
      -3.11001225e-14 -1.04771651e-01 2.74137378e-01 1.53672704e-02
      1.07455984e-01 8.50624591e-02 8.50624591e-02 -3.11001225e-14
      -3.11001225e-14 -3.11001225e-14 9.75327939e-02 -1.90536186e-01
      8.18243176e-02 7.12038353e-02 -4.48009148e-02 -4.48009148e-02
      -3.11001225e-14 -3.11001225e-14 -3.11001225e-14 1.38906747e-01
      7.20407814e-02 6.75852299e-02 1.17904469e-01 1.67732108e-02
      1.67732108e-02 -3.11001225e-14 -3.11001225e-14 -3.11001225e-14
      -4.46940511e-02 2.34503113e-02 -1.38965920e-01 -1.10545821e-01
      -2.54110880e-02 -2.54110880e-02 -3.11001225e-14 -3.11001225e-14
      -3.11001225e-14 3.35177556e-02 -1.68025210e-01 -2.41596084e-02
      5.21163940e-02 1.01516806e-01 1.01516806e-01 -3.11001225e-14
      -3.11001225e-14 -3.11001225e-14 -1.57876371e-03 -4.63083014e-02
      3.15742902e-02 -1.05473408e-02 -7.38346651e-02 -7.38346651e-02
      -3.11001225e-14 -3.11001225e-14 -3.11001225e-14 1.27550960e-02
      1.90883115e-01 1.31551281e-01 6.89768195e-02 -2.27095210e-03
      -2.27095210e-03 -3.11001225e-14 -3.11001225e-14 -3.11001225e-14
      -2.83114463e-01 1.67069975e-02 -1.09554775e-01 -8.36864766e-03
      1.29585359e-02 1.29585359e-02 -3.11001225e-14 -3.11001225e-14
      -3.11001225e-14 5.92523739e-02 -2.50397734e-02 -1.32119402e-01
      -1.91818908e-01 -8.59438926e-02 -8.59438926e-02 -3.11001225e-14
      -3.11001225e-14 -3.11001225e-14 -1.57707334e-02 -8.55951309e-02
      9.75258723e-02 1.00502074e-01 3.84221300e-02 3.84221300e-02
      -3.11001225e-14 -3.11001225e-14 -3.11001225e-14 2.39632770e-01
      9.39278454e-02 1.44148305e-01 9.96855348e-02 3.45632322e-02
      3.45632322e-02 -3.11001225e-14 -3.11001225e-14 -3.11001225e-14
      -8.64924118e-02 -9.42174569e-02 -2.70907115e-02 -5.18684536e-02
      -6.80291746e-03 -6.80291746e-03 -3.11001225e-14 -3.11001225e-14
      -3.11001225e-14 4.05628458e-02 -1.00036256e-01 -2.26683393e-02
      8.30398872e-02 -6.65799677e-02 -6.65799677e-02 -3.11001225e-14
      -3.11001225e-14 -3.11001225e-14 -1.11145424e-02 1.89067647e-01
      4.98358607e-02 1.49119273e-02 3.43669765e-02 3.43669765e-02
      -3.11001225e-14 -3.11001225e-14 -3.11001225e-14 5.70441671e-02
      5.18604880e-03 -7.67518140e-05 -4.60831337e-02 3.90158743e-02
      3.90158743e-02 -3.11001225e-14 -3.11001225e-14 -3.11001225e-14
      2.69374363e-02 -7.89666921e-02 -8.57338533e-02 8.59510619e-05
      1.70113109e-02 1.70113109e-02 -3.11001225e-14 -3.11001225e-14
      -3.11001225e-14 -1.89232543e-01 -8.06451812e-02 -6.34412766e-02
      -9.32286605e-02 -1.84151120e-02 -1.84151120e-02 -3.11001225e-14
      -3.11001225e-14 -3.11001225e-14 1.42588867e-02 1.52217001e-01
      1.16107285e-01 6.70523569e-02 9.75534227e-03 9.75534227e-03
      -3.11001225e-14 -3.11001225e-14 -3.11001225e-14 1.48036286e-01
      7.39477016e-03 3.30678038e-02 2.60903239e-02 -8.35152157e-03
      -8.35152157e-03 -3.11001225e-14 -3.11001225e-14 -3.11001225e-14
      -7.62881115e-02 -1.11695081e-01 -8.50082003e-03 4.13080305e-02
      7.81232549e-04 7.81232549e-04 -3.11001225e-14 -3.11001225e-14
      -3.11001225e-14 8.04639086e-02 2.13944837e-01 -1.46458417e-01
      -1.40550658e-01 1.59070283e-01 1.59070283e-01 -3.11001225e-14
      -3.11001225e-14 -3.11001225e-14 4.44611385e-02 -2.79947016e-02
      -5.85452057e-02 -1.25725895e-01 3.92253622e-02 3.92253622e-02
      -3.11001225e-14 -3.11001225e-14 -3.11001225e-14 -4.86369394e-02
      6.26999289e-02 2.81463936e-02 3.96104977e-02 -1.99076772e-01
      -1.99076772e-01 -3.11001225e-14 -3.11001225e-14 -3.11001225e-14
      -1.26181483e-01 5.62556460e-02 6.97628856e-02 -4.30562394e-03
      -3.77600268e-02 -3.77600268e-02 -3.11001225e-14 -3.11001225e-14
      -3.11001225e-14 2.53067184e-02 -1.77486569e-01 -9.08338726e-02
      -6.97110873e-03 3.29288840e-02 3.29288840e-02 -3.11001225e-14
      -3.11001225e-14 -3.11001225e-14 7.60843456e-02 1.99722260e-01
      4.83089909e-02 -5.41246571e-02 -1.12136364e-01 -1.12136364e-01
      -3.11001225e-14 -3.11001225e-14 -3.11001225e-14 2.47903056e-02
      5.11880517e-02 -2.72380803e-02 6.54015020e-02 1.16967455e-01
      1.16967455e-01 -3.11001225e-14 -3.11001225e-14 -3.11001225e-14
      -6.70139045e-02 -6.05457798e-02 4.55709500e-03 2.21583750e-02
      -6.33195927e-03 -6.33195927e-03 -3.11001225e-14 -3.11001225e-14
      -3.11001225e-14 5.98942079e-02 1.50179714e-01 5.01723867e-03
      3.27789597e-02 9.99805182e-02 9.99805182e-02 -3.11001225e-14
      -3.11001225e-14 -3.11001225e-14 1.39063716e-01 2.01089066e-02
      1.14656381e-01 7.65872449e-02 4.78497380e-03 4.78497380e-03
      -3.11001225e-14 -3.11001225e-14 -3.11001225e-14 -3.56121138e-02
      -1.34108383e-02 -2.78985836e-02 -3.51925828e-02 -2.10142252e-03
      -2.10142252e-03 -3.11001225e-14 -3.11001225e-14 -3.11001225e-14
      -5.38320392e-02 -9.05860141e-02 -2.62637008e-02 -3.08432393e-02
      -4.60145175e-02 -4.60145175e-02 -3.11001225e-14 -3.11001225e-14
      -3.11001225e-14 -1.49792776e-01 7.35281035e-02 -1.07855126e-01
      -1.34077176e-01 1.69379953e-02 1.69379953e-02 -3.11001225e-14
      -3.11001225e-14 -3.11001225e-14 1.64041743e-01 1.79831028e-01
      -2.45458242e-02 -5.84506728e-02 -1.30396292e-01 -1.30396292e-01
      -3.11001225e-14 -3.11001225e-14 -3.11001225e-14 3.95829566e-02
      -1.62773207e-01 1.58664584e-01 2.23371163e-01 1.59472853e-01
      1.59472853e-01 -3.11001225e-14 -3.11001225e-14 -3.11001225e-14
      -1.29002288e-01 1.11377232e-01 -6.72154427e-02 -7.82078281e-02
      5.88235036e-02 5.88235036e-02 -3.11001225e-14 -3.11001225e-14
      -3.11001225e-14 -9.64217335e-02 -1.99979886e-01 3.48180942e-02
      -3.70097235e-02 -1.49678951e-02 -1.49678951e-02 -3.11001225e-14
      -3.11001225e-14 -3.11001225e-14 4.68214676e-02 1.30564243e-01
      8.55907914e-04 4.04747240e-02 -9.07506701e-03 -9.07506701e-03
      -3.11001225e-14 -3.11001225e-14 -3.11001225e-14 1.78602502e-01
      -4.19616327e-02 3.15414481e-02 7.47429505e-02 -3.47806476e-02
      -3.47806476e-02 -3.11001225e-14 -3.11001225e-14 -3.11001225e-14
      -2.04991445e-01 -7.93307424e-02 -1.64720453e-02 -1.02442406e-01
      -3.79738864e-03 -3.79738864e-03 -3.11001225e-14 -3.11001225e-14
      -3.11001225e-14 -1.23383723e-01 8.73147789e-03 -1.33579507e-01
      -1.92861676e-01 3.32470983e-02 3.32470983e-02 -3.11001225e-14
      -3.11001225e-14 -3.11001225e-14 1.24065295e-01 2.80122221e-01
      -3.20422609e-04 9.18694437e-02 -3.69808497e-03 -3.69808497e-03
      -3.11001225e-14 -3.11001225e-14 -3.11001225e-14 2.04309925e-01
      -2.09523067e-01 1.50371924e-01 2.03434482e-01 -2.57515740e-02
      -2.57515740e-02 -3.11001225e-14 -3.11001225e-14 -3.11001225e-14
      -8.70203897e-02 -1.43014982e-01 -8.73830244e-02 -2.53555328e-01
      -4.78836596e-02 -4.78836596e-02 -3.11001225e-14 -3.11001225e-14
      -3.11001225e-14 -2.00394001e-02 -6.63516745e-02 4.82998677e-02
      -9.85065997e-02 -5.00379391e-02 -5.00379391e-02 -3.11001225e-14
      -3.11001225e-14 -3.11001225e-14 -3.57080698e-02 2.69491941e-01
      3.22269090e-02 -6.55299844e-03 3.87606677e-03 3.87606677e-03
      -3.11001225e-14 -3.11001225e-14 -3.11001225e-14 1.42767951e-01
      -6.01254217e-02 6.85614673e-03 6.34524971e-02 9.40454602e-02
      9.40454602e-02 -3.11001225e-14 -3.11001225e-14 -3.11001225e-14
      -6.84813857e-02 1.03642613e-01 1.05917133e-01 2.84163225e-02
      5.80994226e-02 5.80994226e-02 -3.11001225e-14 -3.11001225e-14
      -3.11001225e-14 -1.30550101e-01 -1.34735748e-01 -4.96109053e-02
      -9.18407589e-02 -2.57940441e-02 -2.57940441e-02 -3.11001225e-14
      -3.11001225e-14 -3.11001225e-14 2.85984486e-01 -9.22771096e-02
      5.79970516e-02 1.14936374e-01 5.44781238e-02 5.44781238e-02
      -3.11001225e-14 -3.11001225e-14 -3.11001225e-14 5.00020981e-02
      2.60325342e-01 4.28561717e-02 1.05647519e-01 -8.67834464e-02
      -8.67834464e-02 -3.11001225e-14 -3.11001225e-14 -3.11001225e-14
      -5.50494045e-02 -1.12819180e-01 2.09728315e-01 1.09036915e-01
      -8.74845535e-02 -8.74845535e-02 -3.11001225e-14 -3.11001225e-14
      -3.11001225e-14 -1.14014803e-03 5.67970313e-02 -2.23451018e-01
      -1.31792322e-01 1.24319285e-01 1.24319285e-01 -3.11001225e-14
      -3.11001225e-14 -3.11001225e-14 -1.02802239e-01 1.70515142e-02
      -1.20421611e-01 -1.46705508e-01 -4.41312790e-02 -4.41312790e-02
      -3.11001225e-14 -3.11001225e-14 -3.11001225e-14 1.58991739e-01
      3.89706567e-02 1.34144276e-01 1.69460863e-01 7.29643926e-03
      7.29643926e-03 -3.11001225e-14 -3.11001225e-14 -3.11001225e-14
      -1.01242572e-01 1.14427581e-01 -1.90854687e-02 -2.46885438e-02
      -1.57038122e-02 -1.57038122e-02 -3.11001225e-14 -3.11001225e-14
      -3.11001225e-14 1.56257823e-02 7.97557309e-02 -3.62750851e-02
      -4.95899580e-02 2.06899997e-02 2.06899997e-02 -3.11001225e-14
      -3.11001225e-14 -3.11001225e-14 8.08589309e-02 -2.18726292e-01
      3.38796116e-02 4.09119688e-02 -8.11979454e-03 -8.11979454e-03
      -3.11001225e-14 -3.11001225e-14 -3.11001225e-14 1.01089872e-01
      1.20875195e-01 1.17813051e-01 1.29698545e-01 9.94655713e-02
      9.94655713e-02 -3.11001225e-14 -3.11001225e-14 -3.11001225e-14
      -1.28557011e-01 -1.72316786e-02 4.62401807e-02 -1.99813247e-02
      1.33416979e-02 1.33416979e-02 -3.11001225e-14 -3.11001225e-14
      -3.11001225e-14 1.49133513e-02 4.01155800e-02 -4.06211913e-02
      -5.88558316e-02 4.43364717e-02 4.43364717e-02 -3.11001225e-14
      -3.11001225e-14 -3.11001225e-14 1.32096171e-01 -4.59570577e-03
      1.10829569e-01 1.02965012e-01 -1.63960010e-02 -1.63960010e-02
      -3.11001225e-14 -3.11001225e-14 -3.11001225e-14 7.78795034e-02
      7.80438110e-02 -2.01164950e-02 7.22041652e-02 5.50499596e-02
      5.50499596e-02 -3.11001225e-14 -3.11001225e-14 -3.11001225e-14
      -9.74494070e-02 -7.70649388e-02 -1.58187136e-01 -1.89955652e-01
      1.19586000e-02 1.19586000e-02 -3.11001225e-14 -3.11001225e-14
      -3.11001225e-14 2.76705204e-03 -1.59165397e-01 2.22032871e-02
      6.07016608e-02 1.34796530e-01 1.34796530e-01 -3.11001225e-14
      -3.11001225e-14 -3.11001225e-14 5.71155660e-02 3.08321208e-01
      -2.22726036e-02 5.11667915e-02 -1.21490343e-03 -1.21490343e-03
      -3.11001225e-14 -3.11001225e-14 -3.11001225e-14 3.75667252e-02
      -7.20909908e-02 1.58256441e-01 7.80871511e-02 -1.45540223e-01
      -1.45540223e-01 -3.11001225e-14 -3.11001225e-14 -3.11001225e-14
      -7.41398931e-02 -7.78328702e-02 -6.23337133e-03 7.25910068e-02
      -7.87912607e-02 -7.87912607e-02 -3.11001225e-14 -3.11001225e-14
      -3.11001225e-14 -4.13418002e-02 -2.89251506e-01 -2.38852128e-02
      -2.59460378e-02 7.00288266e-02 7.00288266e-02 -3.11001225e-14
      -3.11001225e-14 -3.11001225e-14 4.38702479e-02 2.48388454e-01
      6.37989789e-02 -2.25577839e-02 -4.92573269e-02 -4.92573269e-02
      -3.11001225e-14 -3.11001225e-14 -3.11001225e-14 7.16114268e-02
      1.18695825e-01 -3.36804576e-02 -2.40871757e-02 5.80198653e-02
      5.80198653e-02 -3.11001225e-14 -3.11001225e-14 -3.11001225e-14
      -2.38888264e-01 -5.50267585e-02 -1.45265207e-01 -1.45769671e-01
      -2.19482556e-02 -2.19482556e-02 -3.11001225e-14 -3.11001225e-14
      -3.11001225e-14 1.46412268e-01 -7.30166910e-03 -8.76898766e-02
      -2.60339249e-02 7.14410916e-02 7.14410916e-02 -3.11001225e-14
      -3.11001225e-14 -3.11001225e-14 4.92317528e-02 1.16878435e-01
      1.05038904e-01 8.92198309e-02 2.66169962e-02 2.66169962e-02
      -3.11001225e-14 -3.11001225e-14 -3.11001225e-14 4.32441682e-02
      -5.45499437e-02 1.27916157e-01 8.25837627e-02 -7.61098564e-02
      -7.61098564e-02 -3.11001225e-14 -3.11001225e-14 -3.11001225e-14
      -1.90076351e-01 5.44040240e-02 2.93265376e-02 6.96966499e-02
      -9.69546810e-02 -9.69546810e-02 -3.11001225e-14 -3.11001225e-14
      -3.11001225e-14 2.30137497e-01 2.94134021e-02 -5.04480638e-02
      1.32506434e-03 2.36091074e-02 2.36091074e-02 -3.11001225e-14
      -3.11001225e-14 -3.11001225e-14 4.47413884e-02 3.24118212e-02
      3.29971574e-02 6.59542084e-02 -8.16815626e-03 -8.16815626e-03
      -3.11001225e-14 -3.11001225e-14 -3.11001225e-14 -8.48025680e-02
      -7.10999966e-02 8.34057853e-02 -4.16942686e-02 8.15135837e-02
      8.15135837e-02 -3.11001225e-14 -3.11001225e-14 -3.11001225e-14
      -1.39447004e-01 -2.36964107e-01 3.93732655e-04 -1.90094654e-02
      6.78126290e-02 6.78126290e-02 -3.11001225e-14 -3.11001225e-14
      -3.11001225e-14 6.41341209e-02 1.15673810e-01 -1.91972375e-01
      -1.30455986e-01 1.07134141e-01 1.07134141e-01 -3.11001225e-14
      -3.11001225e-14 -3.11001225e-14 7.96919465e-02 2.46489823e-01
      2.56200403e-01 1.71230778e-01 -7.81777948e-02 -7.81777948e-02
      -3.11001225e-14 -3.11001225e-14 -3.11001225e-14 -4.37903451e-03
      2.10111383e-02 8.15887824e-02 1.24445215e-01 4.94415984e-02
      4.94415984e-02 -3.11001225e-14 -3.11001225e-14 -3.11001225e-14
      -4.97105718e-02 2.08471399e-02 -7.50075430e-02 -7.81904459e-02
      -3.21743786e-02 -3.21743786e-02 -3.11001225e-14 -3.11001225e-14
      -3.11001225e-14 2.04588212e-02 8.69142637e-03 -1.46176904e-01
      -1.08808696e-01 1.89467445e-01 1.89467445e-01 -3.11001225e-14
      -3.11001225e-14 -3.11001225e-14 -2.01096594e-01 1.17167493e-03
      4.72221412e-02 5.01529537e-02 -5.05949464e-03 -5.05949464e-03
      -3.11001225e-14 -3.11001225e-14 -3.11001225e-14 2.30348393e-01
      6.56218976e-02 2.70294368e-01 2.33178154e-01 -5.59014864e-02
      -5.59014864e-02 -3.11001225e-14 -3.11001225e-14 -3.11001225e-14
      -9.70422849e-03 -2.30513662e-02 -8.66642520e-02 -1.08944394e-01
      7.45832250e-02 7.45832250e-02 -3.11001225e-14 -3.11001225e-14
      -3.11001225e-14 -1.32810235e-01 -6.89399391e-02 3.00625060e-02
      1.15487523e-01 1.05696365e-01 1.05696365e-01 -3.11001225e-14
      -3.11001225e-14 -3.11001225e-14 1.93156794e-01 1.52296752e-01
      2.90238634e-02 -8.55009258e-02 -1.21137291e-01 -1.21137291e-01
      -3.11001225e-14 -3.11001225e-14 -3.11001225e-14 4.56896238e-02
      3.60265747e-02 1.23909943e-01 1.75289810e-01 3.71897593e-02
      3.71897593e-02 -3.11001225e-14 -3.11001225e-14 -3.11001225e-14
      -1.46847740e-01 -1.74221084e-01 -3.04961391e-02 2.86334455e-02
      -1.75459718e-03 -1.75459718e-03 -3.11001225e-14 -3.11001225e-14
      -3.11001225e-14 -1.49935693e-01 -1.50227696e-01 -1.11825969e-02
      -8.86994153e-02 -8.79328325e-02 -8.79328325e-02 -3.11001225e-14
      -3.11001225e-14 -3.11001225e-14 7.48107061e-02 1.72714770e-01
      -6.83042184e-02 -4.27727625e-02 6.21834099e-02 6.21834099e-02
      -3.11001225e-14 -3.11001225e-14 -3.11001225e-14 2.21972853e-01
      2.48066083e-01 1.09982893e-01 1.02838792e-01 2.75041088e-02
      2.75041088e-02 -3.11001225e-14 -3.11001225e-14 -3.11001225e-14
      -3.68397012e-02 -9.73194093e-02 -7.48742595e-02 -1.34206310e-01
      -6.07737601e-02 -6.07737601e-02 -3.11001225e-14 -3.11001225e-14
      -3.11001225e-14 -1.68645591e-01 -4.47601788e-02 -2.89846286e-02
      1.66171305e-02 1.16057046e-01 1.16057046e-01 -3.11001225e-14
      -3.11001225e-14 -3.11001225e-14 1.09666236e-01 1.47611558e-01
      1.58878434e-02 8.17315727e-02 -3.93725820e-02 -3.93725820e-02
      -3.11001225e-14 -3.11001225e-14 -3.11001225e-14 9.58189815e-02
      -5.53198624e-03 8.79710540e-02 3.58575881e-02 -1.59107428e-02
      -1.59107428e-02 -3.11001225e-14 -3.11001225e-14 -3.11001225e-14
      -1.33145615e-01 -1.10847287e-01 -2.51456201e-01 -2.54638106e-01
      -2.73954850e-02 -2.73954850e-02 -3.11001225e-14 -3.11001225e-14
      -3.11001225e-14 -2.24629790e-02 3.43704298e-02 -1.08538345e-01
      -5.15159518e-02 3.64784300e-02 3.64784300e-02 -3.11001225e-14
      -3.11001225e-14 -3.11001225e-14 7.48927146e-02 -1.99436434e-02
      2.50557810e-01 1.97703078e-01 5.76285040e-03 5.76285040e-03
      -3.11001225e-14 -3.11001225e-14 -3.11001225e-14 8.07159394e-02
      9.64205265e-02 1.09436773e-01 1.08450979e-01 -1.48458704e-02
      -1.48458704e-02 -3.11001225e-14 -3.11001225e-14 -3.11001225e-14
      -5.59959114e-02 -1.96757820e-02 -6.82108179e-02 -6.02280386e-02
      -6.07000813e-02 -6.07000813e-02 -3.11001225e-14 -3.11001225e-14
      -3.11001225e-14 9.12193209e-02 4.81347879e-03 3.95636298e-02
      -5.48957586e-02 1.17304727e-01 1.17304727e-01 -3.11001225e-14
      -3.11001225e-14 -3.11001225e-14 6.16830066e-02 1.19490542e-01
      6.96396157e-02 1.02913432e-01 1.61897182e-01 1.61897182e-01
      -3.11001225e-14 -3.11001225e-14 -3.11001225e-14 3.81681360e-02
      2.10844249e-01 1.27874643e-01 1.81077421e-01 -8.34273323e-02
      -8.34273323e-02 -3.11001225e-14 -3.11001225e-14 -3.11001225e-14
      5.61937205e-02 -2.62374487e-02 -1.13993706e-02 -1.59647614e-01
      -8.57071672e-03 -8.57071672e-03 -3.11001225e-14 -3.11001225e-14
      -3.11001225e-14 5.97897433e-02 -3.03175058e-02 -4.32658046e-02
      -4.34700213e-02 1.24012113e-01 1.24012113e-01 -3.11001225e-14
      -3.11001225e-14 -3.11001225e-14 -2.64439255e-01 -4.42589335e-02
      7.17509910e-03 3.65092914e-04 -8.03664625e-02 -8.03664625e-02
      -3.11001225e-14 -3.11001225e-14 -3.11001225e-14 1.48455828e-01
      1.00813843e-01 1.42771602e-01 2.98034102e-01 -3.50749493e-02
      -3.50749493e-02 -3.11001225e-14 -3.11001225e-14 -3.11001225e-14
      -6.92345276e-02 -8.88332129e-02 1.40347898e-01 1.26920044e-01
      1.47677623e-02 1.47677623e-02 -3.11001225e-14 -3.11001225e-14
      -3.11001225e-14 4.97315414e-02 1.70391396e-01 -1.24683499e-01
      -1.88569352e-01 1.20353319e-01 1.20353319e-01 -3.11001225e-14
      -3.11001225e-14 -3.11001225e-14 -1.48413450e-01 -2.23043352e-01
      -8.86933133e-02 -4.29262966e-03 -1.62909642e-01 -1.62909642e-01
      -3.11001225e-14 -3.11001225e-14 -3.11001225e-14 1.67916402e-01
      1.41485155e-01 7.30288923e-02 6.59418628e-02 2.77886223e-02
      2.77886223e-02 -3.11001225e-14 -3.11001225e-14 -3.11001225e-14
      -7.20376596e-02 -9.49110389e-02 5.46952747e-02 -1.10484650e-02
      -9.40672457e-02 -9.40672457e-02 -3.11001225e-14 -3.11001225e-14
      -3.11001225e-14 8.57295375e-03 3.87027897e-02 5.59861399e-02
      1.25830516e-01 9.37895477e-02 9.37895477e-02 -3.11001225e-14
      -3.11001225e-14 -3.11001225e-14 2.13685296e-02 6.43206164e-02
      -1.17327556e-01 -1.54201508e-01 -2.95238104e-02 -2.95238104e-02
      -3.11001225e-14 -3.11001225e-14 -3.11001225e-14 4.20961268e-02
      -8.11236631e-03 1.02978274e-01 1.35751575e-01 2.98015140e-02
      2.98015140e-02 -3.11001225e-14 -3.11001225e-14 -3.11001225e-14
      -1.13314509e-01 -1.52046338e-01 -1.96305111e-01 -1.84500590e-01
      4.97223958e-02 4.97223958e-02 -3.11001225e-14 -3.11001225e-14
      -3.11001225e-14 -6.97497874e-02 3.51905860e-02 1.35920346e-01
      1.75965786e-01 6.59981444e-02 6.59981444e-02 -3.11001225e-14
      -3.11001225e-14 -3.11001225e-14 1.62566051e-01 4.98156697e-02
      -5.34189865e-02 -4.01504859e-02 -6.82087988e-02 -6.82087988e-02
      -3.11001225e-14 -3.11001225e-14 -3.11001225e-14 2.04982478e-02
      6.70401379e-02 2.10135847e-01 1.45017192e-01 -4.75117490e-02
      -4.75117490e-02 -3.11001225e-14 -3.11001225e-14 -3.11001225e-14
      -2.60879770e-02 -3.25231314e-01 -1.49688810e-01 -8.39154571e-02
      1.06597124e-02 1.06597124e-02 -3.11001225e-14 -3.11001225e-14
      -3.11001225e-14 3.36482599e-02 2.91220635e-01 -1.03238702e-01
      -7.75670335e-02 5.41379303e-02 5.41379303e-02 -3.11001225e-14
      -3.11001225e-14 -3.11001225e-14 9.51793864e-02 1.27910927e-01
      1.75096214e-01 1.21652603e-01 4.99485210e-02 4.99485210e-02
      -3.11001225e-14 -3.11001225e-14 -3.11001225e-14 -1.02739841e-01
      -9.39002931e-02 7.78313652e-02 3.98299843e-02 -1.14746086e-01
      -1.14746086e-01 -3.11001225e-14 -3.11001225e-14 -3.11001225e-14
      7.48359188e-02 -1.61908105e-01 1.72581356e-02 -8.30757432e-03
      -1.79156475e-02 -1.79156475e-02 -3.11001225e-14 -3.11001225e-14
      -3.11001225e-14 -9.61967036e-02 -2.90705776e-03 -1.27021804e-01
      -3.88633348e-02 6.09296449e-02 6.09296449e-02 -3.11001225e-14
      -3.11001225e-14 -3.11001225e-14 7.03672916e-02 7.50686079e-02
      1.34115070e-01 6.98220581e-02 -4.79481444e-02 -4.79481444e-02
      -3.11001225e-14 -3.11001225e-14 -3.11001225e-14 -4.90064994e-02
      8.97464454e-02 -2.43514404e-02 -2.26512272e-02 4.93419636e-03
      4.93419636e-03 -3.11001225e-14 -3.11001225e-14 -3.11001225e-14
      -1.48501256e-02 3.07325274e-02 -6.59047021e-03 -8.99571255e-02
      -1.25171579e-02 -1.25171579e-02 -3.11001225e-14 -3.11001225e-14
      -3.11001225e-14 6.66661114e-02 -7.29109999e-03 -2.70387121e-02
      -4.54912223e-02 7.91555047e-02 7.91555047e-02 -3.11001225e-14
      -3.11001225e-14 -3.11001225e-14 -7.16639906e-02 7.85515234e-02
      -5.30317239e-02 -1.13760583e-01 -1.82148088e-02 -1.82148088e-02
      -3.11001225e-14 -3.11001225e-14 -3.11001225e-14 1.98480375e-02
      -1.01992920e-01 2.21735537e-01 2.05693528e-01 -4.84235026e-02
      -4.84235026e-02 -3.11001225e-14 -3.11001225e-14 -3.11001225e-14
      -2.39275292e-01 -9.96286795e-02 -6.67891949e-02 -1.39476627e-01
      4.00273576e-02 4.00273576e-02 -3.11001225e-14 -3.11001225e-14
      -3.11001225e-14 9.50457156e-02 7.26489648e-02 -5.89352660e-02
      -5.11043007e-03 -1.67673323e-02 -1.67673323e-02 -3.11001225e-14
      -3.11001225e-14 -3.11001225e-14 1.46773547e-01 -6.01811670e-02
      5.21244816e-02 2.56478153e-02 -1.00878617e-02 -1.00878617e-02
      -3.11001225e-14 -3.11001225e-14 -3.11001225e-14 -2.54404731e-03
      8.71608928e-02 1.68881595e-01 2.14220673e-01 -1.31720435e-02
      -1.31720435e-02 -3.11001225e-14 -3.11001225e-14 -3.11001225e-14
      -2.72007346e-01 -1.52098700e-01 -1.31296992e-01 -1.05098531e-01
      -1.08218519e-03 -1.08218519e-03 -3.11001225e-14 -3.11001225e-14
      -3.11001225e-14 1.69067770e-01 -3.69201303e-01 1.77811142e-02
      -1.98828895e-02 5.47279306e-02 5.47279306e-02 -3.11001225e-14
      -3.11001225e-14 -3.11001225e-14 8.58663768e-02 2.24235818e-01
      1.71861932e-01 2.45991066e-01 -7.69333169e-02 -7.69333169e-02
      -3.11001225e-14 -3.11001225e-14 -3.11001225e-14 1.70731638e-02
      2.97064334e-01 -5.83460294e-02 -1.21009536e-01 2.32876316e-02
      2.32876316e-02 -3.11001225e-14 -3.11001225e-14 -3.11001225e-14
      9.15878490e-02 -5.09091951e-02 7.45200226e-03 -3.69464755e-02
      -2.48915795e-03 -2.48915795e-03 -3.11001225e-14 -3.11001225e-14
      -3.11001225e-14 -9.90256369e-02 2.62887895e-01 -8.09581727e-02
      -3.37156653e-02 1.30557016e-01 1.30557016e-01 -3.11001225e-14
      -3.11001225e-14 -3.11001225e-14 -8.38575512e-02 -8.39458331e-02
      8.27432498e-02 5.45492917e-02 -1.63270995e-01 -1.63270995e-01
      -3.11001225e-14 -3.11001225e-14 -3.11001225e-14 9.12953168e-02
      -1.28032804e-01 -9.23708547e-03 1.61129031e-02 3.52033265e-02
      3.52033265e-02 -3.11001225e-14 -3.11001225e-14 -3.11001225e-14
      -6.33412832e-03 -3.03083330e-01 -8.40115622e-02 7.22649740e-03
      -2.41342001e-03 -2.41342001e-03 -3.11001225e-14 -3.11001225e-14
      -3.11001225e-14 1.47504359e-01 -8.53504695e-04 1.70327979e-03
      -1.41926091e-02 5.75137176e-02 5.75137176e-02 -3.11001225e-14
      -3.11001225e-14 -3.11001225e-14 -5.24001904e-02 1.53923333e-01
      -5.41395391e-04 2.08071359e-02 4.40409817e-02 4.40409817e-02
      -3.11001225e-14 -3.11001225e-14 -3.11001225e-14 -8.87700319e-02
      1.50013372e-01 8.28496888e-02 8.24910402e-02 -9.91412848e-02
      -9.91412848e-02 -3.11001225e-14 -3.11001225e-14 -3.11001225e-14
      -2.85460078e-03 -1.90325350e-01 -3.67491832e-03 -3.37375887e-02
      3.07114013e-02 3.07114013e-02 -3.11001225e-14 -3.11001225e-14
      -3.11001225e-14 -5.15322797e-02 5.08557521e-02 -3.92446946e-03
      -3.59164625e-02 3.20167542e-02 3.20167542e-02 -3.11001225e-14
      -3.11001225e-14 -3.11001225e-14 3.36277448e-02 -7.69786984e-02
      -7.05613941e-02 -1.84195004e-02 1.12146940e-02 1.12146940e-02
      -3.11001225e-14 -3.11001225e-14 -3.11001225e-14 2.07591280e-02
      2.16448426e-01 1.31757453e-01 1.41670287e-01 -7.39428699e-02
      -7.39428699e-02 -3.11001225e-14 -3.11001225e-14 -3.11001225e-14
      2.98069492e-02 -5.74080013e-02 9.16768163e-02 3.35148908e-02
      -3.34289810e-03 -3.34289810e-03 -3.11001225e-14 -3.11001225e-14
      -3.11001225e-14 1.32402815e-02 -7.85891041e-02 -1.06710151e-01
      -1.15407012e-01 2.96797231e-02 2.96797231e-02 -3.11001225e-14
      -3.11001225e-14 -3.11001225e-14 2.75283586e-02 6.47760089e-03
      -1.06943630e-01 -1.24682710e-01 -9.22852084e-02 -9.22852084e-02
      -3.11001225e-14 -3.11001225e-14 -3.11001225e-14 -1.09783128e-01
      -9.83880013e-02 8.27693492e-02 1.67367414e-01 2.67408434e-02
      2.67408434e-02 -3.11001225e-14 -3.11001225e-14 -3.11001225e-14
      1.03188351e-01 1.38991296e-01 7.40270913e-02 6.24099523e-02
      -3.47153842e-02 -3.47153842e-02 -3.11001225e-14 -3.11001225e-14
      -3.11001225e-14 -3.76008525e-02 2.23102227e-01 -1.71057120e-01
      -1.92291826e-01 4.04264331e-02 4.04264331e-02 -3.11001225e-14
      -3.11001225e-14 -3.11001225e-14 7.12967589e-02 -9.34171602e-02
      -3.24285448e-01 -3.85516733e-01 -7.32466159e-03 -7.32466159e-03
      -3.11001225e-14 -3.11001225e-14 -3.11001225e-14 -1.36884123e-01
      -3.93774137e-02 -3.17684934e-02 6.23145998e-02 1.61366863e-03
      1.61366863e-03 -3.11001225e-14 -3.11001225e-14 -3.11001225e-14
      -3.04806262e-01 -1.18209973e-01 -1.64393745e-02 -3.36094759e-02
      4.37327363e-02 4.37327363e-02 -3.11001225e-14 -3.11001225e-14
      -3.11001225e-14 2.56019700e-02 -1.13073789e-01 -1.64700076e-01
      -1.68284833e-01 -3.28168360e-04 -3.28168360e-04 -3.11001225e-14
      -3.11001225e-14 -3.11001225e-14 1.17686242e-01 7.67418295e-02
      8.90615135e-02 9.39144120e-02 -1.28313109e-01 -1.28313109e-01
      -3.11001225e-14 -3.11001225e-14 -3.11001225e-14 1.61517948e-01
      1.54541805e-01 1.87359348e-01 2.03261569e-01 8.49085376e-02
      8.49085376e-02 -3.11001225e-14 -3.11001225e-14 -3.11001225e-14
      -7.67229795e-02 -2.43065059e-02 -3.82317044e-02 -8.01867526e-03
      5.74190868e-03 5.74190868e-03 -3.11001225e-14 -3.11001225e-14
      -3.11001225e-14 1.36053577e-01 1.12663940e-01 8.93662050e-02
      4.39569913e-02 1.97010651e-01 1.97010651e-01 -3.11001225e-14
      -3.11001225e-14 -3.11001225e-14 -2.04133928e-01 -2.40440331e-02
      -7.21695274e-02 -5.26071042e-02 -1.79658413e-01 -1.79658413e-01
      -3.11001225e-14 -3.11001225e-14 -3.11001225e-14 1.98400050e-01
      -1.07167596e-02 7.46317133e-02 7.02653602e-02 3.05025447e-02
      3.05025447e-02 -3.11001225e-14 -3.11001225e-14 -3.11001225e-14
      4.92354967e-02 -5.77599034e-02 -1.07972383e-01 -1.50735676e-01
      1.53113948e-02 1.53113948e-02 -3.11001225e-14 -3.11001225e-14
      -3.11001225e-14 -1.47248551e-01 -4.45195772e-02 4.40919809e-02
      9.20388922e-02 6.32789880e-02 6.32789880e-02 -3.11001225e-14
      -3.11001225e-14 -3.11001225e-14 1.00453414e-01 -4.42853384e-02
      1.05902292e-01 1.38009787e-01 -6.55761659e-02 -6.55761659e-02
      -3.11001225e-14 -3.11001225e-14 -3.11001225e-14 5.11562191e-02
      2.00161487e-01 1.15747675e-02 -2.57163644e-02 4.05825227e-02
      4.05825227e-02 -3.11001225e-14 -3.11001225e-14 -3.11001225e-14
      -6.91203326e-02 -1.12198584e-01 -1.57071918e-01 -1.14713497e-01
      1.04114324e-01 1.04114324e-01 -3.11001225e-14 -3.11001225e-14
      -3.11001225e-14 -8.16556513e-02 4.35123518e-02 -5.96285574e-02
      -9.75210741e-02 -8.10575206e-03 -8.10575206e-03 -3.11001225e-14
      -3.11001225e-14 -3.11001225e-14 7.27060363e-02 4.61180806e-02
      2.27814719e-01 2.65967250e-01 -4.92773242e-02 -4.92773242e-02
      -3.11001225e-14 -3.11001225e-14 -3.11001225e-14 1.31666541e-01
      7.61648417e-02 4.24825288e-02 -1.36010887e-04 6.86535891e-03
      6.86535891e-03 -3.11001225e-14 -3.11001225e-14 -3.11001225e-14
      8.79423507e-03 -8.64892304e-02 4.19445969e-02 2.67799478e-02
      1.89097896e-02 1.89097896e-02 -3.11001225e-14 -3.11001225e-14
      -3.11001225e-14 -5.35474382e-02 -9.49401222e-03 8.83772299e-02
      5.06341942e-02 -2.90758293e-02 -2.90758293e-02 -3.11001225e-14
      -3.11001225e-14 -3.11001225e-14 6.72284441e-05 -6.54290942e-03
      -5.19999415e-02 -4.92585339e-02 2.63482332e-03 2.63482332e-03
      -3.11001225e-14 -3.11001225e-14 -3.11001225e-14 5.47841098e-03
      6.33186251e-02 1.13854349e-01 1.64020717e-01 -3.16763073e-02
      -3.16763073e-02 -3.11001225e-14 -3.11001225e-14 -3.11001225e-14
      -9.31160823e-02 -7.79912695e-02 1.78089961e-01 8.98503363e-02
      3.02706994e-02 3.02706994e-02 -3.11001225e-14 -3.11001225e-14
      -3.11001225e-14 5.10209091e-02 2.49231840e-03 1.05468616e-01
      8.94885361e-02 1.40519425e-01 1.40519425e-01 -3.11001225e-14
      -3.11001225e-14 -3.11001225e-14 9.09028761e-03 4.13044058e-02
      -3.63098644e-02 -4.57831211e-02 -6.07013516e-02 -6.07013516e-02
      -3.11001225e-14 -3.11001225e-14 -3.11001225e-14 -6.20271591e-03
      -5.01302816e-03 -5.50724268e-02 -4.94470447e-02 -1.49296433e-01
      -1.49296433e-01 -3.11001225e-14 -3.11001225e-14 -3.11001225e-14
      7.59713575e-02 -5.74988127e-02 1.72116995e-01 1.21003829e-01
      -3.19327898e-02 -3.19327898e-02 -3.11001225e-14 -3.11001225e-14
      -3.11001225e-14 -2.41784696e-02 1.41459137e-01 -1.56428799e-01
      -9.56674293e-02 4.37413342e-02 4.37413342e-02 -3.11001225e-14
      -3.11001225e-14 -3.11001225e-14 5.73399588e-02 -3.10491472e-02
      -9.62850824e-02 -4.55713831e-02 -8.71875957e-02 -8.71875957e-02
      -3.11001225e-14 -3.11001225e-14 -3.11001225e-14 -1.09132729e-01
      2.29984432e-01 2.01213822e-01 1.40851945e-01 7.53790364e-02
      7.53790364e-02 -3.11001225e-14 -3.11001225e-14 -3.11001225e-14
      -5.18719926e-02 -2.04482049e-01 2.14026764e-01 2.13293687e-01
      -3.67144644e-02 -3.67144644e-02 -3.11001225e-14 -3.11001225e-14
      -3.11001225e-14 1.84342980e-01 2.12159485e-01 4.84946333e-02
      5.79141602e-02 4.48644832e-02 4.48644832e-02 -3.11001225e-14
      -3.11001225e-14 -3.11001225e-14 3.49001773e-02 2.86904387e-02
      -1.35506347e-01 -1.23557284e-01 -3.05837393e-02 -3.05837393e-02
      -3.11001225e-14 -3.11001225e-14 -3.11001225e-14 -1.13774352e-01
      1.72287244e-02 2.18630973e-02 1.22759957e-03 7.60303214e-02
      7.60303214e-02 -3.11001225e-14 -3.11001225e-14 -3.11001225e-14
      -6.92894682e-02 4.46290635e-02 -1.17083319e-01 -8.20389763e-02
      -2.63748784e-03 -2.63748784e-03 -3.11001225e-14 -3.11001225e-14
      -3.11001225e-14 1.56077921e-01 -2.62037873e-01 -1.19993396e-01
      -9.37386006e-02 9.52556059e-02 9.52556059e-02 -3.11001225e-14
      -3.11001225e-14 -3.11001225e-14 -7.33285919e-02 5.17666340e-02
      1.38924390e-01 1.17157973e-01 -6.84849313e-03 -6.84849313e-03
      -3.11001225e-14 -3.11001225e-14 -3.11001225e-14 4.01367508e-02
      2.19238743e-01 1.51749000e-01 1.12216197e-01 -3.21729816e-02
      -3.21729816e-02 -3.11001225e-14 -3.11001225e-14 -3.11001225e-14
      -4.58687879e-02 1.78255811e-02 1.15907378e-01 1.51554748e-01
      1.29363323e-02 1.29363323e-02 -3.11001225e-14 -3.11001225e-14
      -3.11001225e-14 8.83761421e-02 6.04047179e-02 -1.37064651e-01
      -1.44630924e-01 1.59907892e-01 1.59907892e-01 -3.11001225e-14
      -3.11001225e-14 -3.11001225e-14 -5.32071479e-02 -6.86621815e-02
      3.96231562e-02 4.54428531e-02 -1.72327623e-01 -1.72327623e-01
      -3.11001225e-14 -3.11001225e-14 -3.11001225e-14 6.42963871e-02
      4.40284088e-02 3.51306796e-02 1.22987723e-03 5.30800745e-02
      5.30800745e-02 -3.11001225e-14 -3.11001225e-14 -3.11001225e-14
      3.03915851e-02 -9.53557193e-02 -4.22230251e-02 -4.74507622e-02
      4.13574018e-02 4.13574018e-02 -3.11001225e-14 -3.11001225e-14
      -3.11001225e-14 2.80368160e-02 1.44082725e-01 -5.26920892e-02
      -4.79904898e-02 6.94476962e-02 6.94476962e-02 -3.11001225e-14
      -3.11001225e-14 -3.11001225e-14 1.22144585e-02 -6.05794899e-02
      1.17349036e-01 1.38360173e-01 -1.18667250e-02 -1.18667250e-02
      -3.11001225e-14 -3.11001225e-14 -3.11001225e-14 -1.70460958e-02
      6.54493123e-02 -8.04476906e-03 -2.85297520e-02 -4.53417636e-02
      -4.53417636e-02 -3.11001225e-14 -3.11001225e-14 -3.11001225e-14
      8.26062858e-02 -1.67038277e-01 1.20323116e-03 2.36578030e-03
      9.11219791e-02 9.11219791e-02 -3.11001225e-14 -3.11001225e-14
      -3.11001225e-14 -3.36177237e-02 2.79364977e-02 -1.03181928e-01
      -5.19133583e-02 -1.32906754e-02 -1.32906754e-02 -3.11001225e-14
      -3.11001225e-14 -3.11001225e-14 9.90240276e-02 4.19471487e-02
      -1.82448216e-02 -3.08875181e-02 -3.54093164e-02 -3.54093164e-02
      -3.11001225e-14 -3.11001225e-14 -3.11001225e-14 -1.87220037e-01
      5.79470396e-02 8.10159668e-02 4.12275083e-02 -8.16294774e-02
      -8.16294774e-02 -3.11001225e-14 -3.11001225e-14 -3.11001225e-14
      -9.39163938e-02 -1.09567985e-01 -9.65281203e-02 -1.00200856e-02
      -3.28509845e-02 -3.28509845e-02 -3.11001225e-14 -3.11001225e-14
      -3.11001225e-14 7.68530443e-02 9.96280834e-03 -1.92874309e-03
      6.75107464e-02 -1.10077970e-01 -1.10077970e-01 -3.11001225e-14
      -3.11001225e-14 -3.11001225e-14 -7.69133121e-02 -7.24097043e-02
      8.50253776e-02 7.05216378e-02 4.62058932e-03 4.62058932e-03
      -3.11001225e-14 -3.11001225e-14 -3.11001225e-14 5.47691658e-02
      1.32807359e-01 -2.57761013e-02 -1.67219773e-01 9.91008207e-02
      9.91008207e-02 -3.11001225e-14 -3.11001225e-14 -3.11001225e-14
      7.45502040e-02 -8.09316635e-02 1.12484053e-01 1.16336778e-01
      -1.70151256e-02 -1.70151256e-02 -3.11001225e-14 -3.11001225e-14
      -3.11001225e-14 -6.75341785e-02 1.17174506e-01 -2.11216599e-01
      -1.47769362e-01 7.17104599e-02 7.17104599e-02 -3.11001225e-14
      -3.11001225e-14 -3.11001225e-14 -2.99175903e-02 -5.65211065e-02
      1.25411689e-01 4.36859280e-02 -1.85338799e-02 -1.85338799e-02
      -3.11001225e-14 -3.11001225e-14 -3.11001225e-14 2.29014717e-02
      7.38750696e-02 1.73777595e-01 1.88203275e-01 -3.61614078e-02
      -3.61614078e-02 -3.11001225e-14 -3.11001225e-14 -3.11001225e-14
      7.75473379e-03 2.97241271e-01 2.71054357e-01 3.25443149e-01
      -3.77457915e-03 -3.77457915e-03 -3.11001225e-14 -3.11001225e-14
      -3.11001225e-14 4.97921407e-02 -2.13440359e-01 -1.68040991e-01
      -1.45280972e-01 8.41936767e-02 8.41936767e-02 -3.11001225e-14
      -3.11001225e-14 -3.11001225e-14 1.05868407e-01 -1.24900341e-01
      -8.07075799e-02 -1.05080575e-01 6.18572487e-03 6.18572487e-03
      -3.11001225e-14 -3.11001225e-14 -3.11001225e-14 -1.09818801e-01
      9.46959406e-02 1.26572415e-01 7.37967044e-02 -3.30081359e-02
      -3.30081359e-02 -3.11001225e-14 -3.11001225e-14 -3.11001225e-14
      -1.62954301e-01 1.25895925e-02 6.10796409e-03 4.71975021e-02
      6.40497133e-02 6.40497133e-02 -3.11001225e-14 -3.11001225e-14
      -3.11001225e-14 2.12419089e-02 4.62153777e-02 -7.82040879e-02
      -7.76993036e-02 -1.11522637e-02 -1.11522637e-02 -3.11001225e-14
      -3.11001225e-14 -3.11001225e-14 5.33427261e-02 -1.85122296e-01
      1.57945201e-01 1.82621658e-01 -4.68514711e-02 -4.68514711e-02
      -3.11001225e-14 -3.11001225e-14 -3.11001225e-14 1.41966224e-01
      1.40706420e-01 -3.22524905e-02 -9.85231772e-02 4.75506410e-02
      4.75506410e-02 -3.11001225e-14 -3.11001225e-14 -3.11001225e-14
      7.10285753e-02 -5.27780764e-02 -1.74521729e-01 -1.54603019e-01
      -7.48304650e-02 -7.48304650e-02 -3.11001225e-14 -3.11001225e-14
      -3.11001225e-14 1.65670395e-01 -1.90010548e-01 -1.88593995e-02
      4.14172411e-02 7.46374726e-02 7.46374726e-02 -3.11001225e-14
      -3.11001225e-14 -3.11001225e-14 -8.41080993e-02 -7.44733885e-02
      1.51872531e-01 1.27621830e-01 -4.35852781e-02 -4.35852781e-02
      -3.11001225e-14 -3.11001225e-14 -3.11001225e-14 -1.38201877e-01
      3.31651032e-01 5.58978245e-02 -4.70214982e-05 5.81673384e-02
      5.81673384e-02 -3.11001225e-14 -3.11001225e-14 -3.11001225e-14
      1.85908396e-02 -8.49012509e-02 -9.60448012e-03 8.54443163e-02
      3.09378393e-02 3.09378393e-02 -3.11001225e-14 -3.11001225e-14
      -3.11001225e-14 3.24304625e-02 -1.44556671e-01 -7.70053491e-02
      -6.84736073e-02 -2.59965565e-02 -2.59965565e-02 -3.11001225e-14
      -3.11001225e-14 -3.11001225e-14 -7.35917687e-03 -8.37196484e-02
      2.01440617e-01 1.31703243e-01 -7.12219477e-02 -7.12219477e-02
      -3.11001225e-14 -3.11001225e-14 -3.11001225e-14 -8.28697830e-02
      3.27566653e-01 -1.54038310e-01 -1.87881425e-01 2.70730481e-02
      2.70730481e-02 -3.11001225e-14 -3.11001225e-14 -3.11001225e-14
      3.00631803e-02 6.46689162e-02 6.38346896e-02 6.04284592e-02
      -3.81200798e-02 -3.81200798e-02 -3.11001225e-14 -3.11001225e-14
      -3.11001225e-14 -6.46392331e-02 -1.65045768e-01 -5.99323958e-02
      -1.01082578e-01 1.39707047e-02 1.39707047e-02 -3.11001225e-14
      -3.11001225e-14 -3.11001225e-14 6.62950873e-02 -6.35882095e-02
      5.45303449e-02 3.57918926e-02 -5.95917460e-03 -5.95917460e-03
      -3.11001225e-14 -3.11001225e-14 -3.11001225e-14 -7.09265023e-02
      1.24757469e-01 -9.76402238e-02 -3.43454145e-02 -9.09903087e-03
      -9.09903087e-03 -3.11001225e-14 -3.11001225e-14 -3.11001225e-14
      1.08916394e-01 2.71929383e-01 -9.18860361e-02 -9.73305032e-02
      1.07184775e-01 1.07184775e-01 -3.11001225e-14 -3.11001225e-14
      -3.11001225e-14 5.38250245e-02 -8.15449357e-02 1.66439772e-01
      5.44836707e-02 7.41476119e-02 7.41476119e-02 -3.11001225e-14
      -3.11001225e-14 -3.11001225e-14 -4.48720343e-02 -3.14476073e-01
      -2.88109388e-02 1.33281574e-01 -1.43968150e-01 -1.43968150e-01
      -3.11001225e-14 -3.11001225e-14 -3.11001225e-14 -1.57076925e-01
      8.48840997e-02 -8.49503577e-02 -1.29642308e-01 -7.65717030e-02
      -7.65717030e-02 -3.11001225e-14 -3.11001225e-14 -3.11001225e-14
      -1.17936596e-01 1.53159782e-01 2.11941916e-02 -3.53302411e-03
      8.42943713e-02 8.42943713e-02 -3.11001225e-14 -3.11001225e-14
      -3.11001225e-14 -1.85925141e-02 -4.38513272e-02 6.78465962e-02
      5.15419059e-02 1.43169418e-01 1.43169418e-01 -3.11001225e-14
      -3.11001225e-14 -3.11001225e-14 1.39453590e-01 -5.98098598e-02
      -5.59950396e-02 -1.86876394e-02 -1.39811501e-01 -1.39811501e-01
      -3.11001225e-14 -3.11001225e-14 -3.11001225e-14 -2.92446441e-03
      6.69677705e-02 1.01604454e-01 1.05328821e-01 -8.76522809e-02
      -8.76522809e-02 -3.11001225e-14 -3.11001225e-14 -3.11001225e-14
      -2.62310989e-02 3.20518538e-02 6.40405416e-02 8.70993733e-02
      -5.19322837e-03 -5.19322837e-03 -3.11001225e-14 -3.11001225e-14
      -3.11001225e-14 -2.55925059e-02 3.03257406e-02 7.60106742e-02
      1.07307687e-01 2.06869412e-02 2.06869412e-02 -3.11001225e-14
      -3.11001225e-14 -3.11001225e-14 9.15009826e-02 -6.22516200e-02
      4.50258069e-02 -3.45110870e-03 2.57005021e-02 2.57005021e-02
      -3.11001225e-14 -3.11001225e-14 -3.11001225e-14 -3.96774746e-02
      5.34705520e-02 1.53797111e-02 9.50078014e-03 -4.11942825e-02
      -4.11942825e-02 -3.11001225e-14 -3.11001225e-14 -3.11001225e-14
      2.97158975e-02 6.69162869e-02 1.41629204e-01 1.87781289e-01
      4.33192449e-03 4.33192449e-03 -3.11001225e-14 -3.11001225e-14
      -3.11001225e-14 -8.23812559e-02 -1.69726312e-02 4.90207970e-02
      4.62941267e-02 1.30728958e-02 1.30728958e-02 -3.11001225e-14
      -3.11001225e-14 -3.11001225e-14 6.77029788e-02 -3.19661163e-02
      6.72251135e-02 6.71692193e-02 -3.02638523e-02 -3.02638523e-02
      -3.11001225e-14 -3.11001225e-14 -3.11001225e-14 -1.50377117e-02
      -3.58845014e-03 1.19535968e-01 7.61663169e-02 1.28588509e-02
      1.28588509e-02 -3.11001225e-14 -3.11001225e-14 -3.11001225e-14
      1.71076462e-01 4.03993577e-02 1.99529052e-01 1.84489533e-01
      -1.33639518e-02 -1.33639518e-02 -3.11001225e-14 -3.11001225e-14
      -3.11001225e-14 5.04204677e-03 -1.39809221e-01 -9.75652188e-02
      -1.14671864e-01 4.52198796e-02 4.52198796e-02 -3.11001225e-14
      -3.11001225e-14 -3.11001225e-14 -8.37905779e-02 4.79877628e-02
      -8.99395626e-03 -3.82593311e-02 -2.37969533e-02 -2.37969533e-02
      -3.11001225e-14 -3.11001225e-14 -3.11001225e-14 -7.79389068e-02
      6.58111051e-02 -7.85807744e-02 -1.71692334e-02 6.33013202e-03
      6.33013202e-03 -3.11001225e-14 -3.11001225e-14 -3.11001225e-14
      2.42867768e-02 -1.07240468e-01 -1.16842709e-01 -1.23310864e-01
      -2.11217366e-02 -2.11217366e-02 -3.11001225e-14 -3.11001225e-14
      -3.11001225e-14 9.42148548e-03 -2.54184783e-01 5.00457622e-02
      3.93931307e-02 -5.36371069e-03 -5.36371069e-03 -3.11001225e-14
      -3.11001225e-14 -3.11001225e-14 5.58382533e-02 4.54371870e-02
      2.62312144e-02 8.96999314e-02 -1.07295342e-01 -1.07295342e-01
      -3.11001225e-14 -3.11001225e-14 -3.11001225e-14 -1.28754094e-01
      2.76780486e-01 1.35818112e-03 -4.49897498e-02 9.45732668e-02
      9.45732668e-02 -3.11001225e-14 -3.11001225e-14 -3.11001225e-14
      -3.09307571e-03 -1.75067171e-01 -2.65131537e-02 -8.30657408e-03
      4.66516241e-02 4.66516241e-02 -3.11001225e-14 -3.11001225e-14
      -3.11001225e-14 1.99151590e-01 1.29204141e-02 -2.81094760e-02
      8.75445306e-02 3.38798761e-02 3.38798761e-02 -3.11001225e-14
      -3.11001225e-14 -3.11001225e-14 -8.64857137e-02 1.45583421e-01
      -3.03286221e-03 -7.95882866e-02 1.39560446e-01 1.39560446e-01
      -3.11001225e-14 -3.11001225e-14 -3.11001225e-14 -1.48780406e-01
      -2.26442143e-02 1.84479393e-02 -3.88572253e-02 -2.59299576e-01
      -2.59299576e-01 -3.11001225e-14 -3.11001225e-14 -3.11001225e-14
      8.44589397e-02 2.97205299e-01 -1.69854045e-01 -3.61179188e-02
      2.17962667e-01 2.17962667e-01 -3.11001225e-14 -3.11001225e-14
      -3.11001225e-14 -9.18237194e-02 -1.64500207e-01 -4.17424785e-03
      -8.10146108e-02 2.44330149e-03 2.44330149e-03 -3.11001225e-14
      -3.11001225e-14 -3.11001225e-14 -1.07496507e-01 -6.33303821e-02
      -2.65103243e-02 -4.24518622e-03 -1.42348498e-01 -1.42348498e-01
      -3.11001225e-14 -3.11001225e-14 -3.11001225e-14 7.56538212e-02
      1.09298676e-01 1.61331132e-01 8.21701065e-02 -1.17264986e-01
      -1.17264986e-01 -3.11001225e-14 -3.11001225e-14 -3.11001225e-14</_></support_vectors>
  <decision_functions>
    <_>
      <sv_count>1</sv_count>
      <rho>3.0862589730832761e+00</rho>
      <alpha>
        1.</alpha>
      <index>
        0</index></_></decision_functions></my_svm>
</opencv_storage>
