%YAML:1.0
my_svm: !!opencv-ml-svm
   svm_type: C_SVC
   kernel: { type:LINEAR }
   C: 2.6699999999999999e+00
   term_criteria: { epsilon:1.1920928955078125e-07, iterations:1000 }
   var_all: 3780
   var_count: 3780
   class_count: 2
   class_labels: !!opencv-matrix
      rows: 1
      cols: 2
      dt: i
      data: [ 0, 1 ]
   sv_total: 1
   support_vectors:
      - [ 9.42743719e-02, -6.49425015e-02, -1.22541822e-01,
          -1.40874520e-01, -2.33696774e-02, -6.36027679e-02,
          3.94276865e-02, 2.21957285e-02, 1.70459196e-01, 1.21190481e-01,
          1.70705169e-01, -4.46512252e-02, -6.73149824e-02,
          3.99321355e-02, 9.58520323e-02, 1.45555764e-01,
          -9.96170714e-02, 1.02100916e-01, -3.44106480e-02,
          -7.79295489e-02, -1.43450528e-01, -6.19791113e-02,
          -9.40885302e-03, 1.56828910e-01, -2.69096699e-02,
          -7.54042268e-02, -1.09277256e-01, -6.32217601e-02,
          -2.20952882e-03, -4.58926409e-02, -1.73846796e-01,
          4.68083583e-02, 2.37452928e-02, 1.63948715e-01,
          -1.05443485e-02, -3.73701043e-02, -3.25944908e-02,
          3.53892073e-02, 4.52520847e-02, 1.07366862e-02, 4.75234650e-02,
          7.80380219e-02, 1.66816637e-01, -6.58637285e-02,
          -1.18136309e-01, 1.20530233e-01, -1.62618253e-02,
          -1.11417674e-01, -5.08385487e-02, -2.49796808e-02,
          -8.57768804e-02, 1.79825634e-01, -7.57863596e-02,
          -1.07127642e-02, -3.99768129e-02, -1.61112677e-02,
          -1.08461287e-02, -1.48633391e-01, -9.83502939e-02,
          9.55942944e-02, 1.10802576e-01, -3.45425382e-02,
          -2.50719534e-03, 9.13199410e-02, 1.26525506e-01,
          6.47310093e-02, 2.33350620e-02, -9.76610482e-02,
          -1.60208374e-01, -4.02077734e-02, -8.73031616e-02,
          2.73013525e-02, 2.73744799e-02, -9.55009088e-02,
          -1.45184174e-01, -2.61657517e-02, -1.11512162e-01,
          3.70747559e-02, 1.50786400e-01, 2.87995022e-02, 7.42583582e-03,
          -3.96205485e-03, -2.37519406e-02, -4.44472320e-02,
          -7.59728346e-03, -2.94808056e-02, -7.89710358e-02,
          4.41366546e-02, -2.17513368e-02, 4.03029621e-02,
          3.20206173e-02, 6.87186345e-02, 1.29652200e-02, 4.13848236e-02,
          -4.71178107e-02, -3.23583707e-02, 4.32406962e-02,
          -1.42574590e-03, 9.13644508e-02, -3.24369147e-02,
          9.47728679e-02, -4.23823595e-02, 8.74948204e-02,
          7.65761510e-02, -8.72969702e-02, 1.40083075e-01,
          8.68211687e-02, 1.17531866e-01, 4.57806848e-02, 4.88460399e-02,
          -2.77840029e-02, 5.28127104e-02, 4.28852513e-02,
          -1.32885292e-01, 2.36167982e-02, -1.28794968e-01,
          -9.70576480e-02, 9.96536091e-02, 4.71686423e-02,
          4.46020328e-02, -7.28194565e-02, 9.12109837e-02,
          6.62986413e-02, 2.40192655e-03, -1.24724373e-01,
          2.12996490e-02, -1.64657131e-01, 1.18103154e-01,
          -5.31722279e-03, 4.55744155e-02, 5.28840832e-02,
          1.65298786e-02, 8.29465985e-02, 1.83200128e-02, 3.25797610e-02,
          -1.34584140e-02, 1.25616625e-01, -5.67030944e-02,
          -1.18566938e-02, -1.39822960e-01, -3.66313122e-02,
          1.45739958e-01, -8.63194689e-02, 9.05277655e-02,
          1.82969607e-02, -2.75271777e-02, -1.62450448e-02,
          -1.12911791e-01, -1.30778596e-01, -7.86027983e-02,
          2.67220605e-02, -6.03952259e-02, -8.46002996e-02,
          -6.38025850e-02, 6.28974959e-02, 1.79433916e-02,
          -2.80178934e-02, -9.95681956e-02, 6.49091750e-02,
          7.42484555e-02, -5.89517294e-04, -8.06117877e-02,
          -5.85636497e-02, 6.49341941e-02, -1.05132595e-01,
          -5.53527921e-02, -7.29001239e-02, -6.95797727e-02,
          4.12319154e-02, -5.59666902e-02, 5.34510575e-02,
          4.48329328e-03, 3.06479484e-02, -2.19082102e-01,
          -1.04611799e-01, 1.07111216e-01, 6.35632873e-03,
          -3.49393561e-02, -5.36300428e-02, 6.50755167e-02,
          4.59907502e-02, 1.23116724e-01, 8.38507190e-02,
          -1.01802990e-01, 3.26131135e-02, 6.55239401e-03,
          1.30309016e-01, -5.78029752e-02, -1.21761017e-01,
          3.04960292e-02, -4.88473400e-02, -9.66431126e-02,
          2.00478695e-02, -4.00357284e-02, -9.16411057e-02,
          1.12364016e-01, -6.38146475e-02, -1.70870088e-02,
          1.68838114e-01, 7.90777877e-02, -1.27783060e-01,
          -2.14811713e-02, 4.39565293e-02, -6.40475228e-02,
          7.26776570e-02, 2.03967672e-02, 2.97448989e-02, 1.07811920e-01,
          -1.28541976e-01, -1.39994174e-01, 3.41045819e-02,
          9.50028468e-03, -8.81755352e-02, 6.55366573e-03,
          -7.05941841e-02, 1.17725432e-01, 4.09830585e-02,
          -1.01598278e-02, -3.02344300e-02, 1.60220981e-01,
          -9.00179967e-02, -7.24479854e-02, 3.78677174e-02,
          -6.90676570e-02, -1.96954925e-02, 1.16733588e-01,
          2.53431126e-02, 4.75776456e-02, 7.79411793e-02,
          -2.78967759e-03, 5.96672297e-02, -3.42491716e-02,
          -3.45161296e-02, -2.41784528e-02, 9.41046402e-02,
          2.91277394e-02, -9.13035218e-03, 8.64944831e-02,
          -3.94850001e-02, 6.84510991e-02, 1.02774546e-01,
          -1.41467556e-01, 9.12472308e-02, -4.25147042e-02,
          9.74771306e-02, 1.00508742e-01, 1.55617632e-02, 4.58902419e-02,
          -6.66053733e-03, 7.81046748e-02, -1.55792966e-01,
          -1.22962750e-01, 5.75380549e-02, -1.05089635e-01,
          3.19967456e-02, 1.19759381e-01, -3.07805277e-02,
          -6.63604140e-02, 9.89613310e-02, 2.03686021e-02,
          -9.50245187e-02, 2.38904469e-02, -2.02046782e-02,
          4.65719849e-02, 1.32353427e-02, -8.02279115e-02,
          -7.99178928e-02, 1.12476856e-01, 7.74612427e-02,
          3.67242917e-02, -6.97437599e-02, 4.18897308e-02,
          3.46582606e-02, 9.33507681e-02, 1.11551285e-01,
          -4.06940840e-03, 1.26346990e-01, -1.06967330e-01,
          4.01980542e-02, -4.21610139e-02, 3.38575989e-02,
          6.45423904e-02, 2.97522284e-02, -3.05996742e-02,
          -5.27072810e-02, 4.46040742e-02, -5.49297966e-02,
          1.04230113e-01, -2.04626936e-02, -1.70210935e-02,
          -3.17676775e-02, 4.49582636e-02, 7.00752288e-02,
          -8.44691768e-02, 5.88163286e-02, 3.17487344e-02,
          1.41070550e-03, -1.05236620e-02, 4.90700677e-02,
          3.07501592e-02, -8.70070085e-02, -1.37507971e-02,
          1.64046809e-01, 6.67919293e-02, -6.01200312e-02,
          1.69644542e-02, 1.18019553e-02, 7.08428621e-02,
          -3.57235409e-02, 9.68171656e-02, -1.25551805e-01,
          -1.42660812e-01, -4.81613651e-02, 3.87387648e-02,
          1.01494946e-01, -7.74594620e-02, 7.21669048e-02,
          -1.84565852e-03, 8.90780389e-02, -2.60935165e-02,
          1.15482680e-01, -4.77359407e-02, -1.21627659e-01,
          -5.72502762e-02, -5.47390506e-02, 4.75754254e-02,
          -3.47312689e-02, -6.47784695e-02, -1.65162474e-01,
          8.81947875e-02, 1.27765825e-02, -6.30062446e-02,
          -9.37566385e-02, 3.95133533e-02, -9.79059115e-02,
          -6.40202016e-02, 2.55285632e-02, -5.06551154e-02,
          -6.81435391e-02, 6.76014200e-02, -1.38415582e-02,
          -6.27001841e-03, 1.04912026e-02, 1.03381418e-01,
          -5.73577732e-02, 6.09640665e-02, 3.73133756e-02,
          1.17116332e-01, -2.75741071e-02, 4.34541050e-03,
          5.19168749e-02, -1.03579953e-01, -2.42031161e-02,
          -2.98521556e-02, -2.93244720e-02, 4.51409295e-02,
          5.28827496e-02, 3.73042300e-02, 7.80318230e-02, 5.93703277e-02,
          -2.25940347e-02, -6.43510297e-02, -5.96637130e-02,
          8.83721709e-02, 5.39037287e-02, -7.29720965e-02,
          -8.24127272e-02, -5.87788448e-02, -6.18238077e-02,
          -5.05450740e-02, 1.12505764e-01, 4.34177816e-02,
          1.36807993e-01, 2.16264963e-01, 1.47724412e-02,
          -3.21337879e-02, -1.01429597e-01, -1.42860442e-01,
          -9.36139151e-02, -7.61115626e-02, -6.98719323e-02,
          -1.21954709e-01, 8.37224722e-02, 4.41568121e-02,
          5.14366440e-02, -5.85114695e-02, 5.64351045e-02,
          -6.81513036e-03, 1.06306620e-01, -5.84036820e-02,
          -7.06002191e-02, 9.89149287e-02, 1.31611437e-01,
          8.62018093e-02, -1.31458059e-01, 2.08281372e-02,
          4.59784865e-02, 3.56412977e-02, 2.32254285e-02,
          -8.82517919e-03, -1.54589012e-01, -1.00701459e-01,
          8.05184394e-02, -3.93855609e-02, -2.62594875e-02,
          1.36258885e-01, 5.96558955e-03, 8.00235569e-02, 7.74069205e-02,
          3.16334516e-02, -1.52461529e-01, 8.23146924e-02,
          -1.63924783e-01, 8.09566304e-02, 1.18028879e-01,
          2.90701184e-02, -1.22196577e-01, -8.43883902e-02,
          -6.43047690e-02, 7.72327185e-02, 1.52021274e-01,
          4.67580967e-02, 8.89634900e-03, -2.57988516e-02,
          -3.94346751e-03, -1.44488424e-01, 8.13615695e-02,
          6.82493150e-02, 4.87190578e-03, 4.29661535e-02, 1.89851560e-02,
          -5.82872890e-02, 6.65304288e-02, -1.29241616e-01,
          1.16838388e-01, 9.10863057e-02, 3.15423161e-02, 1.08497953e-02,
          7.02067241e-02, -1.08821854e-01, 3.40590887e-02,
          1.07334457e-01, -1.79763548e-02, 1.11111760e-01,
          1.55588180e-01, 2.03806937e-01, -5.48129864e-02,
          1.65556774e-01, 1.34085892e-02, 2.87250448e-02, 5.19455709e-02,
          -5.11294268e-02, -6.17551431e-02, -5.66351786e-02,
          -4.67451252e-02, -5.81081621e-02, 4.74570878e-02,
          -8.48999918e-02, -5.62639013e-02, -5.63648380e-02,
          1.03579655e-01, 6.79672211e-02, 1.40938964e-02,
          -2.79026050e-02, -5.76960556e-02, 8.86634365e-02,
          -2.66215927e-03, -1.44464429e-02, -5.93061373e-02,
          -5.78145590e-03, 3.76316495e-02, 2.13562348e-03,
          2.73128361e-01, -9.54882726e-02, -2.03481168e-02,
          -2.14638431e-02, -5.39250858e-02, 1.81925446e-01,
          -1.77581757e-02, -2.57155132e-02, 1.69724133e-02,
          5.47341444e-02, -7.17325658e-02, -9.49073583e-02,
          -1.01227015e-02, 2.54552010e-02, -5.93437292e-02,
          1.12471104e-01, 1.25100791e-01, -3.30913849e-02,
          6.13339171e-02, -4.77813482e-02, 1.98641303e-03,
          -6.60453364e-02, 4.66250218e-02, 8.99623483e-02,
          6.56141490e-02, -3.18565778e-02, -4.96179760e-02,
          -4.28781062e-02, 1.12068485e-02, 4.89593968e-02,
          -3.29656266e-02, 8.59448388e-02, 1.31049216e-01,
          2.53408328e-02, 4.11880016e-02, -1.65600050e-02,
          1.46242052e-01, -5.12146764e-02, -3.48240919e-02,
          2.54876614e-02, -6.47854805e-02, 1.55838326e-01,
          -2.78276782e-02, 5.14538586e-02, 4.06827144e-02,
          3.05771232e-02, 8.70084614e-02, 8.77573788e-02, 7.47703612e-02,
          1.44916670e-02, 9.81529355e-02, -3.34588229e-03,
          -1.31797299e-01, -1.56480297e-01, 9.50770802e-04,
          5.13616391e-02, 2.86087375e-02, -2.81258784e-02,
          7.59405941e-02, 5.39630428e-02, 2.04404648e-02, 1.29544958e-02,
          3.34056537e-03, 9.64950994e-02, 4.50165346e-02, 1.27062410e-01,
          2.17895824e-04, 1.07841805e-01, 3.67600471e-02,
          -1.29235297e-01, -5.69301769e-02, -5.17322356e-03,
          2.70660105e-03, -1.35128712e-02, -1.62313715e-01,
          5.92454672e-02, -1.15087017e-01, -1.24940770e-02,
          -6.12142347e-02, 1.12005575e-02, -1.00426234e-01,
          2.94715073e-02, -3.54285054e-02, 4.24955040e-02,
          -6.08761124e-02, -1.12923637e-01, 4.46826860e-04,
          -1.29701748e-01, -6.83934381e-03, 1.45228039e-02,
          6.24794625e-02, -1.13808833e-01, -7.09197000e-02,
          4.76658577e-03, 5.55399396e-02, 1.77756578e-01, 2.51682829e-02,
          -4.56695966e-02, -8.96656215e-02, 8.45356956e-02,
          -4.14306857e-02, 4.85526733e-02, 1.06297527e-02,
          2.03858063e-01, -2.50948593e-02, -3.96746472e-02,
          -2.90944688e-02, -9.72169414e-02, 6.47593960e-02,
          -1.30073596e-02, 3.61957997e-02, -6.92466274e-02,
          -9.06970426e-02, 6.25596568e-02, 1.54245645e-02,
          9.99166444e-02, 5.89496791e-02, -3.24078128e-02,
          -2.14893837e-02, -1.06183421e-02, -1.42522946e-01,
          7.70060793e-02, 1.52589323e-03, -7.02685416e-02,
          -5.88468686e-02, -2.55151510e-01, 1.51076764e-01,
          3.28027420e-02, 2.18050256e-02, -1.07708022e-01,
          1.35305494e-01, -1.18779074e-02, -1.13495905e-03,
          1.74384732e-02, -8.90577883e-02, 8.73868465e-02,
          -8.24567229e-02, 4.01497167e-03, -1.26137897e-01,
          -2.05426794e-02, -5.44310845e-02, 1.19309658e-02,
          2.19093589e-03, 1.94257647e-02, -9.85000134e-02,
          9.76613630e-03, 4.89030518e-02, -9.69479978e-02,
          3.54427025e-02, -8.94144922e-02, 7.34712929e-02,
          3.99590097e-02, 5.87637015e-02, -2.92905439e-02,
          1.03643402e-01, 2.44600251e-01, -1.19137131e-02,
          2.05651149e-02, -7.55589679e-02, 1.82560347e-02,
          -5.83762005e-02, -7.22194985e-02, -7.30157970e-03,
          -7.01115429e-02, -7.75342807e-02, -1.22266985e-01,
          -7.00432956e-02, 4.50148769e-02, 5.73700406e-02,
          -1.27903789e-01, 5.85878417e-02, 3.76249142e-02,
          1.17677107e-01, 1.91629514e-01, -1.86897200e-02,
          -3.32548767e-02, -1.35808125e-01, 2.28276160e-02,
          1.37595177e-01, 1.46259949e-01, -9.23432186e-02,
          -3.08804447e-03, 1.67716086e-01, -2.79851258e-02,
          -8.35262835e-02, -6.48575723e-02, -2.27399115e-02,
          -1.92858595e-02, -6.95976522e-03, -2.67531071e-03,
          -9.11177918e-02, 1.07912861e-01, -4.17249128e-02,
          2.26950422e-02, -2.72662770e-02, 1.00945598e-02,
          6.68260455e-02, 6.91199303e-02, 7.10279867e-03,
          -3.42156552e-03, 2.05694228e-01, 4.53228056e-02,
          1.46276057e-02, 3.08332797e-02, -6.27446100e-02,
          -4.10730951e-02, 1.63141843e-02, -3.32935303e-02,
          3.49204279e-02, 1.55125409e-02, 1.66108519e-01, 9.25837010e-02,
          -1.00481421e-01, -1.22320049e-01, -1.30687267e-01,
          1.57779325e-02, -1.36944771e-01, 2.28217598e-02,
          3.45586054e-02, -5.03123328e-02, 2.49273870e-02,
          -3.66059877e-02, 2.53364202e-02, -8.51225927e-02,
          5.63412607e-02, 1.03062786e-01, 1.07300065e-01, 1.93786388e-03,
          -1.19497525e-02, -4.53917834e-04, -5.92084751e-02,
          -1.15965351e-01, -1.10454358e-01, -2.47338600e-02,
          -7.12829456e-03, 2.53826845e-02, -1.31127462e-02,
          2.79540941e-02, 2.08563432e-02, 1.39286211e-02, 5.31044863e-02,
          3.63480486e-02, 6.20569177e-02, 2.74745710e-02,
          -1.72827821e-02, -3.50698605e-02, 1.69346631e-02,
          -7.55653717e-03, 2.35610157e-02, -4.79055848e-03,
          4.52023894e-02, 5.20126782e-02, 2.44788714e-02, 2.52440870e-02,
          3.37300263e-02, -7.81883672e-02, -3.61346155e-02,
          1.00216549e-02, -8.32192376e-02, -2.14203745e-02,
          -6.37410879e-02, -3.35093737e-02, 1.73945315e-02,
          -4.84250598e-02, -2.04341605e-01, -2.02784333e-02,
          4.18288857e-02, 6.96483925e-02, 1.14589967e-01,
          -5.71944704e-03, 5.16470410e-02, -5.87056987e-02,
          5.97169204e-03, -1.01705715e-02, 1.21102587e-03,
          1.94379198e-03, -2.96923518e-02, -4.40805629e-02,
          -1.26495779e-01, -6.72469032e-05, -5.58779575e-02,
          3.16261053e-02, 7.00124772e-03, -1.19609110e-01,
          -4.76771966e-02, -4.59954850e-02, 7.06255510e-02,
          4.60452251e-02, -3.39228101e-02, 1.34437084e-01,
          9.99143720e-02, -9.58016291e-02, -4.19485047e-02,
          -6.81015998e-02, -1.29685840e-02, 1.23765029e-01,
          -1.14622317e-01, 5.34022860e-02, -7.26125315e-02,
          4.20255288e-02, 5.31609841e-02, -2.89919898e-02,
          3.67356278e-02, 4.98928688e-02, 7.23448694e-02, 2.28868742e-02,
          -1.92425195e-02, -1.82687193e-01, 4.92018089e-02,
          -2.43978743e-02, -6.25517080e-03, 3.97599973e-02,
          2.42918879e-02, 4.13378999e-02, -1.53151959e-01,
          1.25968024e-01, -9.80889946e-02, -5.91494888e-02,
          1.84141602e-02, 3.02135032e-02, 6.89642951e-02, 5.06696962e-02,
          1.03852628e-02, 1.85579266e-02, 1.68228999e-01,
          -7.22883409e-03, 6.68136775e-02, 7.72784874e-02,
          -3.07450630e-02, -1.08046569e-01, -8.53059739e-02,
          -1.83906052e-02, 3.46720628e-02, -4.80104126e-02,
          9.27764326e-02, -5.04859351e-02, -2.69882828e-02,
          -5.28487600e-02, 4.51830029e-02, 1.46626145e-01,
          -6.31827936e-02, -1.14192478e-01, 2.23307058e-01,
          1.35687858e-01, 3.06590479e-02, 2.62675118e-02, 9.55059752e-02,
          -2.00737291e-03, 2.42880415e-02, -7.02867657e-02,
          -1.40232995e-01, -1.42745748e-01, 1.16390377e-01,
          -1.11958392e-01, -6.01316877e-02, 3.66639569e-02,
          -1.58715826e-02, -7.17402324e-02, -2.76780501e-02,
          -7.40337223e-02, -7.68875927e-02, -1.40065020e-02,
          6.58736825e-02, 2.19447706e-02, 1.09873316e-03,
          -2.67041754e-02, 8.35818723e-02, 3.52397785e-02,
          2.41350848e-02, 5.32677546e-02, 4.76224422e-02, 7.50157610e-02,
          -2.40195207e-02, -3.69578004e-02, 9.33305100e-02,
          -1.21006137e-02, -1.50519824e-02, -9.00498480e-02,
          -1.15998395e-01, 9.57867950e-02, 3.69323641e-02,
          -4.01628092e-02, 1.01758264e-01, 1.34276897e-01,
          5.21545950e-03, 6.93764463e-02, -6.28289580e-02,
          1.35720655e-01, 7.30779693e-02, 1.35066926e-01, 5.43818325e-02,
          9.23158005e-02, 6.25062883e-02, 1.13765299e-01,
          -5.52028455e-02, -4.85312156e-02, -3.73596512e-02,
          -5.94813302e-02, 2.03283178e-03, 1.63200930e-01,
          4.51893769e-02, -8.99141580e-02, -8.05159798e-04,
          -1.46752689e-02, -1.17653236e-01, -1.09198295e-01,
          -3.85833681e-02, 5.71497232e-02, 1.13548964e-01,
          7.16792494e-02, 8.14745501e-02, 4.22422104e-02, 7.93812796e-02,
          -3.12023908e-02, 1.19828619e-01, -1.10414200e-01,
          5.59320487e-02, 1.87055301e-02, 2.57545505e-02, 6.27995580e-02,
          1.22922614e-01, 9.57363546e-02, 8.77661407e-02, 8.11257437e-02,
          -6.17302209e-02, 7.71878213e-02, -1.23092316e-01,
          -7.33644192e-05, 1.43305622e-02, -1.69545971e-02,
          1.49748847e-01, -7.56424218e-02, -2.37088371e-03,
          7.27718547e-02, 9.06446353e-02, -8.11976045e-02,
          2.42959131e-02, 9.51501653e-02, -3.91333029e-02,
          1.57240182e-02, 1.85785331e-02, 4.66981977e-02, 1.03207432e-01,
          1.75344184e-01, -9.03420709e-03, 1.07171625e-01,
          -4.50700074e-02, 9.07141790e-02, 1.54172599e-01,
          -3.08803953e-02, -5.15154786e-02, 3.48670152e-03,
          6.76742289e-03, -1.32114649e-01, -3.18164378e-02,
          1.50436452e-02, 1.25047797e-02, 7.26225004e-02, 3.36882286e-02,
          1.01491086e-01, -4.86491024e-02, 2.91368784e-03,
          -1.06824435e-01, -1.15401056e-02, -4.98735197e-02,
          -4.32704203e-02, -1.65579975e-01, -1.20703643e-02,
          -1.06823603e-02, 6.85009584e-02, 6.94661513e-02,
          9.70789194e-02, -8.15493092e-02, -1.05961308e-01,
          -2.49645691e-02, -3.46845165e-02, 1.09961346e-01,
          9.72398836e-03, -2.65432820e-02, 4.80545647e-02,
          -7.61791319e-03, -1.10578276e-01, 1.23810224e-01,
          -1.82224791e-02, -2.80590039e-02, 5.38365841e-02,
          1.42521158e-01, 3.44063691e-03, 6.74273595e-02, 3.18504237e-02,
          -1.20478170e-02, 7.38384994e-03, -6.93814456e-02,
          -2.44985800e-02, -5.21246679e-02, 8.35404322e-02,
          9.35561880e-02, 1.89807732e-02, -1.84859149e-02,
          -1.19468786e-01, 7.72318318e-02, 3.84351797e-02,
          6.72724321e-02, 1.63618475e-02, -3.64423580e-02,
          -1.99515969e-01, 2.46256571e-02, -1.49008408e-02,
          -5.03496006e-02, 2.60879379e-02, 2.66872831e-02,
          1.29137272e-02, -1.60842627e-01, -5.14604449e-02,
          -7.94238150e-02, 4.54768492e-03, -3.35117579e-02,
          1.78477600e-01, 5.30656464e-02, 5.23930453e-02, 3.61241251e-02,
          -3.70370294e-03, -4.48624901e-02, -3.86374220e-02,
          -1.59114879e-02, 2.02052109e-02, -9.54011828e-02,
          4.74930406e-02, -8.65348876e-02, 1.79139152e-02,
          -3.83537561e-02, 9.52302143e-02, 6.05928674e-02,
          -1.54330982e-02, -4.37329188e-02, -1.87340677e-02,
          -4.38046083e-02, -8.35047439e-02, 1.14222672e-02,
          -1.96853504e-02, -4.18551490e-02, 1.52903602e-01,
          -7.30154216e-02, -6.82305768e-02, 8.48340541e-02,
          -7.03612566e-02, -9.76202488e-02, 4.17837128e-03,
          -5.01686009e-03, -1.44895175e-02, 8.57541189e-02,
          1.12491548e-01, 6.29665256e-02, 1.30827487e-01,
          -6.93665594e-02, -1.44966751e-01, 2.77671758e-02,
          9.03733894e-02, 7.06319558e-03, 1.82021797e-01,
          -7.23193213e-02, 1.50398733e-02, -5.33805713e-02,
          -9.66522619e-02, -1.94164366e-01, 1.18014282e-02,
          4.64462750e-02, -2.91268229e-02, -2.93425377e-02,
          -1.70298330e-02, 9.72316787e-02, 1.04141094e-01,
          1.00565672e-01, -7.78869018e-02, -7.41172209e-02,
          7.28804059e-03, -7.73598254e-03, -7.13537866e-03,
          -8.90222657e-03, -2.12368648e-02, -1.84660628e-02,
          3.22862156e-02, 3.39173302e-02, -9.61694717e-02,
          -3.71645577e-02, 3.42835784e-02, -9.78879109e-02,
          9.18015018e-02, -1.04055583e-01, -7.25228786e-02,
          -1.57599866e-01, -5.33415861e-02, 6.46966621e-02,
          1.89324617e-01, 2.62383819e-02, -1.51755949e-02,
          -2.14015134e-02, -4.37355936e-02, -1.15652218e-01,
          -4.42243032e-02, -3.23904157e-02, 4.83344169e-03,
          -5.84430294e-03, 7.99165443e-02, 1.51161447e-01,
          6.64255619e-02, -5.32461423e-03, 7.36071616e-02,
          -1.59555860e-02, 5.31649888e-02, 2.91750655e-02,
          8.38264916e-03, -2.74955314e-02, -1.93622798e-01,
          -7.47673437e-02, -3.67866792e-02, -5.05379625e-02,
          7.64117241e-02, 9.02936831e-02, 2.90510785e-02, 6.82460368e-02,
          5.26698902e-02, 1.12395555e-01, 1.54876411e-01, 4.83071022e-02,
          4.40361723e-02, -9.00503322e-02, 8.79939273e-02,
          -2.16858894e-01, -1.57202512e-01, -6.10233247e-02,
          -2.12497503e-01, -1.15248799e-01, 6.25852123e-02,
          -5.95256779e-03, -1.56495422e-02, 2.99142636e-02,
          -3.27996872e-02, 9.44941398e-03, 1.19337641e-01,
          4.63315584e-02, 6.48281816e-03, 1.06377378e-01,
          -5.62624894e-02, 8.01756755e-02, 5.76766990e-02,
          3.86028737e-02, -1.86521575e-01, 1.10058896e-01,
          6.85110316e-02, 2.04640031e-01, 2.70490367e-02, 1.45943359e-01,
          4.37434204e-02, -5.51294163e-02, 3.24628241e-02,
          -1.91743374e-01, -9.27926376e-02, 1.23920724e-01,
          1.00499289e-02, -2.96144523e-02, 7.80784190e-02,
          -8.72589424e-02, 4.66445833e-02, 3.42203341e-02,
          -5.09281009e-02, -4.67563905e-02, -1.27007142e-01,
          3.59145051e-04, 1.40145257e-01, 2.76140682e-03,
          -3.65167335e-02, 7.34401494e-02, 2.47549713e-02,
          -5.93826398e-02, 1.24391764e-02, 5.75564206e-02,
          1.89589173e-01, 1.13780215e-01, 3.23705822e-02, 1.72791049e-01,
          3.75015289e-02, 2.13781372e-02, 2.13779826e-02,
          -9.08986032e-02, -6.65317997e-02, -8.48928392e-02,
          -4.54429947e-02, -1.38945011e-02, 8.00511390e-02,
          9.95231122e-02, -6.13235757e-02, 1.29382119e-01,
          -9.10266116e-02, 1.27095491e-01, 2.71371636e-03,
          -8.88667628e-02, -4.81684599e-03, -2.04964280e-02,
          4.05419171e-02, 3.26275686e-03, -6.55397326e-02,
          -1.64384127e-01, -1.27973586e-01, 9.99641046e-02,
          -5.70978709e-02, 1.09700626e-02, -9.65584069e-03,
          7.38943666e-02, -3.77941430e-02, -2.49629635e-02,
          2.29196567e-02, 3.86052355e-02, 6.87887967e-02, 3.84754688e-02,
          -1.04397215e-01, 1.33959260e-02, 3.11700515e-02,
          2.92567704e-02, -8.92272033e-03, 4.54417579e-02,
          1.67426642e-03, 5.56268133e-02, -1.36406079e-03,
          4.05640081e-02, 4.39915657e-02, 1.08460583e-01, 1.02060162e-01,
          1.73858162e-02, 7.52645954e-02, -2.58822311e-02,
          -3.29169668e-02, -1.91103816e-02, 9.31872800e-02,
          -3.39831747e-02, -9.12980363e-03, 4.06888202e-02,
          3.29535604e-02, 1.46616548e-01, 1.86391026e-02, 2.43258905e-02,
          1.81546360e-01, -2.59108245e-02, 8.06394741e-02,
          3.10508795e-02, -2.14552078e-02, -1.97976544e-01,
          -4.39000316e-02, -5.57213351e-02, -3.46577466e-02,
          -3.06111351e-02, -4.91639264e-02, 6.95123002e-02,
          1.50019780e-01, -1.37011902e-02, -9.75335538e-02,
          -1.17827579e-01, -4.07603234e-02, -6.31482080e-02,
          -4.66438569e-02, 9.59606003e-03, -1.73871673e-03,
          2.41899714e-01, 9.27621126e-02, -9.44908522e-03,
          -9.80650261e-03, -8.58230293e-02, 8.96818284e-03,
          3.58982123e-02, -2.67133974e-02, 4.40791249e-02,
          1.17924660e-02, -1.35312378e-01, -1.58379152e-01,
          1.80577731e-03, -1.18586840e-02, -5.64380027e-02,
          -1.25414714e-01, 4.51780595e-02, -8.72179493e-02,
          4.48217131e-02, -1.27098739e-01, 6.52585253e-02,
          1.19318642e-01, 1.84194942e-03, 1.19145714e-01,
          -2.42987275e-02, -4.47613671e-02, 1.50620211e-02,
          1.55928507e-01, 5.71738817e-02, 3.97551991e-02, 5.89642413e-02,
          -1.27092704e-01, 8.78253579e-02, 1.17746145e-01,
          5.83480345e-04, -5.11784405e-02, 9.20123905e-02,
          -1.93366930e-02, -6.19515926e-02, -6.06861943e-03,
          -1.05696864e-01, -9.95889008e-02, 6.27931654e-02,
          -6.45468533e-02, 1.06967827e-02, 1.99342240e-02,
          -1.40091419e-01, 3.28918211e-02, 2.38844287e-02,
          9.82237384e-02, 1.61662996e-01, 2.90625170e-02, 3.60176824e-02,
          5.64224571e-02, 1.28072901e-02, -2.26820931e-02,
          1.75180435e-02, -3.63599136e-02, -2.80257147e-02,
          -1.07779484e-02, -3.38885151e-02, -5.38636111e-02,
          7.06036165e-02, 9.03685912e-02, 2.76452284e-02,
          -1.10325813e-01, -8.74137282e-02, -2.36487631e-02,
          3.58193442e-02, 3.02922968e-02, -2.19994150e-02,
          6.95309415e-02, 5.60929365e-02, -3.32186408e-02,
          -9.27244127e-03, 1.06360465e-01, 1.08020112e-01,
          4.42579240e-02, 2.63516847e-02, 5.82066998e-02, 1.43490702e-01,
          9.78087261e-02, 1.35170287e-02, -2.34868154e-02,
          -7.03598664e-04, 5.89126870e-02, 7.50151053e-02,
          -2.33964212e-02, -7.87406191e-02, 1.44499153e-01,
          -6.78865016e-02, 3.61844003e-02, 3.41022238e-02,
          -8.22718721e-03, -5.87465912e-02, 1.05963707e-01,
          -4.29601558e-02, 1.06733358e-02, 2.25806218e-02,
          5.06065153e-02, -6.30988628e-02, -9.14202780e-02,
          4.05129716e-02, 5.16026132e-02, 2.52273735e-02,
          -7.32528493e-02, 7.47140311e-03, 2.61263065e-02,
          2.51880810e-02, -6.09475821e-02, 2.74979658e-02,
          -7.04946071e-02, 1.80985793e-01, -3.05679273e-02,
          -8.03287104e-02, 4.67525758e-02, 1.53291732e-01,
          -1.85181592e-02, -5.94490953e-02, 1.61811903e-01,
          -7.82218874e-02, -8.25049505e-02, -1.00932956e-01,
          -1.28981695e-01, 2.04924829e-02, 3.08511034e-02,
          8.61208513e-02, -8.81708786e-02, 1.82601996e-02,
          5.83074391e-02, 4.30142581e-02, 1.43983390e-03,
          -1.26321420e-01, 2.24126279e-02, -3.51518504e-02,
          5.93189336e-02, -2.27458328e-02, -2.66307755e-03,
          -2.75500063e-02, 9.90180075e-02, -6.40230849e-02,
          -1.18397921e-01, -4.85303961e-02, 7.02652559e-02,
          6.58686385e-02, 7.80205950e-02, -2.27471497e-02,
          -5.11168800e-02, 5.18322885e-02, 6.87577575e-02,
          -3.22550535e-02, 6.79908739e-03, 7.96088949e-03,
          5.38228415e-02, -2.97527555e-02, 5.52688129e-02,
          1.49590392e-02, 8.84314999e-03, -2.57259440e-02,
          5.07115852e-03, 8.70058388e-02, 7.58430921e-04, 3.91306393e-02,
          -6.07043430e-02, -1.18564479e-02, 3.05159669e-02,
          -1.11012938e-04, 7.94766657e-03, 3.23552340e-02,
          7.79180136e-03, -5.48457615e-02, -6.27108384e-04,
          5.60483076e-02, -6.00023083e-02, 2.11667083e-02,
          2.13869903e-02, 4.27231863e-02, -1.56371726e-03,
          -1.48116797e-02, 9.08874720e-03, 1.31621048e-01,
          8.96771103e-02, 9.35224257e-03, 1.03256963e-01,
          -5.91747016e-02, 1.38261601e-01, -3.26840207e-02,
          -5.01036085e-02, 4.52060699e-02, -1.43971853e-02,
          -9.72821862e-02, -9.47144404e-02, 1.16968580e-01,
          4.29375283e-02, 3.59704457e-02, -9.03685391e-02,
          -1.21682752e-02, 4.75749224e-02, -1.23197518e-01,
          5.99096902e-02, -4.28254269e-02, -1.06153600e-02,
          -4.74137925e-02, 3.16094384e-02, 5.56536997e-03,
          1.53345102e-03, -4.85014208e-02, 4.35105301e-02,
          2.12465022e-02, -4.88988636e-03, -6.71025515e-02,
          -9.94660035e-02, 8.12719315e-02, -2.69073434e-02,
          -5.65956086e-02, 2.27225181e-02, 1.37416780e-01,
          -2.91525144e-02, -5.54116070e-02, 5.35010584e-02,
          6.27531260e-02, 3.81109677e-03, 1.73932016e-02,
          -1.11331912e-02, 1.34574547e-01, -1.06888704e-01,
          -1.03250936e-01, -7.15730265e-02, -4.45027575e-02,
          -2.44154073e-02, 1.12459905e-01, 5.61335497e-02,
          -2.24047177e-03, 1.23049162e-01, 1.09879158e-01,
          -5.25162928e-02, -5.39312661e-02, 7.58657325e-03,
          -2.31881300e-03, 2.32016277e-02, -1.28324497e-02,
          -6.49038777e-02, 2.42948458e-02, 5.26204184e-02,
          -1.70331094e-02, -4.18739580e-02, 1.13767870e-01,
          -8.83545056e-02, -2.10875552e-03, -7.39883585e-03,
          -3.90638411e-02, 2.37705987e-02, 6.68645799e-02,
          -1.56854764e-02, -4.71563041e-02, 1.18093699e-01,
          6.36948422e-02, 5.10041490e-02, 3.23658362e-02, 8.45746696e-02,
          -5.97320823e-03, -8.23195875e-02, -1.20696560e-01,
          -6.50734827e-02, 2.37295832e-02, -2.37922966e-02,
          -3.30469869e-02, -3.90308015e-02, -4.38676663e-02,
          1.26792908e-01, 2.79836431e-02, -1.66999459e-01,
          3.82841602e-02, 1.31678104e-01, -5.57438247e-02,
          -1.92331374e-02, -6.18463010e-02, 5.22225648e-02,
          5.31734414e-02, 1.21797793e-01, -3.80383842e-02,
          -1.90568957e-02, -1.61857326e-02, -3.43591161e-02,
          1.30351970e-03, 6.97901547e-02, 6.90667704e-02, 4.04394828e-02,
          7.46297762e-02, 8.67097378e-02, 4.67652120e-02, 6.80675507e-02,
          -2.25904137e-02, 2.76158825e-02, -4.05321307e-02,
          3.11670471e-02, 3.79317477e-02, -5.30882627e-02,
          -5.29686362e-02, 2.24328171e-02, 1.91044733e-02,
          -2.27197986e-02, -3.84219512e-02, 3.11505198e-02,
          1.97675228e-02, 1.68633610e-01, 6.37730658e-02, 9.96008217e-02,
          3.99247743e-02, -1.92077637e-01, -1.36962965e-01,
          -3.74248251e-02, -7.59077305e-03, -5.07824346e-02,
          2.22614035e-04, -3.84136662e-02, 5.73686846e-02,
          6.97988942e-02, 6.76780343e-02, -5.83028533e-02,
          -5.52421287e-02, -8.34986940e-02, -1.45258131e-02,
          -4.51825606e-03, -2.09187735e-02, 1.67770684e-02,
          -5.97468950e-02, -1.14462033e-01, -1.56285107e-01,
          -1.08553998e-01, 4.71446961e-02, 1.25029042e-01,
          7.68030137e-02, 6.38794303e-02, 7.53573924e-02, 3.30581926e-02,
          1.21692240e-01, -1.10261003e-02, 1.44947637e-02,
          -3.05899326e-02, -1.46861210e-01, -1.05875604e-01,
          8.51259604e-02, -5.36099859e-02, -5.80646172e-02,
          1.15922742e-01, 6.47796318e-03, 4.20276150e-02,
          -4.13242914e-02, -1.34600446e-01, -2.33074985e-02,
          -3.27950045e-02, -6.60566762e-02, 2.69692875e-02,
          -4.19008061e-02, -1.42583475e-01, 4.93363291e-02,
          2.78956499e-02, 1.09702274e-02, 1.72608316e-01, 2.21553668e-02,
          -4.06677201e-02, 5.74839339e-02, 1.51236886e-02,
          -4.23931368e-02, 1.85430497e-02, 1.09596372e-01,
          1.87673464e-01, 2.54365280e-02, 1.14134952e-01,
          -8.60236138e-02, 1.79025047e-02, -1.33146837e-01,
          -1.95575088e-01, -2.45427992e-02, -9.70361605e-02,
          -1.82761624e-03, 2.89364345e-02, 8.77166986e-02,
          -8.92900825e-02, -7.81112397e-03, 3.60459723e-02,
          -9.25134942e-02, 4.53816354e-02, -8.98031890e-02,
          6.30574673e-03, 2.39160508e-02, -1.55495694e-02,
          -1.71148390e-01, -1.24496147e-01, -2.23933416e-03,
          -1.48223087e-01, 2.75817746e-03, 1.61425993e-02,
          -2.75423806e-02, 3.19330208e-02, -6.59326911e-02,
          -7.41911903e-02, -4.52813953e-02, -1.22131705e-02,
          -7.53851142e-03, 4.71471772e-02, -4.72496450e-02,
          -7.17044994e-02, 1.17492853e-02, 1.96026750e-02,
          -3.82341235e-03, 1.43177539e-01, 1.92082971e-01,
          4.84132878e-02, 1.48297086e-01, 3.56367640e-02, 2.78832614e-02,
          1.36109767e-02, 3.69371027e-02, 1.26766209e-02, 1.01072595e-01,
          7.66710415e-02, 7.96599896e-04, 4.07431014e-02,
          -1.03748836e-01, 3.92041020e-02, -6.50941804e-02,
          -2.05438565e-02, 1.91746913e-02, 6.66163722e-03,
          -7.48681724e-02, -1.10507809e-01, -2.75565777e-02,
          2.33998173e-03, -8.47715139e-02, -4.95158955e-02,
          7.68412799e-02, -1.76436678e-02, 7.86238164e-02,
          9.55098793e-02, 5.06001972e-02, 6.91160373e-03,
          -4.97175381e-02, 6.03836626e-02, -1.10170254e-02,
          1.97028108e-02, 1.53935701e-02, 4.40934040e-02, 3.71846110e-02,
          1.22955598e-01, 4.63757962e-02, 5.30749410e-02, 7.20510259e-02,
          -4.68146726e-02, -2.35490613e-02, -6.65801391e-02,
          8.51307064e-02, -4.70152162e-02, -1.73676442e-02,
          -8.12001675e-02, -1.18409172e-01, -2.70590968e-02,
          -2.00066026e-02, 2.11445596e-02, -7.71385655e-02,
          1.12959389e-02, -6.20058551e-02, -1.17495023e-01,
          4.58365232e-02, 8.88541434e-03, 1.51301427e-02, 1.11143187e-01,
          -3.22126597e-02, -1.17446817e-01, 8.12734514e-02,
          1.44929960e-01, 1.49423350e-02, 1.32881537e-01, 8.91781785e-03,
          7.74565041e-02, -1.40063047e-01, -6.08645491e-02,
          -1.61154076e-01, -1.71737056e-02, -2.00623479e-02,
          -1.30119964e-01, -1.37006044e-02, -3.37657332e-02,
          -1.97752535e-01, 2.05420107e-02, -6.49398044e-02,
          -1.75129116e-01, -1.84750315e-02, 1.96690038e-02,
          -1.17348082e-01, 1.60713822e-01, 1.27755534e-02,
          2.40867361e-02, 6.25817403e-02, 1.75558459e-02,
          -2.03011110e-02, 1.19958289e-01, 2.65648067e-02,
          -2.53896620e-02, 6.09565899e-02, 2.65046377e-02,
          8.52632821e-02, 5.16598932e-02, 7.82160088e-03, 1.66074652e-02,
          -5.01370467e-02, 3.74703221e-02, 1.27888843e-02,
          -7.16833547e-02, -5.13205538e-03, 8.11523497e-02,
          5.70898205e-02, -1.09884374e-01, -3.39940526e-02,
          -2.24763416e-02, -2.07256779e-01, -1.93189889e-01,
          1.02671422e-02, -7.76977688e-02, 1.52067887e-02,
          1.83879808e-02, 5.21322433e-03, 1.11640254e-02, 5.28946472e-03,
          -1.25675455e-01, 1.80962682e-02, -3.69939487e-03,
          -6.55498877e-02, 1.12570956e-01, 5.77224083e-02,
          -4.44727987e-02, -6.01685382e-02, -2.34349538e-02,
          6.72023073e-02, 1.43737858e-02, 9.15383827e-03, 3.49794328e-02,
          7.54654780e-02, -2.99273729e-01, -5.39366119e-02,
          -1.29530355e-01, 1.22969478e-01, -7.07466006e-02,
          -3.47246416e-02, 6.17259927e-02, 2.48688981e-02,
          -8.21937323e-02, 1.13158189e-01, 1.08163498e-01,
          3.93761657e-02, 1.93854533e-02, 4.89487536e-02, 6.72310591e-02,
          -5.11278063e-02, -5.77496423e-04, 5.47681898e-02,
          -8.79109055e-02, 6.52120542e-03, -4.56939004e-02,
          -5.12028486e-02, -8.26117173e-02, -1.44441560e-01,
          -4.23989259e-02, -8.08891207e-02, 9.92083549e-03,
          -1.95368722e-01, -1.09543212e-01, -9.37015563e-02,
          7.55868554e-02, 4.51004058e-02, -3.95187922e-02,
          3.71635007e-03, 9.65553336e-03, -1.87364966e-02,
          -7.11928532e-02, -5.30049689e-02, 5.92803173e-02,
          -1.32356342e-02, -2.01069913e-03, -5.17267138e-02,
          -1.43373355e-01, -1.01317696e-01, -1.39889522e-02,
          -5.83256297e-02, -5.78399934e-02, -2.66014412e-02,
          -9.42685232e-02, 3.27318758e-02, -1.78819910e-01,
          4.80860509e-02, -9.15050134e-02, 7.71187991e-02,
          -1.55100435e-01, -1.02700703e-01, -3.73078138e-02,
          -2.07167283e-01, -2.89865900e-02, -1.02248594e-01,
          -1.08115517e-01, -5.70339859e-02, 5.80280647e-02,
          8.20118710e-02, -2.49322671e-02, 7.23310979e-04,
          3.79580446e-02, -4.82956925e-03, -8.59573483e-02,
          -2.53960136e-02, -5.05293123e-02, -6.19342364e-03,
          -1.91293582e-02, -2.15360057e-02, -1.93584096e-02,
          2.68275626e-02, 4.26702900e-03, 2.48966999e-02, 1.09698601e-01,
          -3.62794735e-02, -1.48472369e-01, -2.49380954e-02,
          -1.46784946e-01, -1.03891239e-01, -2.17753854e-02,
          -5.58752660e-03, -2.83472091e-02, -6.07782044e-02,
          1.43758086e-02, 6.30667657e-02, 1.32607549e-01, 4.79935817e-02,
          6.87237978e-02, -6.44245697e-03, 1.28906250e-01,
          5.40442690e-02, 1.41396537e-01, -1.24502800e-01,
          -5.76955229e-02, 7.10406061e-03, -5.16986735e-02,
          -3.22552100e-02, -2.02222466e-02, -6.73563033e-02,
          -4.87075374e-02, 8.28864872e-02, -1.21765286e-01,
          -4.09431048e-02, 6.76391199e-02, 2.64865626e-02,
          -1.15034729e-01, -1.90069944e-01, -2.06213798e-02,
          -1.48535511e-02, 9.95626673e-03, -1.25810295e-01,
          4.83638234e-02, -7.00549111e-02, 1.09368958e-01,
          4.37329151e-02, -5.36647663e-02, 1.04698911e-01,
          3.25389281e-02, 1.08691476e-01, -1.73354819e-01,
          -1.20418690e-01, -1.07100427e-01, 1.12285793e-01,
          -8.67947936e-02, -1.10893078e-01, -7.04458654e-02,
          -4.24189717e-02, 1.85172409e-02, -1.04002483e-01,
          -4.28990275e-02, 1.30970851e-02, -2.34741140e-02,
          -1.77063029e-02, -1.17184557e-01, 8.02631825e-02,
          -1.05334654e-01, 2.77633928e-02, -8.09860155e-02,
          7.50979856e-02, -6.13926388e-02, 4.87571359e-02,
          9.10687372e-02, 7.14051276e-02, 2.67434698e-02, 1.11433551e-01,
          1.14151254e-01, 9.35932156e-04, -5.48713692e-02,
          -2.13532802e-02, -7.20082074e-02, -5.41592911e-02,
          2.20981743e-02, 3.31589929e-03, -1.96116269e-01,
          2.62931199e-03, -3.03012095e-02, 9.42921266e-03,
          3.09010148e-02, 6.92438930e-02, 1.06382221e-01, 5.63622103e-04,
          6.90877438e-02, 2.17773970e-02, 7.13309413e-03,
          -8.55106413e-02, -9.31530371e-02, -7.08823209e-04,
          4.12328355e-02, 7.69060552e-02, 2.76602115e-02,
          -6.20093243e-03, 6.29124120e-02, 3.26552652e-02,
          3.55296396e-02, -1.35589167e-01, -3.77067290e-02,
          -1.02902308e-01, 1.14171980e-02, -1.03442542e-01,
          -3.48604955e-02, -4.58294563e-02, 5.14324866e-02,
          1.29602194e-01, -6.15533702e-02, -5.14277220e-02,
          2.11107004e-02, 1.30320624e-01, 1.38647467e-01,
          -5.15561365e-03, -5.02519757e-02, 4.95188236e-02,
          -1.64535902e-02, -9.12384316e-02, 7.66093209e-02,
          6.51941299e-02, 4.84474413e-02, 1.94655266e-02, 1.25626186e-02,
          -2.52185278e-02, 7.76627138e-02, 5.09709194e-02,
          -3.06364521e-02, 8.67014676e-02, -6.09069429e-02,
          -9.91467685e-02, -1.79995462e-01, 2.06065224e-03,
          -2.27249190e-02, 5.76571412e-02, 1.45391867e-01,
          4.48505540e-04, 1.46547118e-02, 8.95163268e-02, 5.34517020e-02,
          -1.89254805e-02, 6.85164379e-03, -5.24911955e-02,
          1.20612763e-01, 1.37065396e-01, -2.01582350e-02,
          6.34874031e-02, -2.35125292e-02, 3.73483337e-02,
          -4.18808386e-02, 7.48856217e-02, -2.44279276e-03,
          -8.48442242e-02, 3.25791957e-03, -4.43622544e-02,
          -9.31842178e-02, 9.03385412e-03, 4.06576358e-02,
          8.09765011e-02, 6.17956594e-02, -4.29166034e-02,
          -9.26880240e-02, 7.09068999e-02, 2.61729816e-03,
          8.98860916e-02, 2.72273831e-02, -1.81506928e-02,
          -1.30971633e-02, -1.18647646e-02, 8.40310529e-02,
          7.59650022e-02, -2.21099295e-02, -4.79179807e-03,
          9.29025859e-02, 5.89073636e-02, 3.07815503e-02, 5.80157265e-02,
          1.68256298e-01, 1.04457088e-01, 7.36372953e-04,
          -1.24545954e-01, 1.39495833e-02, -3.04382946e-02,
          -2.36726906e-02, -4.91366722e-02, 4.81292307e-02,
          -1.61730740e-02, 5.20749055e-02, 7.69486800e-02,
          6.91113099e-02, 8.07814151e-02, -6.73572570e-02,
          3.06240469e-02, -7.16552660e-02, -5.51255755e-02,
          2.97197010e-02, -1.61573093e-03, -4.72507477e-02,
          -1.26489848e-01, 4.07529064e-02, -2.77334191e-02,
          -9.83839482e-02, -7.40255937e-02, -4.00302419e-03,
          5.54852523e-02, -4.79919501e-02, -2.17460524e-02,
          -1.98506583e-02, -4.15250175e-02, 3.40430550e-02,
          -1.08823001e-01, 2.83153821e-03, 3.33772376e-02,
          3.99473347e-02, -1.43297359e-01, -2.04517469e-02,
          3.89417745e-02, -6.51516579e-03, 2.55511850e-02,
          8.09862465e-03, -7.00117126e-02, -3.50237191e-02,
          1.99572071e-02, -2.19530817e-02, 1.79260019e-02,
          -7.74021074e-02, 3.71953472e-02, 6.88398331e-02,
          -2.54837684e-02, 8.80345106e-02, -1.22745425e-01,
          1.62470147e-01, -2.79161483e-02, 5.20927943e-02,
          -4.19345014e-02, -2.74046455e-02, 7.71188438e-02,
          -1.83752686e-01, -6.23899698e-02, -2.52636895e-02,
          9.42100808e-02, -8.00945088e-02, 1.44300256e-02,
          5.09008877e-02, -7.05320835e-02, -3.00705363e-03,
          -3.20800692e-02, -1.01443045e-01, -1.26961052e-01,
          8.07868168e-02, 1.88658200e-02, 1.09223954e-01, 9.66964811e-02,
          -6.42200857e-02, 1.65596195e-02, -7.14756101e-02,
          4.39454131e-02, -1.05387211e-01, 4.15041372e-02,
          -9.66430902e-02, -1.47500202e-01, -1.56856999e-02,
          -1.87505446e-02, 1.24519812e-02, -4.83836979e-02,
          6.96671382e-02, 8.68571699e-02, -2.42282264e-03,
          -1.29436374e-01, -5.30692004e-02, 1.27595412e-02,
          -3.11585888e-02, 1.76629648e-02, -1.28986854e-02,
          2.04009041e-02, -2.03074533e-02, -2.89263371e-02,
          6.91783801e-02, 1.16049550e-01, -6.08827472e-02,
          -4.17020358e-02, -1.80825666e-02, -3.46251652e-02,
          -7.97576010e-02, -4.47468869e-02, 8.78830925e-02,
          6.86683282e-02, 1.20340794e-01, -1.83099329e-01,
          -1.44970305e-02, -1.08205043e-02, -3.56473923e-02,
          2.88455486e-02, -1.44352065e-02, -1.25558913e-01,
          1.33928806e-01, -3.97293014e-04, -3.10821515e-02,
          -1.05313055e-01, -4.16892320e-02, -8.51557553e-02,
          -7.42022097e-02, 5.99975437e-02, 1.40312001e-01,
          3.62513736e-02, 1.08936084e-02, -1.23066992e-01,
          -8.07063431e-02, 1.10977003e-02, 6.51929975e-02,
          8.92912894e-02, 6.41396716e-02, 1.05094150e-01, 7.12865740e-02,
          6.94402754e-02, -6.85392087e-03, 7.81577677e-02,
          9.96215567e-02, 5.92770129e-02, 7.31305778e-02, 5.50291650e-02,
          -3.25936638e-02, 7.57386442e-03, 9.31476355e-02,
          -3.00711952e-03, 5.27441800e-02, -1.18525721e-01,
          -2.17735916e-01, -6.49767891e-02, -1.02590986e-01,
          2.99775153e-02, -6.35896325e-02, -1.77459657e-01,
          2.86973920e-03, 1.47680202e-02, 1.04826661e-02,
          -4.62125689e-02, 1.94540676e-02, -2.23827541e-01,
          -4.19760160e-02, -1.27372608e-01, -6.41878843e-02,
          4.11130153e-02, 2.82004271e-02, 4.26476225e-02, 8.47158954e-03,
          2.84597315e-02, 4.54809628e-02, -8.86868015e-02,
          1.02147423e-01, 1.29981667e-01, 6.23188242e-02,
          -6.85043484e-02, -5.06174751e-02, 1.48485422e-01,
          -1.36014924e-03, 6.24673739e-02, 3.99016775e-02,
          6.45252988e-02, -2.23289803e-02, 4.62152846e-02,
          -1.16121158e-01, 3.00841145e-02, 1.06093532e-03,
          -7.25506917e-02, -1.27032459e-01, -6.26146123e-02,
          -2.29734126e-02, 9.85166654e-02, -1.42517518e-02,
          -1.49588399e-02, -5.62369563e-02, 4.56239320e-02,
          1.18761584e-02, -2.57160561e-03, 2.12326236e-02,
          1.78997256e-02, -8.25948194e-02, -8.24135356e-03,
          1.47929564e-01, -7.13139251e-02, 1.37686074e-01,
          4.84136008e-02, 1.70297906e-01, 4.21404988e-02,
          -3.81444693e-02, -1.78883877e-02, 9.19644907e-03,
          -1.16838016e-01, -9.72537510e-03, -3.37165259e-02,
          2.45650555e-03, 3.73756438e-02, -3.29620317e-02,
          -3.06765940e-02, 4.35587689e-02, 3.43266763e-02,
          -8.72631371e-02, -1.95995830e-02, -2.92692073e-02,
          -8.12226499e-04, 5.40492535e-02, 8.56801569e-02,
          -4.32643369e-02, -3.55064906e-02, -1.33861676e-02,
          1.43050095e-02, -7.07436800e-02, -8.35855976e-02,
          -5.78294322e-02, -5.94391488e-02, -1.34317577e-02,
          1.98416598e-02, -1.07917525e-01, 5.08505329e-02,
          -5.69241494e-02, 6.88787922e-02, -4.45329808e-02,
          6.92741647e-02, -4.79452722e-02, -1.48706943e-01,
          6.67594895e-02, 1.05974875e-01, 6.16315156e-02, 2.89547089e-02,
          2.61046961e-02, 9.26868990e-02, 1.40289068e-01, 3.77235487e-02,
          -6.48343042e-02, 2.31388789e-02, 1.61724880e-01,
          4.37995568e-02, 6.18743226e-02, 8.35257992e-02, 1.16189038e-02,
          -2.47305892e-02, -1.09663606e-01, -3.63233425e-02,
          3.16714384e-02, 4.05225232e-02, 4.83251028e-02,
          -4.29840945e-02, 9.34440270e-02, 7.68999234e-02,
          -1.11528849e-02, 6.99782465e-03, 2.80434117e-02,
          4.12158035e-02, 9.59660634e-02, -3.19451354e-02,
          2.11490989e-02, -2.25239750e-02, 1.20888166e-01,
          1.70866363e-02, 2.54592169e-02, -2.64603328e-02,
          -3.06897182e-02, 3.66108604e-02, -2.41141710e-02,
          -6.07425198e-02, -7.24526122e-02, 3.44618559e-02,
          -7.19838142e-02, -2.28908453e-02, -4.85405363e-02,
          4.69551198e-02, 1.26006976e-01, -3.13986428e-02,
          3.67749017e-03, 7.94300437e-02, -1.27111167e-01,
          -1.22112304e-01, 9.68939252e-03, 8.05279985e-02,
          7.37680346e-02, -4.90489528e-02, 9.89285205e-03,
          -4.01734263e-02, 8.81211609e-02, 3.66140045e-02,
          -1.01943195e-01, -1.72769740e-01, 1.78792048e-02,
          -5.65032288e-02, -5.52591570e-02, -4.13307399e-02,
          3.49573605e-02, 5.35424426e-02, 6.64887577e-02, 6.74489364e-02,
          -7.30179192e-04, 3.82533520e-02, -1.83659777e-01,
          1.29837707e-01, -4.37295400e-02, 1.60748642e-02,
          5.05052470e-02, 7.08124712e-02, 6.17446266e-02, 9.66234040e-03,
          3.97917107e-02, -1.45045176e-01, -6.84985965e-02,
          2.80361646e-03, 1.04036503e-01, -1.24903349e-02,
          4.25169542e-02, -9.35149491e-02, -2.22588256e-01,
          8.17168653e-02, -1.45276770e-01, -4.89416011e-02,
          8.31977576e-02, -6.42685816e-02, -3.64160922e-04,
          6.42583966e-02, -8.02028775e-02, 4.39182892e-02,
          -6.17639758e-02, -4.49427925e-02, -2.43026782e-02,
          1.37523964e-01, -8.26901123e-02, 3.22255008e-02,
          4.01053652e-02, -9.00855660e-03, 1.32267401e-01,
          6.28864020e-02, 5.12678782e-03, -5.18499222e-03,
          8.72645527e-02, -2.24161670e-02, 9.88593027e-02,
          -2.56093275e-02, -3.31577510e-02, -3.86254750e-02,
          4.26885585e-04, 9.10056829e-02, 1.55430168e-01, 1.25720516e-01,
          -4.78745662e-02, 9.36493278e-02, -2.14448702e-02,
          -6.13362454e-02, 1.01924419e-01, -2.84704287e-02,
          -9.92124453e-02, -3.58283482e-02, 3.02738864e-02,
          -7.51404017e-02, -4.67545725e-02, 1.15614552e-02,
          -8.78518671e-02, -3.27314995e-02, 1.21474944e-01,
          -1.05647922e-01, 1.72815584e-02, 1.58312563e-02,
          -8.92007947e-02, 3.81247438e-02, -1.53504033e-02,
          -2.30675284e-02, -1.22361720e-01, -1.48375956e-02,
          8.44137520e-02, 1.31518424e-01, 9.46417749e-02, 1.42167872e-02,
          -5.89246042e-02, -3.10536046e-02, -1.09618753e-02,
          8.63774493e-02, 2.46150922e-02, 4.76386324e-02, 5.96645996e-02,
          1.08131794e-02, 5.10100042e-04, 1.29453212e-01, 1.14505827e-01,
          6.75713792e-02, -7.96629861e-02, 6.40945584e-02,
          3.91874351e-02, 6.45671552e-03, 7.52720907e-02, 8.20230544e-02,
          1.75175384e-01, -2.99152615e-03, 1.40495822e-01,
          -3.67567800e-02, 1.43830657e-01, 2.79025380e-02,
          9.64222476e-02, 8.05351585e-02, 8.89915973e-02,
          -1.42047899e-02, -1.52218327e-01, 3.95701155e-02,
          1.33727808e-02, -1.19244680e-01, -1.81216478e-01,
          -1.47878192e-02, -3.90824936e-02, -7.98633993e-02,
          9.32933316e-02, -4.21708375e-02, 1.15720235e-01,
          -7.22157955e-02, 2.42082328e-02, -5.08314259e-02,
          -1.01681668e-02, 2.28028059e-01, -1.72594823e-02,
          8.23190734e-02, -2.11570218e-01, 2.96829231e-02,
          -1.05689213e-01, -5.05730920e-02, -6.13082573e-02,
          1.26126772e-02, 5.86470291e-02, 1.89385819e-03, 1.15902377e-02,
          -4.94633801e-02, 1.81474149e-01, -4.44589974e-03,
          -3.85806523e-02, -7.05733523e-02, 4.91908230e-02,
          1.14805073e-01, 8.38656798e-02, 7.55501613e-02, 2.96666734e-02,
          1.04308859e-01, 7.68304616e-02, 1.79183017e-02, 7.64353899e-03,
          7.78393224e-02, 1.25591412e-01, -3.31367552e-02,
          1.73493803e-01, 6.22050948e-02, -1.34380041e-02,
          -6.44951388e-02, -2.63920575e-02, -9.29306448e-03,
          1.27817364e-03, -4.19240408e-02, -9.06024873e-02,
          -2.83692796e-02, 2.63580289e-02, -5.42584024e-02,
          6.55950233e-02, -1.29388813e-02, -1.25666708e-01,
          1.46331275e-02, -6.16309419e-02, -4.42823321e-02,
          6.64648265e-02, 7.50902444e-02, -8.65107104e-02,
          -4.51054759e-02, -4.27302951e-03, 8.45505390e-03,
          1.83341056e-02, -2.72925317e-01, -5.80678619e-02,
          1.23559378e-01, -1.61557242e-01, -8.85326639e-02,
          -9.86840352e-02, 4.42222878e-02, 7.44482800e-02,
          -7.93445185e-02, -1.34898618e-01, -7.91445300e-02,
          5.55045679e-02, -1.08325906e-01, 6.71417788e-02,
          1.39554739e-01, 4.85823900e-02, 3.73677015e-02, 1.75584517e-02,
          -1.91972516e-02, 9.35781151e-02, 5.26470207e-02,
          -5.35807945e-02, -1.96151175e-02, -4.74794619e-02,
          1.09260522e-01, 2.18140975e-01, 3.62450331e-02,
          -5.30095818e-03, 1.35524392e-01, 6.14157096e-02,
          1.21687263e-01, 1.10726729e-01, 4.79777381e-02, 1.03645682e-01,
          -9.88765284e-02, 2.39000339e-02, 1.56108677e-01,
          5.42803518e-02, -1.67292338e-02, -1.01007566e-01,
          -7.18139559e-02, 2.79549025e-02, 1.87572162e-03,
          7.93436021e-02, 7.14551210e-02, -4.91172373e-02,
          -6.13708012e-02, -2.43905317e-02, -7.37681910e-02,
          -7.76153430e-02, -4.20781299e-02, -9.31333825e-02,
          -3.90631817e-02, 5.20618223e-02, 1.23872212e-03,
          8.90654419e-03, 4.37535085e-02, 5.70690334e-02,
          -2.07230658e-03, 3.07466220e-02, 6.17806576e-02,
          -7.77945505e-04, -1.00662552e-01, -3.44908237e-02,
          9.01394114e-02, -5.18801101e-02, 4.66261432e-02,
          -5.78221232e-02, 8.59365091e-02, 2.16751266e-03,
          3.52015570e-02, 1.23384722e-01, 3.28950845e-02, 3.08973845e-02,
          5.41115925e-02, 1.29515037e-01, 3.87819447e-02,
          -1.09518848e-01, -7.81093836e-02, -6.59381524e-02,
          1.83918085e-02, 2.10310481e-02, -6.58106580e-02,
          -4.61943857e-02, 1.27178267e-01, 5.70649467e-02,
          -3.79770100e-02, -1.83131043e-02, -1.47682382e-02,
          1.16920017e-01, 3.03642247e-02, -1.65720835e-01,
          2.06813198e-02, 4.02087942e-02, 9.47546288e-02, 3.90760116e-02,
          -1.08059896e-02, -6.29658774e-02, -2.04257630e-02,
          -2.79645366e-03, 1.12215199e-01, -1.28095979e-02,
          -4.73595187e-02, 1.10817969e-01, 7.77496919e-02,
          2.43363604e-02, -1.21329082e-02, 1.08755603e-01,
          1.04540780e-01, 3.98682430e-02, 1.12836562e-01, 7.52719417e-02,
          5.70856519e-02, -1.41121838e-02, -1.27492230e-02,
          -5.59249334e-02, -1.30455634e-02, 1.36262365e-02,
          -4.14590612e-02, 8.34557880e-03, -2.11680848e-02,
          -1.22030340e-02, -1.61574800e-02, -6.26999959e-02,
          -2.72106051e-01, -3.53695378e-02, 6.92570806e-02,
          3.87049317e-02, 6.18027002e-02, 6.84586912e-02, 1.20328158e-01,
          -9.31724254e-03, 5.46484143e-02, 2.68487949e-02,
          8.29614401e-02, 3.11207976e-02, 2.80810725e-02,
          -1.01797553e-02, 2.39929557e-03, -3.26882042e-02,
          -8.77173319e-02, -1.78172824e-03, -2.58005023e-01,
          -3.64716388e-02, 1.09137490e-01, 4.59013283e-02,
          -5.81287704e-02, -2.06680335e-02, -7.71404877e-02,
          9.92583483e-03, -8.22525248e-02, 2.00275630e-02,
          5.50531503e-03, 1.28777906e-01, 6.47267476e-02, 1.62239477e-01,
          5.86663596e-02, 1.93632599e-02, 1.14318356e-01, 1.79778591e-01,
          1.88328885e-02, -2.37140879e-02, 4.10398021e-02,
          8.70307311e-02, -5.08224927e-02, -9.32009965e-02,
          -1.05569102e-01, 4.61450554e-02, -5.63502498e-02,
          -8.73762816e-02, -3.85742560e-02, 3.89616229e-02,
          4.69534937e-03, 1.48735465e-02, 2.60875970e-02,
          -4.25280482e-02, -8.31022412e-02, 3.89819033e-02,
          -5.84345199e-02, 1.38184493e-02, -7.75536746e-02,
          2.12668367e-02, -6.46705404e-02, -1.26445428e-01,
          -4.44471203e-02, 1.58189982e-02, -4.25162874e-02,
          -1.77291483e-01, -3.82285677e-02, 5.79820834e-02,
          -1.03766851e-01, 4.71851267e-02, 3.03692184e-02,
          1.37483016e-01, -4.29166183e-02, -4.74417359e-02,
          -1.66247576e-01, -2.35905610e-02, 1.10950485e-01,
          -4.26325984e-02, -9.67742205e-02, -2.23881245e-01,
          -8.42098221e-02, -3.94976251e-02, -4.18484546e-02,
          -8.76501054e-02, -6.05334667e-03, 2.19257399e-02,
          -1.72030494e-01, -5.56768775e-02, 5.85665787e-03,
          1.06160156e-01, -7.30294660e-02, 7.80077726e-02,
          6.57755211e-02, 4.43959311e-02, 5.51570533e-03,
          -8.42690393e-02, 8.53048712e-02, 7.43685439e-02,
          3.43229398e-02, -9.16766061e-04, -5.21820132e-03,
          -1.52639523e-01, 7.51862004e-02, 1.11676916e-01,
          -4.79917936e-02, -2.08057277e-02, 2.86343624e-03,
          -2.55762190e-02, -8.09348072e-04, -6.67401105e-02,
          -1.00850642e-01, -8.82411599e-02, -6.88663498e-02,
          -4.59769368e-02, -1.08431660e-01, 6.99571595e-02,
          5.65869361e-02, 1.23416074e-01, 1.67469569e-02,
          -6.57567084e-02, 6.68078810e-02, -5.77923656e-02,
          -1.38532326e-01, 2.01397995e-03, -3.96412872e-02,
          1.44875506e-02, 3.87599692e-03, -1.00738537e-02,
          -5.46996333e-02, -4.36730869e-02, -7.08393306e-02,
          -1.13794342e-01, -3.74182500e-02, -6.96053207e-02,
          -2.18956079e-02, 2.93546189e-02, -1.44387400e-02,
          -1.15110628e-01, 4.54731891e-03, -5.15531301e-02,
          -4.13551368e-02, -3.51189971e-02, -5.98891340e-02,
          -1.07456921e-02, 6.93378150e-02, 6.41535744e-02,
          -1.14674568e-01, 5.13026007e-02, 9.42469463e-02,
          -8.39387346e-03, 4.62086610e-02, -1.28201514e-01,
          -1.71417892e-02, -3.21858376e-02, 4.39019799e-02,
          2.59671230e-02, 2.90705655e-02, -3.46476510e-02,
          -7.99300075e-02, -6.81159040e-03, -2.91016102e-02,
          -3.40691283e-02, -1.38271496e-01, -3.54255959e-02,
          -8.19399953e-02, 2.18039323e-02, -9.39014833e-03,
          -2.22613979e-02, 1.30694464e-01, 1.51232854e-02,
          -3.49395834e-02, -9.38082673e-03, 6.21229820e-02,
          -1.35800689e-01, 4.34847213e-02, 6.53273538e-02,
          2.10768785e-02, 1.07221194e-02, -2.65183859e-02,
          2.19482463e-03, -4.88768220e-02, 1.69506799e-02,
          -3.65667865e-02, 9.34335813e-02, -1.44224539e-02,
          -8.19065645e-02, 1.26807526e-01, -1.69496275e-02,
          -1.10827960e-01, -3.81322540e-02, 8.76571611e-02,
          -3.92895145e-03, 3.60538661e-02, 7.41514638e-02,
          -3.91491279e-02, 1.94743313e-02, -1.11693621e-01,
          -2.61951424e-02, -5.56788892e-02, -6.30041910e-03,
          -9.33719501e-02, -1.11797899e-02, -5.03950939e-02,
          -1.88977886e-02, -2.28783153e-02, 3.59145273e-03,
          3.74374092e-02, 4.36173528e-02, 1.62155598e-01, 1.26284286e-01,
          -3.89347300e-02, 4.01293337e-02, -7.29011297e-02,
          1.47307729e-02, 1.69393793e-01, 3.22156176e-02,
          -4.02771644e-02, 1.19043924e-01, -6.69483393e-02,
          3.91084608e-03, 2.67434437e-02, -1.45080239e-01,
          -4.63702865e-02, -2.53983438e-02, 4.02449667e-02,
          1.36916609e-02, 2.56353263e-02, -6.61953762e-02,
          2.47583725e-02, 6.03492721e-04, 3.40055721e-03,
          -8.05991367e-02, 2.37148385e-02, 9.91232023e-02,
          3.56106721e-02, 7.30177015e-02, -1.56460032e-01,
          -2.00846922e-02, 5.74132875e-02, -3.87938917e-02,
          4.59172353e-02, 1.23737462e-01, 1.27315167e-02,
          -9.62345600e-02, 1.18965536e-01, -2.56817937e-02,
          3.77139114e-02, 1.34706289e-01, 2.32698843e-02, 1.51950270e-01,
          4.74630445e-02, -9.77738500e-02, -5.05798161e-02,
          1.41166955e-01, 4.91474792e-02, 6.77441806e-02, 5.13335168e-02,
          -4.10855515e-03, 2.41746791e-02, 9.06022862e-02,
          5.84271662e-02, -6.47964627e-02, 8.50273483e-03,
          -5.74977770e-02, -4.17681038e-03, 2.83165798e-02,
          -9.11801383e-02, -4.03825901e-02, 4.43203487e-02,
          5.74937761e-02, 7.26699159e-02, 9.42625403e-02, 5.48212565e-02,
          -7.56933019e-02, 4.36276533e-02, -4.22689319e-02,
          1.29892543e-01, 1.39711984e-02, -4.55815978e-02,
          -1.12586871e-01, -8.28978941e-02, 1.56278200e-02,
          7.25174174e-02, 1.98156349e-02, -1.09496385e-01,
          -1.09861754e-02, 7.05372766e-02, -6.12927265e-02,
          -2.06503272e-02, 7.55784959e-02, 5.56045547e-02,
          1.68069541e-01, -2.55464446e-02, -1.25729650e-01,
          3.25095374e-03, 6.94685802e-02, 1.50039181e-01,
          -7.05870911e-02, 3.35589685e-02, 5.36257289e-02,
          -6.10455573e-02, -6.08657524e-02, -3.18070538e-02,
          1.13065891e-01, 3.63563746e-02, 4.16764468e-02,
          -9.93310139e-02, 8.99943039e-02, 4.35121171e-03,
          8.86270851e-02, 3.64246313e-03, 2.90523167e-03, 2.80583301e-03,
          -2.62884442e-02, -7.38592669e-02, 3.78548838e-02,
          7.46924132e-02, 7.06618130e-02, 8.67658705e-02, 3.19916056e-03,
          -1.93675265e-01, 4.98474129e-02, 3.21033560e-02,
          1.05970301e-01, 1.32696912e-01, -4.21153270e-02,
          -2.61235535e-02, 5.72559945e-02, 3.75892222e-02,
          -1.71843752e-01, 2.33220235e-02, -9.78499725e-02,
          5.89170353e-03, 6.92494167e-03, -4.16526385e-02,
          2.17308626e-02, -3.93900201e-02, 1.51406629e-02,
          -1.46187386e-02, -2.48961542e-02, 7.39865303e-02,
          9.67654884e-02, 2.88133472e-01, -2.48112949e-03,
          1.38848890e-02, 3.68926371e-03, 7.24745169e-02,
          -3.38881761e-02, 3.79570015e-02, -1.47670610e-02,
          1.58830150e-03, -2.44399067e-03, -1.68961301e-01,
          -1.61801130e-02, 1.24987448e-02, 5.30228466e-02,
          -1.41655549e-01, -1.90009642e-02, -2.80566029e-02,
          -3.71886827e-02, 7.34088896e-03, -3.43176909e-02,
          -2.32195966e-02, 2.42847744e-02, 1.58005320e-02,
          -7.91420117e-02, 4.96542901e-02, -1.31754391e-02,
          1.85064804e-02, 8.46372023e-02, -8.53435993e-02,
          -8.26890673e-03, -9.26976837e-03, 1.51501909e-01,
          3.62608321e-02, 8.52848515e-02, -9.16622858e-03,
          -1.11897312e-01, 2.84247268e-02, 1.41102588e-03,
          1.24008492e-01, -3.12267002e-02, 3.35454904e-02,
          1.58833638e-01, 1.53975505e-02, -4.62010242e-02,
          -1.94340795e-01, 1.06036566e-01, -3.86732584e-03,
          -1.68797314e-01, 4.75955196e-02, 5.31923361e-02,
          5.83114997e-02, 6.22508153e-02, 1.53730938e-03,
          -8.61402526e-02, 7.06932768e-02, -6.44704625e-02,
          2.81850342e-02, -4.17855345e-02, -1.54069275e-01,
          -3.73233818e-02, 5.95766418e-02, -2.97112670e-02,
          -1.77870214e-01, 7.86481798e-02, 3.13252443e-03,
          1.51268557e-01, 9.52581465e-02, 1.43180475e-01, 2.24205572e-02,
          -2.16049440e-02, -5.27217463e-02, -8.58968496e-02,
          -1.72438547e-02, -4.40623388e-02, -5.23020923e-02,
          -1.28399739e-02, 5.46739846e-02, -4.29888768e-03,
          -3.08744498e-02, -2.14137658e-02, -1.52059952e-02,
          3.55023369e-02, 6.84291273e-02, 9.62920114e-02, 8.80898312e-02,
          -3.60935554e-02, -6.37125149e-02, -1.76655427e-02,
          -1.04954317e-01, 8.94667730e-02, -1.30189564e-02,
          1.44152433e-01, -4.70460244e-02, 3.78541537e-02,
          2.00105626e-02, -7.08967522e-02, -1.33336410e-01,
          -1.33783996e-01, -7.40012154e-02, 1.18177019e-01,
          8.50281492e-02, -8.25028121e-02, -3.73051688e-03,
          2.04323176e-02, -6.96540326e-02, -6.50634384e-03,
          1.25920139e-02, 1.13551989e-01, -4.03594300e-02,
          7.86745250e-02, -1.24639638e-01, -2.97590289e-02,
          -8.60980675e-02, 7.17902631e-02, 8.36540461e-02,
          -4.68600951e-02, 5.11375628e-02, -2.04893574e-02,
          1.62039578e-01, -2.22359765e-02, 3.20493467e-02,
          -6.50912896e-02, -4.78777103e-02, 2.49621756e-02,
          6.87005837e-03, -7.51987621e-02, -4.95007448e-02,
          3.23042050e-02, 5.34533598e-02, 1.19796455e-01,
          -2.36795284e-02, 2.71330196e-02, 3.20895910e-02,
          -6.60951734e-02, 5.33865876e-02, -6.98564649e-02,
          1.96984649e-01, -8.15845735e-04, -2.99564581e-02,
          -1.16576822e-02, 9.20626521e-02, -5.86915426e-02,
          -3.01175425e-03, -7.43303746e-02, -6.97063729e-02,
          6.53945208e-02, 3.30881029e-03, -8.06588084e-02,
          -5.81744798e-02, 9.32391360e-03, -2.11985148e-02,
          -1.20450772e-01, 7.10684340e-03, -2.95418520e-02,
          -9.53305047e-04, 6.97424784e-02, 9.48594436e-02,
          -6.52413070e-02, -2.56737079e-02, -9.99438092e-02,
          -3.69279645e-02, 3.62494141e-02, -4.41642990e-03,
          1.05066456e-01, 2.35771276e-02, 9.63748917e-02,
          -2.22776961e-02, -7.39911720e-02, 3.79689485e-02,
          -1.32935168e-02, 4.54979204e-02, -3.68389934e-02,
          -1.09177656e-01, 4.39142436e-02, 8.04638937e-02,
          -2.20201556e-02, 6.30635098e-02, 5.13283946e-02,
          3.44220027e-02, -4.11165878e-02, 3.02138701e-02,
          1.08482204e-01, -1.61596723e-02, 8.17538872e-02,
          -1.58969108e-02, 8.63531977e-03, 9.45943594e-02,
          7.11453557e-02, 2.82186326e-02, -3.11374757e-02,
          6.46925718e-02, 1.33721486e-01, 3.20626087e-02,
          -7.82457963e-02, 7.18507394e-02, 1.74065754e-02,
          -1.14097362e-02, -1.39733404e-01, -1.85587570e-01,
          2.00431958e-01, -4.88606989e-02, 3.70105319e-02,
          -2.10127886e-02, 4.23087440e-02, 3.92069556e-02,
          4.71879020e-02, -6.10845760e-02, -8.66195634e-02,
          -2.96073798e-02, -1.57239009e-02, -1.52589828e-01,
          -4.83853184e-02, -7.03595728e-02, -2.40687765e-02,
          -1.27245247e-01, 8.37630630e-02, -1.05594374e-01,
          5.87414317e-02, -6.90459013e-02, 6.74764393e-04,
          -6.55387789e-02, 5.15648387e-02, 3.96821573e-02,
          -1.12254515e-01, -8.92732367e-02, 1.37047082e-01,
          6.73511922e-02, -8.29091445e-02, -2.27627121e-02,
          2.96669523e-03, 3.37375291e-02, 1.91382424e-03,
          -6.04558885e-02, -1.14969965e-02, 9.04019102e-02,
          1.13511659e-01, -2.45685223e-03, 6.00540191e-02,
          -1.39441555e-02, 2.56595644e-03, -1.69423446e-02,
          -7.46812373e-02, 7.47896656e-02, 1.57463357e-01,
          1.28669620e-01, -3.60503905e-02, 4.98895980e-02,
          3.50315236e-02, -4.97560541e-04, -7.16393664e-02,
          1.87894737e-03, -1.00334063e-01, 5.41029908e-02,
          2.13358045e-01, 2.46253479e-02, 7.34416097e-02,
          -1.01176247e-01, -8.24751407e-02, 7.31542110e-02,
          -7.53088295e-02, -3.88649218e-02, -5.53498007e-02,
          3.85365784e-02, -7.87037760e-02, 9.49381217e-02,
          1.74095318e-01, 2.64427923e-02, 1.93650097e-01, 9.11174491e-02,
          1.13955759e-01, -7.36164302e-02, 1.02584660e-01,
          6.28538206e-02, 1.74644291e-01, 2.31224105e-01, 2.39895493e-01,
          -1.37807857e-02, 2.94859316e-02, 3.84396464e-02,
          -2.15942785e-02, -2.27296893e-02, -1.20240211e-01,
          6.32953569e-02, 3.24413367e-02, -7.18597472e-02,
          -1.64239287e-01, 2.05563591e-03, 2.54927605e-01,
          2.71000117e-02, 1.81272719e-02, -6.52532652e-02,
          1.86615974e-01, 1.00015707e-01, -7.61867017e-02,
          7.16331527e-02, -7.25320959e-03, 6.95073456e-02,
          2.23694462e-02, 3.54831014e-03, -5.17860055e-02,
          1.26740381e-01, -1.35399140e-02, 3.40645574e-02,
          1.14794180e-01, 7.56534785e-02, 3.12680453e-02, 5.84805198e-02,
          -1.59644764e-02, -8.39632973e-02, 1.02620400e-01,
          1.50916785e-01, 9.93076339e-02, -1.03929304e-02,
          -8.12280551e-02, 4.43637036e-02, 4.71058302e-02,
          -7.79327899e-02, -1.07703820e-01, 1.09265231e-01,
          6.25091419e-02, -5.13414666e-02, -4.63071093e-02,
          8.27036947e-02, -5.61998300e-02, -5.35837142e-03,
          -2.04795256e-01, -2.44855598e-01, -1.38609146e-03,
          2.11807504e-01, 4.03159671e-02, 1.33076974e-03, 5.87470196e-02,
          1.29975602e-01, 1.25159666e-01, 4.85859588e-02, 1.00514200e-03,
          5.84465005e-02, 1.19339488e-01, -3.87804247e-02,
          -1.78236654e-03, 7.44376183e-02, -7.33082369e-03,
          4.05604839e-02, -9.60038006e-02, -2.87064556e-02,
          1.04704551e-01, -2.80854125e-02, -7.94049203e-02,
          9.54783987e-03, 1.97791487e-01, -2.41253097e-02,
          3.88751850e-02, -7.00154603e-02, -1.37308359e-01,
          -6.86550438e-02, 8.10377672e-02, -3.94983813e-02,
          -6.43032566e-02, 1.34710241e-02, -1.53359905e-01,
          3.39922793e-02, -9.71677974e-02, 2.80461013e-02,
          -1.23143367e-01, -6.56873882e-02, -1.57123774e-01,
          1.31843939e-01, -3.74281779e-02, -1.29893661e-01,
          1.19382152e-02, 1.51323965e-02, -3.44129615e-02,
          2.17410307e-02, 1.07973091e-01, -6.64046556e-02,
          1.71515465e-01, 5.17839054e-03, -7.11039528e-02,
          3.78448814e-02, 7.68860951e-02, -5.43472916e-02,
          -4.40534623e-03, 1.01880468e-01, -1.38613880e-02,
          -7.35585466e-02, -1.40463784e-01, -1.31405264e-01,
          4.01723548e-04, 8.09841976e-02, 8.63062441e-02,
          -4.37212810e-02, -4.21843901e-02, -6.36658743e-02,
          -1.26545876e-01, -1.92722864e-02, -8.19274187e-02,
          -1.12214684e-01, -4.39499356e-02, 3.51637639e-02,
          6.36196584e-02, 8.45623240e-02, -8.60431883e-03,
          1.25211731e-01, 1.79486163e-02, 3.94769385e-02,
          -6.55417982e-03, -1.40953630e-01, -9.36516076e-02,
          -6.80189952e-02, -8.39231629e-03, 4.90303226e-02,
          -2.26780679e-03, -4.32716720e-02, -8.55506922e-04,
          8.61108899e-02, 2.12764874e-01, 5.05654663e-02, 1.81577817e-01,
          9.91020054e-02, 2.33630021e-03, 4.18642350e-02, 6.88826814e-02,
          -8.41823816e-02, -5.69458567e-02, -1.14806712e-01,
          -1.96555778e-02, -6.77357912e-02, 1.12632267e-01,
          -8.81452337e-02, 2.57562567e-02, 7.46533573e-02,
          -4.19779606e-02, 6.46053329e-02, -9.01135206e-02,
          -4.81929034e-02, 2.57837009e-02, 6.78681582e-02,
          8.45847535e-05, 2.31658295e-03, -8.54329467e-02,
          -1.77217834e-02, -5.71200475e-02, 8.03837627e-02,
          -7.17124641e-02, 1.22972801e-01, 6.70997351e-02,
          -5.88132627e-02, 6.10825866e-02, -5.70392869e-02,
          9.00617912e-02, 4.67770137e-02, 4.36558612e-02, 1.20015759e-02,
          -4.87471698e-03, 6.09472282e-02, -1.68529537e-03,
          4.33550999e-02, -8.55939984e-02, -4.41339426e-02,
          6.22801930e-02, -2.01724079e-02, -8.33396520e-03,
          1.43629417e-01, 9.70776007e-03, -7.03353435e-02,
          -4.79284339e-02, -1.54148325e-01, -2.55873092e-02,
          -3.87480371e-02, 1.70787293e-02, 1.62133083e-01,
          -2.52661556e-02, -3.01546920e-02, -5.87029383e-02,
          6.65925518e-02, -8.68623778e-02, 1.13522150e-01,
          -2.39950772e-02, -2.75306473e-03, -7.41633028e-03,
          -2.74012797e-02, 2.03507971e-02, -1.22004561e-01,
          -3.92563753e-02, -6.04566075e-02, 1.37995526e-01,
          -5.23135215e-02, -8.44382346e-02, -1.02600574e-01,
          -2.44423654e-03, 7.56913796e-02, -1.58240288e-01,
          7.68672824e-02, -9.21300277e-02, -1.55383065e-01,
          -8.80251005e-02, -8.70314762e-02, 6.01598918e-02,
          -1.80367474e-02, 3.99223231e-02, 4.20634039e-02,
          -1.92758545e-01, -7.10583180e-02, -5.50169796e-02,
          3.77888642e-02, 2.43173409e-02, -9.24404562e-02,
          -7.30224028e-02, -6.04116470e-02, -1.22925937e-01,
          2.41202097e-02, -6.20590299e-02, 3.34519297e-02,
          4.49689664e-02, -1.41591325e-01, -1.26781850e-03,
          8.55143964e-02, 8.74755681e-02, -5.56521788e-02,
          5.26554547e-02, 7.14076757e-02, -2.80962847e-02,
          8.57023299e-02, -4.82677184e-02, 6.85351864e-02,
          9.73139890e-03, 3.61568183e-02, 4.11141217e-02,
          -1.00949720e-01, -8.66790712e-02, -8.98005217e-02,
          6.50813356e-02, -1.07291102e-01, -1.05181806e-01,
          1.07853599e-01, -3.69665325e-02, -2.19888166e-02,
          1.48214877e-01, 1.01350926e-01, 1.96818076e-02, 8.89025107e-02,
          -2.38804743e-02, 3.71495374e-02, -2.59347521e-02,
          3.33734346e-03, 1.34358004e-01, 2.84948796e-02, 2.01613531e-02,
          -1.36594027e-02, 1.17131747e-01, -1.70822479e-02,
          1.43721804e-01, 3.52201946e-02, 9.55675989e-02, 1.65142834e-01,
          7.81333372e-02, 3.05437436e-03, -7.92084113e-02,
          3.46816145e-02, -1.45368919e-01, 1.34994179e-01,
          -1.22202560e-01, -5.10053709e-02, 4.25958335e-02,
          -1.23612480e-02, -2.48102378e-02, -2.26014704e-02,
          1.21597745e-01, -5.72633334e-02, -1.72819849e-02,
          -5.48187606e-02, -1.91692561e-01, 2.11291779e-02,
          -6.99486956e-02, -6.40040264e-02, 3.72171253e-02,
          8.93919840e-02, 4.69858795e-02, -3.70806567e-02,
          -3.38719599e-02, -2.55030338e-02, 4.02041227e-02,
          8.46512914e-02, 1.25387713e-01, 1.26257967e-02,
          -2.93428395e-02, 3.96773815e-02, 1.86107680e-02,
          6.91811740e-02, 2.02545803e-02, -5.50392158e-02,
          9.25821960e-02, -6.77507967e-02, -3.15745026e-02,
          6.23547379e-03, -2.01807171e-02, -9.35632437e-02,
          7.88196623e-02, 1.69506110e-02, -3.65722701e-02,
          2.25069746e-02, 9.42677259e-02, 1.11429542e-01, 1.34580303e-02,
          8.07476640e-02, -1.43174112e-01, 2.89613102e-02,
          1.39750257e-01, 4.40723263e-02, -6.99045360e-02,
          2.08281353e-03, 2.26046797e-02, -9.07212496e-02,
          -1.64785460e-01, -9.27489772e-02, -3.83637063e-02,
          5.60163967e-02, -6.97267521e-03, 6.76087802e-03,
          -8.68489593e-02, -1.03851609e-01, -9.84032173e-03,
          6.19089082e-02, -1.10593326e-01, 2.17846525e-03,
          1.02416789e-02, -1.33847576e-02, -7.79068992e-02,
          1.53810838e-02, 7.72436559e-02, -2.60340627e-02,
          2.12318096e-02, -9.87725332e-02, -3.10331956e-02,
          -5.60252853e-02, -4.44158800e-02, -1.46698684e-01,
          2.43661627e-02, -4.89588194e-02, -8.41084644e-02,
          -7.90365562e-02, -1.12778163e-02, -6.64596930e-02,
          -7.90198445e-02, -3.45148030e-03, -2.85732895e-02,
          5.77184744e-03, -1.53109863e-01, -3.84113193e-02,
          -1.34291966e-02, 8.64289999e-02, -1.00237869e-01,
          -2.12947209e-03, 2.11285334e-02, -2.62443051e-02,
          5.57319773e-03, 9.88101512e-02, 7.74979293e-02, 4.03913483e-02,
          -4.90894308e-03, 2.15857662e-03, 4.58039269e-02,
          -3.43543030e-02, 7.28286728e-02, 2.18529049e-02,
          -7.33578485e-03, -2.15990972e-02, -1.32057473e-01,
          5.20835295e-02, -4.49718982e-02, -3.78568694e-02,
          -9.39015597e-02, 7.90167898e-02, -8.70668609e-03,
          -8.21887457e-04, 8.90376866e-02, -1.96773969e-02,
          5.76998219e-02, -2.32091155e-02, 6.94610924e-02,
          2.08074022e-02, -1.32618487e-01, -8.22570547e-02,
          2.04362031e-02, 5.82578126e-04, -3.34435433e-01,
          1.74082890e-02, 2.13093404e-02, -6.31946996e-02,
          -1.47322997e-01, 1.10931344e-01, 5.54912426e-02,
          8.37555807e-03, -1.18264429e-01, -1.19856857e-01,
          -3.89123596e-02, -3.30777057e-02, -5.97817190e-02,
          -1.20086513e-01, 4.76917922e-02, 9.27866250e-02,
          9.85568911e-02, -1.11755729e-01, -6.02983423e-02,
          -7.76835456e-02, 3.98340374e-02, 1.23716198e-01,
          1.15811631e-01, -1.82078779e-01, -9.23588648e-02,
          -3.92585211e-02, 4.64987643e-02, -1.04393251e-01,
          -6.89153001e-02, 1.40345067e-01, -5.22336103e-02,
          -9.14298296e-02, -1.26878783e-01, -7.70800039e-02,
          6.26884028e-02, 1.31601719e-02, 3.26787122e-02,
          -1.48194820e-01, 5.85593879e-02, -6.22804686e-02,
          -8.21928829e-02, 1.28930986e-01, 8.33313838e-02,
          -5.09149246e-02, -4.92248079e-03, -9.70536470e-02,
          -2.07242332e-02, -2.44188998e-02, 7.20963627e-02,
          -1.05936462e-02, 9.33515131e-02, 4.98719402e-02,
          1.04674608e-01, 3.16974334e-02, -6.04758039e-02,
          -2.88126990e-03, 1.03928207e-03, -1.29313050e-02,
          8.63808841e-02, -8.84059072e-02, 8.18663388e-02,
          -2.51540472e-03, 1.01493016e-01, 3.12428176e-03,
          -2.30838377e-02, 7.60049298e-02, 4.79674526e-02,
          -4.41798978e-02, -3.85822430e-02, 3.77940200e-02,
          -1.23854004e-01, 1.18060291e-01, -1.04073752e-02,
          4.49082926e-02, 3.50727066e-02, -4.29956317e-02,
          3.99755351e-02, 1.51426300e-01, 8.85071456e-02, 2.45616525e-01,
          7.37046897e-02, 1.14279486e-01, 1.11588731e-01, 2.65588053e-02,
          -1.09356614e-02, 1.96790174e-01, 2.16109216e-01,
          7.36539289e-02, -4.44582552e-02, 9.09231976e-02,
          1.34283816e-02, 1.71790391e-01, 4.42691706e-02,
          -5.10413088e-02, 1.20322153e-01, 3.67263928e-02,
          9.29866452e-03, 2.16424861e-03, 3.76240835e-02,
          -4.72420380e-02, 9.85083878e-02, 6.29526377e-02,
          -5.30386902e-02, 3.45509645e-04, -5.40923094e-04,
          -1.38946757e-01, -1.62951633e-01, 6.42784908e-02,
          -1.69751570e-01, 1.13786727e-01, -7.79440776e-02,
          5.00902273e-02, -3.96977328e-02 ]
   decision_functions:
      -
         sv_count: 1
         rho: 9.7814631538517616e-01
         alpha: [ 1. ]
         index: [ 0 ]
