%YAML:1.0
my_svm: !!opencv-ml-svm
   svm_type: C_SVC
   kernel: { type:LINEAR }
   C: 2.6699999999999999e+00
   term_criteria: { epsilon:1.1920928955078125e-07, iterations:1000 }
   var_all: 3780
   var_count: 3780
   class_count: 2
   class_labels: !!opencv-matrix
      rows: 1
      cols: 2
      dt: i
      data: [ 0, 1 ]
   sv_total: 1
   support_vectors:
      - [ -1.32840157e-01, -1.52736992e-01, -1.35200500e-01,
          -7.55706504e-02, 6.20496050e-02, 6.20496050e-02,
          8.85402862e-15, 8.85402862e-15, 8.85402862e-15, 1.23872861e-01,
          1.11022107e-01, -1.82952229e-02, 8.50493554e-03,
          1.66583270e-01, 1.66583270e-01, 8.85402862e-15, 8.85402862e-15,
          8.85402862e-15, -5.32937884e-01, -4.98215929e-02,
          -8.71208012e-02, -1.55076191e-01, -8.82262085e-03,
          -8.82262085e-03, 8.85402862e-15, 8.85402862e-15,
          8.85402862e-15, -2.30117172e-01, -3.13152462e-01,
          -4.73177694e-02, -6.57922998e-02, -2.19810233e-01,
          -2.19810233e-01, 8.85402862e-15, 8.85402862e-15,
          8.85402862e-15, 3.90944704e-02, -1.28660589e-01,
          5.16340137e-03, -2.30038874e-02, -1.21105753e-01,
          -1.21105753e-01, 8.85402862e-15, 8.85402862e-15,
          8.85402862e-15, -1.70390517e-01, -7.72685930e-02,
          2.09029853e-01, 2.79780328e-01, 7.22661763e-02, 7.22661763e-02,
          8.85402862e-15, 8.85402862e-15, 8.85402862e-15, 1.35392860e-01,
          7.56231621e-02, 1.33894578e-01, 3.04229353e-02, 1.55982394e-02,
          1.55982394e-02, 8.85402862e-15, 8.85402862e-15, 8.85402862e-15,
          -4.09686007e-03, 3.90547514e-01, 1.41031727e-01,
          2.01920122e-01, 3.32412310e-02, 3.32412310e-02, 8.85402862e-15,
          8.85402862e-15, 8.85402862e-15, 1.50833815e-01, 9.85898897e-02,
          1.15566097e-01, 1.34956747e-01, -6.75383210e-02,
          -6.75383210e-02, 8.85402862e-15, 8.85402862e-15,
          8.85402862e-15, 5.54575659e-02, 2.20031664e-02,
          -1.09426066e-01, -1.55776590e-01, -2.39005890e-02,
          -2.39005890e-02, 8.85402862e-15, 8.85402862e-15,
          8.85402862e-15, -1.16625033e-01, 1.01823233e-01,
          -7.90810883e-02, -8.76976624e-02, 1.40011474e-03,
          1.40011474e-03, 8.85402862e-15, 8.85402862e-15, 8.85402862e-15,
          -8.96662995e-02, -6.84375763e-02, 7.29409382e-02,
          5.45014068e-02, 9.00388360e-02, 9.00388360e-02, 8.85402862e-15,
          8.85402862e-15, 8.85402862e-15, -1.82263806e-01,
          -7.56642818e-02, -9.85750346e-04, 2.40354910e-02,
          -2.13068631e-03, -2.13068631e-03, 8.85402862e-15,
          8.85402862e-15, 8.85402862e-15, -2.96056997e-02,
          -1.41961396e-01, -6.66973442e-02, -1.42594099e-01,
          -3.47019769e-02, -3.47019769e-02, 8.85402862e-15,
          8.85402862e-15, 8.85402862e-15, 2.49276787e-01, 6.33633658e-02,
          1.35745425e-02, 4.92804237e-02, -3.51905040e-02,
          -3.51905040e-02, 8.85402862e-15, 8.85402862e-15,
          8.85402862e-15, -9.14234817e-02, 4.14544940e-01,
          -1.21693678e-01, -1.06524244e-01, 1.80069562e-02,
          1.80069562e-02, 8.85402862e-15, 8.85402862e-15, 8.85402862e-15,
          -2.26234901e-03, 1.15429156e-01, 1.49332091e-01,
          1.31711155e-01, -4.60738912e-02, -4.60738912e-02,
          8.85402862e-15, 8.85402862e-15, 8.85402862e-15,
          -1.89039379e-01, -1.59585550e-01, -8.38833302e-02,
          -1.17895424e-01, 7.64578283e-02, 7.64578283e-02,
          8.85402862e-15, 8.85402862e-15, 8.85402862e-15, 1.08159713e-01,
          4.58857268e-02, -1.03426360e-01, -9.99580845e-02,
          -2.27559125e-03, -2.27559125e-03, 8.85402862e-15,
          8.85402862e-15, 8.85402862e-15, 5.60467690e-02, 4.49587181e-02,
          -3.71202603e-02, 1.10443495e-02, -5.52035421e-02,
          -5.52035421e-02, 8.85402862e-15, 8.85402862e-15,
          8.85402862e-15, -3.89377214e-02, 2.25091092e-02,
          2.59113386e-02, -2.06243098e-02, 1.79659024e-01,
          1.79659024e-01, 8.85402862e-15, 8.85402862e-15, 8.85402862e-15,
          -4.93386574e-02, 3.39051425e-01, -1.13948449e-01,
          -1.26108453e-01, -7.03721493e-02, -7.03721493e-02,
          8.85402862e-15, 8.85402862e-15, 8.85402862e-15, 6.55742809e-02,
          1.42505899e-01, 1.11390196e-01, 6.13139793e-02, 6.46020006e-03,
          6.46020006e-03, 8.85402862e-15, 8.85402862e-15, 8.85402862e-15,
          -3.13139595e-02, -7.57441968e-02, 1.82478830e-01,
          2.91250795e-01, 9.51161906e-02, 9.51161906e-02, 8.85402862e-15,
          8.85402862e-15, 8.85402862e-15, 3.46157588e-02, 4.78402413e-02,
          -4.10349108e-04, 4.03470779e-03, -6.95443749e-02,
          -6.95443749e-02, 8.85402862e-15, 8.85402862e-15,
          8.85402862e-15, -7.31741339e-02, 2.61611491e-02,
          -5.82642294e-02, -7.00003207e-02, 1.58593878e-01,
          1.58593878e-01, 8.85402862e-15, 8.85402862e-15, 8.85402862e-15,
          -2.05968078e-02, 1.31369188e-01, 1.93079650e-01,
          1.76414192e-01, 2.43641180e-03, 2.43641180e-03, 8.85402862e-15,
          8.85402862e-15, 8.85402862e-15, 5.91552034e-02,
          -8.86157528e-02, -1.76502168e-02, -1.15479849e-01,
          -9.14858356e-02, -9.14858356e-02, 8.85402862e-15,
          8.85402862e-15, 8.85402862e-15, 7.04775900e-02, 7.27930814e-02,
          -4.93398570e-02, -4.00307998e-02, -8.68065879e-02,
          -8.68065879e-02, 8.85402862e-15, 8.85402862e-15,
          8.85402862e-15, 1.88304707e-01, 6.09595329e-02,
          -9.09756720e-02, -2.29899853e-01, 4.81871283e-03,
          4.81871283e-03, 8.85402862e-15, 8.85402862e-15, 8.85402862e-15,
          1.20636843e-01, 3.85421403e-02, 6.48003370e-02, 8.40615407e-02,
          1.07365422e-01, 1.07365422e-01, 8.85402862e-15, 8.85402862e-15,
          8.85402862e-15, -2.37754762e-01, 1.56246393e-03,
          -4.62708771e-02, 6.40829057e-02, -2.53774747e-02,
          -2.53774747e-02, 8.85402862e-15, 8.85402862e-15,
          8.85402862e-15, 1.71840429e-01, 2.25348249e-01, 7.57073984e-02,
          -1.60875767e-02, -2.33581699e-02, -2.33581699e-02,
          8.85402862e-15, 8.85402862e-15, 8.85402862e-15,
          -6.28033429e-02, -3.57314229e-01, -7.30445758e-02,
          -2.61404272e-02, 6.30532131e-02, 6.30532131e-02,
          8.85402862e-15, 8.85402862e-15, 8.85402862e-15,
          -8.26292783e-02, -1.82185508e-02, 3.65431719e-02,
          5.33181578e-02, -4.83587794e-02, -4.83587794e-02,
          8.85402862e-15, 8.85402862e-15, 8.85402862e-15,
          -2.64076609e-02, 1.50184542e-01, -3.92060578e-02,
          -1.10900234e-02, 8.66371486e-03, 8.66371486e-03,
          8.85402862e-15, 8.85402862e-15, 8.85402862e-15,
          -4.74837162e-02, -6.21233806e-02, -1.11044429e-01,
          -1.22535385e-01, -1.30888559e-02, -1.30888559e-02,
          8.85402862e-15, 8.85402862e-15, 8.85402862e-15, 6.94744987e-03,
          7.76964100e-03, 3.35550047e-02, 3.79137173e-02, 1.12130716e-01,
          1.12130716e-01, 8.85402862e-15, 8.85402862e-15, 8.85402862e-15,
          4.61755171e-02, -6.12086281e-02, -2.19404325e-02,
          -4.76851389e-02, -1.54930592e-01, -1.54930592e-01,
          8.85402862e-15, 8.85402862e-15, 8.85402862e-15,
          -5.63943665e-03, 1.15562446e-01, 9.94299799e-02,
          1.32306695e-01, 5.58886565e-02, 5.58886565e-02, 8.85402862e-15,
          8.85402862e-15, 8.85402862e-15, 2.02966556e-02, 1.91212878e-01,
          -2.30158269e-01, -1.94470018e-01, -6.89180717e-02,
          -6.89180717e-02, 8.85402862e-15, 8.85402862e-15,
          8.85402862e-15, -1.11475475e-01, 3.00995141e-01,
          4.89462763e-02, 1.05437614e-01, -3.04407366e-02,
          -3.04407366e-02, 8.85402862e-15, 8.85402862e-15,
          8.85402862e-15, -1.02557071e-01, -9.74243432e-02,
          5.18838800e-02, 1.05159007e-01, 5.15123196e-02, 5.15123196e-02,
          8.85402862e-15, 8.85402862e-15, 8.85402862e-15, 1.39719769e-01,
          -1.82503670e-01, 2.73094010e-02, -1.30961435e-02,
          -6.16955524e-03, -6.16955524e-03, 8.85402862e-15,
          8.85402862e-15, 8.85402862e-15, -7.39436597e-02,
          2.62928717e-02, 3.42937894e-02, 6.52484223e-02,
          -2.60868296e-02, -2.60868296e-02, 8.85402862e-15,
          8.85402862e-15, 8.85402862e-15, -5.43124788e-02,
          1.52670369e-02, 6.90589251e-04, 1.25654722e-02,
          -8.81789774e-02, -8.81789774e-02, 8.85402862e-15,
          8.85402862e-15, 8.85402862e-15, 1.24998242e-01,
          -6.78891912e-02, -1.01910248e-01, -1.77897111e-01,
          -6.50197268e-02, -6.50197268e-02, 8.85402862e-15,
          8.85402862e-15, 8.85402862e-15, -5.07582650e-02,
          5.62807508e-02, 6.99564293e-02, 1.03113674e-01, 3.48327635e-03,
          3.48327635e-03, 8.85402862e-15, 8.85402862e-15, 8.85402862e-15,
          -2.46941205e-02, 5.99094182e-02, 1.75676316e-01,
          1.63315475e-01, -1.74040608e-02, -1.74040608e-02,
          8.85402862e-15, 8.85402862e-15, 8.85402862e-15,
          -5.73942438e-02, 1.97328329e-01, -5.66647314e-02,
          -1.96491275e-02, -2.87755467e-02, -2.87755467e-02,
          8.85402862e-15, 8.85402862e-15, 8.85402862e-15, 9.83954296e-02,
          -4.21847664e-02, -4.15443368e-02, -5.90292811e-02,
          3.01982444e-02, 3.01982444e-02, 8.85402862e-15, 8.85402862e-15,
          8.85402862e-15, 3.03810034e-02, -1.85101241e-01,
          -4.75157946e-02, -5.46856001e-02, -5.91164641e-02,
          -5.91164641e-02, 8.85402862e-15, 8.85402862e-15,
          8.85402862e-15, 1.76770780e-02, 1.55474603e-01,
          -5.90075627e-02, 7.24162161e-03, 1.00576885e-01,
          1.00576885e-01, 8.85402862e-15, 8.85402862e-15, 8.85402862e-15,
          -1.20679915e-01, 1.37712389e-01, 1.79317385e-01,
          1.57572463e-01, -9.62381437e-02, -9.62381437e-02,
          8.85402862e-15, 8.85402862e-15, 8.85402862e-15, 7.11467490e-02,
          2.01290548e-01, 4.38901410e-02, 9.89746228e-02, 5.93649298e-02,
          5.93649298e-02, 8.85402862e-15, 8.85402862e-15, 8.85402862e-15,
          1.05639502e-01, -1.17171645e-01, 3.65223363e-02,
          -6.30664602e-02, 1.00796977e-02, 1.00796977e-02,
          8.85402862e-15, 8.85402862e-15, 8.85402862e-15, 1.31461525e-03,
          4.58079129e-02, -7.97940493e-02, -1.16008662e-01,
          -7.31280744e-02, -7.31280744e-02, 8.85402862e-15,
          8.85402862e-15, 8.85402862e-15, 1.29397556e-01, 1.26489013e-01,
          6.62059784e-02, 1.05576023e-01, 4.03746068e-02, 4.03746068e-02,
          8.85402862e-15, 8.85402862e-15, 8.85402862e-15,
          -1.40018880e-01, 1.03778623e-01, 8.74067098e-02,
          4.60316017e-02, 1.65182035e-02, 1.65182035e-02, 8.85402862e-15,
          8.85402862e-15, 8.85402862e-15, 9.30676330e-03, 2.51281261e-01,
          2.86934748e-02, 6.69133291e-02, 1.62352528e-02, 1.62352528e-02,
          8.85402862e-15, 8.85402862e-15, 8.85402862e-15, 4.66637686e-02,
          -6.53738827e-02, -2.05473900e-01, -1.68214098e-01,
          -6.83386773e-02, -6.83386773e-02, 8.85402862e-15,
          8.85402862e-15, 8.85402862e-15, -3.25898640e-02,
          1.16277769e-01, -3.25628035e-02, 3.66134085e-02,
          2.94683296e-02, 2.94683296e-02, 8.85402862e-15, 8.85402862e-15,
          8.85402862e-15, 1.13286935e-01, -1.55216947e-01,
          6.03981204e-02, 7.42579922e-02, 1.10097416e-01, 1.10097416e-01,
          8.85402862e-15, 8.85402862e-15, 8.85402862e-15,
          -1.27360925e-01, 1.04313023e-01, 1.77638695e-01,
          5.73428534e-02, -7.12270737e-02, -7.12270737e-02,
          8.85402862e-15, 8.85402862e-15, 8.85402862e-15, 3.32225300e-03,
          8.76827389e-02, -8.51302743e-02, -9.32784304e-02,
          -6.74041407e-03, -6.74041407e-03, 8.85402862e-15,
          8.85402862e-15, 8.85402862e-15, -1.59286469e-01,
          -2.45063171e-01, -5.40483408e-02, -3.43864411e-02,
          1.08435571e-01, 1.08435571e-01, 8.85402862e-15, 8.85402862e-15,
          8.85402862e-15, 3.33205797e-02, 1.82779253e-01,
          -3.94620607e-03, -1.54670790e-01, -6.54463246e-02,
          -6.54463246e-02, 8.85402862e-15, 8.85402862e-15,
          8.85402862e-15, 1.22643568e-01, -2.53988411e-02,
          1.43124878e-01, 1.60549641e-01, -3.62489223e-02,
          -3.62489223e-02, 8.85402862e-15, 8.85402862e-15,
          8.85402862e-15, 2.59287618e-02, -1.25445828e-01,
          -1.55513376e-01, -1.65925533e-01, -6.07472546e-02,
          -6.07472546e-02, 8.85402862e-15, 8.85402862e-15,
          8.85402862e-15, 4.79202420e-02, 9.18408334e-02, 8.62554163e-02,
          -4.00144160e-02, 7.11489767e-02, 7.11489767e-02,
          8.85402862e-15, 8.85402862e-15, 8.85402862e-15,
          -1.41705479e-02, 1.30425379e-01, 4.76301946e-02,
          8.43241364e-02, -6.34540021e-02, -6.34540021e-02,
          8.85402862e-15, 8.85402862e-15, 8.85402862e-15,
          -5.96785992e-02, 2.17478454e-01, -3.23881954e-02,
          6.75997436e-02, -9.64030391e-04, -9.64030391e-04,
          8.85402862e-15, 8.85402862e-15, 8.85402862e-15,
          -3.09408400e-02, 5.31629883e-02, 1.24082208e-01,
          5.54153286e-02, -3.24516632e-02, -3.24516632e-02,
          8.85402862e-15, 8.85402862e-15, 8.85402862e-15, 1.32467374e-01,
          1.52663523e-02, 2.05906294e-02, 4.63807844e-02, 4.51322570e-02,
          4.51322570e-02, 8.85402862e-15, 8.85402862e-15, 8.85402862e-15,
          3.41331065e-02, -1.02413662e-01, 5.88822886e-02,
          1.15500860e-01, -8.28957930e-02, -8.28957930e-02,
          8.85402862e-15, 8.85402862e-15, 8.85402862e-15,
          -1.89675853e-01, 1.11938424e-01, 3.37534398e-02,
          2.00115293e-02, 1.61990300e-02, 1.61990300e-02, 8.85402862e-15,
          8.85402862e-15, 8.85402862e-15, -1.72059834e-02,
          -2.06386581e-01, -6.22638427e-02, -5.55221513e-02,
          -2.33377032e-02, -2.33377032e-02, 8.85402862e-15,
          8.85402862e-15, 8.85402862e-15, -8.92217830e-02,
          2.14578398e-02, -2.03004315e-01, -1.85390502e-01,
          -3.73909138e-02, -3.73909138e-02, 8.85402862e-15,
          8.85402862e-15, 8.85402862e-15, -1.57405049e-01,
          1.27248347e-01, 1.18190728e-01, 9.98356715e-02, 7.10585415e-02,
          7.10585415e-02, 8.85402862e-15, 8.85402862e-15, 8.85402862e-15,
          2.09816620e-01, 3.05853859e-02, -1.80374447e-03,
          -7.80423125e-03, -3.74251939e-02, -3.74251939e-02,
          8.85402862e-15, 8.85402862e-15, 8.85402862e-15,
          -1.67645976e-01, 1.24619119e-01, 6.22943304e-02,
          1.70812488e-01, 4.27259132e-02, 4.27259132e-02, 8.85402862e-15,
          8.85402862e-15, 8.85402862e-15, 6.21636622e-02, 5.10904007e-02,
          2.42660698e-02, -7.83918574e-02, -5.28139109e-03,
          -5.28139109e-03, 8.85402862e-15, 8.85402862e-15,
          8.85402862e-15, 2.80535281e-01, 8.14483762e-02,
          -1.38608605e-01, -4.79592569e-02, 1.87702030e-02,
          1.87702030e-02, 8.85402862e-15, 8.85402862e-15, 8.85402862e-15,
          -1.75052971e-01, -1.51414111e-01, 2.53465116e-01,
          1.56955272e-01, -5.62147349e-02, -5.62147349e-02,
          8.85402862e-15, 8.85402862e-15, 8.85402862e-15,
          -1.14820801e-01, 6.05394365e-03, -3.64360064e-02,
          -3.09536569e-02, 1.31338656e-01, 1.31338656e-01,
          8.85402862e-15, 8.85402862e-15, 8.85402862e-15, 1.70216545e-01,
          1.05614662e-01, -1.96038231e-01, -2.38914192e-01,
          9.25623924e-02, 9.25623924e-02, 8.85402862e-15, 8.85402862e-15,
          8.85402862e-15, -1.22011695e-02, -6.04873002e-02,
          -2.11151034e-01, -3.07693452e-01, -1.52369499e-01,
          -1.52369499e-01, 8.85402862e-15, 8.85402862e-15,
          8.85402862e-15, 5.93175068e-02, 1.91083387e-01, 1.37557998e-01,
          2.71494031e-01, 3.09804976e-02, 3.09804976e-02, 8.85402862e-15,
          8.85402862e-15, 8.85402862e-15, -8.67657959e-02,
          1.21998355e-01, 1.71720341e-01, 2.18100935e-01, 4.12603952e-02,
          4.12603952e-02, 8.85402862e-15, 8.85402862e-15, 8.85402862e-15,
          6.52276725e-02, 1.34167084e-02, 6.17207102e-02,
          -1.18097425e-01, -5.98066933e-02, -5.98066933e-02,
          8.85402862e-15, 8.85402862e-15, 8.85402862e-15, 1.22172020e-01,
          -1.80539235e-01, -2.56970882e-01, -2.29318306e-01,
          7.13137835e-02, 7.13137835e-02, 8.85402862e-15, 8.85402862e-15,
          8.85402862e-15, -1.00633934e-01, 4.51241843e-02,
          2.35298183e-02, 1.29314795e-01, -5.27672879e-02,
          -5.27672879e-02, 8.85402862e-15, 8.85402862e-15,
          8.85402862e-15, -8.88408069e-03, -3.89317721e-01,
          1.28493952e-02, -1.09243393e-01, -2.14187079e-03,
          -2.14187079e-03, 8.85402862e-15, 8.85402862e-15,
          8.85402862e-15, 6.55329376e-02, 2.36206129e-01,
          -6.58076927e-02, -2.31223237e-02, -4.83383387e-02,
          -4.83383387e-02, 8.85402862e-15, 8.85402862e-15,
          8.85402862e-15, -1.22647323e-01, 4.57411297e-02,
          6.24324866e-02, 1.46044880e-01, -3.38192321e-02,
          -3.38192321e-02, 8.85402862e-15, 8.85402862e-15,
          8.85402862e-15, 6.59985393e-02, 1.07370362e-01,
          -9.47424490e-03, -1.36791617e-02, 8.42995420e-02,
          8.42995420e-02, 8.85402862e-15, 8.85402862e-15, 8.85402862e-15,
          -9.00088623e-02, -2.77522326e-01, -2.10518558e-02,
          -3.68579626e-02, -2.12680608e-01, -2.12680608e-01,
          8.85402862e-15, 8.85402862e-15, 8.85402862e-15,
          -1.62546203e-01, 2.34031558e-01, -6.64600804e-02,
          2.49037519e-02, 9.03428942e-02, 9.03428942e-02, 8.85402862e-15,
          8.85402862e-15, 8.85402862e-15, 1.13667242e-01, 6.37040213e-02,
          2.37314831e-02, -6.51550740e-02, 1.09835878e-01,
          1.09835878e-01, 8.85402862e-15, 8.85402862e-15, 8.85402862e-15,
          1.38887778e-01, -2.02132501e-02, 6.37804344e-02,
          7.71091282e-02, 1.25017855e-02, 1.25017855e-02, 8.85402862e-15,
          8.85402862e-15, 8.85402862e-15, -1.79382712e-01,
          2.09536135e-01, -9.97263715e-02, -6.59189969e-02,
          2.17256248e-02, 2.17256248e-02, 8.85402862e-15, 8.85402862e-15,
          8.85402862e-15, 2.81539354e-02, -5.28270788e-02,
          1.31814092e-01, 1.46133900e-01, 1.01265810e-01, 1.01265810e-01,
          8.85402862e-15, 8.85402862e-15, 8.85402862e-15, 6.73684031e-02,
          -1.76823556e-01, 7.15967342e-02, 1.12375081e-01,
          4.62683709e-03, 4.62683709e-03, 8.85402862e-15, 8.85402862e-15,
          8.85402862e-15, 8.38604197e-02, 2.01146621e-02, 5.54958172e-02,
          -3.34096737e-02, -1.27618238e-01, -1.27618238e-01,
          8.85402862e-15, 8.85402862e-15, 8.85402862e-15,
          -9.46450979e-02, 5.04551567e-02, -1.32185087e-01,
          -1.29760996e-01, 1.27091616e-01, 1.27091616e-01,
          8.85402862e-15, 8.85402862e-15, 8.85402862e-15,
          -4.47156318e-02, -3.22901905e-01, 6.38654381e-02,
          1.10587724e-01, -2.25391779e-02, -2.25391779e-02,
          8.85402862e-15, 8.85402862e-15, 8.85402862e-15, 5.40790800e-03,
          1.21339373e-01, 1.47595271e-01, 1.34809956e-01,
          -1.27487361e-01, -1.27487361e-01, 8.85402862e-15,
          8.85402862e-15, 8.85402862e-15, 1.33952647e-01, 1.51107386e-01,
          -7.92755932e-02, -1.15636744e-01, 2.29349807e-02,
          2.29349807e-02, 8.85402862e-15, 8.85402862e-15, 8.85402862e-15,
          -1.24164512e-02, 1.08468138e-01, -4.97045442e-02,
          3.21497954e-02, 1.19974755e-01, 1.19974755e-01, 8.85402862e-15,
          8.85402862e-15, 8.85402862e-15, -7.84021392e-02,
          -1.50300056e-01, -3.41780856e-02, -1.19160235e-01,
          -5.72790876e-02, -5.72790876e-02, 8.85402862e-15,
          8.85402862e-15, 8.85402862e-15, 1.66895837e-01, 7.60862157e-02,
          7.00069498e-03, 1.97462495e-02, -2.67325845e-02,
          -2.67325845e-02, 8.85402862e-15, 8.85402862e-15,
          8.85402862e-15, -7.60774091e-02, -3.42543721e-02,
          7.68819675e-02, 6.72641695e-02, -3.59630585e-02,
          -3.59630585e-02, 8.85402862e-15, 8.85402862e-15,
          8.85402862e-15, -1.66679174e-01, 8.66277888e-02,
          7.21445456e-02, 2.45615430e-02, 8.63896590e-03, 8.63896590e-03,
          8.85402862e-15, 8.85402862e-15, 8.85402862e-15,
          -5.12383282e-02, 1.49656400e-01, -2.54662037e-01,
          -6.25444204e-02, 1.71907261e-01, 1.71907261e-01,
          8.85402862e-15, 8.85402862e-15, 8.85402862e-15, 9.04172659e-02,
          1.15221359e-01, -3.60087864e-02, -6.23267591e-02,
          2.24312628e-03, 2.24312628e-03, 8.85402862e-15, 8.85402862e-15,
          8.85402862e-15, 1.27500385e-01, 4.61115092e-02,
          -3.17334056e-01, -2.05757722e-01, -8.02772567e-02,
          -8.02772567e-02, 8.85402862e-15, 8.85402862e-15,
          8.85402862e-15, -5.87002300e-02, -5.82069345e-02,
          -1.61453530e-01, -1.64320827e-01, 1.67512372e-01,
          1.67512372e-01, 8.85402862e-15, 8.85402862e-15, 8.85402862e-15,
          8.86137635e-02, 1.74407233e-02, 4.07606456e-03, 8.56159106e-02,
          1.52556375e-02, 1.52556375e-02, 8.85402862e-15, 8.85402862e-15,
          8.85402862e-15, 3.24114561e-02, 6.91123903e-02, 3.16539481e-02,
          -6.65051024e-03, -1.13163792e-01, -1.13163792e-01,
          8.85402862e-15, 8.85402862e-15, 8.85402862e-15,
          -6.23249039e-02, -2.83462554e-02, 1.25723571e-01,
          8.53554681e-02, -6.96043149e-02, -6.96043149e-02,
          8.85402862e-15, 8.85402862e-15, 8.85402862e-15,
          -1.27867654e-01, -3.46668601e-01, -1.54342726e-01,
          -1.01586573e-01, -2.08223760e-02, -2.08223760e-02,
          8.85402862e-15, 8.85402862e-15, 8.85402862e-15, 7.41825551e-02,
          1.84518084e-01, 8.88318792e-02, 2.30248310e-02, 7.13277012e-02,
          7.13277012e-02, 8.85402862e-15, 8.85402862e-15, 8.85402862e-15,
          8.41376036e-02, 1.18265435e-01, 9.52037200e-02, 6.09886870e-02,
          -9.30800512e-02, -9.30800512e-02, 8.85402862e-15,
          8.85402862e-15, 8.85402862e-15, -3.04525867e-02,
          1.14048265e-01, -2.96929441e-02, 1.75730810e-02,
          4.25747558e-02, 4.25747558e-02, 8.85402862e-15, 8.85402862e-15,
          8.85402862e-15, -2.27366164e-01, -1.94323555e-01,
          1.48242652e-01, 7.60677382e-02, 5.73677309e-02, 5.73677309e-02,
          8.85402862e-15, 8.85402862e-15, 8.85402862e-15, 6.22057952e-02,
          -8.70730579e-02, -7.16535598e-02, -4.79307175e-02,
          8.83749127e-02, 8.83749127e-02, 8.85402862e-15, 8.85402862e-15,
          8.85402862e-15, 8.88217092e-02, -1.47669151e-01,
          -8.72983485e-02, -5.95123991e-02, -8.67415145e-02,
          -8.67415145e-02, 8.85402862e-15, 8.85402862e-15,
          8.85402862e-15, 7.63386562e-02, 4.29065764e-01, 1.07093798e-02,
          3.13752033e-02, -5.90012483e-02, -5.90012483e-02,
          8.85402862e-15, 8.85402862e-15, 8.85402862e-15,
          -9.39040333e-02, 3.55764218e-02, -1.10130399e-01,
          -5.59829362e-02, 4.16483171e-02, 4.16483171e-02,
          8.85402862e-15, 8.85402862e-15, 8.85402862e-15,
          -4.28566560e-02, -1.06805332e-01, 7.23988563e-02,
          3.06028966e-02, -2.20767725e-02, -2.20767725e-02,
          8.85402862e-15, 8.85402862e-15, 8.85402862e-15, 1.80097729e-01,
          -3.69768143e-02, -7.11223558e-02, -3.64850461e-02,
          2.62547489e-02, 2.62547489e-02, 8.85402862e-15, 8.85402862e-15,
          8.85402862e-15, -4.33370955e-02, 1.08205803e-01,
          5.48377335e-02, 7.84896687e-03, -4.58263308e-02,
          -4.58263308e-02, 8.85402862e-15, 8.85402862e-15,
          8.85402862e-15, -1.33390576e-01, -9.56245810e-02,
          -5.71687743e-02, -8.62295777e-02, -8.61955434e-02,
          -8.61955434e-02, 8.85402862e-15, 8.85402862e-15,
          8.85402862e-15, 7.08962383e-04, 9.92588419e-03,
          -5.93175068e-02, -8.95450637e-02, 4.46863174e-02,
          4.46863174e-02, 8.85402862e-15, 8.85402862e-15, 8.85402862e-15,
          9.46766660e-02, -1.31509587e-01, 1.13006718e-01,
          8.90923440e-02, 4.66374680e-02, 4.66374680e-02, 8.85402862e-15,
          8.85402862e-15, 8.85402862e-15, 3.80049683e-02, 2.17208311e-01,
          3.47945024e-03, 8.66821930e-02, -5.12829237e-03,
          -5.12829237e-03, 8.85402862e-15, 8.85402862e-15,
          8.85402862e-15, -5.09380475e-02, -7.66073167e-03,
          5.49465753e-02, 6.40338287e-02, 9.41126272e-02, 9.41126272e-02,
          8.85402862e-15, 8.85402862e-15, 8.85402862e-15,
          -8.13525915e-02, 2.34117389e-01, -6.17611371e-02,
          -1.24409124e-01, -7.80899897e-02, -7.80899897e-02,
          8.85402862e-15, 8.85402862e-15, 8.85402862e-15, 3.64563391e-02,
          -2.62075633e-01, -1.08554766e-01, -6.21540435e-02,
          -2.24505109e-03, -2.24505109e-03, 8.85402862e-15,
          8.85402862e-15, 8.85402862e-15, 9.58343223e-02, 3.56190279e-02,
          1.15369320e-01, 1.22529462e-01, -1.37775550e-02,
          -1.37775550e-02, 8.85402862e-15, 8.85402862e-15,
          8.85402862e-15, -7.28553161e-02, -6.77392036e-02,
          -1.80007115e-01, -1.95015520e-01, 1.72931105e-01,
          1.72931105e-01, 8.85402862e-15, 8.85402862e-15, 8.85402862e-15,
          -7.33128265e-02, 8.05488452e-02, -3.98618840e-02,
          2.08941232e-02, -3.85545776e-03, -3.85545776e-03,
          8.85402862e-15, 8.85402862e-15, 8.85402862e-15, 1.95339471e-01,
          1.51733384e-01, -1.30161420e-01, 3.45634669e-03,
          5.30507006e-02, 5.30507006e-02, 8.85402862e-15, 8.85402862e-15,
          8.85402862e-15, 9.61737484e-02, 1.30561933e-01,
          -6.28986806e-02, -1.24710659e-02, -7.67812580e-02,
          -7.67812580e-02, 8.85402862e-15, 8.85402862e-15,
          8.85402862e-15, -2.17614044e-02, -8.03985447e-02,
          -3.60925272e-02, -4.00559008e-02, 5.21319583e-02,
          5.21319583e-02, 8.85402862e-15, 8.85402862e-15, 8.85402862e-15,
          3.10268509e-03, -2.48491988e-02, 1.27114594e-01,
          1.15678370e-01, 7.58236423e-02, 7.58236423e-02, 8.85402862e-15,
          8.85402862e-15, 8.85402862e-15, -4.08162624e-02,
          -1.83654636e-01, 1.16770133e-01, 6.70123994e-02,
          -6.75658211e-02, -6.75658211e-02, 8.85402862e-15,
          8.85402862e-15, 8.85402862e-15, 5.94749451e-02, 2.88902432e-01,
          -1.27693832e-01, -6.25365600e-02, -6.03897423e-02,
          -6.03897423e-02, 8.85402862e-15, 8.85402862e-15,
          8.85402862e-15, -1.88737720e-01, -4.20317501e-02,
          -7.78772831e-02, -1.95699811e-01, -3.12708952e-02,
          -3.12708952e-02, 8.85402862e-15, 8.85402862e-15,
          8.85402862e-15, 9.02485847e-03, 2.49133304e-01,
          -7.47920573e-02, -1.44120120e-02, 1.12280801e-01,
          1.12280801e-01, 8.85402862e-15, 8.85402862e-15, 8.85402862e-15,
          1.48137599e-01, -1.34989649e-01, 7.80300274e-02,
          4.10474874e-02, -8.22416991e-02, -8.22416991e-02,
          8.85402862e-15, 8.85402862e-15, 8.85402862e-15, 1.01738565e-01,
          -1.94862531e-03, 1.44802541e-01, 2.39227667e-01,
          7.13950694e-02, 7.13950694e-02, 8.85402862e-15, 8.85402862e-15,
          8.85402862e-15, -9.91213694e-03, -2.13637445e-02,
          -2.01525331e-01, -1.74779251e-01, 5.99761494e-03,
          5.99761494e-03, 8.85402862e-15, 8.85402862e-15, 8.85402862e-15,
          6.14707433e-02, -1.73947439e-01, 1.65736631e-01,
          1.68528080e-01, -1.86004471e-02, -1.86004471e-02,
          8.85402862e-15, 8.85402862e-15, 8.85402862e-15,
          -6.53322861e-02, -8.10933858e-02, -6.39524013e-02,
          -3.44936214e-02, -3.28434594e-02, -3.28434594e-02,
          8.85402862e-15, 8.85402862e-15, 8.85402862e-15, 1.37737123e-02,
          2.76404470e-01, 9.97411385e-02, 4.07448635e-02, 4.54464331e-02,
          4.54464331e-02, 8.85402862e-15, 8.85402862e-15, 8.85402862e-15,
          -2.03893274e-01, 2.40115169e-02, -6.09997846e-02,
          -4.02767770e-02, -9.68432426e-02, -9.68432426e-02,
          8.85402862e-15, 8.85402862e-15, 8.85402862e-15, 2.79046893e-02,
          6.07087724e-02, -1.44167766e-01, -2.00275272e-01,
          -2.46464852e-02, -2.46464852e-02, 8.85402862e-15,
          8.85402862e-15, 8.85402862e-15, 3.56702646e-03,
          -1.13450393e-01, 1.06412552e-01, 1.24943130e-01,
          6.94490150e-02, 6.94490150e-02, 8.85402862e-15, 8.85402862e-15,
          8.85402862e-15, 1.72421500e-01, 2.87300255e-02, 9.87549871e-02,
          1.15608998e-01, 5.20407110e-02, 5.20407110e-02, 8.85402862e-15,
          8.85402862e-15, 8.85402862e-15, -2.30860729e-02,
          -4.27920595e-02, 2.87367422e-02, 5.08808717e-03,
          -2.38111033e-03, -2.38111033e-03, 8.85402862e-15,
          8.85402862e-15, 8.85402862e-15, -1.36282351e-02,
          -4.88954745e-02, 4.22046956e-04, 5.44087924e-02,
          -7.47792274e-02, -7.47792274e-02, 8.85402862e-15,
          8.85402862e-15, 8.85402862e-15, -2.37670378e-03,
          1.76588908e-01, -6.07129671e-02, -5.66297844e-02,
          3.83283310e-02, 3.83283310e-02, 8.85402862e-15, 8.85402862e-15,
          8.85402862e-15, 3.90910693e-02, -8.49013552e-02,
          3.15542780e-02, -2.86684395e-03, 3.88320312e-02,
          3.88320312e-02, 8.85402862e-15, 8.85402862e-15, 8.85402862e-15,
          -6.45755604e-02, 7.39025027e-02, -6.89566657e-02,
          -3.45088616e-02, 1.70212518e-02, 1.70212518e-02,
          8.85402862e-15, 8.85402862e-15, 8.85402862e-15,
          -2.75754660e-01, -6.58635050e-02, 3.64846364e-02,
          3.35401706e-02, -5.50315939e-02, -5.50315939e-02,
          8.85402862e-15, 8.85402862e-15, 8.85402862e-15, 7.11288005e-02,
          -1.51377106e-02, 1.17745586e-01, 8.88970569e-02,
          7.87639320e-02, 7.87639320e-02, 8.85402862e-15, 8.85402862e-15,
          8.85402862e-15, 2.69201517e-01, 7.09872786e-03,
          -8.52736384e-02, -8.79283026e-02, -4.07536104e-02,
          -4.07536104e-02, 8.85402862e-15, 8.85402862e-15,
          8.85402862e-15, -1.91252623e-02, -8.29748586e-02,
          -1.19653456e-01, -5.45387156e-02, 2.31443327e-02,
          2.31443327e-02, 8.85402862e-15, 8.85402862e-15, 8.85402862e-15,
          2.26185098e-02, 1.16888508e-01, -2.46916428e-01,
          -2.59452701e-01, 2.05713883e-01, 2.05713883e-01,
          8.85402862e-15, 8.85402862e-15, 8.85402862e-15, 7.69223794e-02,
          1.10291548e-01, -3.84252593e-02, -9.31420773e-02,
          -2.76015867e-02, -2.76015867e-02, 8.85402862e-15,
          8.85402862e-15, 8.85402862e-15, -8.04156512e-02,
          -2.54097860e-03, -3.58427223e-03, -1.44595176e-03,
          -2.01256618e-01, -2.01256618e-01, 8.85402862e-15,
          8.85402862e-15, 8.85402862e-15, -3.92031968e-02,
          1.42382830e-01, 1.22740455e-01, -1.10533240e-03,
          -2.58955061e-02, -2.58955061e-02, 8.85402862e-15,
          8.85402862e-15, 8.85402862e-15, -6.43511266e-02,
          -3.18993658e-01, -2.63254382e-02, 8.18862692e-02,
          5.40784486e-02, 5.40784486e-02, 8.85402862e-15, 8.85402862e-15,
          8.85402862e-15, 3.70781124e-02, 1.23507522e-01,
          -3.16620395e-02, -1.82957694e-01, -1.46719873e-01,
          -1.46719873e-01, 8.85402862e-15, 8.85402862e-15,
          8.85402862e-15, 6.64761290e-02, 5.31033389e-02, 1.53453397e-02,
          1.82275161e-01, 1.18536852e-01, 1.18536852e-01, 8.85402862e-15,
          8.85402862e-15, 8.85402862e-15, -1.80893809e-01,
          -1.83552187e-02, -3.04781273e-02, -2.66160760e-02,
          -5.14252372e-02, -5.14252372e-02, 8.85402862e-15,
          8.85402862e-15, 8.85402862e-15, -4.16270047e-02,
          1.77502528e-01, -2.25203820e-02, 1.42099382e-02,
          1.99581251e-01, 1.99581251e-01, 8.85402862e-15, 8.85402862e-15,
          8.85402862e-15, 1.35822147e-01, -1.13399856e-01,
          1.28889844e-01, 7.00676218e-02, -5.08182086e-02,
          -5.08182086e-02, 8.85402862e-15, 8.85402862e-15,
          8.85402862e-15, 1.56861708e-01, 2.44158022e-02,
          -5.72804268e-03, 1.25016533e-02, -2.71745026e-02,
          -2.71745026e-02, 8.85402862e-15, 8.85402862e-15,
          8.85402862e-15, -1.59850225e-01, -8.74243770e-03,
          -8.19228664e-02, -5.28525598e-02, -3.18650994e-03,
          -3.18650994e-03, 8.85402862e-15, 8.85402862e-15,
          8.85402862e-15, -1.80210739e-01, -3.17605622e-02,
          -8.01288709e-02, -1.35438636e-01, 9.79777519e-03,
          9.79777519e-03, 8.85402862e-15, 8.85402862e-15, 8.85402862e-15,
          2.87671983e-01, 1.47185147e-01, -5.30974902e-02,
          -1.57909263e-02, -1.51170269e-01, -1.51170269e-01,
          8.85402862e-15, 8.85402862e-15, 8.85402862e-15, 5.23889512e-02,
          -1.06682234e-01, 2.15149283e-01, 2.04082265e-01,
          1.44559085e-01, 1.44559085e-01, 8.85402862e-15, 8.85402862e-15,
          8.85402862e-15, -1.07497804e-01, 1.29152074e-01,
          -1.24026783e-01, -1.51541948e-01, 3.29032354e-02,
          3.29032354e-02, 8.85402862e-15, 8.85402862e-15, 8.85402862e-15,
          -1.30929664e-01, -2.49582261e-01, 1.36919145e-03,
          1.24366791e-03, -8.33224319e-03, -8.33224319e-03,
          8.85402862e-15, 8.85402862e-15, 8.85402862e-15, 6.82168305e-02,
          1.88806608e-01, 2.06028335e-02, 6.05454436e-04,
          -2.55755987e-02, -2.55755987e-02, 8.85402862e-15,
          8.85402862e-15, 8.85402862e-15, 1.70210600e-01,
          -6.83764070e-02, 1.02054752e-01, 1.49692878e-01,
          1.00452243e-03, 1.00452243e-03, 8.85402862e-15, 8.85402862e-15,
          8.85402862e-15, -2.27666140e-01, -5.35448231e-02,
          -3.87788378e-02, -5.91198355e-02, -1.30910343e-02,
          -1.30910343e-02, 8.85402862e-15, 8.85402862e-15,
          8.85402862e-15, -1.81936622e-01, 2.96565648e-02,
          -6.94060400e-02, -1.51466370e-01, 1.68792903e-02,
          1.68792903e-02, 8.85402862e-15, 8.85402862e-15, 8.85402862e-15,
          2.14284703e-01, 2.50795990e-01, 4.74907346e-02, 1.43941373e-01,
          2.21087616e-02, 2.21087616e-02, 8.85402862e-15, 8.85402862e-15,
          8.85402862e-15, 1.95318058e-01, -2.26907790e-01,
          6.06941283e-02, 6.66447356e-02, -2.58969832e-02,
          -2.58969832e-02, 8.85402862e-15, 8.85402862e-15,
          8.85402862e-15, -1.02325983e-01, -5.41909672e-02,
          -2.47380044e-02, -1.01197213e-01, -3.75063121e-02,
          -3.75063121e-02, 8.85402862e-15, 8.85402862e-15,
          8.85402862e-15, -5.54394610e-02, -1.09686375e-01,
          1.61915272e-02, -3.93793024e-02, -1.66830212e-01,
          -1.66830212e-01, 8.85402862e-15, 8.85402862e-15,
          8.85402862e-15, -7.06443936e-02, 2.45099425e-01,
          1.16964020e-01, 1.08416982e-01, 2.97987778e-02, 2.97987778e-02,
          8.85402862e-15, 8.85402862e-15, 8.85402862e-15, 2.28409931e-01,
          -8.12222138e-02, -1.08417705e-01, 3.21595892e-02,
          1.74537629e-01, 1.74537629e-01, 8.85402862e-15, 8.85402862e-15,
          8.85402862e-15, 1.95581280e-02, 1.82285741e-01, 9.77477580e-02,
          1.02050034e-02, 2.57685408e-02, 2.57685408e-02, 8.85402862e-15,
          8.85402862e-15, 8.85402862e-15, -1.43059134e-01,
          -1.90782428e-01, -1.24776192e-01, -1.45126089e-01,
          3.54003869e-02, 3.54003869e-02, 8.85402862e-15, 8.85402862e-15,
          8.85402862e-15, 2.31658921e-01, -6.16200790e-02,
          5.22379428e-02, 1.07565634e-01, -6.95441365e-02,
          -6.95441365e-02, 8.85402862e-15, 8.85402862e-15,
          8.85402862e-15, 3.35064083e-02, 2.11781070e-01,
          -2.52095368e-02, 2.73555033e-02, 8.37526284e-03,
          8.37526284e-03, 8.85402862e-15, 8.85402862e-15, 8.85402862e-15,
          -5.56867681e-02, -2.76783586e-01, 1.84290424e-01,
          8.81955698e-02, -5.80843166e-02, -5.80843166e-02,
          8.85402862e-15, 8.85402862e-15, 8.85402862e-15, 3.46871763e-02,
          1.70244917e-01, -2.78653085e-01, -1.45491153e-01,
          7.81086758e-02, 7.81086758e-02, 8.85402862e-15, 8.85402862e-15,
          8.85402862e-15, -1.52361795e-01, 2.99564917e-02,
          -1.69308558e-02, -4.57618274e-02, -3.88059728e-02,
          -3.88059728e-02, 8.85402862e-15, 8.85402862e-15,
          8.85402862e-15, 1.73361316e-01, 7.65821040e-02, 1.91391841e-01,
          1.83155715e-01, 1.87815093e-02, 1.87815093e-02, 8.85402862e-15,
          8.85402862e-15, 8.85402862e-15, -4.91633490e-02,
          3.35006788e-02, 6.13144971e-02, 3.74857374e-02,
          -5.89828566e-03, -5.89828566e-03, 8.85402862e-15,
          8.85402862e-15, 8.85402862e-15, 1.02759629e-01,
          -2.44333898e-03, -1.32892178e-02, 2.45991303e-03,
          2.77732946e-02, 2.77732946e-02, 8.85402862e-15, 8.85402862e-15,
          8.85402862e-15, -8.44378993e-02, -3.39286141e-02,
          -1.06126621e-01, -1.64452508e-01, -6.62881210e-02,
          -6.62881210e-02, 8.85402862e-15, 8.85402862e-15,
          8.85402862e-15, 1.01004869e-01, 7.30345845e-02, 1.28264576e-01,
          1.94670066e-01, 1.14576221e-01, 1.14576221e-01, 8.85402862e-15,
          8.85402862e-15, 8.85402862e-15, -4.78780642e-02,
          -1.98505417e-01, -7.03010848e-03, -2.17039362e-02,
          -2.93920562e-02, -2.93920562e-02, 8.85402862e-15,
          8.85402862e-15, 8.85402862e-15, -1.20325595e-01,
          6.61638426e-03, -6.46756589e-02, -1.48056507e-01,
          7.96884596e-02, 7.96884596e-02, 8.85402862e-15, 8.85402862e-15,
          8.85402862e-15, 1.34661645e-01, 1.46332130e-01, 3.76950316e-02,
          7.69157708e-02, -4.48163040e-02, -4.48163040e-02,
          8.85402862e-15, 8.85402862e-15, 8.85402862e-15, 1.03705198e-01,
          1.15720123e-01, 1.04173928e-01, 1.63007721e-01, 6.46831766e-02,
          6.46831766e-02, 8.85402862e-15, 8.85402862e-15, 8.85402862e-15,
          -1.82591766e-01, -6.64203390e-02, -3.93828601e-02,
          -1.08883448e-01, -2.86910199e-02, -2.86910199e-02,
          8.85402862e-15, 8.85402862e-15, 8.85402862e-15,
          -1.74161103e-02, -1.98736012e-01, -6.09909333e-02,
          -4.31541838e-02, 1.44952029e-01, 1.44952029e-01,
          8.85402862e-15, 8.85402862e-15, 8.85402862e-15, 1.13696396e-01,
          2.28483409e-01, -5.82377799e-02, 2.55589373e-02,
          -3.59602757e-02, -3.59602757e-02, 8.85402862e-15,
          8.85402862e-15, 8.85402862e-15, 8.63113403e-02, 3.66727374e-02,
          1.58611551e-01, 1.26478627e-01, -8.03006887e-02,
          -8.03006887e-02, 8.85402862e-15, 8.85402862e-15,
          8.85402862e-15, -3.60057987e-02, -1.13698684e-01,
          1.33784264e-02, 6.58888966e-02, -7.13756084e-02,
          -7.13756084e-02, 8.85402862e-15, 8.85402862e-15,
          8.85402862e-15, -8.35278183e-02, -2.52278864e-01,
          3.28066833e-02, 1.18624968e-02, 2.52850689e-02, 2.52850689e-02,
          8.85402862e-15, 8.85402862e-15, 8.85402862e-15, 1.66061018e-02,
          3.77246141e-01, -7.58189410e-02, -1.15663514e-01,
          5.50574670e-03, 5.50574670e-03, 8.85402862e-15, 8.85402862e-15,
          8.85402862e-15, 1.02927506e-01, -1.12686828e-02,
          2.96336878e-02, 3.79120819e-02, 4.05849442e-02, 4.05849442e-02,
          8.85402862e-15, 8.85402862e-15, 8.85402862e-15,
          -1.68975264e-01, -1.54883219e-02, -1.12214871e-01,
          -1.71029061e-01, -3.89124155e-02, -3.89124155e-02,
          8.85402862e-15, 8.85402862e-15, 8.85402862e-15, 1.03939697e-01,
          -1.05361193e-01, -8.63706321e-02, -5.13939932e-02,
          8.07471275e-02, 8.07471275e-02, 8.85402862e-15, 8.85402862e-15,
          8.85402862e-15, -1.16141429e-02, 1.40046865e-01,
          7.91064873e-02, 4.52625453e-02, -1.09305643e-02,
          -1.09305643e-02, 8.85402862e-15, 8.85402862e-15,
          8.85402862e-15, 7.66497105e-02, -1.91972163e-02,
          1.19478941e-01, 1.77160501e-01, -3.09041794e-02,
          -3.09041794e-02, 8.85402862e-15, 8.85402862e-15,
          8.85402862e-15, -2.06187099e-01, -4.14317623e-02,
          -7.88456127e-02, -2.31464449e-02, -1.85114309e-01,
          -1.85114309e-01, 8.85402862e-15, 8.85402862e-15,
          8.85402862e-15, 2.29315519e-01, 2.63092339e-01,
          -1.41581139e-02, 6.29246980e-02, -1.90770775e-02,
          -1.90770775e-02, 8.85402862e-15, 8.85402862e-15,
          8.85402862e-15, 6.59736805e-03, 6.59788474e-02,
          -1.17024183e-01, -9.04145762e-02, 7.83423185e-02,
          7.83423185e-02, 8.85402862e-15, 8.85402862e-15, 8.85402862e-15,
          -2.97258217e-02, 2.88134348e-02, 2.10027784e-01,
          5.06364666e-02, 1.25848994e-01, 1.25848994e-01, 8.85402862e-15,
          8.85402862e-15, 8.85402862e-15, -1.79527536e-01,
          -1.96118295e-01, -1.06083348e-01, -1.15486465e-01,
          4.31889221e-02, 4.31889221e-02, 8.85402862e-15, 8.85402862e-15,
          8.85402862e-15, 1.73563045e-03, 2.42964029e-02,
          -4.87581864e-02, 2.83087157e-02, 6.98927566e-02,
          6.98927566e-02, 8.85402862e-15, 8.85402862e-15, 8.85402862e-15,
          2.24012639e-02, 2.26716354e-01, 2.81684756e-01, 2.34881818e-01,
          -5.12526035e-02, -5.12526035e-02, 8.85402862e-15,
          8.85402862e-15, 8.85402862e-15, 1.55390635e-01, 7.39358440e-02,
          8.20853636e-02, 6.12244681e-02, 6.70011565e-02, 6.70011565e-02,
          8.85402862e-15, 8.85402862e-15, 8.85402862e-15,
          -4.18788195e-02, 2.13790275e-02, -8.95260870e-02,
          -1.13045111e-01, -7.73340091e-02, -7.73340091e-02,
          8.85402862e-15, 8.85402862e-15, 8.85402862e-15, 7.52252489e-02,
          -7.16200992e-02, -1.17108420e-01, 2.29885597e-02,
          1.28719628e-01, 1.28719628e-01, 8.85402862e-15, 8.85402862e-15,
          8.85402862e-15, -1.27244830e-01, 1.89953484e-02,
          6.14725351e-02, -2.48574093e-02, -3.12450081e-02,
          -3.12450081e-02, 8.85402862e-15, 8.85402862e-15,
          8.85402862e-15, 9.38983485e-02, 1.01409048e-01, 2.15325281e-01,
          1.85077116e-01, 5.00226580e-02, 5.00226580e-02, 8.85402862e-15,
          8.85402862e-15, 8.85402862e-15, 1.30457114e-02, 2.95011774e-02,
          -1.68722525e-01, -1.54484645e-01, 4.52044010e-02,
          4.52044010e-02, 8.85402862e-15, 8.85402862e-15, 8.85402862e-15,
          -5.24303243e-02, -3.53759080e-02, -3.46686170e-02,
          4.83301468e-02, 6.51563182e-02, 6.51563182e-02, 8.85402862e-15,
          8.85402862e-15, 8.85402862e-15, 2.58425083e-02, 2.08421275e-01,
          1.69020995e-01, 1.92324892e-02, -9.79225934e-02,
          -9.79225934e-02, 8.85402862e-15, 8.85402862e-15,
          8.85402862e-15, 8.37053135e-02, -1.32383317e-01,
          1.04533404e-01, 1.57085136e-01, 5.77251315e-02, 5.77251315e-02,
          8.85402862e-15, 8.85402862e-15, 8.85402862e-15,
          -1.18764251e-01, -2.04499170e-01, -4.75542136e-02,
          -9.74204112e-03, -2.17342246e-02, -2.17342246e-02,
          8.85402862e-15, 8.85402862e-15, 8.85402862e-15,
          -1.38079733e-01, -1.98327079e-01, -4.96086814e-02,
          -9.47730318e-02, 1.05908038e-02, 1.05908038e-02,
          8.85402862e-15, 8.85402862e-15, 8.85402862e-15, 5.62297776e-02,
          2.40641862e-01, -1.44889075e-02, 5.45927361e-02,
          4.66083921e-02, 4.66083921e-02, 8.85402862e-15, 8.85402862e-15,
          8.85402862e-15, 2.00614318e-01, 2.32347623e-01, 1.11651771e-01,
          4.99223694e-02, -3.54648568e-02, -3.54648568e-02,
          8.85402862e-15, 8.85402862e-15, 8.85402862e-15,
          -6.55125007e-02, -1.32210389e-01, -9.35122892e-02,
          -1.06251225e-01, 1.68832634e-02, 1.68832634e-02,
          8.85402862e-15, 8.85402862e-15, 8.85402862e-15,
          -1.22338258e-01, 1.75317079e-02, -1.20454608e-02,
          -5.57802059e-03, 1.21859252e-01, 1.21859252e-01,
          8.85402862e-15, 8.85402862e-15, 8.85402862e-15, 1.18297294e-01,
          1.83995992e-01, -2.91624349e-02, -4.70126942e-02,
          -1.50280938e-01, -1.50280938e-01, 8.85402862e-15,
          8.85402862e-15, 8.85402862e-15, 6.95533678e-02,
          -6.93173334e-02, 1.34720176e-01, 1.58841878e-01,
          1.15384664e-02, 1.15384664e-02, 8.85402862e-15, 8.85402862e-15,
          8.85402862e-15, -1.48148194e-01, -8.99368003e-02,
          -1.13741107e-01, -1.44022733e-01, 2.52828021e-02,
          2.52828021e-02, 8.85402862e-15, 8.85402862e-15, 8.85402862e-15,
          1.96523853e-02, -2.29158416e-01, -1.55905277e-01,
          -9.84886140e-02, 5.22742197e-02, 5.22742197e-02,
          8.85402862e-15, 8.85402862e-15, 8.85402862e-15, 1.23863176e-01,
          -2.74382858e-03, 1.99935585e-01, 2.15865046e-01,
          1.93114020e-03, 1.93114020e-03, 8.85402862e-15, 8.85402862e-15,
          8.85402862e-15, 4.63268859e-03, 3.21839094e-01, 6.97107762e-02,
          2.66462769e-02, -7.94882253e-02, -7.94882253e-02,
          8.85402862e-15, 8.85402862e-15, 8.85402862e-15,
          -1.04362026e-01, -5.67431711e-02, -2.41134569e-01,
          -2.07181603e-01, -7.75913596e-02, -7.75913596e-02,
          8.85402862e-15, 8.85402862e-15, 8.85402862e-15, 1.13021009e-01,
          -1.46282427e-02, 7.18192235e-02, -2.82159783e-02,
          3.40366885e-02, 3.40366885e-02, 8.85402862e-15, 8.85402862e-15,
          8.85402862e-15, -8.23202077e-03, 1.05467260e-01,
          9.93186459e-02, 1.40661508e-01, 1.07840747e-01, 1.07840747e-01,
          8.85402862e-15, 8.85402862e-15, 8.85402862e-15,
          -4.26934450e-04, 9.57156494e-02, 6.99967220e-02,
          9.47360918e-02, -6.42860606e-02, -6.42860606e-02,
          8.85402862e-15, 8.85402862e-15, 8.85402862e-15, 6.59884885e-02,
          -1.09456539e-01, -8.80014971e-02, -2.37478793e-01,
          -5.94480056e-03, -5.94480056e-03, 8.85402862e-15,
          8.85402862e-15, 8.85402862e-15, 5.09511046e-02,
          -5.07785305e-02, 5.09481365e-03, -2.23285370e-02,
          5.41983135e-02, 5.41983135e-02, 8.85402862e-15, 8.85402862e-15,
          8.85402862e-15, -2.84740746e-01, 8.52549300e-02,
          3.90392765e-02, 3.69540090e-03, -7.97109902e-02,
          -7.97109902e-02, 8.85402862e-15, 8.85402862e-15,
          8.85402862e-15, 1.67801172e-01, 7.49801099e-02, 4.38674241e-02,
          2.56111979e-01, 3.14574391e-02, 3.14574391e-02, 8.85402862e-15,
          8.85402862e-15, 8.85402862e-15, -7.16886148e-02,
          -3.84310260e-02, 2.16670483e-01, 1.68634817e-01,
          -8.71858187e-03, -8.71858187e-03, 8.85402862e-15,
          8.85402862e-15, 8.85402862e-15, -3.42048742e-02,
          1.47279426e-01, -1.54469565e-01, -2.15360403e-01,
          1.25356779e-01, 1.25356779e-01, 8.85402862e-15, 8.85402862e-15,
          8.85402862e-15, -1.15132660e-01, -2.24300459e-01,
          -2.17705697e-01, -9.21813697e-02, -1.39055535e-01,
          -1.39055535e-01, 8.85402862e-15, 8.85402862e-15,
          8.85402862e-15, 2.21026152e-01, 2.35149935e-01, 1.55504689e-01,
          1.38906837e-01, 2.24173963e-02, 2.24173963e-02, 8.85402862e-15,
          8.85402862e-15, 8.85402862e-15, -9.88086388e-02,
          -8.01119283e-02, 4.96019758e-02, -3.38448472e-02,
          -7.04494938e-02, -7.04494938e-02, 8.85402862e-15,
          8.85402862e-15, 8.85402862e-15, 5.04034720e-02, 8.19127411e-02,
          3.98333855e-02, 1.75838873e-01, 5.74847609e-02, 5.74847609e-02,
          8.85402862e-15, 8.85402862e-15, 8.85402862e-15, 1.50855407e-02,
          -1.38159683e-02, -1.38412967e-01, -1.91440672e-01,
          -6.79459423e-02, -6.79459423e-02, 8.85402862e-15,
          8.85402862e-15, 8.85402862e-15, 3.33196372e-02, 1.20151667e-02,
          1.19140953e-01, 1.19609922e-01, 8.09105486e-02, 8.09105486e-02,
          8.85402862e-15, 8.85402862e-15, 8.85402862e-15,
          -1.94900021e-01, -2.52512515e-01, -1.84225440e-01,
          -8.07046667e-02, 2.49480158e-02, 2.49480158e-02,
          8.85402862e-15, 8.85402862e-15, 8.85402862e-15, 3.84061635e-02,
          1.49951473e-01, 7.96509460e-02, 7.56385699e-02,
          -2.24526972e-02, -2.24526972e-02, 8.85402862e-15,
          8.85402862e-15, 8.85402862e-15, 1.66087851e-01, 5.65931760e-02,
          9.18856189e-02, 6.92670420e-02, -4.73772250e-02,
          -4.73772250e-02, 8.85402862e-15, 8.85402862e-15,
          8.85402862e-15, -9.59396642e-03, 4.59679030e-02,
          8.28521475e-02, 5.96224423e-03, 4.48819213e-02, 4.48819213e-02,
          8.85402862e-15, 8.85402862e-15, 8.85402862e-15, 2.86342204e-02,
          -2.75583953e-01, -3.02460790e-02, -6.18248340e-03,
          -2.96571478e-02, -2.96571478e-02, 8.85402862e-15,
          8.85402862e-15, 8.85402862e-15, 1.79391727e-02, 3.37062359e-01,
          -1.26660466e-01, -3.20356451e-02, 4.00090367e-02,
          4.00090367e-02, 8.85402862e-15, 8.85402862e-15, 8.85402862e-15,
          1.09802097e-01, 1.07032731e-01, 5.24430200e-02,
          -3.08537949e-02, 9.17275026e-02, 9.17275026e-02,
          8.85402862e-15, 8.85402862e-15, 8.85402862e-15,
          -1.56375617e-01, -1.68511152e-01, 1.04463525e-01,
          6.90720007e-02, -1.02079324e-01, -1.02079324e-01,
          8.85402862e-15, 8.85402862e-15, 8.85402862e-15, 1.63076475e-01,
          -5.38557023e-02, 6.93669841e-02, 1.00742057e-01,
          6.67747296e-03, 6.67747296e-03, 8.85402862e-15, 8.85402862e-15,
          8.85402862e-15, -2.17984214e-01, -1.00796390e-02,
          -1.15985632e-01, -6.96257874e-02, 5.54038286e-02,
          5.54038286e-02, 8.85402862e-15, 8.85402862e-15, 8.85402862e-15,
          8.08419958e-02, 2.91517773e-03, 7.55037367e-02, 2.55723274e-03,
          -2.17013806e-02, -2.17013806e-02, 8.85402862e-15,
          8.85402862e-15, 8.85402862e-15, -2.59341896e-02,
          6.10200763e-02, -2.88851671e-02, -3.36736478e-02,
          -4.03798446e-02, -4.03798446e-02, 8.85402862e-15,
          8.85402862e-15, 8.85402862e-15, 1.41338974e-01,
          -1.81659646e-02, 6.88533261e-02, -1.02022449e-02,
          2.28534751e-02, 2.28534751e-02, 8.85402862e-15, 8.85402862e-15,
          8.85402862e-15, 4.10749838e-02, 6.01521321e-02,
          -1.03429943e-01, -1.14530325e-01, 4.54635583e-02,
          4.54635583e-02, 8.85402862e-15, 8.85402862e-15, 8.85402862e-15,
          -2.65444756e-01, 2.74945479e-02, -9.72061008e-02,
          -4.54121009e-02, -1.41447214e-02, -1.41447214e-02,
          8.85402862e-15, 8.85402862e-15, 8.85402862e-15, 8.30308199e-02,
          -6.94807321e-02, 1.31782696e-01, 1.70144618e-01,
          -5.41722737e-02, -5.41722737e-02, 8.85402862e-15,
          8.85402862e-15, 8.85402862e-15, -3.04287821e-01,
          6.81310296e-02, -1.74929760e-02, -1.35344923e-01,
          3.44045311e-02, 3.44045311e-02, 8.85402862e-15, 8.85402862e-15,
          8.85402862e-15, 2.15315416e-01, 5.32879345e-02,
          -7.59535506e-02, 5.93077801e-02, 4.21592593e-02,
          4.21592593e-02, 8.85402862e-15, 8.85402862e-15, 8.85402862e-15,
          1.05647586e-01, 3.26300748e-02, -1.03261806e-01,
          -1.15673371e-01, -2.59911437e-02, -2.59911437e-02,
          8.85402862e-15, 8.85402862e-15, 8.85402862e-15,
          -1.66752450e-02, -1.54048964e-01, 1.96708441e-01,
          1.91710398e-01, -5.05725555e-02, -5.05725555e-02,
          8.85402862e-15, 8.85402862e-15, 8.85402862e-15,
          -2.42741764e-01, -9.97290611e-02, -1.86863467e-01,
          -1.34827256e-01, 5.32495864e-02, 5.32495864e-02,
          8.85402862e-15, 8.85402862e-15, 8.85402862e-15, 1.38691127e-01,
          -3.74186188e-01, 1.08242728e-01, 2.12906711e-02,
          3.57210860e-02, 3.57210860e-02, 8.85402862e-15, 8.85402862e-15,
          8.85402862e-15, 6.61458075e-02, 2.85395890e-01, 1.48012057e-01,
          1.71844333e-01, -6.71371445e-02, -6.71371445e-02,
          8.85402862e-15, 8.85402862e-15, 8.85402862e-15, 3.79048064e-02,
          1.88519523e-01, -6.93912730e-02, -5.83076216e-02,
          -2.18334664e-02, -2.18334664e-02, 8.85402862e-15,
          8.85402862e-15, 8.85402862e-15, 9.63001549e-02,
          -1.46974653e-01, 5.80076724e-02, 2.05725431e-02,
          -1.21200457e-02, -1.21200457e-02, 8.85402862e-15,
          8.85402862e-15, 8.85402862e-15, 7.71926949e-04, 1.37826249e-01,
          -2.33407635e-02, -1.00183366e-02, 1.50923938e-01,
          1.50923938e-01, 8.85402862e-15, 8.85402862e-15, 8.85402862e-15,
          -1.18374877e-01, -1.80375073e-02, 1.04534579e-02,
          4.09313664e-02, -1.70401841e-01, -1.70401841e-01,
          8.85402862e-15, 8.85402862e-15, 8.85402862e-15, 2.13028807e-02,
          2.71859579e-02, -4.51204181e-02, -5.14854714e-02,
          3.15981470e-02, 3.15981470e-02, 8.85402862e-15, 8.85402862e-15,
          8.85402862e-15, 9.00355503e-02, -3.19795758e-01,
          -2.30216458e-02, 3.80214527e-02, -3.72686982e-02,
          -3.72686982e-02, 8.85402862e-15, 8.85402862e-15,
          8.85402862e-15, 1.21602014e-01, 2.69867945e-02, 3.05975731e-02,
          2.00504679e-02, 9.00752172e-02, 9.00752172e-02, 8.85402862e-15,
          8.85402862e-15, 8.85402862e-15, -1.28576487e-01,
          3.57941464e-02, -3.52071710e-02, -2.29439549e-02,
          1.30197965e-02, 1.30197965e-02, 8.85402862e-15, 8.85402862e-15,
          8.85402862e-15, -8.30610991e-02, 2.57014662e-01,
          2.76311990e-02, 3.50353010e-02, -6.58262745e-02,
          -6.58262745e-02, 8.85402862e-15, 8.85402862e-15,
          8.85402862e-15, 1.05178587e-01, -2.22025201e-01,
          8.41307566e-02, 5.56794517e-02, 1.36456728e-01, 1.36456728e-01,
          8.85402862e-15, 8.85402862e-15, 8.85402862e-15,
          -7.12591559e-02, 9.67526361e-02, 1.87300276e-02,
          -9.71406326e-03, -4.33035148e-03, -4.33035148e-03,
          8.85402862e-15, 8.85402862e-15, 8.85402862e-15, 1.21129956e-02,
          -1.20095156e-01, -8.31447020e-02, -3.71607803e-02,
          -9.65672266e-03, -9.65672266e-03, 8.85402862e-15,
          8.85402862e-15, 8.85402862e-15, -4.60324287e-02,
          2.45367825e-01, 7.20483856e-03, 1.81164704e-02,
          -1.22469723e-01, -1.22469723e-01, 8.85402862e-15,
          8.85402862e-15, 8.85402862e-15, 1.27792507e-02,
          -1.91613972e-01, 7.07946494e-02, -1.21771377e-02,
          -2.28782818e-02, -2.28782818e-02, 8.85402862e-15,
          8.85402862e-15, 8.85402862e-15, 3.67334508e-03,
          -7.28321681e-03, -1.44711405e-01, -9.29564387e-02,
          2.42079012e-02, 2.42079012e-02, 8.85402862e-15, 8.85402862e-15,
          8.85402862e-15, 5.34586906e-02, 1.30269155e-01,
          -9.64292139e-02, -1.24278247e-01, -1.15441963e-01,
          -1.15441963e-01, 8.85402862e-15, 8.85402862e-15,
          8.85402862e-15, -1.10630497e-01, 2.79087927e-02,
          1.29626647e-01, 1.88692778e-01, 7.33931512e-02, 7.33931512e-02,
          8.85402862e-15, 8.85402862e-15, 8.85402862e-15, 7.60146044e-03,
          2.83613443e-01, 7.72783235e-02, 7.19785839e-02,
          -1.70736909e-02, -1.70736909e-02, 8.85402862e-15,
          8.85402862e-15, 8.85402862e-15, -1.23783071e-02,
          1.80516660e-01, -2.24490628e-01, -2.68593311e-01,
          1.23134246e-02, 1.23134246e-02, 8.85402862e-15, 8.85402862e-15,
          8.85402862e-15, -3.24868714e-03, -1.47348076e-01,
          -1.93104267e-01, -2.19253808e-01, -2.59108227e-02,
          -2.59108227e-02, 8.85402862e-15, 8.85402862e-15,
          8.85402862e-15, 8.02563597e-03, -1.60192981e-01,
          -1.95018426e-01, -1.19466506e-01, 3.06711458e-02,
          3.06711458e-02, 8.85402862e-15, 8.85402862e-15, 8.85402862e-15,
          -1.81371048e-01, -2.20119521e-01, -3.38149332e-02,
          2.83355638e-03, 6.45331442e-02, 6.45331442e-02, 8.85402862e-15,
          8.85402862e-15, 8.85402862e-15, -2.51785479e-02,
          -6.29824325e-02, -9.84041244e-02, -1.33739591e-01,
          -1.53725697e-02, -1.53725697e-02, 8.85402862e-15,
          8.85402862e-15, 8.85402862e-15, 1.44618928e-01, 1.80277064e-01,
          1.79039240e-02, 4.08158340e-02, -6.49374649e-02,
          -6.49374649e-02, 8.85402862e-15, 8.85402862e-15,
          8.85402862e-15, 6.19305223e-02, 1.02824822e-01, 1.14315011e-01,
          9.00903419e-02, 1.57769285e-02, 1.57769285e-02, 8.85402862e-15,
          8.85402862e-15, 8.85402862e-15, -1.09521700e-02,
          -2.35695429e-02, -1.77304372e-01, -1.96512863e-01,
          -1.74461585e-02, -1.74461585e-02, 8.85402862e-15,
          8.85402862e-15, 8.85402862e-15, 2.26073131e-01, 3.91720571e-02,
          1.48756415e-01, 1.88948676e-01, 1.12441458e-01, 1.12441458e-01,
          8.85402862e-15, 8.85402862e-15, 8.85402862e-15,
          -2.35077858e-01, -1.29696131e-02, 7.04330951e-03,
          -2.65088826e-02, -1.34162664e-01, -1.34162664e-01,
          8.85402862e-15, 8.85402862e-15, 8.85402862e-15, 4.68779057e-02,
          2.42880546e-02, 4.84256521e-02, 6.09939359e-02, 6.60884380e-02,
          6.60884380e-02, 8.85402862e-15, 8.85402862e-15, 8.85402862e-15,
          2.78541520e-02, -2.05097511e-01, -1.62822545e-01,
          -1.48105964e-01, -4.54489477e-02, -4.54489477e-02,
          8.85402862e-15, 8.85402862e-15, 8.85402862e-15,
          -1.22488588e-01, -5.14696576e-02, 1.05845019e-01,
          7.69146979e-02, 4.49284017e-02, 4.49284017e-02, 8.85402862e-15,
          8.85402862e-15, 8.85402862e-15, 1.06645107e-01, 1.47680547e-02,
          -4.47319495e-03, 4.89472188e-02, -2.98849046e-02,
          -2.98849046e-02, 8.85402862e-15, 8.85402862e-15,
          8.85402862e-15, 1.49102034e-02, 2.68720031e-01, 8.83716792e-02,
          4.91649620e-02, 5.73264956e-02, 5.73264956e-02, 8.85402862e-15,
          8.85402862e-15, 8.85402862e-15, -8.61766562e-02,
          -1.44675493e-01, -1.79689065e-01, -1.63988292e-01,
          7.67129138e-02, 7.67129138e-02, 8.85402862e-15, 8.85402862e-15,
          8.85402862e-15, -4.64590490e-02, -4.06461395e-02,
          -6.28553331e-02, -6.07194379e-02, -4.70677800e-02,
          -4.70677800e-02, 8.85402862e-15, 8.85402862e-15,
          8.85402862e-15, -3.49414349e-02, 9.24585164e-02,
          2.26633415e-01, 3.08808088e-01, -5.76021187e-02,
          -5.76021187e-02, 8.85402862e-15, 8.85402862e-15,
          8.85402862e-15, 1.94498032e-01, 1.19784206e-01, 4.28320430e-02,
          -5.71793988e-02, 5.48778735e-02, 5.48778735e-02,
          8.85402862e-15, 8.85402862e-15, 8.85402862e-15,
          -3.85027416e-02, -8.72258171e-02, 1.02795422e-01,
          1.14103965e-01, -4.26273085e-02, -4.26273085e-02,
          8.85402862e-15, 8.85402862e-15, 8.85402862e-15,
          -4.61524352e-02, -6.12544902e-02, 5.31450734e-02,
          7.84924477e-02, -6.40548840e-02, -6.40548840e-02,
          8.85402862e-15, 8.85402862e-15, 8.85402862e-15, 1.62916351e-02,
          -1.81981847e-02, -4.83342744e-02, -9.68535468e-02,
          4.66471203e-02, 4.66471203e-02, 8.85402862e-15, 8.85402862e-15,
          8.85402862e-15, 2.76442394e-02, 1.25959218e-01, 6.20022491e-02,
          7.38655776e-02, 1.93158910e-02, 1.93158910e-02, 8.85402862e-15,
          8.85402862e-15, 8.85402862e-15, -1.37438923e-01,
          -8.66253003e-02, 2.46431366e-01, 2.17884570e-01,
          -2.87718792e-02, -2.87718792e-02, 8.85402862e-15,
          8.85402862e-15, 8.85402862e-15, 4.19841334e-02,
          -1.04028045e-03, 8.46273676e-02, 1.08417280e-01,
          1.17303513e-01, 1.17303513e-01, 8.85402862e-15, 8.85402862e-15,
          8.85402862e-15, 2.84643006e-02, 5.27062919e-03,
          -9.20580551e-02, -9.52970684e-02, -2.87648179e-02,
          -2.87648179e-02, 8.85402862e-15, 8.85402862e-15,
          8.85402862e-15, 2.62711942e-02, 4.16757204e-02,
          -6.93922266e-02, -6.13964722e-02, -1.00486211e-01,
          -1.00486211e-01, 8.85402862e-15, 8.85402862e-15,
          8.85402862e-15, 1.22790806e-01, -1.89145818e-01,
          1.85501590e-01, 1.41601756e-01, -1.08251452e-01,
          -1.08251452e-01, 8.85402862e-15, 8.85402862e-15,
          8.85402862e-15, -4.31453325e-02, 1.93271086e-01,
          -1.83463246e-01, -1.25589341e-01, -1.02064768e-02,
          -1.02064768e-02, 8.85402862e-15, 8.85402862e-15,
          8.85402862e-15, -4.49064337e-02, -3.42890248e-02,
          -6.10260852e-02, -1.64699070e-02, -1.39655070e-02,
          -1.39655070e-02, 8.85402862e-15, 8.85402862e-15,
          8.85402862e-15, -3.47388461e-02, 2.13673711e-01,
          1.39086008e-01, 8.05558562e-02, 1.32423550e-01, 1.32423550e-01,
          8.85402862e-15, 8.85402862e-15, 8.85402862e-15, 1.49287947e-03,
          -3.31531197e-01, 1.36842906e-01, 1.47174016e-01,
          -4.31884825e-02, -4.31884825e-02, 8.85402862e-15,
          8.85402862e-15, 8.85402862e-15, 4.34065349e-02, 2.34487981e-01,
          6.69871271e-02, 2.19890680e-02, 2.03119442e-02, 2.03119442e-02,
          8.85402862e-15, 8.85402862e-15, 8.85402862e-15, 4.74126711e-02,
          -2.34367680e-02, -2.22067937e-01, -2.19617113e-01,
          3.71404830e-03, 3.71404830e-03, 8.85402862e-15, 8.85402862e-15,
          8.85402862e-15, -6.53909966e-02, 1.47400782e-01,
          4.51588109e-02, 7.73749799e-02, 4.60833944e-02, 4.60833944e-02,
          8.85402862e-15, 8.85402862e-15, 8.85402862e-15,
          -1.03568569e-01, 8.79845619e-02, -1.41661376e-01,
          -1.84026048e-01, -4.95499782e-02, -4.95499782e-02,
          8.85402862e-15, 8.85402862e-15, 8.85402862e-15,
          -1.58755220e-02, -2.71628857e-01, -9.13503692e-02,
          -4.63599116e-02, 9.41219255e-02, 9.41219255e-02,
          8.85402862e-15, 8.85402862e-15, 8.85402862e-15, 5.16547561e-02,
          -1.68941636e-03, 1.48617312e-01, 1.31385803e-01,
          4.82110903e-02, 4.82110903e-02, 8.85402862e-15, 8.85402862e-15,
          8.85402862e-15, 9.47102383e-02, 2.12254554e-01, 1.11315377e-01,
          1.25921056e-01, -6.58620745e-02, -6.58620745e-02,
          8.85402862e-15, 8.85402862e-15, 8.85402862e-15,
          -2.58203316e-02, -5.51106073e-02, 5.46610691e-02,
          9.89262313e-02, 1.78672392e-02, 1.78672392e-02, 8.85402862e-15,
          8.85402862e-15, 8.85402862e-15, -8.60790256e-03,
          1.35332029e-02, -7.94306863e-04, -1.20174624e-02,
          1.41210496e-01, 1.41210496e-01, 8.85402862e-15, 8.85402862e-15,
          8.85402862e-15, 3.87791474e-03, -1.36654461e-02,
          -7.11957514e-02, -2.25264262e-02, -2.06570238e-01,
          -2.06570238e-01, 8.85402862e-15, 8.85402862e-15,
          8.85402862e-15, 5.74712195e-02, 8.21636841e-02, 4.42499332e-02,
          -3.74615341e-02, 7.44134635e-02, 7.44134635e-02,
          8.85402862e-15, 8.85402862e-15, 8.85402862e-15,
          -4.63373475e-02, -1.86899185e-01, 4.01649773e-02,
          1.24094889e-01, -2.18488785e-04, -2.18488785e-04,
          8.85402862e-15, 8.85402862e-15, 8.85402862e-15, 5.83580434e-02,
          1.11049980e-01, -4.91291061e-02, -6.09222800e-02,
          5.90258837e-02, 5.90258837e-02, 8.85402862e-15, 8.85402862e-15,
          8.85402862e-15, -1.37002662e-01, 5.82846850e-02,
          2.81849019e-02, 5.95782064e-02, -2.21894290e-02,
          -2.21894290e-02, 8.85402862e-15, 8.85402862e-15,
          8.85402862e-15, 1.51903003e-01, 4.44856994e-02,
          -3.30189839e-02, -1.36549041e-01, -9.69704334e-03,
          -9.69704334e-03, 8.85402862e-15, 8.85402862e-15,
          8.85402862e-15, 2.32349671e-02, -3.30528349e-01,
          7.72175416e-02, 1.06695578e-01, 4.91661727e-02, 4.91661727e-02,
          8.85402862e-15, 8.85402862e-15, 8.85402862e-15,
          -4.14093174e-02, -6.28186837e-02, -2.43789598e-01,
          -1.82841718e-01, -2.62498260e-02, -2.62498260e-02,
          8.85402862e-15, 8.85402862e-15, 8.85402862e-15, 1.07241258e-01,
          2.56770700e-01, 5.18654622e-02, -1.13662638e-04,
          2.93898229e-02, 2.93898229e-02, 8.85402862e-15, 8.85402862e-15,
          8.85402862e-15, -1.29786119e-01, 9.58571360e-02,
          7.39873648e-02, 3.55405286e-02, -9.30253416e-02,
          -9.30253416e-02, 8.85402862e-15, 8.85402862e-15,
          8.85402862e-15, -3.60878394e-03, 8.67054835e-02,
          -1.81228280e-01, -1.02848113e-01, 2.28417590e-02,
          2.28417590e-02, 8.85402862e-15, 8.85402862e-15, 8.85402862e-15,
          -1.32749546e-02, -6.17799014e-02, 1.24017194e-01,
          2.11381316e-01, -5.18648885e-02, -5.18648885e-02,
          8.85402862e-15, 8.85402862e-15, 8.85402862e-15,
          -9.97021571e-02, -2.60998458e-01, -2.71389056e-02,
          -5.91135770e-02, -2.59539150e-02, -2.59539150e-02,
          8.85402862e-15, 8.85402862e-15, 8.85402862e-15, 7.58667216e-02,
          1.95353612e-01, 4.36307229e-02, -9.01387334e-02,
          1.42578240e-02, 1.42578240e-02, 8.85402862e-15, 8.85402862e-15,
          8.85402862e-15, 6.11396357e-02, -8.29548687e-02,
          -8.28394815e-02, -6.66855499e-02, -7.79668428e-03,
          -7.79668428e-03, 8.85402862e-15, 8.85402862e-15,
          8.85402862e-15, -5.90043887e-02, 1.65211502e-02,
          -1.35028586e-01, -8.20749104e-02, 9.11049768e-02,
          9.11049768e-02, 8.85402862e-15, 8.85402862e-15, 8.85402862e-15,
          -5.62440865e-02, -1.49731666e-01, 2.07019672e-01,
          1.43459231e-01, -2.24226508e-02, -2.24226508e-02,
          8.85402862e-15, 8.85402862e-15, 8.85402862e-15, 5.41087836e-02,
          2.43086383e-01, 9.09467340e-02, 8.53994414e-02,
          -6.08856268e-02, -6.08856268e-02, 8.85402862e-15,
          8.85402862e-15, 8.85402862e-15, -6.88715726e-02,
          2.28038251e-01, 2.23565072e-01, 2.34914273e-01,
          -1.23033701e-02, -1.23033701e-02, 8.85402862e-15,
          8.85402862e-15, 8.85402862e-15, -5.26661947e-02,
          -1.25799060e-01, -1.84932426e-01, -1.50144547e-01,
          9.80185568e-02, 9.80185568e-02, 8.85402862e-15, 8.85402862e-15,
          8.85402862e-15, 1.35653913e-01, -1.49357498e-01,
          -1.43292487e-01, -2.06083447e-01, 2.24613436e-02,
          2.24613436e-02, 8.85402862e-15, 8.85402862e-15, 8.85402862e-15,
          1.28046470e-02, 7.40390345e-02, 1.31580815e-01, 1.48234770e-01,
          -8.12555701e-02, -8.12555701e-02, 8.85402862e-15,
          8.85402862e-15, 8.85402862e-15, -1.37492508e-01,
          -2.47397739e-02, -1.37901586e-02, 4.11358848e-03,
          1.03138246e-01, 1.03138246e-01, 8.85402862e-15, 8.85402862e-15,
          8.85402862e-15, -4.79248166e-02, 8.30499232e-02,
          8.56288522e-02, 1.03995465e-01, -8.81955586e-03,
          -8.81955586e-03, 8.85402862e-15, 8.85402862e-15,
          8.85402862e-15, 1.30528107e-01, -2.49609798e-02,
          1.39229186e-02, 7.10123777e-02, -1.05299734e-01,
          -1.05299734e-01, 8.85402862e-15, 8.85402862e-15,
          8.85402862e-15, 8.18101317e-02, -4.71474454e-02,
          -5.88406660e-02, -1.52200490e-01, 3.79019454e-02,
          3.79019454e-02, 8.85402862e-15, 8.85402862e-15, 8.85402862e-15,
          2.94585284e-02, -8.22250396e-02, -1.30420625e-01,
          -4.99233492e-02, -1.49276569e-01, -1.49276569e-01,
          8.85402862e-15, 8.85402862e-15, 8.85402862e-15, 1.35649726e-01,
          -7.17214197e-02, -5.39238891e-03, -1.00605600e-02,
          6.77796528e-02, 6.77796528e-02, 8.85402862e-15, 8.85402862e-15,
          8.85402862e-15, -8.00646469e-02, -1.03028648e-01,
          7.75971189e-02, 3.50342654e-02, -5.37848696e-02,
          -5.37848696e-02, 8.85402862e-15, 8.85402862e-15,
          8.85402862e-15, -9.88420025e-02, 2.43176803e-01,
          4.44177575e-02, 1.11512654e-02, 1.21483356e-01, 1.21483356e-01,
          8.85402862e-15, 8.85402862e-15, 8.85402862e-15, 4.58183475e-02,
          -1.26339331e-01, 1.59973159e-01, 2.43484363e-01,
          5.57311624e-02, 5.57311624e-02, 8.85402862e-15, 8.85402862e-15,
          8.85402862e-15, 5.72823174e-02, -1.13771938e-01,
          -7.40383938e-02, -1.63014174e-01, 9.11511760e-03,
          9.11511760e-03, 8.85402862e-15, 8.85402862e-15, 8.85402862e-15,
          -6.64171856e-03, -1.24718852e-01, -2.38979086e-02,
          -1.35969641e-02, -7.14549720e-02, -7.14549720e-02,
          8.85402862e-15, 8.85402862e-15, 8.85402862e-15,
          -1.37178212e-01, 3.51031870e-01, -1.02756038e-01,
          -1.07592307e-01, -3.41106057e-02, -3.41106057e-02,
          8.85402862e-15, 8.85402862e-15, 8.85402862e-15, 6.69021904e-02,
          4.30216677e-02, 1.80272102e-01, 8.47342089e-02, 1.78888440e-02,
          1.78888440e-02, 8.85402862e-15, 8.85402862e-15, 8.85402862e-15,
          -1.40282854e-01, -1.30393043e-01, -6.10682517e-02,
          -1.15006149e-01, -1.15830032e-02, -1.15830032e-02,
          8.85402862e-15, 8.85402862e-15, 8.85402862e-15, 1.81627348e-01,
          -1.28238738e-01, 8.45905468e-02, 1.04725428e-01,
          -1.87822673e-02, -1.87822673e-02, 8.85402862e-15,
          8.85402862e-15, 8.85402862e-15, -1.48965836e-01,
          1.74890846e-01, -2.44513676e-01, -1.15172833e-01,
          -2.82427687e-02, -2.82427687e-02, 8.85402862e-15,
          8.85402862e-15, 8.85402862e-15, 9.19855684e-02, 1.28888369e-01,
          2.60145334e-03, -3.34195197e-02, 1.05055362e-01,
          1.05055362e-01, 8.85402862e-15, 8.85402862e-15, 8.85402862e-15,
          1.88419908e-01, -1.45372331e-01, 1.71550974e-01,
          7.49868900e-02, 3.05808112e-02, 3.05808112e-02, 8.85402862e-15,
          8.85402862e-15, 8.85402862e-15, -1.96924433e-01,
          -1.15312159e-01, -9.89356041e-02, 7.98896551e-02,
          -6.25344440e-02, -6.25344440e-02, 8.85402862e-15,
          8.85402862e-15, 8.85402862e-15, -1.24200247e-01,
          9.10769254e-02, -1.15936108e-01, -1.62176296e-01,
          -1.13820761e-01, -1.13820761e-01, 8.85402862e-15,
          8.85402862e-15, 8.85402862e-15, -2.96580642e-01,
          1.65340394e-01, -1.70215182e-02, -4.85019423e-02,
          8.79518837e-02, 8.79518837e-02, 8.85402862e-15, 8.85402862e-15,
          8.85402862e-15, 9.69236866e-02, -6.70533106e-02,
          4.85587716e-02, 9.88068618e-03, 1.64278388e-01, 1.64278388e-01,
          8.85402862e-15, 8.85402862e-15, 8.85402862e-15, 1.76712155e-01,
          -9.28168446e-02, 3.51551212e-02, 9.68048722e-02,
          -1.60794914e-01, -1.60794914e-01, 8.85402862e-15,
          8.85402862e-15, 8.85402862e-15, 2.29448099e-02, 1.72846168e-01,
          6.02380075e-02, 6.87466040e-02, -9.14353654e-02,
          -9.14353654e-02, 8.85402862e-15, 8.85402862e-15,
          8.85402862e-15, 6.54281769e-03, -1.20806498e-02,
          7.98592269e-02, 3.97100858e-02, 3.80537063e-02, 3.80537063e-02,
          8.85402862e-15, 8.85402862e-15, 8.85402862e-15, 4.19616178e-02,
          1.12213753e-01, -9.50045958e-02, -3.30903418e-02,
          -9.34969410e-02, -9.34969410e-02, 8.85402862e-15,
          8.85402862e-15, 8.85402862e-15, 3.12068984e-02,
          -1.33843124e-01, 4.11894768e-02, -1.82724111e-02,
          -8.63003824e-03, -8.63003824e-03, 8.85402862e-15,
          8.85402862e-15, 8.85402862e-15, -7.97114074e-02,
          6.06308766e-02, -2.60440800e-02, 1.16526615e-02,
          6.40732124e-02, 6.40732124e-02, 8.85402862e-15, 8.85402862e-15,
          8.85402862e-15, -1.90847926e-03, 3.26361470e-02,
          -2.42291689e-02, 6.66509122e-02, -1.10834934e-01,
          -1.10834934e-01, 8.85402862e-15, 8.85402862e-15,
          8.85402862e-15, -1.14488445e-01, 6.08432330e-02,
          7.83034042e-02, 9.45863966e-03, 3.60973030e-02, 3.60973030e-02,
          8.85402862e-15, 8.85402862e-15, 8.85402862e-15, 1.61948986e-02,
          -1.49599940e-01, -6.19570762e-02, -1.52876228e-02,
          -3.56371291e-02, -3.56371291e-02, 8.85402862e-15,
          8.85402862e-15, 8.85402862e-15, 1.00201972e-01, 4.23222519e-02,
          1.80737644e-01, 1.12032786e-01, 1.10374555e-01, 1.10374555e-01,
          8.85402862e-15, 8.85402862e-15, 8.85402862e-15, 1.56302989e-01,
          1.36426724e-02, 2.12269753e-01, 2.07131952e-01, 1.34693831e-02,
          1.34693831e-02, 8.85402862e-15, 8.85402862e-15, 8.85402862e-15,
          -1.22444935e-01, -1.67648405e-01, -1.38888076e-01,
          -1.09250449e-01, 1.00178950e-01, 1.00178950e-01,
          8.85402862e-15, 8.85402862e-15, 8.85402862e-15, 1.01245411e-01,
          2.73677319e-01, 3.33009250e-02, -3.61004546e-02,
          2.21916810e-02, 2.21916810e-02, 8.85402862e-15, 8.85402862e-15,
          8.85402862e-15, -2.23219432e-02, -6.89016748e-03,
          6.09891443e-03, 5.10005392e-02, -2.30584498e-02,
          -2.30584498e-02, 8.85402862e-15, 8.85402862e-15,
          8.85402862e-15, 9.41826329e-02, 1.38479710e-01,
          -4.03953530e-02, -3.86190377e-02, 9.80716795e-02,
          9.80716795e-02, 8.85402862e-15, 8.85402862e-15, 8.85402862e-15,
          -7.21445680e-02, -3.88183534e-01, -1.48837548e-02,
          -3.57249454e-02, -3.42684798e-02, -3.42684798e-02,
          8.85402862e-15, 8.85402862e-15, 8.85402862e-15, 7.31171519e-02,
          4.53699641e-02, 6.41839281e-02, 1.23262383e-01,
          -1.15549468e-01, -1.15549468e-01, 8.85402862e-15,
          8.85402862e-15, 8.85402862e-15, -1.35874525e-01,
          1.63614616e-01, -4.96241003e-02, -8.96376520e-02,
          1.10270511e-02, 1.10270511e-02, 8.85402862e-15, 8.85402862e-15,
          8.85402862e-15, -1.40314668e-01, -3.02879252e-02,
          2.79466361e-02, 2.93196384e-02, 2.10229680e-02, 2.10229680e-02,
          8.85402862e-15, 8.85402862e-15, 8.85402862e-15, 2.00307652e-01,
          -1.72930539e-01, -2.06529605e-03, 1.20344371e-01,
          9.36475173e-02, 9.36475173e-02, 8.85402862e-15, 8.85402862e-15,
          8.85402862e-15, -1.60662711e-01, 6.41199797e-02,
          -1.71795636e-02, -7.50920922e-02, -1.88854933e-02,
          -1.88854933e-02, 8.85402862e-15, 8.85402862e-15,
          8.85402862e-15, 5.99504486e-02, 9.83792841e-02,
          -4.94210087e-02, -1.15291163e-01, -1.36504292e-01,
          -1.36504292e-01, 8.85402862e-15, 8.85402862e-15,
          8.85402862e-15, -2.55538933e-02, 2.84515709e-01,
          -5.72561026e-02, 7.71141872e-02, 1.83048457e-01,
          1.83048457e-01, 8.85402862e-15, 8.85402862e-15, 8.85402862e-15,
          -1.39677227e-01, 1.53656062e-02, -4.16005142e-02,
          -1.34964943e-01, -1.02595843e-01, -1.02595843e-01,
          8.85402862e-15, 8.85402862e-15, 8.85402862e-15, 8.08834210e-02,
          -1.25681728e-01, -3.31594273e-02, -4.10684422e-02,
          2.65730936e-02, 2.65730936e-02, 8.85402862e-15, 8.85402862e-15,
          8.85402862e-15, 4.36285920e-02, -7.54469559e-02,
          9.12968740e-02, 5.81998378e-02, -1.47744879e-01,
          -1.47744879e-01, 8.85402862e-15, 8.85402862e-15,
          8.85402862e-15 ]
   decision_functions:
      -
         sv_count: 1
         rho: 1.9111791742597548e+00
         alpha: [ 1. ]
         index: [ 0 ]
