<?xml version="1.0"?>
<opencv_storage>
<my_svm type_id="opencv-ml-svm">
  <svm_type>C_SVC</svm_type>
  <kernel><type>LINEAR</type></kernel>
  <C>2.6699999999999999e+00</C>
  <term_criteria><epsilon>1.1920928955078125e-07</epsilon>
    <iterations>1000</iterations></term_criteria>
  <var_all>3780</var_all>
  <var_count>3780</var_count>
  <class_count>2</class_count>
  <class_labels type_id="opencv-matrix">
    <rows>1</rows>
    <cols>2</cols>
    <dt>i</dt>
    <data>
      -1 1</data></class_labels>
  <sv_total>1</sv_total>
  <support_vectors>
    <_>
      -9.10991430e-02 -3.71848829e-02 -1.95806424e-04 -9.28432681e-03
      2.59666611e-02 2.59666611e-02 2.60208521e-15 2.60208521e-15
      2.60208521e-15 -1.22129535e-02 7.45380148e-02 6.18394576e-02
      2.25744192e-02 -2.62301248e-02 -2.62301248e-02 2.60208521e-15
      2.60208521e-15 2.60208521e-15 -3.38575356e-02 -5.55648468e-03
      1.78789496e-02 1.58398040e-02 -4.13612798e-02 -4.13612798e-02
      2.60208521e-15 2.60208521e-15 2.60208521e-15 1.40172780e-01
      -8.74297172e-02 1.97385382e-02 7.95562845e-03 1.15128066e-02
      1.15128066e-02 2.60208521e-15 2.60208521e-15 2.60208521e-15
      -8.42371434e-02 -1.06377207e-01 -2.72454554e-03 1.89008843e-02
      1.19118661e-01 1.19118661e-01 2.60208521e-15 2.60208521e-15
      2.60208521e-15 2.31882557e-02 7.15038553e-02 6.38741860e-03
      -4.66155782e-02 -2.25061234e-02 -2.25061234e-02 2.60208521e-15
      2.60208521e-15 2.60208521e-15 -1.17876604e-01 1.15956841e-02
      -5.89472167e-02 -2.40775496e-02 4.59814593e-02 4.59814593e-02
      2.60208521e-15 2.60208521e-15 2.60208521e-15 -1.12561062e-01
      -7.12163821e-02 2.28993893e-02 5.87657318e-02 2.30259122e-03
      2.30259122e-03 2.60208521e-15 2.60208521e-15 2.60208521e-15
      -3.75558026e-02 7.51993805e-03 9.68925282e-02 3.76888178e-02
      4.68894988e-02 4.68894988e-02 2.60208521e-15 2.60208521e-15
      2.60208521e-15 -1.43465558e-02 5.24926111e-02 -3.67425904e-02
      4.76719104e-02 4.96347174e-02 4.96347174e-02 2.60208521e-15
      2.60208521e-15 2.60208521e-15 -6.34626076e-02 1.08225597e-02
      6.43470325e-03 4.57165241e-02 4.10874337e-02 4.10874337e-02
      2.60208521e-15 2.60208521e-15 2.60208521e-15 -6.85806423e-02
      -9.26464647e-02 -5.43667115e-02 -4.01129983e-02 2.33271550e-02
      2.33271550e-02 2.60208521e-15 2.60208521e-15 2.60208521e-15
      2.25727074e-02 2.15958841e-02 2.74437927e-02 9.45432708e-02
      4.20755073e-02 4.20755073e-02 2.60208521e-15 2.60208521e-15
      2.60208521e-15 -1.14874266e-01 4.65618446e-02 7.24230288e-03
      6.35602623e-02 -6.16989881e-02 -6.16989881e-02 2.60208521e-15
      2.60208521e-15 2.60208521e-15 -2.61610504e-02 5.87365068e-02
      6.67102933e-02 -4.85453717e-02 4.74078655e-02 4.74078655e-02
      2.60208521e-15 2.60208521e-15 2.60208521e-15 -7.56728053e-02
      -3.72617245e-02 -7.80915990e-02 2.76166992e-03 2.79006921e-02
      2.79006921e-02 2.60208521e-15 2.60208521e-15 2.60208521e-15
      -2.13638134e-02 -5.55069372e-02 7.39573641e-03 2.87975557e-02
      -4.83582094e-02 -4.83582094e-02 2.60208521e-15 2.60208521e-15
      2.60208521e-15 2.83591747e-02 7.20422938e-02 2.65944060e-02
      1.38495909e-02 9.54654515e-02 9.54654515e-02 2.60208521e-15
      2.60208521e-15 2.60208521e-15 5.58133377e-03 1.56573161e-01
      -6.56061247e-02 -5.21523096e-02 8.79855901e-02 8.79855901e-02
      2.60208521e-15 2.60208521e-15 2.60208521e-15 -8.71051326e-02
      -1.25183547e-02 5.53557239e-02 3.32449377e-02 2.06263978e-02
      2.06263978e-02 2.60208521e-15 2.60208521e-15 2.60208521e-15
      -5.53704537e-02 -5.82423396e-02 1.78735163e-02 9.12755914e-03
      5.49649522e-02 5.49649522e-02 2.60208521e-15 2.60208521e-15
      2.60208521e-15 -8.66564438e-02 4.08512577e-02 9.40617989e-04
      -2.77384371e-02 -1.68129709e-02 -1.68129709e-02 2.60208521e-15
      2.60208521e-15 2.60208521e-15 -5.60132749e-02 1.02448896e-01
      -1.80978177e-03 2.40907036e-02 3.26535814e-02 3.26535814e-02
      2.60208521e-15 2.60208521e-15 2.60208521e-15 -1.57526098e-02
      5.13658226e-02 -1.11261997e-02 3.98262229e-04 7.65155554e-02
      7.65155554e-02 2.60208521e-15 2.60208521e-15 2.60208521e-15
      6.61343336e-02 3.71803306e-02 -1.26045868e-02 -6.91841263e-03
      -4.93404865e-02 -4.93404865e-02 2.60208521e-15 2.60208521e-15
      2.60208521e-15 -4.52640131e-02 -9.20062289e-02 1.48588391e-02
      3.75631601e-02 5.42403497e-02 5.42403497e-02 2.60208521e-15
      2.60208521e-15 2.60208521e-15 6.67587146e-02 -4.25837636e-02
      -4.57657650e-02 1.26556261e-02 7.08085718e-03 7.08085718e-03
      2.60208521e-15 2.60208521e-15 2.60208521e-15 -7.32319877e-02
      9.93976593e-02 -9.87697765e-02 -7.89763257e-02 5.77816181e-02
      5.77816181e-02 2.60208521e-15 2.60208521e-15 2.60208521e-15
      3.58706713e-02 6.97528943e-02 3.30392607e-02 6.24159500e-02
      -6.54004365e-02 -6.54004365e-02 2.60208521e-15 2.60208521e-15
      2.60208521e-15 -7.86295384e-02 4.45593223e-02 -2.81688739e-02
      1.80426147e-02 -5.73211573e-02 -5.73211573e-02 2.60208521e-15
      2.60208521e-15 2.60208521e-15 -6.57243505e-02 1.72565635e-02
      2.98623387e-02 1.67366471e-02 -7.47385547e-02 -7.47385547e-02
      2.60208521e-15 2.60208521e-15 2.60208521e-15 1.59122609e-03
      -2.65450645e-02 6.65672719e-02 4.83803786e-02 9.85324681e-02
      9.85324681e-02 2.60208521e-15 2.60208521e-15 2.60208521e-15
      -9.66759175e-02 8.57026428e-02 7.95806348e-02 9.62900817e-02
      -7.25274310e-02 -7.25274310e-02 2.60208521e-15 2.60208521e-15
      2.60208521e-15 -5.73122203e-02 -4.60079275e-02 -7.63834221e-03
      1.55699905e-02 -3.63432728e-02 -3.63432728e-02 2.60208521e-15
      2.60208521e-15 2.60208521e-15 -4.73478436e-02 7.55611062e-02
      -5.26032038e-02 -3.38028111e-02 3.72027867e-02 3.72027867e-02
      2.60208521e-15 2.60208521e-15 2.60208521e-15 3.96061055e-02
      6.14684336e-02 9.18427035e-02 7.93146789e-02 4.52542044e-02
      4.52542044e-02 2.60208521e-15 2.60208521e-15 2.60208521e-15
      -4.17408608e-02 1.36483014e-01 2.91865524e-02 3.06834802e-02
      5.44430837e-02 5.44430837e-02 2.60208521e-15 2.60208521e-15
      2.60208521e-15 9.15155164e-04 6.95975944e-02 3.04507371e-02
      3.90720256e-02 2.65163276e-03 2.65163276e-03 2.60208521e-15
      2.60208521e-15 2.60208521e-15 -1.05670741e-04 5.77612557e-02
      -7.49334991e-02 -9.76703241e-02 9.07946378e-03 9.07946378e-03
      2.60208521e-15 2.60208521e-15 2.60208521e-15 9.86881256e-02
      1.00637868e-01 7.39338771e-02 8.65523815e-02 -2.54253037e-02
      -2.54253037e-02 2.60208521e-15 2.60208521e-15 2.60208521e-15
      -3.82465757e-02 2.84316856e-03 -2.56697778e-02 -3.93474214e-02
      1.00965900e-02 1.00965900e-02 2.60208521e-15 2.60208521e-15
      2.60208521e-15 7.90119767e-02 5.34749730e-03 -2.70809177e-02
      3.13952118e-02 -3.08773909e-02 -3.08773909e-02 2.60208521e-15
      2.60208521e-15 2.60208521e-15 8.59897882e-02 7.83528388e-02
      -4.73240614e-02 -2.46813968e-02 7.29329437e-02 7.29329437e-02
      2.60208521e-15 2.60208521e-15 2.60208521e-15 -8.60063136e-02
      6.11655824e-02 -8.03303570e-02 2.47165710e-02 8.65156390e-03
      8.65156390e-03 2.60208521e-15 2.60208521e-15 2.60208521e-15
      2.36765593e-02 8.15821663e-02 1.74838796e-01 9.08706710e-02
      -4.09340002e-02 -4.09340002e-02 2.60208521e-15 2.60208521e-15
      2.60208521e-15 -1.21312225e-02 1.07043181e-02 8.45864341e-02
      3.66412010e-03 2.56654881e-02 2.56654881e-02 2.60208521e-15
      2.60208521e-15 2.60208521e-15 -5.20713702e-02 2.19130218e-02
      -3.10234330e-03 4.84954901e-02 6.51416229e-03 6.51416229e-03
      2.60208521e-15 2.60208521e-15 2.60208521e-15 -1.38339102e-02
      -8.80069435e-02 6.43135235e-02 -5.09173833e-02 8.75434093e-03
      8.75434093e-03 2.60208521e-15 2.60208521e-15 2.60208521e-15
      7.15875765e-03 -7.81785250e-02 -1.29720988e-02 1.01406861e-03
      -1.56476628e-02 -1.56476628e-02 2.60208521e-15 2.60208521e-15
      2.60208521e-15 -3.44297253e-02 -3.21536474e-02 4.54937853e-02
      4.50880192e-02 -5.36587611e-02 -5.36587611e-02 2.60208521e-15
      2.60208521e-15 2.60208521e-15 8.98058247e-03 -9.52307507e-03
      2.58024130e-02 4.46479395e-02 2.05662493e-02 2.05662493e-02
      2.60208521e-15 2.60208521e-15 2.60208521e-15 -7.75934085e-02
      -9.39826742e-02 -4.39826138e-02 -7.64084980e-02 -4.71436344e-02
      -4.71436344e-02 2.60208521e-15 2.60208521e-15 2.60208521e-15
      4.51366231e-02 4.42807302e-02 -6.42903382e-03 4.15534861e-02
      -6.78393096e-02 -6.78393096e-02 2.60208521e-15 2.60208521e-15
      2.60208521e-15 -1.21492513e-01 -5.67555949e-02 -1.84892248e-02
      -1.26334524e-03 -2.02658344e-02 -2.02658344e-02 2.60208521e-15
      2.60208521e-15 2.60208521e-15 5.48043102e-03 -4.04286347e-02
      3.14000848e-04 1.98481511e-02 2.25456413e-02 2.25456413e-02
      2.60208521e-15 2.60208521e-15 2.60208521e-15 -8.07084292e-02
      -7.94468671e-02 -4.60339002e-02 -2.41711549e-02 -6.08831644e-02
      -6.08831644e-02 2.60208521e-15 2.60208521e-15 2.60208521e-15
      -3.64899002e-02 1.03822686e-01 2.21199170e-03 -2.97551416e-02
      -3.47411484e-02 -3.47411484e-02 2.60208521e-15 2.60208521e-15
      2.60208521e-15 7.24848285e-02 -2.15315409e-02 -5.15621640e-02
      -8.93573537e-02 2.82277949e-02 2.82277949e-02 2.60208521e-15
      2.60208521e-15 2.60208521e-15 1.32835940e-01 2.72502527e-02
      5.13542406e-02 2.54820008e-02 9.30895433e-02 9.30895433e-02
      2.60208521e-15 2.60208521e-15 2.60208521e-15 6.57686517e-02
      3.65716666e-02 -1.17547467e-01 -2.19129678e-02 -1.42636131e-02
      -1.42636131e-02 2.60208521e-15 2.60208521e-15 2.60208521e-15
      -6.37644343e-03 1.97519567e-02 3.07310093e-02 -6.25619991e-03
      -8.67006630e-02 -8.67006630e-02 2.60208521e-15 2.60208521e-15
      2.60208521e-15 -1.29710406e-01 -7.05899820e-02 3.19815874e-02
      4.30285297e-02 -5.51756360e-02 -5.51756360e-02 2.60208521e-15
      2.60208521e-15 2.60208521e-15 -7.27906600e-02 1.77794084e-01
      2.07072608e-02 5.77575490e-02 -1.05788544e-01 -1.05788544e-01
      2.60208521e-15 2.60208521e-15 2.60208521e-15 3.20779495e-02
      5.49241118e-02 -5.24940789e-02 -6.36040792e-02 6.81885518e-03
      6.81885518e-03 2.60208521e-15 2.60208521e-15 2.60208521e-15
      -4.60813865e-02 7.98151866e-02 2.50332765e-02 2.66706999e-02
      -3.90952416e-02 -3.90952416e-02 2.60208521e-15 2.60208521e-15
      2.60208521e-15 5.33492155e-02 1.30709307e-02 7.96332583e-02
      8.87870863e-02 2.37203692e-03 2.37203692e-03 2.60208521e-15
      2.60208521e-15 2.60208521e-15 -8.34449828e-02 2.97946911e-02
      1.87161646e-03 9.70907789e-03 2.97951475e-02 2.97951475e-02
      2.60208521e-15 2.60208521e-15 2.60208521e-15 7.61771277e-02
      -6.81092665e-02 -5.36319986e-02 -7.22606778e-02 6.92802714e-03
      6.92802714e-03 2.60208521e-15 2.60208521e-15 2.60208521e-15
      -3.86760645e-02 7.47497529e-02 2.34881490e-02 1.44517850e-02
      4.67538610e-02 4.67538610e-02 2.60208521e-15 2.60208521e-15
      2.60208521e-15 -2.98835034e-03 7.32963011e-02 -4.73127738e-02
      2.27995147e-03 -4.36596051e-02 -4.36596051e-02 2.60208521e-15
      2.60208521e-15 2.60208521e-15 6.52594790e-02 -9.12052393e-03
      3.26259844e-02 -6.09667189e-02 5.05359769e-02 5.05359769e-02
      2.60208521e-15 2.60208521e-15 2.60208521e-15 -2.35950351e-02
      -1.38925523e-01 -8.80135410e-03 1.33250028e-01 -5.36303110e-02
      -5.36303110e-02 2.60208521e-15 2.60208521e-15 2.60208521e-15
      -5.74981384e-02 -1.40216947e-02 4.77013476e-02 4.83228602e-02
      9.52849165e-03 9.52849165e-03 2.60208521e-15 2.60208521e-15
      2.60208521e-15 3.79904658e-02 6.02398030e-02 6.93471078e-03
      -2.91254241e-02 -8.22774395e-02 -8.22774395e-02 2.60208521e-15
      2.60208521e-15 2.60208521e-15 1.43867172e-02 -7.45233297e-02
      1.17976414e-02 5.91968894e-02 -2.38703378e-02 -2.38703378e-02
      2.60208521e-15 2.60208521e-15 2.60208521e-15 5.12097450e-03
      9.65349004e-02 -6.64337277e-02 -7.83942938e-02 9.66192782e-02
      9.66192782e-02 2.60208521e-15 2.60208521e-15 2.60208521e-15
      1.47831673e-02 6.33503124e-02 2.65999231e-02 3.09277233e-02
      -5.31841815e-02 -5.31841815e-02 2.60208521e-15 2.60208521e-15
      2.60208521e-15 -6.00425452e-02 1.54078633e-01 -3.69339855e-03
      -1.60330087e-02 2.03796048e-02 2.03796048e-02 2.60208521e-15
      2.60208521e-15 2.60208521e-15 1.41448691e-01 2.32198853e-02
      2.42273752e-02 3.98158431e-02 -6.88556442e-03 -6.88556442e-03
      2.60208521e-15 2.60208521e-15 2.60208521e-15 -5.25625385e-02
      -4.52560410e-02 4.46174815e-02 3.70407999e-02 8.33169296e-02
      8.33169296e-02 2.60208521e-15 2.60208521e-15 2.60208521e-15
      8.03152565e-03 9.53148771e-03 4.96591888e-02 4.81129028e-02
      -6.49820939e-02 -6.49820939e-02 2.60208521e-15 2.60208521e-15
      2.60208521e-15 -3.98126580e-02 4.72103246e-03 -1.03856414e-03
      -3.77901308e-02 -5.57041019e-02 -5.57041019e-02 2.60208521e-15
      2.60208521e-15 2.60208521e-15 1.30691424e-01 1.16480738e-01
      -2.06962973e-02 1.77057236e-02 5.40934019e-02 5.40934019e-02
      2.60208521e-15 2.60208521e-15 2.60208521e-15 7.34423241e-03
      3.90467048e-02 5.65482564e-02 5.64440973e-02 4.11492889e-04
      4.11492889e-04 2.60208521e-15 2.60208521e-15 2.60208521e-15
      -1.78104844e-02 -4.71629687e-02 1.01927212e-02 -2.48868261e-02
      -2.86121760e-02 -2.86121760e-02 2.60208521e-15 2.60208521e-15
      2.60208521e-15 1.61081981e-02 4.47323732e-03 -8.51145089e-02
      -4.41429168e-02 -4.43720818e-02 -4.43720818e-02 2.60208521e-15
      2.60208521e-15 2.60208521e-15 2.84561664e-02 4.95258197e-02
      4.04223893e-03 -2.78514922e-02 2.05363110e-02 2.05363110e-02
      2.60208521e-15 2.60208521e-15 2.60208521e-15 5.31001426e-02
      5.19566201e-02 1.78618338e-02 4.38636243e-02 1.70536563e-02
      1.70536563e-02 2.60208521e-15 2.60208521e-15 2.60208521e-15
      -5.46422936e-02 8.33816454e-02 2.55789999e-02 5.40971532e-02
      -2.33655069e-02 -2.33655069e-02 2.60208521e-15 2.60208521e-15
      2.60208521e-15 5.36971763e-02 2.79363580e-02 5.98897552e-03
      -8.57846998e-03 -2.07075756e-02 -2.07075756e-02 2.60208521e-15
      2.60208521e-15 2.60208521e-15 1.02695242e-01 8.37752447e-02
      -5.89145012e-02 -4.52742353e-02 2.83987205e-02 2.83987205e-02
      2.60208521e-15 2.60208521e-15 2.60208521e-15 -9.37418789e-02
      1.34295553e-01 3.63712646e-02 8.78026523e-03 2.36825980e-02
      2.36825980e-02 2.60208521e-15 2.60208521e-15 2.60208521e-15
      -4.87635396e-02 7.87823871e-02 2.74931616e-03 1.77764129e-02
      -3.05591505e-02 -3.05591505e-02 2.60208521e-15 2.60208521e-15
      2.60208521e-15 6.24736585e-02 1.00973994e-03 5.13351671e-02
      1.31695503e-02 -4.23672982e-03 -4.23672982e-03 2.60208521e-15
      2.60208521e-15 2.60208521e-15 4.22683768e-02 2.40492195e-01
      7.94527121e-03 2.17750911e-02 1.53412474e-02 1.53412474e-02
      2.60208521e-15 2.60208521e-15 2.60208521e-15 -5.59784733e-02
      -1.40326753e-01 4.39474843e-02 5.32561988e-02 1.94546580e-02
      1.94546580e-02 2.60208521e-15 2.60208521e-15 2.60208521e-15
      -5.56791499e-02 -6.25170246e-02 6.20359033e-02 1.16573982e-02
      -8.74607451e-03 -8.74607451e-03 2.60208521e-15 2.60208521e-15
      2.60208521e-15 1.87519807e-02 -3.90382782e-02 -6.97663724e-02
      -7.63248466e-03 -1.01171009e-01 -1.01171009e-01 2.60208521e-15
      2.60208521e-15 2.60208521e-15 1.10469207e-01 8.85830224e-02
      -3.92399617e-02 -3.88186015e-02 3.19101475e-02 3.19101475e-02
      2.60208521e-15 2.60208521e-15 2.60208521e-15 -7.35420287e-02
      1.29722748e-02 5.60125522e-02 7.51966462e-02 7.80069530e-02
      7.80069530e-02 2.60208521e-15 2.60208521e-15 2.60208521e-15
      -2.59658620e-02 1.76489707e-02 -3.66077572e-02 -4.44968045e-02
      -5.18152118e-02 -5.18152118e-02 2.60208521e-15 2.60208521e-15
      2.60208521e-15 -7.12584471e-03 9.11139473e-02 2.11784616e-02
      5.81902564e-02 -2.13181789e-04 -2.13181789e-04 2.60208521e-15
      2.60208521e-15 2.60208521e-15 7.95604289e-02 -9.17096436e-03
      3.38874906e-02 7.83178397e-03 9.16306116e-03 9.16306116e-03
      2.60208521e-15 2.60208521e-15 2.60208521e-15 -4.64687310e-02
      3.20125520e-02 -1.84582043e-02 -2.15252098e-02 4.28653993e-02
      4.28653993e-02 2.60208521e-15 2.60208521e-15 2.60208521e-15
      -3.26487906e-02 1.32052153e-01 4.59856018e-02 6.72395527e-02
      9.50094685e-03 9.50094685e-03 2.60208521e-15 2.60208521e-15
      2.60208521e-15 4.16698940e-02 3.84957865e-02 4.36937325e-02
      2.18513492e-03 3.03120166e-03 3.03120166e-03 2.60208521e-15
      2.60208521e-15 2.60208521e-15 -5.35091273e-02 2.60945354e-02
      -1.98143143e-02 2.08212086e-03 7.07143173e-02 7.07143173e-02
      2.60208521e-15 2.60208521e-15 2.60208521e-15 4.44880649e-02
      1.12234861e-01 1.29307374e-01 1.27665505e-01 4.91746925e-02
      4.91746925e-02 2.60208521e-15 2.60208521e-15 2.60208521e-15
      2.45596115e-02 -1.19700264e-02 8.36824402e-02 -6.47785142e-02
      -4.98580337e-02 -4.98580337e-02 2.60208521e-15 2.60208521e-15
      2.60208521e-15 -9.50286016e-02 9.60810781e-02 2.24679057e-02
      1.89456586e-02 -2.00897306e-02 -2.00897306e-02 2.60208521e-15
      2.60208521e-15 2.60208521e-15 1.25780061e-01 -1.77731365e-02
      3.16234841e-03 1.33012190e-01 -9.44189448e-03 -9.44189448e-03
      2.60208521e-15 2.60208521e-15 2.60208521e-15 -1.38161443e-02
      2.74274331e-02 -5.32771684e-02 3.27729061e-02 -6.78149005e-03
      -6.78149005e-03 2.60208521e-15 2.60208521e-15 2.60208521e-15
      -5.27202245e-03 -1.32007554e-01 2.33305302e-02 -8.21423164e-05
      -1.40545079e-02 -1.40545079e-02 2.60208521e-15 2.60208521e-15
      2.60208521e-15 -1.64586480e-03 -6.85139596e-02 3.69501337e-02
      5.92981130e-02 -6.17893003e-02 -6.17893003e-02 2.60208521e-15
      2.60208521e-15 2.60208521e-15 -3.56544182e-02 4.84883189e-02
      1.03006102e-01 7.86065310e-02 -5.90512492e-02 -5.90512492e-02
      2.60208521e-15 2.60208521e-15 2.60208521e-15 7.57680535e-02
      2.12857313e-02 -3.47314067e-02 -9.26713087e-03 1.93117876e-02
      1.93117876e-02 2.60208521e-15 2.60208521e-15 2.60208521e-15
      -1.54889263e-02 3.23963761e-02 1.04939872e-02 1.22871175e-02
      -6.04984909e-02 -6.04984909e-02 2.60208521e-15 2.60208521e-15
      2.60208521e-15 -3.84115288e-03 3.69567499e-02 1.93006732e-02
      9.04184162e-06 -6.13059569e-03 -6.13059569e-03 2.60208521e-15
      2.60208521e-15 2.60208521e-15 1.51078776e-02 1.07845150e-01
      -7.58736581e-03 -2.14610816e-04 -2.31979182e-03 -2.31979182e-03
      2.60208521e-15 2.60208521e-15 2.60208521e-15 1.22304503e-02
      -3.84835489e-02 2.81302370e-02 3.82559150e-02 7.69571289e-02
      7.69571289e-02 2.60208521e-15 2.60208521e-15 2.60208521e-15
      -4.21674997e-02 -8.61567631e-03 1.93218254e-02 1.03567727e-02
      -7.72825480e-02 -7.72825480e-02 2.60208521e-15 2.60208521e-15
      2.60208521e-15 7.08359107e-02 -5.71452267e-02 1.39666736e-01
      1.02337338e-01 -2.07429547e-02 -2.07429547e-02 2.60208521e-15
      2.60208521e-15 2.60208521e-15 6.43048584e-02 1.28638431e-01
      -2.57641077e-02 -2.52426695e-02 3.25591341e-02 3.25591341e-02
      2.60208521e-15 2.60208521e-15 2.60208521e-15 -9.29732397e-02
      -2.08990648e-02 -9.38660875e-02 -4.80930507e-02 6.54663593e-02
      6.54663593e-02 2.60208521e-15 2.60208521e-15 2.60208521e-15
      9.71747711e-02 1.15898304e-01 1.85872149e-02 -5.76995779e-03
      -4.02084216e-02 -4.02084216e-02 2.60208521e-15 2.60208521e-15
      2.60208521e-15 5.80793209e-02 -1.10981308e-01 -5.61037920e-02
      -8.26908648e-02 -5.77234523e-03 -5.77234523e-03 2.60208521e-15
      2.60208521e-15 2.60208521e-15 1.57730281e-02 -6.51065558e-02
      4.71690670e-03 4.94679250e-02 6.61484823e-02 6.61484823e-02
      2.60208521e-15 2.60208521e-15 2.60208521e-15 -1.71027094e-01
      1.54622138e-01 3.27996723e-02 3.89929228e-02 -2.01677307e-02
      -2.01677307e-02 2.60208521e-15 2.60208521e-15 2.60208521e-15
      8.03601928e-03 2.05086902e-01 1.65926106e-02 -3.63203250e-02
      -7.93242536e-04 -7.93242536e-04 2.60208521e-15 2.60208521e-15
      2.60208521e-15 5.36309145e-02 -1.62968058e-02 2.31138878e-02
      7.30721802e-02 -1.91542991e-02 -1.91542991e-02 2.60208521e-15
      2.60208521e-15 2.60208521e-15 -6.99333176e-02 -5.33268861e-02
      -3.45348157e-02 -3.55963856e-02 1.09864073e-02 1.09864073e-02
      2.60208521e-15 2.60208521e-15 2.60208521e-15 8.26640148e-03
      -3.48565425e-03 3.21903788e-02 3.62065583e-02 8.96110665e-03
      8.96110665e-03 2.60208521e-15 2.60208521e-15 2.60208521e-15
      1.99803449e-02 -8.70684348e-03 -7.23503483e-03 7.17902032e-04
      -5.10804839e-02 -5.10804839e-02 2.60208521e-15 2.60208521e-15
      2.60208521e-15 -1.04851117e-02 6.09177127e-02 6.17060345e-03
      -1.11106655e-03 -3.36439610e-02 -3.36439610e-02 2.60208521e-15
      2.60208521e-15 2.60208521e-15 1.13525666e-01 9.90565494e-02
      6.48413971e-02 6.52586222e-02 6.32943511e-02 6.32943511e-02
      2.60208521e-15 2.60208521e-15 2.60208521e-15 -7.31639639e-02
      1.58440210e-02 -1.39201041e-02 -1.50085762e-02 7.12869465e-02
      7.12869465e-02 2.60208521e-15 2.60208521e-15 2.60208521e-15
      -1.19143333e-02 7.24146515e-02 -5.09156622e-02 -2.94380765e-02
      7.17774127e-03 7.17774127e-03 2.60208521e-15 2.60208521e-15
      2.60208521e-15 -5.11564221e-03 9.67634842e-03 5.31451702e-02
      2.85605285e-02 -1.23509198e-01 -1.23509198e-01 2.60208521e-15
      2.60208521e-15 2.60208521e-15 6.35459200e-02 -8.58253101e-04
      3.40252779e-02 5.70712686e-02 -1.01435604e-02 -1.01435604e-02
      2.60208521e-15 2.60208521e-15 2.60208521e-15 4.48359624e-02
      -3.20194550e-02 -2.04139706e-02 -4.03528921e-02 -8.15506373e-03
      -8.15506373e-03 2.60208521e-15 2.60208521e-15 2.60208521e-15
      -1.72664374e-02 3.00003700e-02 1.93763431e-02 2.09869202e-02
      -9.32591707e-02 -9.32591707e-02 2.60208521e-15 2.60208521e-15
      2.60208521e-15 7.07416970e-04 -3.61509877e-03 -3.83290797e-02
      -4.72367965e-02 -7.48786703e-02 -7.48786703e-02 2.60208521e-15
      2.60208521e-15 2.60208521e-15 4.43608277e-02 5.05416505e-02
      -6.35262057e-02 -1.11898944e-01 -5.48959896e-03 -5.48959896e-03
      2.60208521e-15 2.60208521e-15 2.60208521e-15 2.13522394e-03
      7.19386013e-03 -7.21321702e-02 -1.64623633e-02 -1.32205216e-02
      -1.32205216e-02 2.60208521e-15 2.60208521e-15 2.60208521e-15
      -1.41599432e-01 -5.53859584e-02 5.08736148e-02 6.36956990e-02
      -1.88607872e-02 -1.88607872e-02 2.60208521e-15 2.60208521e-15
      2.60208521e-15 -3.11991237e-02 5.50428918e-03 -3.70229110e-02
      -6.19506091e-02 4.67764866e-03 4.67764866e-03 2.60208521e-15
      2.60208521e-15 2.60208521e-15 9.13666338e-02 1.55841425e-01
      4.29852074e-03 3.34547013e-02 -2.23332029e-02 -2.23332029e-02
      2.60208521e-15 2.60208521e-15 2.60208521e-15 8.61814171e-02
      -3.51692289e-02 6.62915707e-02 4.92409691e-02 1.00861885e-01
      1.00861885e-01 2.60208521e-15 2.60208521e-15 2.60208521e-15
      -9.91245732e-02 -7.16344938e-02 -2.19353996e-02 -2.56639607e-02
      -3.42106484e-02 -3.42106484e-02 2.60208521e-15 2.60208521e-15
      2.60208521e-15 4.40527685e-02 -3.99264395e-02 -5.11339568e-02
      -1.93677507e-02 -1.02404933e-02 -1.02404933e-02 2.60208521e-15
      2.60208521e-15 2.60208521e-15 3.15112583e-02 1.93349831e-02
      3.65789719e-02 1.77904908e-02 3.88260148e-02 3.88260148e-02
      2.60208521e-15 2.60208521e-15 2.60208521e-15 2.35604867e-02
      1.36916444e-01 7.26484209e-02 6.33992180e-02 5.42881824e-02
      5.42881824e-02 2.60208521e-15 2.60208521e-15 2.60208521e-15
      -1.09993014e-02 2.54520997e-02 -1.12724202e-02 1.67259760e-02
      -7.07791597e-02 -7.07791597e-02 2.60208521e-15 2.60208521e-15
      2.60208521e-15 -8.67851675e-02 5.05585372e-02 -2.56333463e-02
      -1.17380274e-02 2.71698236e-02 2.71698236e-02 2.60208521e-15
      2.60208521e-15 2.60208521e-15 4.06578220e-02 3.17971110e-02
      2.28459165e-02 1.49710698e-03 9.91072692e-03 9.91072692e-03
      2.60208521e-15 2.60208521e-15 2.60208521e-15 5.71266711e-02
      -7.73307402e-03 6.69424608e-02 9.84016880e-02 3.36986668e-02
      3.36986668e-02 2.60208521e-15 2.60208521e-15 2.60208521e-15
      -1.01113454e-01 7.57801309e-02 1.33619178e-02 -4.06157225e-03
      -2.88591310e-02 -2.88591310e-02 2.60208521e-15 2.60208521e-15
      2.60208521e-15 -8.38165283e-02 1.24410056e-02 -3.59963551e-02
      -1.13255065e-02 8.01988319e-03 8.01988319e-03 2.60208521e-15
      2.60208521e-15 2.60208521e-15 1.48669675e-01 1.17438123e-01
      -2.93376110e-02 -1.24262217e-02 7.45906532e-02 7.45906532e-02
      2.60208521e-15 2.60208521e-15 2.60208521e-15 3.62603329e-02
      -4.80246352e-04 5.19720614e-02 2.78132707e-02 -5.37514128e-02
      -5.37514128e-02 2.60208521e-15 2.60208521e-15 2.60208521e-15
      3.43545666e-03 4.60547544e-02 -6.00948818e-02 -6.48188069e-02
      2.05888636e-02 2.05888636e-02 2.60208521e-15 2.60208521e-15
      2.60208521e-15 -1.50223687e-01 -1.02847815e-01 1.02282632e-02
      3.62671688e-02 -1.99516714e-02 -1.99516714e-02 2.60208521e-15
      2.60208521e-15 2.60208521e-15 3.70027497e-02 4.34685834e-02
      9.30812955e-03 -1.40230786e-02 -2.04906873e-02 -2.04906873e-02
      2.60208521e-15 2.60208521e-15 2.60208521e-15 1.09785452e-01
      1.30973265e-01 7.79205188e-02 7.99367428e-02 1.98534466e-02
      1.98534466e-02 2.60208521e-15 2.60208521e-15 2.60208521e-15
      4.65503260e-02 6.37637526e-02 -2.12285202e-02 4.19462286e-02
      -1.20248124e-02 -1.20248124e-02 2.60208521e-15 2.60208521e-15
      2.60208521e-15 -7.52411634e-02 -1.38667994e-03 6.79585934e-02
      4.86304238e-02 -2.06266181e-03 -2.06266181e-03 2.60208521e-15
      2.60208521e-15 2.60208521e-15 7.95584545e-02 4.37213592e-02
      5.24822474e-02 9.18155462e-02 -1.32127607e-03 -1.32127607e-03
      2.60208521e-15 2.60208521e-15 2.60208521e-15 4.04842384e-02
      1.40653834e-01 1.02148607e-01 9.27031264e-02 -9.18504521e-02
      -9.18504521e-02 2.60208521e-15 2.60208521e-15 2.60208521e-15
      -1.50481924e-01 -5.47697544e-02 6.72165072e-04 -1.49186822e-02
      -2.92194970e-02 -2.92194970e-02 2.60208521e-15 2.60208521e-15
      2.60208521e-15 4.63195667e-02 -7.13512525e-02 -5.15991561e-02
      -3.92753184e-02 -5.33809997e-02 -5.33809997e-02 2.60208521e-15
      2.60208521e-15 2.60208521e-15 5.66500537e-02 6.69836849e-02
      -2.42547989e-02 2.73191370e-02 -1.70189720e-02 -1.70189720e-02
      2.60208521e-15 2.60208521e-15 2.60208521e-15 6.04414158e-02
      1.42730311e-01 3.23347040e-02 6.80729449e-02 -2.64408570e-02
      -2.64408570e-02 2.60208521e-15 2.60208521e-15 2.60208521e-15
      -6.53115362e-02 3.32281478e-02 -3.30437459e-02 -3.29647120e-03
      -1.64169408e-02 -1.64169408e-02 2.60208521e-15 2.60208521e-15
      2.60208521e-15 8.07653144e-02 -1.50538450e-02 4.80871722e-02
      5.68799339e-02 -1.05791399e-02 -1.05791399e-02 2.60208521e-15
      2.60208521e-15 2.60208521e-15 2.53435057e-02 2.79065222e-02
      6.60732687e-02 8.56738240e-02 -1.80114601e-02 -1.80114601e-02
      2.60208521e-15 2.60208521e-15 2.60208521e-15 -3.60477902e-02
      1.20563367e-02 1.33641899e-01 7.55013451e-02 4.97571044e-02
      4.97571044e-02 2.60208521e-15 2.60208521e-15 2.60208521e-15
      -1.13083333e-01 5.12885265e-02 4.58722934e-02 5.86222298e-02
      1.02063711e-03 1.02063711e-03 2.60208521e-15 2.60208521e-15
      2.60208521e-15 -1.89205371e-02 -4.92011979e-02 -5.78064583e-02
      -5.65190986e-02 2.04887260e-02 2.04887260e-02 2.60208521e-15
      2.60208521e-15 2.60208521e-15 1.08226120e-01 5.63558331e-03
      1.36017695e-01 1.24802396e-01 -2.01952495e-02 -2.01952495e-02
      2.60208521e-15 2.60208521e-15 2.60208521e-15 2.37777922e-02
      2.87637059e-02 1.64691508e-02 1.36471316e-02 4.73489836e-02
      4.73489836e-02 2.60208521e-15 2.60208521e-15 2.60208521e-15
      -7.61503205e-02 -3.19527574e-02 4.89630960e-02 4.72988188e-02
      4.41515781e-02 4.41515781e-02 2.60208521e-15 2.60208521e-15
      2.60208521e-15 -3.12405694e-02 4.46552970e-02 2.56973915e-02
      5.16609810e-02 -2.83169709e-02 -2.83169709e-02 2.60208521e-15
      2.60208521e-15 2.60208521e-15 8.40668194e-03 -8.72595422e-03
      4.66123819e-02 7.56960809e-02 1.80472620e-02 1.80472620e-02
      2.60208521e-15 2.60208521e-15 2.60208521e-15 9.89842117e-02
      3.21813412e-02 8.18900466e-02 1.11762121e-01 4.11693715e-02
      4.11693715e-02 2.60208521e-15 2.60208521e-15 2.60208521e-15
      -6.67696297e-02 -2.03951374e-02 5.58821112e-02 7.72796124e-02
      1.22408299e-02 1.22408299e-02 2.60208521e-15 2.60208521e-15
      2.60208521e-15 5.37171848e-02 -3.63691486e-02 1.65337939e-02
      -1.32700289e-02 -1.83192696e-02 -1.83192696e-02 2.60208521e-15
      2.60208521e-15 2.60208521e-15 8.62806365e-02 8.55902880e-02
      1.20420912e-02 -5.91249019e-02 -3.87338549e-02 -3.87338549e-02
      2.60208521e-15 2.60208521e-15 2.60208521e-15 -7.32282177e-02
      7.86333904e-02 1.15601132e-02 -2.17452701e-02 4.48123105e-02
      4.48123105e-02 2.60208521e-15 2.60208521e-15 2.60208521e-15
      -2.97408784e-03 1.45457704e-02 -1.99391842e-02 9.35059506e-04
      8.81970078e-02 8.81970078e-02 2.60208521e-15 2.60208521e-15
      2.60208521e-15 -3.83995958e-02 1.47647172e-01 8.53744224e-02
      1.24811925e-01 -2.01078970e-02 -2.01078970e-02 2.60208521e-15
      2.60208521e-15 2.60208521e-15 8.40260386e-02 1.24700516e-01
      -3.54502201e-02 -2.97760610e-02 -6.96106330e-02 -6.96106330e-02
      2.60208521e-15 2.60208521e-15 2.60208521e-15 4.65926267e-02
      4.58342843e-02 9.47526395e-02 1.07683271e-01 -1.11357197e-01
      -1.11357197e-01 2.60208521e-15 2.60208521e-15 2.60208521e-15
      2.71650776e-03 2.29404029e-02 -1.17849514e-01 -7.67621398e-02
      -8.21495429e-02 -8.21495429e-02 2.60208521e-15 2.60208521e-15
      2.60208521e-15 -1.16490059e-01 -4.15069703e-03 -1.34984041e-02
      -4.11964469e-02 -4.04980108e-02 -4.04980108e-02 2.60208521e-15
      2.60208521e-15 2.60208521e-15 6.98638633e-02 -6.14478514e-02
      4.25489107e-03 -1.72679070e-02 -1.45708788e-02 -1.45708788e-02
      2.60208521e-15 2.60208521e-15 2.60208521e-15 8.54046494e-02
      1.03003174e-01 1.33534661e-02 2.14869287e-02 -5.72597496e-02
      -5.72597496e-02 2.60208521e-15 2.60208521e-15 2.60208521e-15
      -1.01602167e-01 -5.43187931e-02 6.79523945e-02 1.15548715e-01
      -6.20895773e-02 -6.20895773e-02 2.60208521e-15 2.60208521e-15
      2.60208521e-15 5.95120564e-02 -5.27464598e-02 -2.85668280e-02
      -6.23978791e-04 2.48295143e-02 2.48295143e-02 2.60208521e-15
      2.60208521e-15 2.60208521e-15 -1.28904935e-02 -7.55350962e-02
      2.21169256e-02 -1.90184508e-02 -8.55074823e-02 -8.55074823e-02
      2.60208521e-15 2.60208521e-15 2.60208521e-15 1.06229961e-01
      8.13531652e-02 9.66428220e-02 6.39304593e-02 -2.90189777e-02
      -2.90189777e-02 2.60208521e-15 2.60208521e-15 2.60208521e-15
      -1.39768392e-01 -2.73323562e-02 6.78573698e-02 7.11721554e-02
      2.52434555e-02 2.52434555e-02 2.60208521e-15 2.60208521e-15
      2.60208521e-15 6.79487139e-02 -4.28962186e-02 2.16417806e-03
      -2.29005646e-02 -1.22390585e-02 -1.22390585e-02 2.60208521e-15
      2.60208521e-15 2.60208521e-15 -4.16847318e-02 9.47206765e-02
      6.63703382e-02 6.00470081e-02 -8.77385773e-03 -8.77385773e-03
      2.60208521e-15 2.60208521e-15 2.60208521e-15 1.13504395e-01
      7.74269029e-02 7.18845502e-02 7.35264495e-02 4.44325320e-02
      4.44325320e-02 2.60208521e-15 2.60208521e-15 2.60208521e-15
      2.42013074e-02 4.63712625e-02 -3.91723514e-02 -9.38467383e-02
      -6.40109694e-03 -6.40109694e-03 2.60208521e-15 2.60208521e-15
      2.60208521e-15 -1.08533777e-01 1.09454848e-01 1.53929353e-01
      1.63701639e-01 1.40263736e-02 1.40263736e-02 2.60208521e-15
      2.60208521e-15 2.60208521e-15 4.37705293e-02 3.80806103e-02
      6.33278862e-02 9.05928761e-02 -2.25243978e-02 -2.25243978e-02
      2.60208521e-15 2.60208521e-15 2.60208521e-15 4.05619964e-02
      -3.47788003e-03 1.92904007e-02 3.69275473e-02 1.48991412e-02
      1.48991412e-02 2.60208521e-15 2.60208521e-15 2.60208521e-15
      -9.49154496e-02 1.06745720e-01 -9.29212011e-03 -8.56175367e-03
      -8.00294057e-03 -8.00294057e-03 2.60208521e-15 2.60208521e-15
      2.60208521e-15 -4.86676395e-02 6.35286048e-02 -1.66362505e-02
      2.87091583e-02 -3.17082219e-02 -3.17082219e-02 2.60208521e-15
      2.60208521e-15 2.60208521e-15 9.13093239e-02 -1.49910990e-02
      -3.57701853e-02 -6.92891926e-02 -4.18005325e-02 -4.18005325e-02
      2.60208521e-15 2.60208521e-15 2.60208521e-15 5.22737466e-02
      1.24989651e-01 9.08888131e-02 7.83320516e-02 8.15116987e-02
      8.15116987e-02 2.60208521e-15 2.60208521e-15 2.60208521e-15
      -2.62069553e-02 -2.67703086e-02 -4.45821993e-02 -4.00520936e-02
      -1.35527337e-02 -1.35527337e-02 2.60208521e-15 2.60208521e-15
      2.60208521e-15 -1.14119373e-01 7.54798576e-02 6.57140017e-02
      5.41429557e-02 -3.44630592e-02 -3.44630592e-02 2.60208521e-15
      2.60208521e-15 2.60208521e-15 6.35296479e-02 1.23137996e-01
      3.42955813e-02 2.14451794e-02 6.13044389e-02 6.13044389e-02
      2.60208521e-15 2.60208521e-15 2.60208521e-15 7.67966285e-02
      7.12351203e-02 3.02767493e-02 5.01680784e-02 -1.32887056e-02
      -1.32887056e-02 2.60208521e-15 2.60208521e-15 2.60208521e-15
      2.94183865e-02 -1.00705422e-01 -9.92335193e-03 -3.74994539e-02
      -4.94096801e-03 -4.94096801e-03 2.60208521e-15 2.60208521e-15
      2.60208521e-15 -1.74347274e-02 1.35407150e-01 -2.30457317e-02
      -3.15949172e-02 -5.63701764e-02 -5.63701764e-02 2.60208521e-15
      2.60208521e-15 2.60208521e-15 7.33474791e-02 -6.48308843e-02
      -1.31605351e-02 3.80508462e-03 4.56119925e-02 4.56119925e-02
      2.60208521e-15 2.60208521e-15 2.60208521e-15 -2.28500366e-02
      1.29972309e-01 3.77990268e-02 5.69587089e-02 1.75016299e-02
      1.75016299e-02 2.60208521e-15 2.60208521e-15 2.60208521e-15
      2.83908732e-02 1.73734445e-02 2.14838926e-02 4.81503867e-02
      -1.56783480e-02 -1.56783480e-02 2.60208521e-15 2.60208521e-15
      2.60208521e-15 -9.42097753e-02 -3.15702669e-02 5.31796925e-02
      -1.41214002e-02 -4.88265418e-03 -4.88265418e-03 2.60208521e-15
      2.60208521e-15 2.60208521e-15 1.21659204e-01 6.39926791e-02
      1.52705014e-01 9.56460163e-02 -9.26600117e-03 -9.26600117e-03
      2.60208521e-15 2.60208521e-15 2.60208521e-15 4.55066748e-02
      2.12089159e-02 -1.10765742e-02 -3.36877890e-02 -3.96937206e-02
      -3.96937206e-02 2.60208521e-15 2.60208521e-15 2.60208521e-15
      -7.18722939e-02 3.59121561e-02 4.17576022e-02 2.80547030e-02
      8.99518840e-03 8.99518840e-03 2.60208521e-15 2.60208521e-15
      2.60208521e-15 5.67396171e-02 -9.04795378e-02 -1.14426808e-02
      -3.01638804e-02 -7.54093081e-02 -7.54093081e-02 2.60208521e-15
      2.60208521e-15 2.60208521e-15 3.19223069e-02 1.58030763e-01
      -1.26895845e-01 -6.39535040e-02 6.06168136e-02 6.06168136e-02
      2.60208521e-15 2.60208521e-15 2.60208521e-15 3.44597176e-02
      3.20948809e-02 2.93738656e-02 -1.14436005e-03 -9.19255465e-02
      -9.19255465e-02 2.60208521e-15 2.60208521e-15 2.60208521e-15
      -1.37494862e-01 8.42999816e-02 5.88801280e-02 7.19828382e-02
      6.65509924e-02 6.65509924e-02 2.60208521e-15 2.60208521e-15
      2.60208521e-15 -3.52557306e-03 2.83379536e-02 -4.87081036e-02
      -2.15651933e-02 8.28605518e-03 8.28605518e-03 2.60208521e-15
      2.60208521e-15 2.60208521e-15 9.12625808e-03 1.84973404e-02
      1.76925696e-02 -5.35625080e-03 -3.88292782e-02 -3.88292782e-02
      2.60208521e-15 2.60208521e-15 2.60208521e-15 1.31894186e-01
      9.68401432e-02 1.52050871e-02 7.92690460e-03 1.26553187e-02
      1.26553187e-02 2.60208521e-15 2.60208521e-15 2.60208521e-15
      -1.69455130e-02 7.97163770e-02 4.35626172e-02 7.90494308e-02
      2.16186102e-02 2.16186102e-02 2.60208521e-15 2.60208521e-15
      2.60208521e-15 -1.08599305e-01 1.72172725e-01 -2.39404291e-02
      -5.48520125e-02 -2.76068645e-03 -2.76068645e-03 2.60208521e-15
      2.60208521e-15 2.60208521e-15 -9.70177993e-04 -2.88723484e-02
      8.22520182e-02 6.90967888e-02 -6.95564151e-02 -6.95564151e-02
      2.60208521e-15 2.60208521e-15 2.60208521e-15 1.26515016e-01
      3.98983359e-02 -7.21788257e-02 -5.36802188e-02 5.06985188e-02
      5.06985188e-02 2.60208521e-15 2.60208521e-15 2.60208521e-15
      -8.82357918e-03 7.18574747e-02 -1.68129764e-02 -4.02709618e-02
      4.70770560e-02 4.70770560e-02 2.60208521e-15 2.60208521e-15
      2.60208521e-15 -1.28845811e-01 -1.94761455e-02 5.44626340e-02
      7.15286061e-02 8.97481758e-03 8.97481758e-03 2.60208521e-15
      2.60208521e-15 2.60208521e-15 1.52076602e-01 -1.56028243e-02
      2.17705015e-02 1.39876725e-02 -3.52794789e-02 -3.52794789e-02
      2.60208521e-15 2.60208521e-15 2.60208521e-15 -1.44072492e-02
      8.56803730e-02 1.57167204e-02 2.98915468e-02 -2.07724031e-02
      -2.07724031e-02 2.60208521e-15 2.60208521e-15 2.60208521e-15
      -5.98343424e-02 2.08720729e-01 9.60609410e-03 7.66709149e-02
      2.81272586e-02 2.81272586e-02 2.60208521e-15 2.60208521e-15
      2.60208521e-15 -3.84123586e-02 1.69451069e-02 -3.51230800e-02
      4.22312692e-02 -1.11198565e-03 -1.11198565e-03 2.60208521e-15
      2.60208521e-15 2.60208521e-15 2.27308162e-02 -7.71667622e-03
      -2.52678953e-02 -1.66778814e-03 8.74514952e-02 8.74514952e-02
      2.60208521e-15 2.60208521e-15 2.60208521e-15 7.55159035e-02
      1.92555096e-02 1.29963771e-01 1.58264101e-01 -5.35168797e-02
      -5.35168797e-02 2.60208521e-15 2.60208521e-15 2.60208521e-15
      -6.27553016e-02 -7.32670650e-02 2.92570461e-02 7.36352801e-02
      -8.59654397e-02 -8.59654397e-02 2.60208521e-15 2.60208521e-15
      2.60208521e-15 -1.26196316e-03 5.49993962e-02 6.36161342e-02
      7.79157355e-02 7.93117806e-02 7.93117806e-02 2.60208521e-15
      2.60208521e-15 2.60208521e-15 1.32528320e-01 4.27534916e-02
      4.40952182e-02 1.66328847e-02 6.93988502e-02 6.93988502e-02
      2.60208521e-15 2.60208521e-15 2.60208521e-15 -6.85110763e-02
      1.28762666e-02 -1.98341999e-02 -5.10496795e-02 -2.53831651e-02
      -2.53831651e-02 2.60208521e-15 2.60208521e-15 2.60208521e-15
      -5.60814254e-02 -2.20316485e-01 -5.96989356e-02 -3.92325148e-02
      -4.17352794e-03 -4.17352794e-03 2.60208521e-15 2.60208521e-15
      2.60208521e-15 1.09395161e-01 7.97347799e-02 6.72033206e-02
      6.98294565e-02 -1.54503100e-02 -1.54503100e-02 2.60208521e-15
      2.60208521e-15 2.60208521e-15 6.93500564e-02 1.14561938e-01
      4.83132415e-02 1.21925510e-02 -6.49274439e-02 -6.49274439e-02
      2.60208521e-15 2.60208521e-15 2.60208521e-15 -8.11688602e-02
      1.12410091e-01 8.83280709e-02 6.72508627e-02 -4.48213592e-02
      -4.48213592e-02 2.60208521e-15 2.60208521e-15 2.60208521e-15
      -1.10561304e-01 6.12568893e-02 8.70355368e-02 1.28757298e-01
      -1.87166389e-02 -1.87166389e-02 2.60208521e-15 2.60208521e-15
      2.60208521e-15 3.72477248e-02 9.28417966e-03 -6.43493682e-02
      -8.87650996e-02 -2.47268993e-02 -2.47268993e-02 2.60208521e-15
      2.60208521e-15 2.60208521e-15 2.98129637e-02 1.45029977e-01
      2.27573458e-02 -4.06471640e-03 -3.70896384e-02 -3.70896384e-02
      2.60208521e-15 2.60208521e-15 2.60208521e-15 8.65702853e-02
      9.54721123e-02 -7.78962579e-03 1.72653107e-03 -4.80720885e-02
      -4.80720885e-02 2.60208521e-15 2.60208521e-15 2.60208521e-15
      -3.79772745e-02 -8.03197362e-03 8.03101361e-02 9.37168747e-02
      4.88432944e-02 4.88432944e-02 2.60208521e-15 2.60208521e-15
      2.60208521e-15 1.50373131e-02 3.24590355e-02 2.98754238e-02
      2.53548678e-02 6.53943121e-02 6.53943121e-02 2.60208521e-15
      2.60208521e-15 2.60208521e-15 -8.50791112e-02 -3.92276533e-02
      6.82493150e-02 6.36000112e-02 -3.54538485e-02 -3.54538485e-02
      2.60208521e-15 2.60208521e-15 2.60208521e-15 1.51088774e-01
      1.23721205e-01 4.63650860e-02 4.21282239e-02 -3.57140414e-02
      -3.57140414e-02 2.60208521e-15 2.60208521e-15 2.60208521e-15
      -4.87945564e-02 5.74006960e-02 -9.96248983e-03 -6.78007607e-04
      -4.27069627e-02 -4.27069627e-02 2.60208521e-15 2.60208521e-15
      2.60208521e-15 -4.23950329e-02 -2.01724488e-02 -4.02264409e-02
      4.72060218e-03 6.53733090e-02 6.53733090e-02 2.60208521e-15
      2.60208521e-15 2.60208521e-15 5.94917834e-02 1.95215940e-01
      9.37945992e-02 9.52772722e-02 -5.42334691e-02 -5.42334691e-02
      2.60208521e-15 2.60208521e-15 2.60208521e-15 3.16978171e-02
      -2.53266580e-02 2.65259389e-02 -2.91882548e-02 3.15671489e-02
      3.15671489e-02 2.60208521e-15 2.60208521e-15 2.60208521e-15
      -3.39952931e-02 1.82721660e-01 3.69808227e-02 -1.66362349e-03
      2.95732878e-02 2.95732878e-02 2.60208521e-15 2.60208521e-15
      2.60208521e-15 -9.91320387e-02 -8.74103233e-02 -1.30219769e-03
      5.06934747e-02 -5.05137548e-04 -5.05137548e-04 2.60208521e-15
      2.60208521e-15 2.60208521e-15 9.15098637e-02 1.47134149e-02
      1.52789921e-01 1.23915233e-01 4.51233611e-03 4.51233611e-03
      2.60208521e-15 2.60208521e-15 2.60208521e-15 4.16174866e-02
      8.44099522e-02 2.37225350e-02 3.92460115e-02 -3.35804671e-02
      -3.35804671e-02 2.60208521e-15 2.60208521e-15 2.60208521e-15
      7.77920932e-02 1.54162705e-01 2.32674400e-04 1.18525559e-02
      4.86122407e-02 4.86122407e-02 2.60208521e-15 2.60208521e-15
      2.60208521e-15 -1.49016365e-01 3.50541398e-02 -1.62351541e-02
      -5.36881536e-02 -1.75686032e-02 -1.75686032e-02 2.60208521e-15
      2.60208521e-15 2.60208521e-15 8.03518146e-02 -4.62861620e-02
      4.33696583e-02 7.39988238e-02 1.61401518e-02 1.61401518e-02
      2.60208521e-15 2.60208521e-15 2.60208521e-15 -9.12756566e-03
      1.78383261e-01 3.14859697e-03 1.13666572e-01 -4.71837819e-02
      -4.71837819e-02 2.60208521e-15 2.60208521e-15 2.60208521e-15
      3.45845404e-03 2.27866396e-02 7.77088851e-02 4.93974984e-02
      2.48640198e-02 2.48640198e-02 2.60208521e-15 2.60208521e-15
      2.60208521e-15 -9.82683375e-02 4.53082174e-02 -1.60304494e-02
      -3.33725289e-02 -1.44929811e-02 -1.44929811e-02 2.60208521e-15
      2.60208521e-15 2.60208521e-15 4.09023948e-02 -8.84756073e-02
      -1.12994939e-01 -3.45779695e-02 -7.12581153e-04 -7.12581153e-04
      2.60208521e-15 2.60208521e-15 2.60208521e-15 5.39074801e-02
      2.12402046e-02 9.83124301e-02 6.55488819e-02 -9.65851266e-03
      -9.65851266e-03 2.60208521e-15 2.60208521e-15 2.60208521e-15
      3.90124768e-02 -7.50030652e-02 9.94319282e-03 -3.06615550e-02
      -7.52811432e-02 -7.52811432e-02 2.60208521e-15 2.60208521e-15
      2.60208521e-15 -9.30552408e-02 5.03705144e-02 -4.39259075e-02
      -6.49981350e-02 1.42101441e-02 1.42101441e-02 2.60208521e-15
      2.60208521e-15 2.60208521e-15 3.66639942e-02 -4.37752418e-02
      -7.80537585e-03 8.47478211e-03 4.80080768e-02 4.80080768e-02
      2.60208521e-15 2.60208521e-15 2.60208521e-15 5.88737354e-02
      5.57080358e-02 2.86661685e-02 7.40629584e-02 2.36266982e-02
      2.36266982e-02 2.60208521e-15 2.60208521e-15 2.60208521e-15
      -1.78305842e-02 9.24213529e-02 1.59501210e-02 -3.50820459e-02
      -1.45857651e-02 -1.45857651e-02 2.60208521e-15 2.60208521e-15
      2.60208521e-15 2.82575842e-02 2.63676010e-02 1.87261347e-02
      2.42583398e-02 7.82122836e-02 7.82122836e-02 2.60208521e-15
      2.60208521e-15 2.60208521e-15 8.86811465e-02 3.48981544e-02
      -2.11552288e-02 -2.07018759e-02 -1.13333620e-01 -1.13333620e-01
      2.60208521e-15 2.60208521e-15 2.60208521e-15 1.06784387e-03
      4.85728582e-04 7.19448775e-02 4.63575348e-02 -5.31528071e-02
      -5.31528071e-02 2.60208521e-15 2.60208521e-15 2.60208521e-15
      -5.68186082e-02 3.45420688e-02 3.17530781e-02 1.53242135e-02
      -3.19574997e-02 -3.19574997e-02 2.60208521e-15 2.60208521e-15
      2.60208521e-15 4.24457677e-02 -1.07611716e-03 -7.54084960e-02
      -3.23590785e-02 3.59547809e-02 3.59547809e-02 2.60208521e-15
      2.60208521e-15 2.60208521e-15 -8.95129964e-02 6.14833720e-02
      7.36124590e-02 -9.63701494e-03 5.79788052e-02 5.79788052e-02
      2.60208521e-15 2.60208521e-15 2.60208521e-15 1.03885807e-01
      -5.18796407e-02 2.64031105e-02 -6.58122357e-03 -1.89063661e-02
      -1.89063661e-02 2.60208521e-15 2.60208521e-15 2.60208521e-15
      -1.24910496e-01 -1.17510475e-01 -2.27054767e-03 4.74190293e-03
      -1.16544716e-01 -1.16544716e-01 2.60208521e-15 2.60208521e-15
      2.60208521e-15 1.09182060e-01 6.23847544e-02 -7.86464438e-02
      -1.09883852e-01 1.10958315e-01 1.10958315e-01 2.60208521e-15
      2.60208521e-15 2.60208521e-15 -1.20633759e-01 9.65506434e-02
      6.97259754e-02 8.14387053e-02 -4.79320288e-02 -4.79320288e-02
      2.60208521e-15 2.60208521e-15 2.60208521e-15 1.36362195e-01
      3.27644013e-02 1.32786304e-01 1.45298600e-01 5.35184182e-02
      5.35184182e-02 2.60208521e-15 2.60208521e-15 2.60208521e-15
      -5.10337688e-02 -6.69696704e-02 5.27722575e-02 3.41080986e-02
      7.65703479e-03 7.65703479e-03 2.60208521e-15 2.60208521e-15
      2.60208521e-15 -1.01949036e-01 1.14394575e-01 1.74132623e-02
      2.43665073e-02 2.98564229e-02 2.98564229e-02 2.60208521e-15
      2.60208521e-15 2.60208521e-15 6.70260265e-02 7.64855742e-02
      1.02797538e-01 1.12251587e-01 -2.66725235e-02 -2.66725235e-02
      2.60208521e-15 2.60208521e-15 2.60208521e-15 8.59568045e-02
      -1.23910449e-01 1.12095334e-01 1.14352256e-01 -1.08408788e-02
      -1.08408788e-02 2.60208521e-15 2.60208521e-15 2.60208521e-15
      3.13127823e-02 -1.04058102e-01 3.96926627e-02 4.36245799e-02
      2.69327294e-02 2.69327294e-02 2.60208521e-15 2.60208521e-15
      2.60208521e-15 -1.12414926e-01 -1.18431989e-02 -8.61207247e-02
      -5.59492186e-02 -3.36974836e-03 -3.36974836e-03 2.60208521e-15
      2.60208521e-15 2.60208521e-15 1.82459831e-01 6.84667081e-02
      1.71105824e-02 -3.03265154e-02 2.28266604e-02 2.28266604e-02
      2.60208521e-15 2.60208521e-15 2.60208521e-15 -1.01357669e-01
      4.74345908e-02 2.93175261e-02 4.26511876e-02 -4.63896766e-02
      -4.63896766e-02 2.60208521e-15 2.60208521e-15 2.60208521e-15
      -4.89681102e-02 -3.23104039e-02 -1.96697731e-02 -1.82512985e-03
      -3.76178976e-03 -3.76178976e-03 2.60208521e-15 2.60208521e-15
      2.60208521e-15 -2.68429872e-02 2.17922106e-02 -1.71384085e-02
      -3.34022082e-02 2.57296674e-02 2.57296674e-02 2.60208521e-15
      2.60208521e-15 2.60208521e-15 1.23760253e-01 5.50704673e-02
      3.57684586e-03 -5.06601436e-03 -2.20357385e-02 -2.20357385e-02
      2.60208521e-15 2.60208521e-15 2.60208521e-15 -4.79491502e-02
      1.04402833e-01 1.11135021e-01 1.18197128e-01 6.78566794e-05
      6.78566794e-05 2.60208521e-15 2.60208521e-15 2.60208521e-15
      1.59915879e-01 -8.44463985e-03 6.67083263e-03 -2.24481374e-02
      5.18013798e-02 5.18013798e-02 2.60208521e-15 2.60208521e-15
      2.60208521e-15 -4.45535034e-02 1.14677884e-01 -9.02621225e-02
      -7.70760253e-02 -3.57454605e-02 -3.57454605e-02 2.60208521e-15
      2.60208521e-15 2.60208521e-15 4.09711860e-02 -3.17816027e-02
      -5.25304824e-02 -5.84736839e-02 -1.30165413e-01 -1.30165413e-01
      2.60208521e-15 2.60208521e-15 2.60208521e-15 -4.03991202e-03
      1.27824455e-01 -8.23384449e-02 -6.04624189e-02 -5.92359006e-02
      -5.92359006e-02 2.60208521e-15 2.60208521e-15 2.60208521e-15
      -2.27403622e-02 1.77360736e-02 5.52709177e-02 6.92744032e-02
      -5.50800934e-02 -5.50800934e-02 2.60208521e-15 2.60208521e-15
      2.60208521e-15 9.70719904e-02 6.21371679e-02 -3.72490399e-02
      4.53659892e-02 4.64842245e-02 4.64842245e-02 2.60208521e-15
      2.60208521e-15 2.60208521e-15 9.53071285e-03 1.12116694e-01
      2.60786582e-02 7.93179721e-02 -6.64366260e-02 -6.64366260e-02
      2.60208521e-15 2.60208521e-15 2.60208521e-15 2.40721256e-02
      -5.91500103e-02 -1.21568628e-01 6.99334443e-02 -8.49336311e-02
      -8.49336311e-02 2.60208521e-15 2.60208521e-15 2.60208521e-15
      -3.84971462e-02 5.15430272e-02 1.26136178e-02 -6.77267015e-02
      1.17458811e-03 1.17458811e-03 2.60208521e-15 2.60208521e-15
      2.60208521e-15 -4.38741082e-03 -7.08581880e-02 2.16639414e-02
      -6.08466938e-02 2.93400995e-02 2.93400995e-02 2.60208521e-15
      2.60208521e-15 2.60208521e-15 -4.25210688e-03 1.09162159e-01
      1.24636432e-02 6.45148680e-02 -3.09296567e-02 -3.09296567e-02
      2.60208521e-15 2.60208521e-15 2.60208521e-15 4.71366607e-02
      -1.49911521e-02 1.81235541e-02 1.82030946e-02 4.14962298e-04
      4.14962298e-04 2.60208521e-15 2.60208521e-15 2.60208521e-15
      -1.20235436e-01 1.37076780e-01 -2.64413692e-02 -1.69178694e-02
      5.38689569e-02 5.38689569e-02 2.60208521e-15 2.60208521e-15
      2.60208521e-15 1.49473280e-01 -2.95220036e-02 1.76003445e-02
      -2.02390980e-02 4.22993824e-02 4.22993824e-02 2.60208521e-15
      2.60208521e-15 2.60208521e-15 -5.38735762e-02 -3.76022495e-02
      3.09336856e-02 8.89466777e-02 -6.82862997e-02 -6.82862997e-02
      2.60208521e-15 2.60208521e-15 2.60208521e-15 2.46357229e-02
      -5.08781709e-03 4.27721068e-02 1.30750509e-02 -2.78820489e-02
      -2.78820489e-02 2.60208521e-15 2.60208521e-15 2.60208521e-15
      3.29665057e-02 1.10945240e-01 -4.95757423e-02 -6.86027408e-02
      3.08777187e-02 3.08777187e-02 2.60208521e-15 2.60208521e-15
      2.60208521e-15 -4.86744521e-03 -9.76774320e-02 5.91327362e-02
      3.18072252e-02 2.77877096e-02 2.77877096e-02 2.60208521e-15
      2.60208521e-15 2.60208521e-15 -4.58842255e-02 5.62361218e-02
      8.45474750e-02 1.32139474e-01 -7.15261996e-02 -7.15261996e-02
      2.60208521e-15 2.60208521e-15 2.60208521e-15 1.77851412e-02
      -3.01454831e-02 4.12362441e-02 3.99967134e-02 1.28606968e-02
      1.28606968e-02 2.60208521e-15 2.60208521e-15 2.60208521e-15
      5.35636349e-03 -1.57787845e-01 2.89730616e-02 -7.58747943e-03
      9.72811803e-02 9.72811803e-02 2.60208521e-15 2.60208521e-15
      2.60208521e-15 -3.77828330e-02 -8.36714357e-02 -5.14251413e-03
      2.54704226e-02 2.73111053e-02 2.73111053e-02 2.60208521e-15
      2.60208521e-15 2.60208521e-15 1.19372688e-01 4.61153686e-03
      4.47190963e-02 5.99770993e-02 -9.47788507e-02 -9.47788507e-02
      2.60208521e-15 2.60208521e-15 2.60208521e-15 -8.69462043e-02
      2.36847639e-01 5.30456826e-02 4.37352732e-02 -2.98134871e-02
      -2.98134871e-02 2.60208521e-15 2.60208521e-15 2.60208521e-15
      5.14735579e-02 -8.93325210e-02 -8.47849920e-02 -4.54418696e-02
      3.32795978e-02 3.32795978e-02 2.60208521e-15 2.60208521e-15
      2.60208521e-15 -1.25522897e-01 1.31865785e-01 -4.23946679e-02
      -2.76880078e-02 2.52990294e-02 2.52990294e-02 2.60208521e-15
      2.60208521e-15 2.60208521e-15 4.08803150e-02 -3.43675092e-02
      6.83161020e-02 5.23688979e-02 -2.92305998e-03 -2.92305998e-03
      2.60208521e-15 2.60208521e-15 2.60208521e-15 3.31690945e-02
      8.73507336e-02 5.88635467e-02 2.07609441e-02 -5.56555577e-02
      -5.56555577e-02 2.60208521e-15 2.60208521e-15 2.60208521e-15
      3.31781171e-02 4.34024213e-03 1.31603901e-03 2.86213355e-04
      6.49412945e-02 6.49412945e-02 2.60208521e-15 2.60208521e-15
      2.60208521e-15 -3.23449485e-02 9.52152908e-02 4.11173515e-02
      7.69619718e-02 6.62958482e-03 6.62958482e-03 2.60208521e-15
      2.60208521e-15 2.60208521e-15 9.83228534e-02 8.27407315e-02
      -2.29864419e-02 -7.77515173e-02 -2.14291632e-01 -2.14291632e-01
      2.60208521e-15 2.60208521e-15 2.60208521e-15 1.16427122e-02
      6.32165819e-02 5.64839318e-02 7.64342621e-02 -5.52323721e-02
      -5.52323721e-02 2.60208521e-15 2.60208521e-15 2.60208521e-15
      1.74425188e-02 2.19936613e-02 7.31656253e-02 8.34451914e-02
      -4.94291447e-02 -4.94291447e-02 2.60208521e-15 2.60208521e-15
      2.60208521e-15 4.47852239e-02 -3.95966470e-02 -1.15999542e-02
      -1.74961507e-03 8.71728640e-03 8.71728640e-03 2.60208521e-15
      2.60208521e-15 2.60208521e-15 7.76045099e-02 -6.18910533e-04
      3.07426378e-02 9.54608340e-03 -7.18642846e-02 -7.18642846e-02
      2.60208521e-15 2.60208521e-15 2.60208521e-15 -6.84599653e-02
      1.62002385e-01 -2.11295504e-02 -2.00629421e-02 -1.90874133e-02
      -1.90874133e-02 2.60208521e-15 2.60208521e-15 2.60208521e-15
      -1.73516534e-02 1.26720201e-02 5.01563512e-02 1.00551821e-01
      1.29382946e-02 1.29382946e-02 2.60208521e-15 2.60208521e-15
      2.60208521e-15 3.52920219e-02 -3.30406465e-02 -8.96565616e-02
      -6.78077191e-02 3.81146185e-02 3.81146185e-02 2.60208521e-15
      2.60208521e-15 2.60208521e-15 -1.47087932e-01 1.45100400e-01
      7.11941496e-02 -2.27305689e-03 -6.49608821e-02 -6.49608821e-02
      2.60208521e-15 2.60208521e-15 2.60208521e-15 1.29147545e-01
      6.76633716e-02 7.66442996e-03 5.69417886e-02 1.39079969e-02
      1.39079969e-02 2.60208521e-15 2.60208521e-15 2.60208521e-15
      -5.39859682e-02 7.86697567e-02 -4.50255014e-02 -1.72680281e-02
      2.90538475e-04 2.90538475e-04 2.60208521e-15 2.60208521e-15
      2.60208521e-15 6.87281117e-02 -1.23418845e-01 7.86525756e-02
      -1.50079699e-02 4.94937301e-02 4.94937301e-02 2.60208521e-15
      2.60208521e-15 2.60208521e-15 -5.88882603e-02 7.66093805e-02
      -3.65066566e-02 3.12834419e-02 -8.42472166e-02 -8.42472166e-02
      2.60208521e-15 2.60208521e-15 2.60208521e-15 4.41461205e-02
      4.71495725e-02 2.87959212e-03 4.90470156e-02 3.44629399e-02
      3.44629399e-02 2.60208521e-15 2.60208521e-15 2.60208521e-15
      -3.91612761e-02 3.96452062e-02 -2.80566346e-02 -5.50992973e-02
      7.00210556e-02 7.00210556e-02 2.60208521e-15 2.60208521e-15
      2.60208521e-15 7.77394548e-02 -6.43552840e-02 1.05320387e-01
      4.83520888e-02 7.60572031e-02 7.60572031e-02 2.60208521e-15
      2.60208521e-15 2.60208521e-15 1.03960074e-02 1.95185170e-01
      1.79562457e-02 4.21004221e-02 -5.04108928e-02 -5.04108928e-02
      2.60208521e-15 2.60208521e-15 2.60208521e-15 -9.19804908e-04
      1.07956730e-01 1.20571032e-02 7.19239116e-02 -4.76129837e-02
      -4.76129837e-02 2.60208521e-15 2.60208521e-15 2.60208521e-15
      7.11017027e-02 -1.24725106e-03 2.37061903e-02 -2.01585498e-02
      3.31802224e-03 3.31802224e-03 2.60208521e-15 2.60208521e-15
      2.60208521e-15 1.93378162e-02 9.94758308e-02 8.92993808e-02
      9.54767093e-02 1.08239911e-01 1.08239911e-01 2.60208521e-15
      2.60208521e-15 2.60208521e-15 1.77402068e-02 9.77088884e-02
      -2.16912385e-02 2.22303625e-02 -9.19262134e-03 -9.19262134e-03
      2.60208521e-15 2.60208521e-15 2.60208521e-15 -6.01253398e-02
      1.49790317e-01 3.23894024e-02 2.61552297e-02 -5.43109328e-02
      -5.43109328e-02 2.60208521e-15 2.60208521e-15 2.60208521e-15
      3.63503173e-02 -4.39222157e-02 -4.64447662e-02 -1.91170275e-02
      7.59560466e-02 7.59560466e-02 2.60208521e-15 2.60208521e-15
      2.60208521e-15 -4.27688584e-02 4.15603258e-02 -2.09885594e-02
      -1.03889816e-01 6.88516572e-02 6.88516572e-02 2.60208521e-15
      2.60208521e-15 2.60208521e-15 1.08640254e-01 4.98141013e-02
      -3.81460264e-02 1.61472186e-02 -3.88853648e-03 -3.88853648e-03
      2.60208521e-15 2.60208521e-15 2.60208521e-15 -6.70525059e-03
      4.80642803e-02 1.62422404e-01 1.63702667e-01 -4.54026721e-02
      -4.54026721e-02 2.60208521e-15 2.60208521e-15 2.60208521e-15
      3.98560837e-02 -1.85923744e-02 7.42386356e-02 3.12430672e-02
      3.50945815e-02 3.50945815e-02 2.60208521e-15 2.60208521e-15
      2.60208521e-15 7.85663649e-02 1.91635311e-01 -2.82367766e-02
      -2.93145776e-02 5.13417386e-02 5.13417386e-02 2.60208521e-15
      2.60208521e-15 2.60208521e-15 5.97302094e-02 3.99068184e-02
      -2.72199269e-02 3.13477479e-02 -1.07401378e-01 -1.07401378e-01
      2.60208521e-15 2.60208521e-15 2.60208521e-15 -1.92995593e-02
      1.22836865e-02 5.29199094e-03 3.82597521e-02 -5.61548844e-02
      -5.61548844e-02 2.60208521e-15 2.60208521e-15 2.60208521e-15
      2.77697444e-02 2.61959136e-02 -5.42220799e-03 -7.29364082e-02
      3.51625606e-02 3.51625606e-02 2.60208521e-15 2.60208521e-15
      2.60208521e-15 5.38077503e-02 6.29601777e-02 2.14273427e-02
      -2.13564448e-02 -1.27029018e-02 -1.27029018e-02 2.60208521e-15
      2.60208521e-15 2.60208521e-15 -1.27261654e-01 -1.93406828e-02
      2.56835315e-02 4.82893782e-03 -1.75641179e-02 -1.75641179e-02
      2.60208521e-15 2.60208521e-15 2.60208521e-15 -1.62371807e-03
      3.40065435e-02 9.30117592e-02 1.92884891e-03 -4.47603799e-02
      -4.47603799e-02 2.60208521e-15 2.60208521e-15 2.60208521e-15
      6.00811746e-03 -5.52631263e-03 3.40427756e-02 1.23480379e-04
      4.02934104e-02 4.02934104e-02 2.60208521e-15 2.60208521e-15
      2.60208521e-15 -8.08041636e-03 3.33628580e-02 3.32233310e-03
      5.60134947e-02 3.06197498e-02 3.06197498e-02 2.60208521e-15
      2.60208521e-15 2.60208521e-15 -3.28729511e-03 9.67954323e-02
      2.14402992e-02 2.37186183e-03 2.46036407e-02 2.46036407e-02
      2.60208521e-15 2.60208521e-15 2.60208521e-15 6.73157722e-03
      -3.27675082e-02 8.96852985e-02 8.99818242e-02 1.45441769e-02
      1.45441769e-02 2.60208521e-15 2.60208521e-15 2.60208521e-15
      -2.00734921e-02 5.52063882e-02 3.52762900e-02 2.91262809e-02
      9.01263729e-02 9.01263729e-02 2.60208521e-15 2.60208521e-15
      2.60208521e-15 7.78482929e-02 -2.73260311e-03 4.75957580e-02
      5.84942251e-02 8.00083508e-04 8.00083508e-04 2.60208521e-15
      2.60208521e-15 2.60208521e-15 -1.48634464e-01 6.39519021e-02
      -3.53342318e-03 1.90567225e-02 -1.91889741e-02 -1.91889741e-02
      2.60208521e-15 2.60208521e-15 2.60208521e-15 4.41771932e-02
      2.09723786e-01 -6.06969371e-03 -3.34082805e-02 -1.03563238e-02
      -1.03563238e-02 2.60208521e-15 2.60208521e-15 2.60208521e-15
      4.97183129e-02 3.81710865e-02 4.04757336e-02 5.29645421e-02
      -1.72047503e-02 -1.72047503e-02 2.60208521e-15 2.60208521e-15
      2.60208521e-15 5.09667173e-02 -2.91708838e-02 1.10255256e-01
      1.20776974e-01 3.22100483e-02 3.22100483e-02 2.60208521e-15
      2.60208521e-15 2.60208521e-15 -9.78843346e-02 -7.37026930e-02
      8.86289105e-02 8.32902566e-02 1.19933980e-02 1.19933980e-02
      2.60208521e-15 2.60208521e-15 2.60208521e-15 -1.59544155e-01
      3.98622714e-02 6.71024397e-02 4.94305976e-02 -2.69987416e-02
      -2.69987416e-02 2.60208521e-15 2.60208521e-15 2.60208521e-15
      8.04628357e-02 -1.20130934e-01 -1.21104270e-01 -1.03064500e-01
      4.15325314e-02 4.15325314e-02 2.60208521e-15 2.60208521e-15
      2.60208521e-15 -1.17282555e-01 1.17460541e-01 2.38440875e-02
      8.80112201e-02 5.85619956e-02 5.85619956e-02 2.60208521e-15
      2.60208521e-15 2.60208521e-15 -9.09041911e-02 -4.76059467e-02
      4.69635651e-02 1.40093965e-02 -4.97365259e-02 -4.97365259e-02
      2.60208521e-15 2.60208521e-15 2.60208521e-15 -2.90195066e-02
      1.12733869e-02 5.36050275e-03 -4.38922420e-02 -5.03579788e-02
      -5.03579788e-02 2.60208521e-15 2.60208521e-15 2.60208521e-15
      1.15344469e-02 -5.74761890e-02 -2.73856111e-02 -1.16692176e-02
      5.68051487e-02 5.68051487e-02 2.60208521e-15 2.60208521e-15
      2.60208521e-15 -1.62715395e-03 -3.68198641e-02 -3.67169753e-02
      -4.65524904e-02 5.08517399e-02 5.08517399e-02 2.60208521e-15
      2.60208521e-15 2.60208521e-15 1.03587816e-02 1.66834407e-02
      7.06190988e-02 8.35751444e-02 2.49589961e-02 2.49589961e-02
      2.60208521e-15 2.60208521e-15 2.60208521e-15 -1.29547447e-01
      1.54106975e-01 -1.09621119e-02 -2.97989901e-02 -8.51537883e-02
      -8.51537883e-02 2.60208521e-15 2.60208521e-15 2.60208521e-15
      1.04029858e-02 4.69389446e-02 -4.06115800e-02 3.08779404e-02
      -9.24638566e-03 -9.24638566e-03 2.60208521e-15 2.60208521e-15
      2.60208521e-15 -2.36073025e-02 1.66293696e-01 -9.32471603e-02
      -2.15754677e-02 -9.29428264e-03 -9.29428264e-03 2.60208521e-15
      2.60208521e-15 2.60208521e-15 3.85859869e-02 1.32683650e-01
      -3.53918523e-02 -3.35882744e-03 -8.16739500e-02 -8.16739500e-02
      2.60208521e-15 2.60208521e-15 2.60208521e-15 -2.68258527e-02
      2.02570185e-01 2.70113628e-03 3.14030610e-02 -6.71637058e-02
      -6.71637058e-02 2.60208521e-15 2.60208521e-15 2.60208521e-15
      -1.36463746e-01 4.47929204e-02 -1.12852216e-01 -4.99797352e-02
      1.01846857e-02 1.01846857e-02 2.60208521e-15 2.60208521e-15
      2.60208521e-15 -1.17765814e-01 -1.07100576e-01 3.38608101e-02
      1.47019783e-02 -5.78583591e-03 -5.78583591e-03 2.60208521e-15
      2.60208521e-15 2.60208521e-15 -8.09186846e-02 1.49911776e-01
      3.28815333e-03 3.45331691e-02 -1.43824043e-04 -1.43824043e-04
      2.60208521e-15 2.60208521e-15 2.60208521e-15 8.22199583e-02
      3.31443585e-02 8.11268762e-02 6.75493702e-02 -3.09047867e-02
      -3.09047867e-02 2.60208521e-15 2.60208521e-15 2.60208521e-15
      -1.55811682e-01 6.07930608e-02 -3.72839645e-02 -7.61427209e-02
      8.56475160e-02 8.56475160e-02 2.60208521e-15 2.60208521e-15
      2.60208521e-15 6.68190941e-02 -7.75910839e-02 -6.08001091e-02
      -1.38491923e-02 1.69106631e-03 1.69106631e-03 2.60208521e-15
      2.60208521e-15 2.60208521e-15 -6.00586720e-02 4.89176176e-02
      -1.06663793e-01 -7.29703307e-02 7.19529763e-02 7.19529763e-02
      2.60208521e-15 2.60208521e-15 2.60208521e-15 -3.07291895e-02
      1.16238177e-01 -7.94539526e-02 -5.98584004e-02 3.65069881e-02
      3.65069881e-02 2.60208521e-15 2.60208521e-15 2.60208521e-15
      -1.12968437e-01 1.28778562e-01 -7.90566504e-02 -6.15907274e-02
      1.27303362e-01 1.27303362e-01 2.60208521e-15 2.60208521e-15
      2.60208521e-15 -5.00170738e-02 3.41192400e-03 3.25539261e-02
      -2.36436240e-02 -8.98831338e-03 -8.98831338e-03 2.60208521e-15
      2.60208521e-15 2.60208521e-15 4.15828042e-02 2.19789930e-02
      2.35072840e-02 1.95308030e-02 -2.78118756e-02 -2.78118756e-02
      2.60208521e-15 2.60208521e-15 2.60208521e-15 -5.83776794e-02
      1.54450759e-01 -1.75000429e-02 2.52080653e-02 5.66155612e-02
      5.66155612e-02 2.60208521e-15 2.60208521e-15 2.60208521e-15
      -4.43383530e-02 5.91245927e-02 -2.44734678e-02 -9.31990743e-02
      1.54309934e-02 1.54309934e-02 2.60208521e-15 2.60208521e-15
      2.60208521e-15 -5.16590104e-02 -1.65180974e-02 -4.94775958e-02
      -1.05209067e-01 5.98177314e-02 5.98177314e-02 2.60208521e-15
      2.60208521e-15 2.60208521e-15 -4.95162755e-02 2.43241563e-02
      -5.99130206e-02 1.68268830e-02 1.71584338e-02 1.71584338e-02
      2.60208521e-15 2.60208521e-15 2.60208521e-15 -8.29465985e-02
      1.22507811e-02 4.91609238e-02 9.68780294e-02 5.47115505e-02
      5.47115505e-02 2.60208521e-15 2.60208521e-15 2.60208521e-15
      7.16902502e-03 -6.01281784e-02 3.70484889e-02 6.06716536e-02
      5.65771759e-02 5.65771759e-02 2.60208521e-15 2.60208521e-15
      2.60208521e-15 -9.01089311e-02 -5.42538799e-02 9.54264868e-03
      8.86600539e-02 5.51321842e-02 5.51321842e-02 2.60208521e-15
      2.60208521e-15 2.60208521e-15 -6.37295917e-02 5.15408441e-02
      -5.60594536e-02 -5.51493689e-02 2.44870894e-02 2.44870894e-02
      2.60208521e-15 2.60208521e-15 2.60208521e-15 -8.17907602e-02
      4.98270839e-02 -2.74343155e-02 2.71473695e-02 4.06176560e-02
      4.06176560e-02 2.60208521e-15 2.60208521e-15 2.60208521e-15
      -1.25224024e-01 -6.36043260e-04 -7.88692199e-03 3.63986716e-02
      6.89568445e-02 6.89568445e-02 2.60208521e-15 2.60208521e-15
      2.60208521e-15 -1.13617741e-01 3.90701666e-02 4.56764475e-02
      1.54569028e-02 6.11756444e-02 6.11756444e-02 2.60208521e-15
      2.60208521e-15 2.60208521e-15 -1.55380145e-01 1.27903044e-01
      2.14700811e-02 1.89803261e-02 7.59210810e-03 7.59210810e-03
      2.60208521e-15 2.60208521e-15 2.60208521e-15 -4.93081696e-02
      4.64431196e-02 4.89042848e-02 3.73279527e-02 3.05269025e-02
      3.05269025e-02 2.60208521e-15 2.60208521e-15 2.60208521e-15
      -8.48073587e-02 -5.37808836e-02 3.46121229e-02 9.01233628e-02
      3.48636769e-02 3.48636769e-02 2.60208521e-15 2.60208521e-15
      2.60208521e-15 -4.42187078e-02 -6.16921969e-02 -7.04969093e-02
      -3.26984189e-02 -4.39800620e-02 -4.39800620e-02 2.60208521e-15
      2.60208521e-15 2.60208521e-15 7.57034868e-02 3.64480093e-02
      4.60791588e-02 2.86001209e-02 -9.68873501e-03 -9.68873501e-03
      2.60208521e-15 2.60208521e-15 2.60208521e-15 -1.52964042e-02
      8.56557414e-02 -5.89556620e-02 -1.81704052e-02 3.08758230e-03
      3.08758230e-03 2.60208521e-15 2.60208521e-15 2.60208521e-15</_></support_vectors>
  <decision_functions>
    <_>
      <sv_count>1</sv_count>
      <rho>4.8999317463248344e+00</rho>
      <alpha>
        1.</alpha>
      <index>
        0</index></_></decision_functions></my_svm>
</opencv_storage>
