%YAML:1.0
my_svm: !!opencv-ml-svm
   svm_type: C_SVC
   kernel: { type:LINEAR }
   C: 2.6699999999999999e+00
   term_criteria: { epsilon:1.1920928955078125e-07, iterations:1000 }
   var_all: 3780
   var_count: 3780
   class_count: 2
   class_labels: !!opencv-matrix
      rows: 1
      cols: 2
      dt: i
      data: [ 0, 1 ]
   sv_total: 1
   support_vectors:
      - [ 7.72924796e-02, 1.45234421e-01, 1.98824480e-02,
          -9.85470638e-02, -4.28139669e-04, -4.28139669e-04, 0., 0., 0.,
          -5.02152294e-02, 1.07859761e-01, 7.74664581e-02,
          1.22618280e-01, -5.56067638e-02, -5.56067638e-02, 0., 0., 0.,
          -1.88159458e-02, 4.44430597e-02, -1.46639124e-01,
          -3.41440588e-02, 2.05749813e-02, 2.05749813e-02, 0., 0., 0.,
          1.51259691e-01, -5.26287444e-02, 1.61513880e-01,
          1.22296505e-01, 1.07542209e-01, 1.07542209e-01, 0., 0., 0.,
          -1.40961751e-01, -3.32358368e-02, -2.13099986e-01,
          -1.62444234e-01, 6.27401052e-03, 6.27401052e-03, 0., 0., 0.,
          1.65779948e-01, -6.43389672e-02, -9.36283544e-02,
          -9.97951329e-02, -6.23034202e-02, -6.23034202e-02, 0., 0., 0.,
          1.65947571e-01, 5.70067950e-02, 1.09624617e-01,
          -6.29182309e-02, -1.55882633e-04, -1.55882633e-04, 0., 0., 0.,
          -3.12448163e-02, 2.70866584e-02, 1.80301920e-01,
          6.20595813e-02, -7.57802743e-04, -7.57802743e-04, 0., 0., 0.,
          1.02105089e-01, -2.48052664e-02, 1.23058900e-01,
          3.38802859e-02, -7.90209100e-02, -7.90209100e-02, 0., 0., 0.,
          2.49928951e-01, -7.37637803e-02, 6.18551970e-02,
          1.57480150e-01, -3.37436941e-05, -3.37436941e-05, 0., 0., 0.,
          -1.53583944e-01, 1.51155993e-01, -3.74234356e-02,
          -2.90096462e-01, 3.47015858e-02, 3.47015858e-02, 0., 0., 0.,
          -9.80234821e-04, 2.09998582e-02, 4.99791913e-02,
          4.99095842e-02, 2.53588185e-02, 2.53588185e-02, 0., 0., 0.,
          3.46422680e-02, 1.29785255e-01, 8.63810480e-02, 8.78659040e-02,
          -1.34010212e-02, -1.34010212e-02, 0., 0., 0., 2.20245123e-01,
          -8.87149945e-02, 4.56197709e-02, 2.40563918e-02,
          5.64711168e-02, 5.64711168e-02, 0., 0., 0., -1.08514860e-01,
          -9.64106768e-02, -6.67389184e-02, -1.09140456e-01,
          -7.36302510e-02, -7.36302510e-02, 0., 0., 0., 7.00915158e-02,
          -4.48169410e-02, -6.34513050e-02, -9.71384638e-04,
          3.05601638e-02, 3.05601638e-02, 0., 0., 0., -1.95934847e-02,
          1.31722733e-01, -9.57243890e-02, -1.13472998e-01,
          -2.29631346e-02, -2.29631346e-02, 0., 0., 0., 7.69723728e-02,
          -1.16295435e-01, 1.16598800e-01, 1.10614993e-01,
          -4.34080958e-02, -4.34080958e-02, 0., 0., 0., 1.95253298e-01,
          6.85085729e-02, -2.00281180e-02, 3.65084931e-02,
          -9.93145909e-03, -9.93145909e-03, 0., 0., 0., -3.61682735e-02,
          -1.37139767e-01, -5.40502146e-02, -8.68543983e-02,
          7.63026401e-02, 7.63026401e-02, 0., 0., 0., 1.51182756e-01,
          8.13634023e-02, -3.54745351e-02, -6.89861253e-02,
          -1.45398691e-01, -1.45398691e-01, 0., 0., 0., 2.12979183e-01,
          -1.68356001e-01, 2.91222483e-02, 7.87033215e-02,
          -4.44163531e-02, -4.44163531e-02, 0., 0., 0., -1.53116360e-01,
          3.28238785e-01, 7.25606829e-02, -2.45303125e-03,
          3.99251431e-02, 3.99251431e-02, 0., 0., 0., 5.41848131e-03,
          -1.70665950e-01, -3.24837826e-02, 2.64605246e-02,
          1.15842581e-01, 1.15842581e-01, 0., 0., 0., 7.48026967e-02,
          1.36644334e-01, -8.08885843e-02, -5.61352149e-02,
          -5.74286766e-02, -5.74286766e-02, 0., 0., 0., 1.05990112e-01,
          1.44082503e-02, 9.09426734e-02, 6.20942190e-02,
          -1.97405834e-02, -1.97405834e-02, 0., 0., 0., 1.37372743e-02,
          3.64834219e-02, 1.06309123e-01, 1.36434287e-01, 1.42570566e-02,
          1.42570566e-02, 0., 0., 0., 2.19340473e-02, -3.73635553e-02,
          3.34813967e-02, 7.45124323e-03, 6.70938641e-02, 6.70938641e-02,
          0., 0., 0., 7.73364976e-02, -3.05789616e-02, 4.84081991e-02,
          5.37726879e-02, -6.80401782e-03, -6.80401782e-03, 0., 0., 0.,
          -2.98109949e-02, 2.78348308e-02, -1.59363106e-01,
          -1.45890206e-01, -8.79889131e-02, -8.79889131e-02, 0., 0., 0.,
          -1.85507581e-01, 3.87620851e-02, 6.09811917e-02,
          6.87807575e-02, -1.41327679e-01, -1.41327679e-01, 0., 0., 0.,
          5.36434352e-02, -7.72652328e-02, 9.46605206e-02,
          6.80234954e-02, 2.80807436e-01, 2.80807436e-01, 0., 0., 0.,
          -1.32024318e-01, 6.76599294e-02, -4.97502796e-02,
          -3.39360870e-02, -1.47116140e-01, -1.47116140e-01, 0., 0., 0.,
          1.22803748e-01, -1.18820123e-01, 4.72699739e-02,
          2.81944629e-02, -3.20171714e-02, -3.20171714e-02, 0., 0., 0.,
          6.54236302e-02, -8.20477679e-02, -1.19894534e-01,
          -8.16400200e-02, 1.15841404e-01, 1.15841404e-01, 0., 0., 0.,
          -1.13146037e-01, 7.62649104e-02, 6.54317588e-02,
          3.04385759e-02, 6.34888699e-03, 6.34888699e-03, 0., 0., 0.,
          -1.39653355e-01, 3.69791090e-02, -3.76796797e-02,
          -1.08362362e-01, -9.28484574e-02, -9.28484574e-02, 0., 0., 0.,
          -7.00920671e-02, -7.88922682e-02, 6.26935065e-02,
          1.33474618e-01, -1.54482573e-01, -1.54482573e-01, 0., 0., 0.,
          1.05990052e-01, -1.07769724e-02, -5.27720749e-02,
          -8.95845592e-02, 4.84214090e-02, 4.84214090e-02, 0., 0., 0.,
          8.47611502e-02, -4.16797702e-04, 6.79879114e-02,
          1.04701906e-01, 1.79915279e-01, 1.79915279e-01, 0., 0., 0.,
          -1.21578053e-02, 1.20249325e-02, 2.86483299e-02,
          -1.27343682e-03, -1.78080365e-01, -1.78080365e-01, 0., 0., 0.,
          2.29958608e-03, -5.54178469e-02, 3.14551853e-02,
          1.38662249e-01, -3.88190895e-02, -3.88190895e-02, 0., 0., 0.,
          4.12376933e-02, 6.60158843e-02, -6.37717843e-02,
          -1.55937433e-01, 1.61959276e-01, 1.61959276e-01, 0., 0., 0.,
          -3.13794948e-02, -1.16319619e-01, -1.97033938e-02,
          -4.82290844e-03, 5.49401641e-02, 5.49401641e-02, 0., 0., 0.,
          6.07569609e-03, 2.55915791e-01, 6.51604310e-02, 1.44933850e-01,
          -2.65875105e-02, -2.65875105e-02, 0., 0., 0., 1.31885320e-01,
          -1.25970572e-01, -3.14693265e-02, -7.77874887e-02,
          2.14667879e-02, 2.14667879e-02, 0., 0., 0., -1.49129838e-01,
          1.01178333e-01, 2.58306880e-02, 4.08029407e-02,
          -6.62182784e-03, -6.62182784e-03, 0., 0., 0., 1.11688673e-02,
          -2.54495174e-01, -8.28933865e-02, -1.31320864e-01,
          1.17425509e-02, 1.17425509e-02, 0., 0., 0., 1.21982349e-03,
          -2.07505352e-03, 4.64564143e-03, -4.26142439e-02,
          1.26758646e-02, 1.26758646e-02, 0., 0., 0., -8.38261563e-03,
          -7.03261644e-02, -4.22169417e-02, 1.23542510e-02,
          -6.11573830e-02, -6.11573830e-02, 0., 0., 0., 1.25620261e-01,
          1.65843606e-01, 1.97389778e-02, 3.40614207e-02, 4.82384153e-02,
          4.82384153e-02, 0., 0., 0., -1.41829044e-01, -1.92096997e-02,
          9.20649171e-02, 7.04312027e-02, -2.31284834e-02,
          -2.31284834e-02, 0., 0., 0., 1.24517828e-02, 1.23116039e-02,
          9.37797409e-03, 9.08623934e-02, -3.18874083e-02,
          -3.18874083e-02, 0., 0., 0., -9.81864110e-02, -3.14429820e-01,
          2.05939496e-03, 2.52533313e-02, 3.70819941e-02, 3.70819941e-02,
          0., 0., 0., -1.03424853e-02, 2.54292309e-01, 1.18289879e-02,
          -4.25877497e-02, -7.62662664e-02, -7.62662664e-02, 0., 0., 0.,
          7.27055222e-02, -1.23883113e-02, -4.24563698e-02,
          4.88629704e-03, 5.18816300e-02, 5.18816300e-02, 0., 0., 0.,
          -2.33528659e-01, -1.60126537e-01, 6.61119223e-02,
          7.72793293e-02, -5.82573861e-02, -5.82573861e-02, 0., 0., 0.,
          7.83407167e-02, 8.56410563e-02, -2.98788790e-02,
          -1.21842466e-01, 1.48055598e-01, 1.48055598e-01, 0., 0., 0.,
          -2.32205801e-02, 1.86227322e-01, 8.83861259e-02,
          1.23983897e-01, 3.98685187e-02, 3.98685187e-02, 0., 0., 0.,
          9.40699056e-02, -1.11311935e-01, -4.19834927e-02,
          6.34421483e-02, -4.70310226e-02, -4.70310226e-02, 0., 0., 0.,
          -3.69652137e-02, -8.71615782e-02, 9.03042108e-02,
          3.89629193e-02, 6.61714077e-02, 6.61714077e-02, 0., 0., 0.,
          -1.26559407e-01, -1.11453302e-01, -9.51923877e-02,
          -9.42873806e-02, 4.17151768e-03, 4.17151768e-03, 0., 0., 0.,
          1.22663282e-01, 6.80652857e-02, -2.23282315e-02,
          1.03756554e-01, -1.34707570e-01, -1.34707570e-01, 0., 0., 0.,
          2.18670443e-02, 1.11555293e-01, 8.22222233e-03,
          -7.19912304e-03, 4.53704447e-02, 4.53704447e-02, 0., 0., 0.,
          -1.85726255e-01, 1.15812823e-01, 4.45188582e-02,
          4.83944044e-02, -2.09048782e-02, -2.09048782e-02, 0., 0., 0.,
          -5.69445267e-02, 1.84038565e-01, 1.22859925e-01,
          1.13157086e-01, 4.83288139e-04, 4.83288139e-04, 0., 0., 0.,
          -4.67865989e-02, -1.74043626e-01, -1.15869813e-01,
          -9.94239524e-02, -6.57383800e-02, -6.57383800e-02, 0., 0., 0.,
          2.70463109e-01, -1.44801930e-01, -7.05031604e-02,
          -8.11218098e-02, 6.71657026e-02, 6.71657026e-02, 0., 0., 0.,
          -1.29117727e-01, 2.40393788e-01, 4.40922119e-02,
          -3.50372642e-02, 6.19806759e-02, 6.19806759e-02, 0., 0., 0.,
          -1.85070977e-01, 2.32394367e-01, 1.64498165e-01,
          1.92441061e-01, -3.30371559e-02, -3.30371559e-02, 0., 0., 0.,
          2.36860186e-01, -9.15984437e-02, -8.48480165e-02,
          -1.54347420e-01, 1.06735520e-01, 1.06735520e-01, 0., 0., 0.,
          7.73284435e-02, -4.51514721e-01, -1.23742335e-01,
          -3.05637252e-03, -1.35679066e-01, -1.35679066e-01, 0., 0., 0.,
          -1.45484418e-01, 2.33255178e-01, -3.91911790e-02,
          -2.23092102e-02, 2.46009957e-02, 2.46009957e-02, 0., 0., 0.,
          8.26493725e-02, 7.59152174e-02, 1.03762679e-01, 8.46155435e-02,
          5.16932830e-02, 5.16932830e-02, 0., 0., 0., 1.81854978e-01,
          -2.90612727e-01, -5.68756089e-02, 7.57910358e-03,
          -1.12107791e-01, -1.12107791e-01, 0., 0., 0., -1.19019873e-01,
          -1.85576994e-02, -7.69600132e-03, -6.98855668e-02,
          3.58134583e-02, 3.58134583e-02, 0., 0., 0., -1.80867866e-01,
          1.67925134e-01, -5.34956716e-03, -1.43182091e-03,
          2.34836861e-02, 2.34836861e-02, 0., 0., 0., -2.14553729e-01,
          3.49629745e-02, -2.32106205e-02, -4.66554910e-02,
          -3.88379432e-02, -3.88379432e-02, 0., 0., 0., 3.06725260e-02,
          -1.19517043e-01, 6.93309009e-02, 4.58185896e-02,
          -5.46451891e-03, -5.46451891e-03, 0., 0., 0., 3.64749104e-01,
          -8.33710209e-02, -4.07706909e-02, 2.26868526e-03,
          2.08187196e-02, 2.08187196e-02, 0., 0., 0., -3.70411098e-01,
          -1.80196747e-01, -2.65042298e-02, -7.25397170e-02,
          9.80799552e-03, 9.80799552e-03, 0., 0., 0., -1.48185760e-01,
          7.07503185e-02, 6.10094406e-02, 7.07042124e-03, 3.63967232e-02,
          3.63967232e-02, 0., 0., 0., 2.78281718e-01, -7.31978565e-02,
          -1.23294331e-01, -3.81212197e-02, 8.01187456e-02,
          8.01187456e-02, 0., 0., 0., 2.40315139e-01, 1.11167923e-01,
          -2.40505133e-02, -9.24920570e-03, -1.22141816e-01,
          -1.22141816e-01, 0., 0., 0., -1.76959693e-01, 5.58579676e-02,
          1.23290323e-01, 1.54994145e-01, -1.05784768e-02,
          -1.05784768e-02, 0., 0., 0., 1.45390723e-02, -2.07014605e-01,
          -1.70959026e-01, -1.03203185e-01, 9.90427099e-03,
          9.90427099e-03, 0., 0., 0., 2.74698390e-03, -5.75215779e-02,
          4.69758697e-02, 8.55636224e-03, -7.75430771e-03,
          -7.75430771e-03, 0., 0., 0., 1.13283917e-01, 1.62741944e-01,
          8.33284557e-02, 8.25155750e-02, 9.10642818e-02, 9.10642818e-02,
          0., 0., 0., -1.58815026e-01, -3.88050601e-02, -2.40004845e-02,
          1.43441511e-03, -1.31912306e-01, -1.31912306e-01, 0., 0., 0.,
          1.45547902e-02, -1.48102909e-01, 7.44725540e-02,
          3.32436152e-02, 3.22812167e-03, 3.22812167e-03, 0., 0., 0.,
          7.36335889e-02, -1.17807671e-01, -4.88831550e-02,
          -8.08982402e-02, -2.38495655e-02, -2.38495655e-02, 0., 0., 0.,
          5.16323783e-02, 2.85721421e-01, -6.34719431e-02,
          -1.56627875e-02, 1.33539528e-01, 1.33539528e-01, 0., 0., 0.,
          -2.04677701e-01, 4.70720269e-02, -3.39543223e-02,
          -6.25231117e-02, -6.15634546e-02, -6.15634546e-02, 0., 0., 0.,
          2.32078657e-01, 7.33930245e-02, 1.10159842e-02,
          -4.48447280e-02, 4.31914404e-02, 4.31914404e-02, 0., 0., 0.,
          -1.46497235e-01, 6.38765767e-02, 3.73611189e-02,
          9.64206532e-02, -1.02135846e-02, -1.02135846e-02, 0., 0., 0.,
          1.00102119e-01, -2.03335881e-01, -3.34170386e-02,
          -8.04704335e-03, 9.59132612e-03, 9.59132612e-03, 0., 0., 0.,
          -8.42703655e-02, 4.41750959e-02, 1.92072559e-02,
          -6.24364093e-02, 1.42574310e-01, 1.42574310e-01, 0., 0., 0.,
          9.93377045e-02, -1.39380634e-01, -1.03076458e-01,
          -2.08183490e-02, -2.11423039e-01, -2.11423039e-01, 0., 0., 0.,
          -3.44522446e-02, 5.24078757e-02, -7.79146031e-02,
          -9.71806571e-02, 1.07933231e-01, 1.07933231e-01, 0., 0., 0.,
          1.93849057e-02, 4.27976064e-02, 1.61783844e-01, 1.80435419e-01,
          -3.90844867e-02, -3.90844867e-02, 0., 0., 0., -1.35506615e-02,
          -1.54428288e-01, -4.65645865e-02, -1.59621295e-02,
          -1.76749527e-01, -1.76749527e-01, 0., 0., 0., -1.58689752e-01,
          3.03319216e-01, 9.93087813e-02, 7.09339157e-02,
          -1.05788345e-02, -1.05788345e-02, 0., 0., 0., 5.23564108e-02,
          -2.39085406e-01, -4.92717400e-02, -5.06191179e-02,
          1.04677947e-02, 1.04677947e-02, 0., 0., 0., 1.19884007e-01,
          9.01945382e-02, -3.47250793e-03, -4.35267389e-03,
          1.76860616e-01, 1.76860616e-01, 0., 0., 0., -2.75200367e-01,
          1.19152684e-02, -7.96929598e-02, -1.27674595e-01,
          -1.06214143e-01, -1.06214143e-01, 0., 0., 0., 9.66663882e-02,
          -8.65513980e-02, 1.31678864e-01, 1.81698158e-01,
          -8.59744996e-02, -8.59744996e-02, 0., 0., 0., 2.87606120e-02,
          9.76727381e-02, -1.21513352e-01, -1.00357905e-01,
          1.63031787e-01, 1.63031787e-01, 0., 0., 0., 1.49773344e-01,
          -2.30366159e-02, 6.95274770e-02, 4.63342369e-02,
          2.91568469e-02, 2.91568469e-02, 0., 0., 0., -2.67813932e-02,
          3.57750617e-02, 3.85225601e-02, 6.79618865e-02, 4.73468658e-03,
          4.73468658e-03, 0., 0., 0., 6.98917434e-02, -1.38933942e-01,
          -1.24526575e-01, -1.30705312e-01, -1.34759724e-01,
          -1.34759724e-01, 0., 0., 0., 1.05990373e-01, 1.47207519e-02,
          1.23598047e-01, 9.79991257e-02, 7.71398470e-02, 7.71398470e-02,
          0., 0., 0., -1.49100825e-01, 1.10611260e-01, -3.34124193e-02,
          -3.10740676e-02, 5.70669062e-02, 5.70669062e-02, 0., 0., 0.,
          -4.21206541e-02, -9.81663764e-02, -3.62120122e-02,
          -8.64061564e-02, 8.08114931e-03, 8.08114931e-03, 0., 0., 0.,
          1.30319048e-03, -2.37636641e-01, 1.32190511e-01,
          1.38854712e-01, 2.33312529e-02, 2.33312529e-02, 0., 0., 0.,
          -2.83758226e-03, -6.63594157e-02, -6.68400601e-02,
          -4.35352325e-02, 1.66754685e-02, 1.66754685e-02, 0., 0., 0.,
          -2.73471279e-03, 3.09716851e-01, 5.34972660e-02,
          7.37223849e-02, 3.45477574e-02, 3.45477574e-02, 0., 0., 0.,
          -3.79255600e-02, -9.85593274e-02, 5.43518998e-02,
          4.24692556e-02, 5.48835024e-02, 5.48835024e-02, 0., 0., 0.,
          1.19774146e-02, -7.73596317e-02, -1.01244114e-01,
          -3.21731381e-02, -4.96534631e-02, -4.96534631e-02, 0., 0., 0.,
          -1.00449413e-01, 9.99241397e-02, -1.40726501e-02,
          -2.09953673e-02, -1.78057119e-01, -1.78057119e-01, 0., 0., 0.,
          1.07403293e-01, 5.70005700e-02, 4.19706255e-02,
          -8.29491671e-03, 1.53832912e-01, 1.53832912e-01, 0., 0., 0.,
          -3.38771828e-02, -7.80486837e-02, 1.37961611e-01,
          1.67724699e-01, -4.61326577e-02, -4.61326577e-02, 0., 0., 0.,
          1.07287146e-01, -2.41601050e-01, 6.05991296e-02,
          5.03104180e-02, -7.28409365e-02, -7.28409365e-02, 0., 0., 0.,
          1.78375453e-01, 1.61739122e-02, 9.15274769e-03,
          -4.94512171e-02, -4.67626750e-02, -4.67626750e-02, 0., 0., 0.,
          -2.51785398e-01, 2.13699088e-01, -2.07713485e-01,
          -1.68583855e-01, 1.65736288e-01, 1.65736288e-01, 0., 0., 0.,
          3.29346955e-01, -1.25172034e-01, 7.66114965e-02,
          5.27605154e-02, -5.58920577e-02, -5.58920577e-02, 0., 0., 0.,
          1.77506775e-01, -3.42138320e-01, 1.21564604e-01,
          9.84786600e-02, -1.33399278e-01, -1.33399278e-01, 0., 0., 0.,
          -4.50906098e-01, -1.11277677e-01, -1.12486646e-01,
          -9.30950120e-02, 1.66669443e-01, 1.66669443e-01, 0., 0., 0.,
          -5.59476204e-02, 5.78588128e-01, -8.56895074e-02,
          -5.81441782e-02, 2.26218030e-02, 2.26218030e-02, 0., 0., 0.,
          -5.76314563e-03, -9.29141790e-02, -5.34136221e-02,
          -1.08257964e-01, -1.20201066e-01, -1.20201066e-01, 0., 0., 0.,
          2.78618008e-01, -1.18059121e-01, 6.85943142e-02,
          6.93223476e-02, -5.05863838e-02, -5.05863838e-02, 0., 0., 0.,
          -4.34659153e-01, 8.97128284e-02, -1.55081213e-01,
          -1.15845554e-01, 4.65282314e-02, 4.65282314e-02, 0., 0., 0.,
          1.61804333e-01, 1.21260479e-01, 1.39900520e-01, 1.54781118e-01,
          1.24259181e-01, 1.24259181e-01, 0., 0., 0., -6.94109797e-02,
          -1.89253941e-01, -8.75390172e-02, -7.72439837e-02,
          2.78493445e-02, 2.78493445e-02, 0., 0., 0., 1.54726312e-01,
          -1.31518217e-02, 2.98974216e-02, -1.87823176e-02,
          -1.85271680e-01, -1.85271680e-01, 0., 0., 0., 4.58481796e-02,
          7.70461629e-04, 1.36520579e-01, 1.58258781e-01, 1.08157441e-01,
          1.08157441e-01, 0., 0., 0., -1.31163493e-01, 1.98193192e-01,
          -7.88790286e-02, -6.22325279e-02, 4.92648035e-02,
          4.92648035e-02, 0., 0., 0., 1.56517744e-01, 2.10427657e-01,
          -1.79097295e-01, -2.08753616e-01, 2.89631239e-03,
          2.89631239e-03, 0., 0., 0., -3.25629078e-02, -2.91586637e-01,
          1.86466932e-01, 2.09087610e-01, -5.75270951e-02,
          -5.75270951e-02, 0., 0., 0., -1.24955520e-01, 4.35232483e-02,
          -9.55730304e-02, -3.64448540e-02, 4.48805466e-02,
          4.48805466e-02, 0., 0., 0., 1.00066490e-03, 3.83752100e-02,
          9.23850164e-02, 4.02924679e-02, 1.39318109e-02, 1.39318109e-02,
          0., 0., 0., -8.05127174e-02, -1.24285586e-01, 3.72786373e-02,
          3.26836742e-02, 3.15359645e-02, 3.15359645e-02, 0., 0., 0.,
          -4.73217107e-03, -1.11708894e-01, -8.25581774e-02,
          -1.44200712e-01, 1.17071040e-01, 1.17071040e-01, 0., 0., 0.,
          5.99631667e-02, 1.34288415e-01, 1.38739506e-02, 1.50656905e-02,
          8.71757139e-03, 8.71757139e-03, 0., 0., 0., 6.28759339e-03,
          3.66560817e-02, 1.41436800e-01, 2.06482515e-01,
          -4.72933911e-02, -4.72933911e-02, 0., 0., 0., -2.17962384e-01,
          -1.01558365e-01, 8.44151750e-02, 6.68358430e-02,
          -1.92512676e-01, -1.92512676e-01, 0., 0., 0., 1.06598794e-01,
          -3.34633663e-02, 2.49912180e-02, -3.16897556e-02,
          1.68527871e-01, 1.68527871e-01, 0., 0., 0., -4.83779097e-03,
          -4.11359146e-02, -1.80585738e-02, 4.68615256e-02,
          -9.33269933e-02, -9.33269933e-02, 0., 0., 0., 9.72070843e-02,
          1.65657967e-01, -1.10342085e-01, -1.01001844e-01,
          9.83175859e-02, 9.83175859e-02, 0., 0., 0., 1.37171373e-01,
          -3.24084491e-01, -1.82934448e-01, -2.28214487e-01,
          -1.00269653e-01, -1.00269653e-01, 0., 0., 0., -3.88069451e-01,
          1.42109305e-01, -1.64296910e-01, -1.03646435e-01,
          -8.10001325e-03, -8.10001325e-03, 0., 0., 0., 5.50924353e-02,
          -1.73403710e-01, 1.47688165e-01, 1.67001948e-01,
          -8.12304169e-02, -8.12304169e-02, 0., 0., 0., 1.06028818e-01,
          2.65602171e-01, 6.68776631e-02, 3.21934335e-02, 9.98233184e-02,
          9.98233184e-02, 0., 0., 0., -2.64937937e-01, 3.80099751e-02,
          -1.89071134e-01, -1.80013806e-01, -7.95504749e-02,
          -7.95504749e-02, 0., 0., 0., -1.16384350e-01, -2.87030011e-01,
          -4.12771367e-02, 1.02120228e-02, -9.01496112e-02,
          -9.01496112e-02, 0., 0., 0., 1.39317274e-01, 1.65559296e-02,
          1.03488721e-01, 8.03182945e-02, 1.00078300e-01, 1.00078300e-01,
          0., 0., 0., 2.42005005e-01, 2.32464075e-01, 1.26859635e-01,
          8.94835293e-02, 6.96218833e-02, 6.96218833e-02, 0., 0., 0.,
          -4.76741821e-01, -3.87055124e-03, -1.38860330e-01,
          -1.31536379e-01, -5.96590415e-02, -5.96590415e-02, 0., 0., 0.,
          1.59651160e-01, -3.31394851e-01, -1.48865938e-01,
          -1.18606523e-01, -5.49887978e-02, -5.49887978e-02, 0., 0., 0.,
          2.33897567e-02, 1.09348692e-01, 1.51310433e-02,
          -2.06557531e-02, 1.23441473e-01, 1.23441473e-01, 0., 0., 0.,
          2.93700963e-01, 2.25916773e-01, 2.72595316e-01, 2.70798653e-01,
          -8.79363902e-03, -8.79363902e-03, 0., 0., 0., 1.17298573e-01,
          -1.40390731e-02, -1.46574125e-01, -1.49266466e-01,
          1.11356974e-01, 1.11356974e-01, 0., 0., 0., -1.96226820e-01,
          -1.30404696e-01, 3.31932455e-02, 4.42142785e-02,
          -9.60535780e-02, -9.60535780e-02, 0., 0., 0., 1.80421714e-02,
          -5.01929075e-02, -6.24249410e-03, -1.93496794e-02,
          -2.33552363e-02, -2.33552363e-02, 0., 0., 0., 6.08860590e-02,
          1.91194549e-01, 1.19623296e-01, 1.24401882e-01, 8.05180613e-03,
          8.05180613e-03, 0., 0., 0., -2.53116161e-01, 2.68401392e-03,
          -1.15745634e-01, -9.05705243e-02, 3.89650278e-02,
          3.89650278e-02, 0., 0., 0., -1.23582073e-01, -3.52330655e-01,
          5.89507557e-02, -4.89848782e-04, -1.32117361e-01,
          -1.32117361e-01, 0., 0., 0., 1.81377381e-02, 2.28100330e-01,
          -7.61543140e-02, -3.11431848e-02, 1.49658024e-01,
          1.49658024e-01, 0., 0., 0., 3.58560532e-01, 1.22285806e-01,
          1.54032931e-01, 1.43287346e-01, -5.23240529e-02,
          -5.23240529e-02, 0., 0., 0., -2.42597893e-01, 1.97196566e-02,
          2.06590500e-02, 9.30485502e-03, 1.66957434e-02, 1.66957434e-02,
          0., 0., 0., -6.62882114e-03, -2.25277722e-01, 1.11913597e-02,
          -1.82549504e-03, 5.28488867e-02, 5.28488867e-02, 0., 0., 0.,
          1.36339784e-01, -2.32882425e-02, 2.14128997e-02,
          3.54866907e-02, -3.91089283e-02, -3.91089283e-02, 0., 0., 0.,
          9.38927606e-02, 3.38877469e-01, 1.38791185e-02, 2.41762176e-02,
          7.95955807e-02, 7.95955807e-02, 0., 0., 0., -1.39449731e-01,
          -7.54264221e-02, -1.20325848e-01, -6.87553883e-02,
          5.21840155e-02, 5.21840155e-02, 0., 0., 0., -3.86125757e-03,
          -7.71603957e-02, -1.09327678e-03, -2.69168466e-02,
          4.95923720e-02, 4.95923720e-02, 0., 0., 0., 5.34535199e-02,
          5.14904149e-02, 1.71371419e-02, 2.22457889e-02,
          -1.75662562e-01, -1.75662562e-01, 0., 0., 0., 7.08632618e-02,
          9.05965641e-02, 4.23988439e-02, 1.15434416e-02, 5.48918992e-02,
          5.48918992e-02, 0., 0., 0., -8.07605311e-02, -1.59608871e-01,
          -1.41693577e-01, -1.60449252e-01, -4.12171222e-02,
          -4.12171222e-02, 0., 0., 0., -1.63951233e-01, -2.66413838e-01,
          -1.52661353e-01, -1.73843533e-01, 1.17409788e-01,
          1.17409788e-01, 0., 0., 0., 8.07973221e-02, 7.02313557e-02,
          1.23654999e-01, 9.18678269e-02, -1.77052319e-01,
          -1.77052319e-01, 0., 0., 0., 7.41377547e-02, 2.74509013e-01,
          3.80343124e-02, 1.09759390e-01, 1.10828895e-02, 1.10828895e-02,
          0., 0., 0., -1.03328660e-01, -1.92848593e-01, -8.24264362e-02,
          -8.77584517e-02, 7.41584226e-03, 7.41584226e-03, 0., 0., 0.,
          -9.16385427e-02, -2.48865649e-01, -1.06964201e-01,
          -1.00369275e-01, 5.91425374e-02, 5.91425374e-02, 0., 0., 0.,
          7.93173462e-02, 1.41650796e-01, -1.52017344e-02,
          5.88889308e-02, -1.04085095e-01, -1.04085095e-01, 0., 0., 0.,
          1.15649804e-01, 3.00063372e-01, 2.04592377e-01, 1.29238859e-01,
          3.75267118e-02, 3.75267118e-02, 0., 0., 0., -3.33025545e-01,
          1.71509851e-02, -3.19153666e-01, -3.21828693e-01,
          5.72999828e-02, 5.72999828e-02, 0., 0., 0., 1.14292555e-01,
          -3.33594292e-01, -2.76567675e-02, 5.97510813e-03,
          -5.72427809e-02, -5.72427809e-02, 0., 0., 0., 5.46687506e-02,
          2.65366435e-01, 1.39513463e-01, 6.43901601e-02, 6.94278851e-02,
          6.94278851e-02, 0., 0., 0., 1.64064288e-01, 5.10769077e-02,
          2.07296923e-01, 2.51463354e-01, -6.94851801e-02,
          -6.94851801e-02, 0., 0., 0., -1.19569115e-01, -1.96593568e-01,
          -1.84768245e-01, -1.74602702e-01, 6.62354976e-02,
          6.62354976e-02, 0., 0., 0., -1.88120633e-01, -2.95452420e-02,
          -9.30689126e-02, -7.24457502e-02, -1.79577060e-02,
          -1.79577060e-02, 0., 0., 0., 2.12747619e-01, 1.23908110e-01,
          7.98266232e-02, 6.90413043e-02, 3.92775498e-02, 3.92775498e-02,
          0., 0., 0., 9.49421003e-02, 9.87886190e-02, 1.98010489e-01,
          1.78007081e-01, -8.75552446e-02, -8.75552446e-02, 0., 0., 0.,
          -2.88195997e-01, 3.87177356e-02, -2.00285017e-01,
          -1.69133887e-01, 5.14025427e-02, 5.14025427e-02, 0., 0., 0.,
          -3.01141161e-02, -1.20398208e-01, -9.85550657e-02,
          -1.17365323e-01, -2.68223677e-02, -2.68223677e-02, 0., 0., 0.,
          -5.76990917e-02, 7.89406970e-02, 1.35737821e-01,
          1.17398709e-01, 1.32052777e-02, 1.32052777e-02, 0., 0., 0.,
          3.76009256e-01, 3.47925141e-03, 1.67283922e-01, 1.73282176e-01,
          -3.36038694e-02, -3.36038694e-02, 0., 0., 0., -1.43551067e-01,
          -1.30842462e-01, -6.35766089e-02, -6.03168793e-02,
          1.23651944e-01, 1.23651944e-01, 0., 0., 0., -1.46623895e-01,
          3.92302461e-02, -4.80144359e-02, 7.61190206e-02,
          6.69615269e-02, 6.69615269e-02, 0., 0., 0., 7.01575726e-02,
          -3.78562398e-02, 1.44209281e-01, 1.16910502e-01,
          -4.80170436e-02, -4.80170436e-02, 0., 0., 0., 1.73248604e-01,
          1.79581121e-01, 1.74943525e-02, -6.61174906e-03,
          -6.03397340e-02, -6.03397340e-02, 0., 0., 0., -4.61929739e-02,
          -1.02233507e-01, 1.19257100e-01, 1.66046560e-01,
          -2.09683906e-02, -2.09683906e-02, 0., 0., 0., 7.56477891e-03,
          -2.68352419e-01, -2.86982089e-01, -2.70927727e-01,
          1.20949335e-01, 1.20949335e-01, 0., 0., 0., -1.40803950e-02,
          1.54388696e-01, 1.91016942e-01, 1.59759268e-01,
          -1.57337487e-01, -1.57337487e-01, 0., 0., 0., 5.27086146e-02,
          1.92683861e-01, -6.61808997e-02, -3.38851959e-02,
          5.73565438e-02, 5.73565438e-02, 0., 0., 0., -2.37471797e-02,
          -2.67228067e-01, -1.15169875e-01, -1.79253235e-01,
          -6.71383217e-02, -6.71383217e-02, 0., 0., 0., -3.02901305e-02,
          -1.07500121e-01, -1.11404374e-01, -3.04634199e-02,
          8.48135576e-02, 8.48135576e-02, 0., 0., 0., -6.58834353e-02,
          9.23169553e-02, 3.17677781e-02, 4.13266011e-02,
          -1.57273337e-01, -1.57273337e-01, 0., 0., 0., 3.01439893e-02,
          1.69121087e-01, 1.05029725e-01, 7.86133111e-02, 4.98214178e-02,
          4.98214178e-02, 0., 0., 0., -2.41297156e-01, -7.47114122e-02,
          -1.58718333e-01, -8.88667181e-02, -6.91952184e-02,
          -6.91952184e-02, 0., 0., 0., -8.06182921e-02, -2.44125992e-01,
          -1.89582273e-01, -2.68327743e-01, 5.89789040e-02,
          5.89789040e-02, 0., 0., 0., -2.15546899e-02, -1.31163388e-01,
          2.73357499e-02, 2.38487069e-02, -1.68134451e-01,
          -1.68134451e-01, 0., 0., 0., 2.53693372e-01, 3.60223919e-01,
          2.31188118e-01, 2.43568942e-01, 8.85740370e-02, 8.85740370e-02,
          0., 0., 0., -1.50395438e-01, -1.74834415e-01, -1.47114053e-01,
          -2.12839529e-01, 1.31725445e-02, 1.31725445e-02, 0., 0., 0.,
          -9.22676399e-02, -3.97310704e-01, -5.50667429e-03,
          1.66607145e-02, -7.55576193e-02, -7.55576193e-02, 0., 0., 0.,
          -4.48021404e-02, 2.79001594e-01, 4.56608832e-02,
          3.71609405e-02, 1.44902572e-01, 1.44902572e-01, 0., 0., 0.,
          2.87465125e-01, 2.93143541e-01, 1.06959835e-01, 1.59017876e-01,
          -8.25175494e-02, -8.25175494e-02, 0., 0., 0., -7.90823251e-02,
          -2.44241655e-01, -3.10131848e-01, -2.96480596e-01,
          1.12766409e-02, 1.12766409e-02, 0., 0., 0., -8.16060007e-02,
          -2.32958853e-01, -7.62580615e-03, -3.74353826e-02,
          -1.48527427e-02, -1.48527427e-02, 0., 0., 0., 4.18544933e-02,
          1.83342353e-01, 1.24062315e-01, 1.48881599e-01, 5.92792518e-02,
          5.92792518e-02, 0., 0., 0., 1.18833840e-01, 2.90416062e-01,
          1.93695307e-01, 1.85034409e-01, -5.57031371e-02,
          -5.57031371e-02, 0., 0., 0., -2.73386419e-01, -1.45827517e-01,
          -1.69241488e-01, -2.25059390e-01, 6.25039414e-02,
          6.25039414e-02, 0., 0., 0., 7.18591213e-02, -1.88205808e-01,
          1.16828576e-01, 7.76824281e-02, 1.86552349e-02, 1.86552349e-02,
          0., 0., 0., -6.71617538e-02, 6.09783083e-02, 1.67121977e-01,
          1.53998822e-01, -7.98580470e-04, -7.98580470e-04, 0., 0., 0.,
          2.68689066e-01, 2.73794591e-01, -1.03412598e-01,
          4.67455387e-03, -7.61790127e-02, -7.61790127e-02, 0., 0., 0.,
          -3.18255313e-02, -1.66125417e-01, -1.14555784e-01,
          -1.15337461e-01, -5.53512052e-02, -5.53512052e-02, 0., 0., 0.,
          1.33614913e-01, -1.75356433e-01, 3.25204283e-02,
          5.85267097e-02, 5.61760180e-02, 5.61760180e-02, 0., 0., 0.,
          -1.04072295e-01, 4.19184178e-01, -1.01427697e-01,
          -6.99799806e-02, -5.57549438e-03, -5.57549438e-03, 0., 0., 0.,
          -5.76356687e-02, -8.59545916e-03, 1.94408491e-01,
          1.37736171e-01, 7.38575310e-02, 7.38575310e-02, 0., 0., 0.,
          -1.64109454e-01, -5.17834313e-02, -1.40604511e-01,
          -1.45372927e-01, -1.74831167e-01, -1.74831167e-01, 0., 0., 0.,
          6.56684116e-02, -1.84851885e-01, -3.36007029e-02,
          1.31297773e-02, 1.69736162e-01, 1.69736162e-01, 0., 0., 0.,
          -1.53381878e-03, -3.65962051e-02, 1.60221070e-01,
          1.39568046e-01, -1.43877238e-01, -1.43877238e-01, 0., 0., 0.,
          7.22003952e-02, 2.45457083e-01, -1.37903458e-02,
          -3.50993872e-02, 1.21197686e-01, 1.21197686e-01, 0., 0., 0.,
          -1.61422625e-01, -2.83242613e-01, -7.02332258e-02,
          -6.17983229e-02, -5.73501885e-02, -5.73501885e-02, 0., 0., 0.,
          -2.75460165e-02, 1.88230164e-02, -2.09126309e-01,
          -2.00374261e-01, 5.85408732e-02, 5.85408732e-02, 0., 0., 0.,
          -1.38471484e-01, -4.83682053e-03, 1.54203504e-01,
          1.15886718e-01, -1.66668311e-01, -1.66668311e-01, 0., 0., 0.,
          3.27440143e-01, 1.51705191e-01, 3.53792831e-02, 5.65090925e-02,
          7.57008865e-02, 7.57008865e-02, 0., 0., 0., -2.80577004e-01,
          -2.51460731e-01, -1.81327909e-01, -1.72168285e-01,
          -2.01414257e-01, -2.01414257e-01, 0., 0., 0., -1.55107364e-01,
          -8.49638134e-02, 2.52676345e-02, 4.87987623e-02,
          7.18093067e-02, 7.18093067e-02, 0., 0., 0., 1.49548590e-01,
          1.78626105e-01, -4.91428263e-02, -5.75314425e-02,
          -1.30381614e-01, -1.30381614e-01, 0., 0., 0., 1.96359009e-01,
          6.80216476e-02, 1.15426362e-01, 9.11241844e-02, 1.70209900e-01,
          1.70209900e-01, 0., 0., 0., -2.84028143e-01, -1.97231069e-01,
          -9.96036232e-02, -1.21719956e-01, 1.40450686e-01,
          1.40450686e-01, 0., 0., 0., 7.74903074e-02, -1.16488434e-01,
          -1.01441108e-01, -5.88227175e-02, -1.47983089e-01,
          -1.47983089e-01, 0., 0., 0., 1.09163173e-01, -5.71812093e-02,
          -6.10817447e-02, -5.31809442e-02, 1.20986812e-01,
          1.20986812e-01, 0., 0., 0., 9.73746777e-02, 2.81124026e-01,
          2.62126476e-01, 2.33723670e-01, -1.13454334e-01,
          -1.13454334e-01, 0., 0., 0., -9.43090543e-02, -3.36824030e-01,
          -2.07379684e-01, -1.88821673e-01, 5.33968844e-02,
          5.33968844e-02, 0., 0., 0., -3.00694723e-02, 2.52167314e-01,
          4.04377580e-02, 8.49777646e-03, -3.11125517e-02,
          -3.11125517e-02, 0., 0., 0., -7.37313777e-02, 1.40902683e-01,
          1.14491761e-01, 1.09944813e-01, 7.49219432e-02, 7.49219432e-02,
          0., 0., 0., 1.98109895e-01, -5.96880205e-02, 5.24502024e-02,
          7.03790337e-02, -9.72062871e-02, -9.72062871e-02, 0., 0., 0.,
          -1.22111879e-01, -2.74827927e-01, -1.42040998e-01,
          -1.67737216e-01, -1.20636309e-02, -1.20636309e-02, 0., 0., 0.,
          8.90103430e-02, -6.55364692e-02, -1.18739083e-02,
          8.46060365e-02, -1.10557638e-02, -1.10557638e-02, 0., 0., 0.,
          -2.29083118e-03, 1.34681672e-01, 4.42909487e-02,
          -2.04572119e-02, -2.87816618e-02, -2.87816618e-02, 0., 0., 0.,
          3.53922807e-02, 2.06422269e-01, 1.13805547e-01, 1.14884853e-01,
          5.60825728e-02, 5.60825728e-02, 0., 0., 0., -2.98011452e-01,
          1.11391269e-01, 5.65855205e-02, 7.07012564e-02,
          -7.26424232e-02, -7.26424232e-02, 0., 0., 0., -1.05009880e-02,
          -1.41432285e-01, -1.75430384e-02, -8.01440626e-02,
          2.10131127e-02, 2.10131127e-02, 0., 0., 0., 1.62008062e-01,
          -3.84408459e-02, 5.27214706e-02, 1.02044672e-01,
          2.29521334e-01, 2.29521334e-01, 0., 0., 0., 8.65858868e-02,
          6.92931637e-02, -2.30564699e-02, -2.38943733e-02,
          -1.08785085e-01, -1.08785085e-01, 0., 0., 0., -2.96576116e-02,
          -1.16347790e-01, -1.92119911e-01, -2.28734016e-01,
          1.15701750e-01, 1.15701750e-01, 0., 0., 0., -1.00522360e-03,
          -4.81551774e-02, 2.27831118e-02, -2.29661670e-02,
          1.87243626e-01, 1.87243626e-01, 0., 0., 0., -7.41833746e-02,
          4.71535586e-02, 8.28684643e-02, 1.09531663e-01,
          -2.83448786e-01, -2.83448786e-01, 0., 0., 0., 7.70717412e-02,
          8.95749405e-02, 5.86938486e-02, 1.14394017e-01,
          -4.72710244e-02, -4.72710244e-02, 0., 0., 0., -3.04574162e-01,
          2.42233742e-02, -1.56814128e-01, -1.88405693e-01,
          -1.04586795e-01, -1.04586795e-01, 0., 0., 0., 5.42282835e-02,
          -1.26698434e-01, -3.23229469e-02, -1.13806380e-02,
          2.93888748e-01, 2.93888748e-01, 0., 0., 0., -4.42170985e-02,
          9.77117494e-02, 1.77955121e-01, 2.15334728e-01,
          -2.93123662e-01, -2.93123662e-01, 0., 0., 0., 2.94563025e-01,
          -2.30111815e-02, 1.11819282e-02, -1.55485002e-02,
          1.03821732e-01, 1.03821732e-01, 0., 0., 0., 2.37334576e-02,
          -1.47635192e-01, -1.84396967e-01, -2.33734548e-01,
          -4.64793388e-03, -4.64793388e-03, 0., 0., 0., -1.25172436e-01,
          5.20482287e-02, 5.08439802e-02, 2.81450637e-02, 2.32908756e-01,
          2.32908756e-01, 0., 0., 0., 1.15925344e-02, 8.13557417e-05,
          -1.01546186e-03, -2.60151774e-02, -1.61211267e-01,
          -1.61211267e-01, 0., 0., 0., 8.98464024e-02, 9.55056250e-02,
          4.47916724e-02, 1.41827971e-01, -6.70495629e-02,
          -6.70495629e-02, 0., 0., 0., -1.46075159e-01, -3.38335186e-02,
          -1.87055573e-01, -2.20891133e-01, 1.93286136e-01,
          1.93286136e-01, 0., 0., 0., -3.36637832e-02, 1.89354979e-02,
          3.31820920e-02, -1.18255708e-02, 1.07597612e-01,
          1.07597612e-01, 0., 0., 0., 1.22772008e-01, -3.46709900e-02,
          -9.32418853e-02, -6.98384941e-02, -7.86546171e-02,
          -7.86546171e-02, 0., 0., 0., 5.69669381e-02, 4.95690443e-02,
          1.57338604e-01, 2.12778509e-01, -2.22229093e-01,
          -2.22229093e-01, 0., 0., 0., -1.28140092e-01, -1.32810935e-01,
          -1.75145879e-01, -2.03510627e-01, 1.07912660e-01,
          1.07912660e-01, 0., 0., 0., 3.75421382e-02, -1.11757249e-01,
          1.23230480e-01, 1.51503146e-01, -8.47389363e-03,
          -8.47389363e-03, 0., 0., 0., 1.21302985e-01, 1.51718825e-01,
          2.78285071e-02, 8.31121057e-02, -4.08927202e-02,
          -4.08927202e-02, 0., 0., 0., -3.07050906e-02, 8.94073024e-02,
          2.40869522e-02, -3.11045311e-02, -5.85460551e-02,
          -5.85460551e-02, 0., 0., 0., -7.21742064e-02, -2.44276062e-01,
          -2.20190793e-01, -2.20996469e-01, -1.07334800e-01,
          -1.07334800e-01, 0., 0., 0., 4.77587171e-02, 2.61285722e-01,
          -4.69585024e-02, -1.14011054e-03, -3.00233648e-03,
          -3.00233648e-03, 0., 0., 0., -1.94696449e-02, 1.20820992e-01,
          2.45427445e-01, 2.05768347e-01, 9.60297287e-02, 9.60297287e-02,
          0., 0., 0., 4.38850820e-02, -1.37091160e-01, 4.28056829e-02,
          4.45669256e-02, 1.84890311e-02, 1.84890311e-02, 0., 0., 0.,
          -5.39071560e-02, 7.88110346e-02, -2.79139690e-02,
          -3.57095636e-02, 1.59011111e-01, 1.59011111e-01, 0., 0., 0.,
          -2.40730122e-02, -2.62722112e-02, 3.30587514e-02,
          -9.84372292e-03, 2.47161254e-01, 2.47161254e-01, 0., 0., 0.,
          -5.93188554e-02, -9.22876373e-02, -6.06273673e-02,
          -2.05892660e-02, -1.25695467e-01, -1.25695467e-01, 0., 0., 0.,
          4.99849431e-02, 1.84298784e-01, 9.71939936e-02, 1.07853860e-01,
          -2.38765538e-01, -2.38765538e-01, 0., 0., 0., 9.37284455e-02,
          1.46974949e-03, -7.72459358e-02, -8.19610134e-02,
          -5.15556894e-02, -5.15556894e-02, 0., 0., 0., -8.83782580e-02,
          6.03933586e-03, -1.81262732e-01, -1.43412277e-01,
          1.32737488e-01, 1.32737488e-01, 0., 0., 0., -8.25485364e-02,
          -2.01927036e-01, 1.59909371e-02, 5.41315489e-02,
          -1.38113335e-01, -1.38113335e-01, 0., 0., 0., 7.71983191e-02,
          1.66643530e-01, 2.14743346e-01, 1.43467262e-01, 2.91570947e-02,
          2.91570947e-02, 0., 0., 0., -2.57875502e-01, 2.67994916e-03,
          -2.41663665e-01, -1.87018320e-01, -5.99053577e-02,
          -5.99053577e-02, 0., 0., 0., 1.64119095e-01, -1.42289802e-01,
          -1.23508923e-01, -1.49269909e-01, 2.44963378e-01,
          2.44963378e-01, 0., 0., 0., -2.55112976e-01, 6.88697537e-03,
          3.15621376e-01, 2.91080207e-01, -1.94420338e-01,
          -1.94420338e-01, 0., 0., 0., 3.48869413e-01, 1.32722884e-01,
          4.95511144e-02, 4.52080704e-02, 9.36242100e-03, 9.36242100e-03,
          0., 0., 0., -1.48013160e-01, -6.24197070e-03, -1.19871080e-01,
          -1.30199671e-01, 1.33597150e-01, 1.33597150e-01, 0., 0., 0.,
          -3.92631367e-02, 5.54948039e-02, -8.81955698e-02,
          -4.46342155e-02, 1.36838287e-01, 1.36838287e-01, 0., 0., 0.,
          1.27989173e-01, 9.63642895e-02, 1.49001479e-01, 1.29748538e-01,
          -1.88670814e-01, -1.88670814e-01, 0., 0., 0., 5.92870638e-02,
          -1.45617083e-01, 5.90651408e-02, 4.50853184e-02,
          -8.17645490e-02, -8.17645490e-02, 0., 0., 0., -8.72826278e-02,
          -2.28438348e-01, -3.06186229e-02, -1.39137637e-02,
          1.45725191e-01, 1.45725191e-01, 0., 0., 0., -7.32833473e-03,
          -1.10716317e-02, -1.17331535e-01, -8.70940983e-02,
          6.92086387e-03, 6.92086387e-03, 0., 0., 0., 1.88565463e-01,
          -1.76325291e-02, 4.07211632e-02, -6.73775300e-02,
          -2.79556755e-02, -2.79556755e-02, 0., 0., 0., -9.39545333e-02,
          2.57142484e-01, 1.07228965e-01, 7.86086917e-02,
          -1.24690451e-01, -1.24690451e-01, 0., 0., 0., -1.10804163e-01,
          -1.98960930e-01, -1.46808237e-01, -1.58932462e-01,
          5.55906259e-02, 5.55906259e-02, 0., 0., 0., -1.40507713e-01,
          -4.02894095e-02, -6.69609904e-02, -9.06931236e-02,
          1.01756297e-01, 1.01756297e-01, 0., 0., 0., 1.16489768e-01,
          -8.23168829e-02, 1.38940573e-01, 1.72801062e-01,
          -9.35354754e-02, -9.35354754e-02, 0., 0., 0., 1.34822130e-01,
          3.21567267e-01, 7.48286843e-02, 7.68244788e-02,
          -6.38114586e-02, -6.38114586e-02, 0., 0., 0., -9.82309878e-02,
          2.21432727e-02, -1.13067098e-01, -1.42649516e-01,
          1.56413496e-01, 1.56413496e-01, 0., 0., 0., 1.27094910e-01,
          -9.77648273e-02, -1.64340571e-01, -1.44945905e-01,
          1.30834728e-01, 1.30834728e-01, 0., 0., 0., 1.98167772e-03,
          -4.52328194e-03, 1.04147479e-01, 1.24708533e-01,
          -1.56612143e-01, -1.56612143e-01, 0., 0., 0., -3.08455471e-02,
          8.08844864e-02, 2.34829754e-01, 2.31571317e-01,
          -1.26454428e-01, -1.26454428e-01, 0., 0., 0., 5.63144637e-03,
          -4.03720234e-03, 2.90657654e-02, 9.03452337e-02,
          -2.75802314e-02, -2.75802314e-02, 0., 0., 0., 3.77236195e-02,
          -1.81641743e-01, -6.49191141e-02, -4.76382188e-02,
          -3.90190892e-02, -3.90190892e-02, 0., 0., 0., -1.11294538e-01,
          2.42127910e-01, 1.25297397e-01, 5.11990748e-02,
          -6.15659021e-02, -6.15659021e-02, 0., 0., 0., 8.39986559e-03,
          1.30368676e-02, -1.99582484e-02, -2.44202074e-02,
          1.97651058e-01, 1.97651058e-01, 0., 0., 0., -2.65025683e-02,
          -2.89770335e-01, -6.86664507e-02, 7.02023804e-02,
          -3.95179465e-02, -3.95179465e-02, 0., 0., 0., -8.87731537e-02,
          -7.10187703e-02, -2.13104218e-01, -3.23766142e-01,
          1.80229872e-01, 1.80229872e-01, 0., 0., 0., -1.33234888e-01,
          1.04509480e-01, 1.90787762e-01, 2.16294751e-01,
          -4.82464768e-02, -4.82464768e-02, 0., 0., 0., 2.48510569e-01,
          2.28884071e-01, 9.09829140e-02, 3.72689888e-02,
          -9.24654901e-02, -9.24654901e-02, 0., 0., 0., -1.58767238e-01,
          8.09182823e-02, -1.54996738e-01, -1.88330084e-01,
          1.41807333e-01, 1.41807333e-01, 0., 0., 0., 1.09214835e-01,
          -3.41951787e-01, -1.61545902e-01, -1.67626053e-01,
          2.30576754e-01, 2.30576754e-01, 0., 0., 0., -2.22807497e-01,
          3.22338683e-03, 2.53072977e-01, 2.87179947e-01,
          -2.35440508e-01, -2.35440508e-01, 0., 0., 0., 2.72359908e-01,
          2.57810086e-01, 6.34696409e-02, 6.87760860e-02,
          -1.36943504e-01, -1.36943504e-01, 0., 0., 0., -4.23412398e-02,
          -2.43357599e-01, -3.83515894e-01, -4.10654813e-01,
          7.04012811e-02, 7.04012811e-02, 0., 0., 0., 4.56796624e-02,
          -1.46382511e-01, -1.00029437e-02, 2.83813793e-02,
          2.27217525e-01, 2.27217525e-01, 0., 0., 0., -1.03030130e-02,
          1.44138411e-01, 2.58980036e-01, 2.84257829e-01,
          -2.71510780e-01, -2.71510780e-01, 0., 0., 0., 6.96464209e-03,
          2.45601699e-01, 1.34538740e-01, 9.80157033e-02,
          -2.61080712e-02, -2.61080712e-02, 0., 0., 0., -1.09737903e-01,
          -5.77667058e-01, -3.56955737e-01, -3.24719876e-01,
          1.04932316e-01, 1.04932316e-01, 0., 0., 0., -6.98938891e-02,
          -1.53885230e-01, 6.60467381e-03, 3.04746851e-02,
          5.83378114e-02, 5.83378114e-02, 0., 0., 0., 1.25251323e-01,
          3.00546110e-01, 3.84496361e-01, 3.60579938e-01,
          -1.30089834e-01, -1.30089834e-01, 0., 0., 0., 5.43804318e-02,
          4.31006163e-01, -3.41452174e-02, -6.63347095e-02,
          -3.31802517e-02, -3.31802517e-02, 0., 0., 0., 6.26348844e-03,
          -2.07874209e-01, -2.07053706e-01, -2.38396451e-01,
          9.46482942e-02, 9.46482942e-02, 0., 0., 0., -1.54965147e-01,
          1.29594713e-01, -1.36236906e-01, -8.21663067e-02,
          -2.11701635e-02, -2.11701635e-02, 0., 0., 0., 5.54621685e-03,
          2.18498725e-02, 1.20680131e-01, 7.38243908e-02,
          -4.15500738e-02, -4.15500738e-02, 0., 0., 0., 1.43155470e-01,
          5.64295761e-02, 8.51994231e-02, 1.09327279e-01,
          -3.19279730e-02, -3.19279730e-02, 0., 0., 0., -1.39364779e-01,
          -6.19054288e-02, -1.88125148e-01, -1.55780107e-01,
          1.07328087e-01, 1.07328087e-01, 0., 0., 0., 1.39434664e-02,
          -8.40377435e-02, -2.22767685e-02, -6.17425889e-03,
          2.38181837e-02, 2.38181837e-02, 0., 0., 0., 1.64277434e-01,
          1.35726333e-01, -6.92172721e-02, -6.91599250e-02,
          -5.43662123e-02, -5.43662123e-02, 0., 0., 0., -3.88561673e-02,
          1.09564159e-02, 1.46389648e-01, 1.04999699e-01,
          -7.25984424e-02, -7.25984424e-02, 0., 0., 0., -6.42192364e-02,
          6.72363341e-02, 1.43555803e-02, 4.20845719e-03,
          -3.97535786e-02, -3.97535786e-02, 0., 0., 0., 1.38868794e-01,
          -1.28681421e-01, -1.87769488e-01, -1.28247201e-01,
          1.12333514e-01, 1.12333514e-01, 0., 0., 0., 4.74137664e-02,
          3.83065268e-02, 6.59449622e-02, 4.06436101e-02, 2.47797258e-02,
          2.47797258e-02, 0., 0., 0., -1.81602970e-01, 9.26244333e-02,
          1.16902731e-01, 9.28290188e-02, -2.78737061e-02,
          -2.78737061e-02, 0., 0., 0., -2.62690842e-01, 7.73720965e-02,
          3.76285575e-02, 7.86163136e-02, -1.16911009e-02,
          -1.16911009e-02, 0., 0., 0., 3.00012499e-01, -3.39511305e-01,
          -1.22828417e-01, -1.21545479e-01, 2.03203931e-02,
          2.03203931e-02, 0., 0., 0., -6.90311342e-02, -3.02180685e-02,
          6.18928857e-02, 2.40806099e-02, -8.41237605e-02,
          -8.41237605e-02, 0., 0., 0., 3.17094848e-02, 2.32817635e-01,
          2.33068950e-02, 1.88485347e-02, 7.54944757e-02, 7.54944757e-02,
          0., 0., 0., -1.31100446e-01, -1.13257594e-01, -1.36600047e-01,
          -1.13719672e-01, -8.95005241e-02, -8.95005241e-02, 0., 0., 0.,
          3.43266070e-01, -4.85069007e-01, -5.27070053e-02,
          -2.72345394e-02, -4.01581787e-02, -4.01581787e-02, 0., 0., 0.,
          -1.92923360e-02, -1.65345671e-03, 1.25330344e-01,
          1.43773511e-01, 7.98355415e-02, 7.98355415e-02, 0., 0., 0.,
          -1.92873344e-01, 5.99980056e-01, 6.39766827e-02,
          -2.81925802e-03, 4.98231277e-02, 4.98231277e-02, 0., 0., 0.,
          1.18627705e-01, -5.80883563e-01, -9.58468914e-02,
          -4.38033529e-02, -1.22193411e-01, -1.22193411e-01, 0., 0., 0.,
          1.52346760e-01, -2.23676190e-01, -5.00764363e-02,
          -7.08275661e-02, 1.49885356e-01, 1.49885356e-01, 0., 0., 0.,
          -2.19875753e-01, 2.58663654e-01, 2.57636216e-02,
          -4.87248367e-03, -1.04808256e-01, -1.04808256e-01, 0., 0., 0.,
          -5.10987453e-02, 5.45895994e-01, 1.20159678e-01,
          1.19503304e-01, 7.71163777e-02, 7.71163777e-02, 0., 0., 0.,
          1.55054048e-01, -4.32045519e-01, -1.95724666e-01,
          -2.62331903e-01, -1.86525621e-02, -1.86525621e-02, 0., 0., 0.,
          8.63793716e-02, -2.12045223e-01, -2.21189782e-02,
          8.40045977e-03, 8.39427412e-02, 8.39427412e-02, 0., 0., 0.,
          -1.54188335e-01, 3.99962366e-01, 1.88893273e-01,
          2.26728335e-01, 8.13319534e-03, 8.13319534e-03, 0., 0., 0.,
          -8.72451067e-02, 2.44128466e-01, 2.89504472e-02,
          2.72031371e-02, -7.34233558e-02, -7.34233558e-02, 0., 0., 0.,
          6.59150183e-02, -3.97053987e-01, 2.18717176e-02,
          5.21938168e-02, 1.03526369e-01, 1.03526369e-01, 0., 0., 0.,
          3.01187307e-01, -3.05103278e-03, -1.42654374e-01,
          -9.58561748e-02, 8.10739473e-02, 8.10739473e-02, 0., 0., 0.,
          -2.10188165e-01, 2.13172615e-01, 4.06867228e-02,
          4.39000921e-03, -7.44565204e-02, -7.44565204e-02, 0., 0., 0.,
          -1.56914189e-01, 1.86932325e-01, 8.00959915e-02,
          3.92724574e-02, -1.10143766e-01, -1.10143766e-01, 0., 0., 0.,
          1.40589282e-01, -2.26426736e-01, -8.14377982e-03,
          5.54214492e-02, 1.34123102e-01, 1.34123102e-01, 0., 0., 0.,
          1.75876189e-02, -1.66038349e-01, 4.12862115e-02,
          2.00514756e-02, 4.71499227e-02, 4.71499227e-02, 0., 0., 0.,
          -7.43335485e-02, 9.41318572e-02, -8.98498073e-02,
          -4.76871282e-02, -1.01018503e-01, -1.01018503e-01, 0., 0., 0.,
          -8.38434398e-02, 3.02514851e-01, 6.08890317e-02,
          4.14915085e-02, -7.60729983e-02, -7.60729983e-02, 0., 0., 0.,
          -5.81765324e-02, -5.48517630e-02, 5.49010141e-03,
          -3.64759527e-02, -5.95709644e-02, -5.95709644e-02, 0., 0., 0.,
          1.01628698e-01, 1.24719687e-01, 5.08016609e-02,
          -4.47968543e-02, 1.85265150e-02, 1.85265150e-02, 0., 0., 0.,
          -5.87134175e-02, -1.67359129e-01, 1.03388056e-01,
          1.13760084e-01, 1.64234117e-01, 1.64234117e-01, 0., 0., 0.,
          -1.89137291e-02, 1.92341506e-01, 2.13277657e-02,
          6.85556307e-02, -5.37038185e-02, -5.37038185e-02, 0., 0., 0.,
          -3.31269428e-02, -1.53033733e-01, 1.85159612e-02,
          1.55356051e-02, -1.17967926e-01, -1.17967926e-01, 0., 0., 0.,
          1.52153345e-02, -2.33588908e-02, 9.66077521e-02,
          9.19448212e-02, 5.29195331e-02, 5.29195331e-02, 0., 0., 0.,
          1.66598875e-02, 1.04029484e-01, -6.80103153e-02,
          -5.53461723e-02, -4.67209145e-03, -4.67209145e-03, 0., 0., 0.,
          2.66163070e-02, 3.81880589e-02, -2.17488725e-02,
          -2.67695766e-02, 6.97204620e-02, 6.97204620e-02, 0., 0., 0.,
          1.87639400e-01, -7.52164349e-02, -2.68684309e-02,
          -2.97499299e-02, 1.61113013e-02, 1.61113013e-02, 0., 0., 0.,
          -1.74422592e-01, 1.57083143e-02, 9.79790017e-02,
          5.14600314e-02, -2.07150150e-02, -2.07150150e-02, 0., 0., 0.,
          -4.37409021e-02, -3.57569367e-01, 3.77648771e-02,
          5.37481308e-02, -4.54854891e-02, -4.54854891e-02, 0., 0., 0.,
          5.58885932e-02, 4.42442000e-01, -8.35109502e-02,
          -5.00936918e-02, 5.00892103e-02, 5.00892103e-02, 0., 0., 0.,
          1.92013457e-01, -8.24178308e-02, -6.21322542e-03,
          -4.71137166e-02, -1.55345619e-01, -1.55345619e-01, 0., 0., 0.,
          1.95016369e-01, -1.72794655e-01, -9.85847712e-02,
          -5.94418384e-02, 1.57468185e-01, 1.57468185e-01, 0., 0., 0.,
          -2.34477058e-01, -8.04804079e-03, 1.39062461e-02,
          7.49199018e-02, -6.56198859e-02, -6.56198859e-02, 0., 0., 0.,
          -1.27188191e-01, 2.88625062e-01, 1.16256312e-01,
          5.70001341e-02, 6.34973347e-02, 6.34973347e-02, 0., 0., 0.,
          1.40443921e-01, -3.96794491e-02, -1.43867657e-01,
          -1.14495821e-01, 8.17978755e-02, 8.17978755e-02, 0., 0., 0.,
          1.41858041e-01, -1.24011137e-01, 1.62941571e-02,
          3.20526399e-02, 2.45650783e-02, 2.45650783e-02, 0., 0., 0.,
          -2.81276733e-01, -1.16140462e-01, 1.38185307e-01,
          4.68125343e-02, -7.54379928e-02, -7.54379928e-02, 0., 0., 0.,
          2.43393052e-02, 3.05195600e-01, 1.47528434e-02, 6.09952398e-02,
          -3.09250019e-02, -3.09250019e-02, 0., 0., 0., 1.37216583e-01,
          3.28780971e-02, 1.36319026e-02, -1.92622226e-02,
          5.00519723e-02, 5.00519723e-02, 0., 0., 0., -2.20252778e-02,
          -4.24773157e-01, -1.69447549e-02, -2.98049394e-02,
          5.35743423e-02, 5.35743423e-02, 0., 0., 0., -1.40127003e-01,
          1.93720922e-01, 7.55100399e-02, 1.08002536e-01, 4.97114584e-02,
          4.97114584e-02, 0., 0., 0., 5.03003448e-02, 2.23538712e-01,
          -4.68326956e-02, -3.35708112e-02, -1.53337792e-01,
          -1.53337792e-01, 0., 0., 0., 2.32960712e-02, -7.30789974e-02,
          -3.51684652e-02, -1.63231492e-02, 2.35792864e-02,
          2.35792864e-02, 0., 0., 0., 1.33192509e-01, -1.64396375e-01,
          -7.86701590e-03, -3.11951619e-02, 3.95065807e-02,
          3.95065807e-02, 0., 0., 0., -2.83324365e-02, 8.68379790e-03,
          3.92878503e-02, 5.11466116e-02, -3.01097464e-02,
          -3.01097464e-02, 0., 0., 0., -1.02791607e-01, 2.58337855e-01,
          5.01960851e-02, 4.28200737e-02, -2.87945159e-02,
          -2.87945159e-02, 0., 0., 0., -2.43445292e-01, 1.94665566e-01,
          -2.59874705e-02, -1.62479037e-03, 6.87606931e-02,
          6.87606931e-02, 0., 0., 0., 1.70324460e-01, -1.84030816e-01,
          7.21807629e-02, 9.32932049e-02, 7.48172849e-02, 7.48172849e-02,
          0., 0., 0., -8.59803185e-02, 1.06872484e-01, 4.69791181e-02,
          2.78458484e-02, -1.56936690e-01, -1.56936690e-01, 0., 0., 0.,
          1.89858377e-01, 6.28655031e-02, 1.73931926e-01, 1.47590071e-01,
          1.10239953e-01, 1.10239953e-01, 0., 0., 0., -1.49289761e-02,
          -3.40912566e-02, -1.02266490e-01, -9.68191400e-02,
          -6.96284771e-02, -6.96284771e-02, 0., 0., 0., 3.40998955e-02,
          -4.59169634e-02, 2.67912954e-01, 2.70382524e-01,
          9.17743612e-03, 9.17743612e-03, 0., 0., 0., 1.04158729e-01,
          1.04425907e-01, -2.65886318e-02, -1.38602555e-02,
          -2.61502191e-02, -2.61502191e-02, 0., 0., 0., -6.04283959e-02,
          -2.10560616e-02, -7.61566609e-02, -9.68018919e-02,
          8.66012201e-02, 8.66012201e-02, 0., 0., 0., 1.00632608e-01,
          2.56928682e-01, -1.11540422e-01, -1.02095239e-01,
          -7.23824501e-02, -7.23824501e-02, 0., 0., 0., -1.10642113e-01,
          -3.63633819e-02, 5.02200834e-02, 5.23402169e-02,
          5.42554120e-03, 5.42554120e-03, 0., 0., 0., 2.03632653e-01,
          -7.54337013e-02, 9.62123871e-02, 7.96273947e-02,
          4.21475843e-02, 4.21475843e-02, 0., 0., 0., -1.30721882e-01,
          -8.22304636e-02, 4.73954119e-02, 5.24149761e-02,
          2.48092189e-02, 2.48092189e-02, 0., 0., 0., -6.57331273e-02,
          -3.99180539e-02, 1.47780910e-01, 1.79648310e-01,
          -4.26976532e-02, -4.26976532e-02, 0., 0., 0., -1.28845692e-01,
          -3.96697000e-02, -4.86630276e-02, -1.09346293e-01,
          -2.27540527e-02, -2.27540527e-02, 0., 0., 0., 6.48495108e-02,
          2.90145483e-02, -8.06150585e-02, -1.58910695e-02,
          6.59699142e-02, 6.59699142e-02, 0., 0., 0., 1.61826685e-01,
          8.26704502e-02, 4.52372916e-02, 9.32915322e-03,
          -3.13221626e-02, -3.13221626e-02, 0., 0., 0., -2.04046264e-01,
          1.97063208e-01, -1.30663589e-02, -5.08497767e-02,
          -9.04764459e-02, -9.04764459e-02, 0., 0., 0., -8.67984816e-02,
          -2.25318030e-01, -6.91390317e-03, 2.47570165e-02,
          3.84161286e-02, 3.84161286e-02, 0., 0., 0., 2.34866679e-01,
          1.04035042e-01, 1.09229676e-01, 7.93749690e-02,
          -5.42318486e-02, -5.42318486e-02, 0., 0., 0., 1.18879303e-01,
          -1.28789786e-02, -3.06735630e-03, 6.45426139e-02,
          1.06292114e-01, 1.06292114e-01, 0., 0., 0., -1.27881944e-01,
          2.48049907e-02, -6.92455024e-02, -7.75768757e-02,
          -4.32527661e-02, -4.32527661e-02, 0., 0., 0., 5.89039177e-02,
          -1.09143838e-01, 1.06548853e-01, 1.24989599e-01,
          -4.34897244e-02, -4.34897244e-02, 0., 0., 0., -5.29469438e-02,
          3.34888697e-01, 6.96281791e-02, 6.12295307e-02, 1.11928202e-01,
          1.11928202e-01, 0., 0., 0., 2.08106935e-01, -1.64367750e-01,
          -2.07494367e-02, -2.24602241e-02, -2.51857117e-02,
          -2.51857117e-02, 0., 0., 0., 4.27585803e-02, -3.78374234e-02,
          -1.27676399e-02, -2.75906269e-02, -1.57029908e-02,
          -1.57029908e-02, 0., 0., 0., -5.45671880e-02, -1.82377085e-01,
          -6.40151426e-02, -9.38798189e-02, -1.28557310e-01,
          -1.28557310e-01, 0., 0., 0., 8.65951851e-02, 9.87474024e-02,
          -1.98796653e-04, 4.21584994e-02, 1.27509404e-02,
          1.27509404e-02, 0., 0., 0., -1.18851960e-02, 2.25554645e-01,
          1.84247553e-01, 1.86577901e-01, 1.35690987e-01, 1.35690987e-01,
          0., 0., 0. ]
   decision_functions:
      -
         sv_count: 1
         rho: -3.5998817168842351e-01
         alpha: [ 1. ]
         index: [ 0 ]
