%YAML:1.0
my_svm: !!opencv-ml-svm
   svm_type: C_SVC
   kernel: { type:LINEAR }
   C: 2.6699999999999999e+00
   term_criteria: { epsilon:1.1920928955078125e-07, iterations:1000 }
   var_all: 3780
   var_count: 3780
   class_count: 2
   class_labels: !!opencv-matrix
      rows: 1
      cols: 2
      dt: i
      data: [ 0, 1 ]
   sv_total: 1
   support_vectors:
      - [ 0., 0., 0., 0., -1.94676042e-01, 4.80431229e-01,
          -7.96005785e-01, -7.26296365e-01, -6.03092134e-01, 0., 0., 0.,
          0., 9.74969268e-01, 2.43988936e-03, -2.59610534e-01,
          4.17699777e-02, 2.80867726e-01, 0., 0., 0., 0.,
          -2.65957832e-01, 4.51899409e-01, 2.27741212e-01,
          -3.07648480e-01, -2.08022118e-01, 0., 0., 0., 0.,
          -5.07776141e-01, 4.44786310e-01, 5.05629361e-01,
          -6.34640381e-02, 2.75777757e-01, 0., 0., 0., 0.,
          2.45696679e-01, -3.07604242e-02, -4.90968108e-01,
          -1.72203377e-01, -2.63663471e-01, 0., 0., 0., 0.,
          1.33036315e-01, 9.76664498e-02, 1.29698142e-02,
          -5.05213618e-01, 7.10047960e-01, 0., 0., 0., 0.,
          -5.24171114e-01, 4.23251659e-01, -3.72144133e-01,
          -3.19096267e-01, 1.25487059e-01, 0., 0., 0., 0.,
          3.09784621e-01, 1.03371508e-01, 3.00630867e-01, 1.20986678e-01,
          -1.79597646e-01, 0., 0., 0., 0., -1.24266051e-01,
          -3.07470392e-02, -4.35698718e-01, -4.65206087e-01,
          -1.62248150e-01, 0., 0., 0., 0., -1.16604991e-01,
          -5.84683344e-02, 4.29547250e-01, 1.43405542e-01,
          -2.61536241e-01, 0., 0., 0., 0., 4.14406247e-02,
          4.33810651e-02, 1.01409890e-01, 1.61162883e-01,
          -2.73640662e-01, 0., 0., 0., 0., 4.88996089e-01,
          4.15698485e-03, -2.24525243e-01, 1.36455387e-01,
          -1.28894240e-01, 0., 0., 0., 0., 3.13358307e-02,
          -3.41296971e-01, 1.72110021e-01, 6.73693493e-02,
          -4.16528404e-01, 0., 0., 0., 0., -6.68586433e-01,
          -1.12058491e-01, 2.30345372e-02, 5.43634474e-01,
          1.72848865e-01, 0., 0., 0., 0., 1.07084446e-01,
          -4.14841175e-02, -4.88988221e-01, -3.40122618e-02,
          -2.98394620e-01, 0., 0., 0., 0., 4.69542295e-01,
          2.98724800e-01, -6.64751083e-02, 2.87625074e-01,
          3.07581633e-01, 0., 0., 0., 0., -3.19178641e-01,
          -2.87468344e-01, -2.05103487e-01, 3.30224484e-01,
          -7.03148544e-01, 0., 0., 0., 0., -4.58087057e-01,
          -1.33940941e-02, -1.68286428e-01, 3.88121784e-01,
          5.05949080e-01, 0., 0., 0., 0., -8.97057652e-02,
          2.43802890e-01, 3.28357279e-01, 1.72140911e-01, 2.50833392e-01,
          0., 0., 0., 0., 9.60195288e-02, 1.88432708e-01,
          -1.10767588e-01, -4.69829917e-01, 2.95653552e-01, 0., 0., 0.,
          0., 1.45301908e-01, -3.52001563e-02, -9.86245126e-02,
          2.69555777e-01, -6.52390897e-01, 0., 0., 0., 0.,
          9.75888789e-01, 7.12042078e-02, -8.11676502e-01,
          -7.49777317e-01, -3.63993883e-01, 0., 0., 0., 0.,
          7.97870457e-01, 2.88058847e-01, -1.01046331e-01,
          -5.66045821e-01, -1.12196319e-01, 0., 0., 0., 0.,
          2.68410742e-01, 2.11858720e-01, -6.07370622e-02,
          1.61473393e-01, 3.74141186e-01, 0., 0., 0., 0.,
          -4.28723067e-01, 6.56680912e-02, -3.48415338e-02,
          -6.55165255e-01, -4.47380364e-01, 0., 0., 0., 0.,
          1.59916925e+00, -1.92571402e-01, 2.13160932e-01,
          4.90414679e-01, 8.63201797e-01, 0., 0., 0., 0., 4.03375775e-02,
          2.68519789e-01, -2.15861183e-02, 2.92483568e-01,
          -4.57464069e-01, 0., 0., 0., 0., 3.26479077e-01,
          -5.29617608e-01, -2.50550777e-01, -4.96362478e-01,
          -6.45172298e-01, 0., 0., 0., 0., -4.09528315e-01,
          5.92928290e-01, -2.06942141e-01, -2.18088359e-01,
          -6.76237121e-02, 0., 0., 0., 0., 5.10856271e-01,
          5.23951709e-01, -4.04163361e-01, -1.00064017e-01,
          2.85730064e-01, 0., 0., 0., 0., 1.98267460e-01, 4.42894816e-01,
          -4.65384185e-01, -1.10560417e+00, 4.27298620e-02, 0., 0., 0.,
          0., -4.32134509e-01, -1.14818305e-01, -5.28090298e-01,
          2.37754360e-01, 5.36211766e-03, 0., 0., 0., 0.,
          -7.15432763e-01, 3.99719507e-01, -4.71046031e-01,
          -2.79007584e-01, 1.35473832e-01, 0., 0., 0., 0.,
          -1.14801787e-01, 1.50804222e-01, 3.66267711e-01,
          2.03731120e-01, -3.59992802e-01, 0., 0., 0., 0.,
          -4.23541754e-01, -2.28898630e-01, -1.06699169e-01,
          2.76194483e-01, -9.97429565e-02, 0., 0., 0., 0.,
          1.85816467e-01, 1.02766350e-01, 4.87628579e-03, 5.33045307e-02,
          1.88329920e-01, 0., 0., 0., 0., -4.09242868e-01,
          4.68480177e-02, 3.28414850e-02, 1.58399731e-01,
          -4.52724993e-01, 0., 0., 0., 0., 3.44169363e-02,
          4.23573181e-02, -1.26694560e-01, 2.75348257e-02,
          -7.02757686e-02, 0., 0., 0., 0., 6.95292875e-02,
          -5.34544475e-02, 2.78184384e-01, 8.99580792e-02,
          -1.74603552e-01, 0., 0., 0., 0., -2.30667889e-01,
          1.05554223e-01, 3.55252028e-02, -2.32213035e-01,
          9.68483090e-02, 0., 0., 0., 0., 2.51724333e-01,
          -5.08396588e-02, -1.07267074e-01, -6.20362051e-02,
          -1.52595878e-01, 0., 0., 0., 0., 5.21066844e-01,
          2.75077254e-01, 2.61547714e-01, 3.14086944e-01, 3.14500213e-01,
          0., 0., 0., 0., -7.65405074e-02, 1.07146814e-01,
          5.61025262e-01, -2.13463053e-01, 4.15442228e-01, 0., 0., 0.,
          0., -5.38925491e-02, -5.64397395e-01, -3.07024177e-02,
          2.15047654e-02, -1.64597467e-01, 0., 0., 0., 0.,
          3.29225868e-01, 1.38754055e-01, 3.63013238e-01, 3.71742360e-02,
          1.63098231e-01, 0., 0., 0., 0., 6.04185283e-01, 2.27657273e-01,
          1.07615960e+00, -3.09329271e-01, 1.44034490e-01, 0., 0., 0.,
          0., -3.72201830e-01, -5.98483384e-01, -1.59871563e-01,
          -2.66368717e-01, -6.89951539e-01, 0., 0., 0., 0.,
          -1.19969293e-01, 4.19744015e-01, 2.02287119e-02,
          4.76600438e-01, 8.30905288e-02, 0., 0., 0., 0., 4.74320918e-01,
          2.01029524e-01, 6.27446592e-01, -4.04568017e-01,
          -2.91360438e-01, 0., 0., 0., 0., 3.65563750e-01,
          2.25903168e-01, 1.52725220e-01, 2.10688367e-01,
          -5.81658900e-01, 0., 0., 0., 0., -1.75084993e-02,
          3.65334332e-01, -8.32403377e-02, 4.54592198e-01,
          1.50113896e-01, 0., 0., 0., 0., -8.44166100e-01,
          2.48257548e-01, -2.44083136e-01, -1.12428837e-01,
          -3.27219218e-01, 0., 0., 0., 0., 2.32900307e-01,
          3.22374761e-01, 7.07817137e-01, 3.82074773e-01,
          -7.00841844e-01, 0., 0., 0., 0., -4.82248748e-03,
          -4.65432614e-01, -4.62473214e-01, -3.43948632e-01,
          -7.26338327e-01, 0., 0., 0., 0., -6.99250028e-02,
          3.08849633e-01, 6.39272928e-02, 2.12802261e-01, 4.04298045e-02,
          0., 0., 0., 0., -2.98245512e-02, -4.39157456e-01,
          3.64287704e-01, 6.74086735e-02, -4.18657213e-01, 0., 0., 0.,
          0., 2.72841692e-01, 4.10195768e-01, -6.42983913e-01,
          -1.01603270e+00, 6.82146311e-01, 0., 0., 0., 0.,
          4.79737043e-01, 4.07971181e-02, 2.67262310e-01, 4.72203463e-01,
          -1.95530608e-01, 0., 0., 0., 0., -1.04684341e+00,
          1.86463639e-01, -3.45029980e-01, -4.11045194e-01,
          -1.09435523e+00, 0., 0., 0., 0., 1.36086896e-01,
          2.51016021e-01, 2.63541162e-01, 3.08773696e-01, 5.00667810e-01,
          0., 0., 0., 0., -3.30600947e-01, -8.88845995e-02,
          -1.13602310e-01, 3.51858616e-01, -2.93501914e-01, 0., 0., 0.,
          0., 2.83297569e-01, 1.90779224e-01, -4.28559072e-02,
          1.76903859e-01, 1.19505368e-01, 0., 0., 0., 0., 1.24723151e-01,
          8.55997205e-02, -1.40323803e-01, 2.60156691e-01,
          -2.61474490e-01, 0., 0., 0., 0., -1.57806724e-01,
          3.67010087e-02, -2.43816793e-01, -2.27582276e-01,
          -2.09162429e-01, 0., 0., 0., 0., 4.78110760e-01,
          1.50883198e-02, -2.09560275e-01, 9.54156220e-02,
          -2.56652594e-01, 0., 0., 0., 0., 2.75534004e-01,
          2.73953885e-01, -8.71299878e-02, -1.78645253e-01,
          -1.97847486e-02, 0., 0., 0., 0., -5.60502827e-01,
          -8.61552432e-02, 1.63281381e-01, -3.84963483e-01,
          -6.50050998e-01, 0., 0., 0., 0., 1.62404925e-01,
          -2.09284462e-02, 1.29331306e-01, 5.47471941e-01,
          -4.18097407e-01, 0., 0., 0., 0., 1.67788923e-01,
          2.27031112e-01, 2.06197128e-01, -2.34225944e-01,
          4.81818393e-02, 0., 0., 0., 0., -3.84374410e-02,
          -3.42439026e-01, -2.28418574e-01, 1.54967114e-01,
          -3.29085112e-01, 0., 0., 0., 0., 1.22171845e-02,
          -3.08959246e-01, 4.20137286e-01, 4.34457719e-01,
          -1.17446505e-01, 0., 0., 0., 0., 1.93158418e-01,
          -3.27159017e-01, 2.50213981e-01, -1.36562720e-01,
          -5.16177788e-02, 0., 0., 0., 0., -3.56232285e-01,
          -4.43188787e-01, -2.34833449e-01, 3.84900570e-02,
          -6.05812252e-01, 0., 0., 0., 0., 2.08201438e-01,
          4.89948720e-01, 2.42189914e-01, 4.98787820e-01, 2.15769097e-01,
          0., 0., 0., 0., 1.86563954e-01, -5.01053810e-01,
          -4.84419800e-02, -3.52339357e-01, -2.20745936e-01, 0., 0., 0.,
          0., 7.40127325e-01, -1.19439606e-02, -7.37696141e-02,
          1.69127628e-01, 7.22215772e-02, 0., 0., 0., 0.,
          -4.62559074e-01, 4.11698163e-01, -1.05736077e-01,
          4.95451212e-01, 3.13290328e-01, 0., 0., 0., 0.,
          -6.78321421e-01, 2.79045999e-01, -8.91116634e-02,
          2.17870735e-02, -2.23498911e-01, 0., 0., 0., 0.,
          1.14899509e-01, -6.07681647e-02, 1.60288602e-01,
          2.80937552e-01, 1.22129254e-01, 0., 0., 0., 0.,
          -1.98445529e-01, 3.65278214e-01, -4.63194579e-01,
          -1.99860886e-01, -7.02560917e-02, 0., 0., 0., 0.,
          -6.77580774e-01, 3.16225737e-01, 3.75546724e-01,
          2.48343855e-01, -3.13941956e-01, 0., 0., 0., 0.,
          -2.27303296e-01, -3.58075559e-01, -1.64669797e-01,
          2.93666244e-01, -7.47844726e-02, 0., 0., 0., 0.,
          1.33101225e-01, 5.34804404e-01, -2.51516610e-01,
          2.48360306e-01, 3.10621649e-01, 0., 0., 0., 0.,
          -2.42427647e-01, 7.07430989e-02, 2.71223456e-01,
          1.99086145e-01, -6.91422820e-01, 0., 0., 0., 0.,
          -7.67091572e-01, 3.08863461e-01, -3.15892667e-01,
          -3.33379358e-01, -1.30468190e+00, 0., 0., 0., 0.,
          2.41034001e-01, 1.06826305e-01, 3.59762788e-01, 3.19428116e-01,
          1.22693621e-01, 0., 0., 0., 0., -1.09683193e-01,
          2.39659622e-01, -5.56619823e-01, -3.14362884e-01,
          -6.03655338e-01, 0., 0., 0., 0., 1.41621783e-01,
          2.31413305e-01, 8.81969213e-01, 3.98278385e-01, 4.73726988e-01,
          0., 0., 0., 0., 4.87684846e-01, 1.04076840e-01,
          -5.28521314e-02, 1.93892837e-01, -3.41348559e-01, 0., 0., 0.,
          0., -2.42465943e-01, 2.62758374e-01, -4.43134546e-01,
          -1.90945670e-01, -3.52909029e-01, 0., 0., 0., 0.,
          -1.02772586e-01, 1.19319530e-02, -1.21907346e-01,
          2.18164101e-01, 3.35561275e-01, 0., 0., 0., 0., 7.42850244e-01,
          -4.64749664e-01, -5.85029483e-01, -3.17011327e-01,
          8.58205736e-01, 0., 0., 0., 0., 3.49735647e-01, 1.89455613e-01,
          2.81282187e-01, -2.85112500e-01, -8.91732395e-01, 0., 0., 0.,
          0., -2.24501789e-01, 1.50440559e-01, -1.44529134e-01,
          5.69089055e-01, -1.76812902e-01, 0., 0., 0., 0.,
          1.25219926e-01, -4.17335004e-01, 4.79788519e-02,
          -4.64898825e-01, 7.99203850e-03, 0., 0., 0., 0.,
          -7.91928470e-02, 4.26701531e-02, 1.26107022e-01,
          6.08563781e-01, 1.85580254e-01, 0., 0., 0., 0.,
          -4.40852135e-01, -6.08015023e-02, -4.40761477e-01,
          3.81166518e-01, -2.89918721e-01, 0., 0., 0., 0.,
          -8.71554576e-03, -3.59887600e-01, -1.09572411e-01,
          -1.40597224e-01, -3.85710478e-01, 0., 0., 0., 0.,
          -1.38489410e-01, -1.32918850e-01, -1.46274297e-02,
          2.31938839e-01, -1.99139744e-01, 0., 0., 0., 0.,
          4.28218931e-01, 6.04217470e-01, 3.11356932e-01, 4.65070665e-01,
          3.00023019e-01, 0., 0., 0., 0., 5.79598546e-02,
          -4.60459054e-01, -1.98046759e-01, -1.95272610e-01,
          -6.11409312e-03, 0., 0., 0., 0., 6.15792535e-02,
          -1.20384745e-01, -4.72702503e-01, 1.81291088e-01,
          1.34937748e-01, 0., 0., 0., 0., 3.10041159e-01, 5.98205030e-01,
          5.46044290e-01, 2.21523881e-01, -1.05097480e-01, 0., 0., 0.,
          0., 2.10769236e-01, -3.56822819e-01, 1.33415565e-01,
          2.84350842e-01, -8.25218201e-01, 0., 0., 0., 0.,
          2.89854128e-02, -1.14328407e-01, 9.78089422e-02,
          2.37876832e-01, 1.00725986e-01, 0., 0., 0., 0., 7.05430284e-02,
          3.30411583e-01, -5.46946526e-01, -1.00987174e-01,
          3.95115733e-01, 0., 0., 0., 0., -6.06151894e-02,
          -3.87609035e-01, 1.04342028e-01, 1.41332120e-01,
          -8.90036225e-01, 0., 0., 0., 0., 5.41967869e-01,
          3.68190110e-02, 1.13977149e-01, 1.31008014e-01,
          -2.30391487e-01, 0., 0., 0., 0., -3.87738287e-01,
          4.06875581e-01, -5.32551467e-01, 1.15529910e-01,
          2.27284849e-01, 0., 0., 0., 0., -1.80051312e-01,
          6.32276386e-02, 7.74984062e-03, 2.36130506e-01,
          -3.72458011e-01, 0., 0., 0., 0., 9.34225097e-02,
          7.98383653e-02, 3.20328504e-01, 2.08958879e-01,
          -1.95987761e-01, 0., 0., 0., 0., -2.70682365e-01,
          1.99846048e-02, -2.38791823e-01, 8.53326097e-02,
          3.13598007e-01, 0., 0., 0., 0., 6.06908612e-02, 2.41163075e-01,
          -9.29057717e-01, -1.86233446e-01, -6.10811055e-01, 0., 0., 0.,
          0., 2.19538391e-01, 2.55843192e-01, 1.05855428e-01,
          7.29910076e-01, 2.47410104e-01, 0., 0., 0., 0., 2.96726495e-01,
          5.79848468e-01, -1.48578793e-01, -4.06726331e-01,
          1.57316089e-01, 0., 0., 0., 0., -2.36379020e-02,
          -4.84349132e-02, 1.94107980e-01, -4.25063938e-01,
          -3.09870481e-01, 0., 0., 0., 0., 1.62918270e-01,
          5.02913594e-02, 7.37718912e-03, 3.90934229e-01, 8.71720817e-03,
          0., 0., 0., 0., 2.60318875e-01, -3.24974000e-01,
          -7.95901418e-01, -3.54128361e-01, 4.28171188e-01, 0., 0., 0.,
          0., 3.63946676e-01, -1.84588388e-01, -6.15643449e-02,
          -6.78150833e-01, 9.14574638e-02, 0., 0., 0., 0.,
          3.74330282e-01, 4.94362079e-02, 1.71699479e-01, 8.90461057e-02,
          -4.93369326e-02, 0., 0., 0., 0., 8.78657639e-01,
          -4.13471311e-01, 2.14007005e-01, -5.13511300e-01,
          -3.15005124e-01, 0., 0., 0., 0., -9.63458270e-02,
          4.55677025e-02, -1.56602357e-02, 5.96807182e-01,
          1.18798971e-01, 0., 0., 0., 0., 8.71583074e-02, 2.64050011e-02,
          2.62779091e-02, 2.27476209e-02, -4.55939382e-01, 0., 0., 0.,
          0., 8.65022466e-02, -2.12964997e-01, 1.07749902e-01,
          -5.12391746e-01, 3.22180301e-01, 0., 0., 0., 0.,
          -9.01194662e-02, -1.67087182e-01, -1.98186994e-01,
          2.45133415e-01, -4.89245564e-01, 0., 0., 0., 0.,
          -1.31526053e-01, 6.18667781e-01, -4.96772639e-02,
          5.85066915e-01, 3.14987242e-01, 0., 0., 0., 0.,
          -1.15114726e-01, -2.04676822e-01, -3.74090463e-01,
          -5.45505881e-01, -4.57652152e-01, 0., 0., 0., 0.,
          2.24692404e-01, 5.97154438e-01, -2.82869577e-01,
          1.30697340e-01, 3.89352769e-01, 0., 0., 0., 0.,
          -3.05124730e-01, 6.06746256e-01, 2.12320596e-01,
          3.69200259e-01, 2.34164119e-01, 0., 0., 0., 0.,
          -2.57028658e-02, -4.50112581e-01, 2.04019323e-01,
          2.77215123e-01, -1.20690000e+00, 0., 0., 0., 0.,
          6.55635536e-01, 4.58098888e-01, 8.16788301e-02,
          -6.35223687e-02, -1.07457668e-01, 0., 0., 0., 0.,
          -6.06216252e-01, -3.15726595e-03, -1.24855854e-01,
          3.03337127e-01, -5.09366035e-01, 0., 0., 0., 0.,
          -3.70955491e-03, -3.66097331e-01, 8.22193384e-01,
          2.43970990e-01, -9.10026550e-01, 0., 0., 0., 0.,
          1.01973742e-01, 5.40918931e-02, -5.50138876e-02,
          1.16900027e-01, -3.86253558e-02, 0., 0., 0., 0.,
          -4.06853914e-01, 7.34406412e-02, -2.55302619e-03,
          2.84155339e-01, -4.05288815e-01, 0., 0., 0., 0.,
          2.43459851e-01, -3.00776549e-02, 3.52021843e-01,
          -3.99978198e-02, -3.39646302e-02, 0., 0., 0., 0.,
          -3.59352261e-01, -8.10428709e-03, 7.74949938e-02,
          4.06816825e-02, -2.47129485e-01, 0., 0., 0., 0.,
          -3.53016168e-01, -3.48510444e-02, -2.73463428e-01,
          -4.06879298e-02, -7.11247474e-02, 0., 0., 0., 0.,
          -1.39009550e-01, -4.38984893e-02, -5.93554638e-02,
          -1.32693350e-01, -4.60282445e-01, 0., 0., 0., 0.,
          1.12661099e+00, -9.59691331e-02, 7.45448947e-01,
          -5.85216768e-02, 3.87222826e-01, 0., 0., 0., 0.,
          4.71354842e-01, 6.16395652e-01, 1.81710228e-01,
          -4.40525979e-01, 2.30424196e-01, 0., 0., 0., 0.,
          4.18659061e-01, -8.03062990e-02, -6.95244312e-01,
          -3.59357238e-01, -2.51360953e-01, 0., 0., 0., 0.,
          4.03883696e-01, 3.68685544e-01, -3.19223642e-01,
          -2.79675126e-01, -3.69778901e-01, 0., 0., 0., 0.,
          1.21900037e-01, 3.31881344e-02, 4.14787859e-01,
          -2.99500585e-01, -1.66016027e-01, 0., 0., 0., 0.,
          5.34242630e-01, -1.77024141e-01, -5.42779081e-02,
          -5.85590005e-01, 2.97183990e-01, 0., 0., 0., 0.,
          1.32820800e-01, 1.49325505e-01, -1.04148805e-01,
          6.98679462e-02, 2.50423640e-01, 0., 0., 0., 0.,
          -2.84699738e-01, -3.34571563e-02, 5.45139425e-02,
          -5.10580897e-01, 1.27853066e-01, 0., 0., 0., 0.,
          5.31267464e-01, -5.43084741e-01, 3.12603861e-02,
          -3.54863912e-01, 4.68968242e-01, 0., 0., 0., 0.,
          -1.94801047e-01, 2.22037733e-02, -4.50656533e-01,
          -1.89874973e-02, -2.42111191e-01, 0., 0., 0., 0.,
          2.57826477e-01, -1.72103390e-01, -4.31565672e-01,
          -3.55307639e-01, 2.99922973e-01, 0., 0., 0., 0.,
          -2.23152146e-01, -5.56485951e-01, -1.28379866e-01,
          -3.64593595e-01, -2.62601942e-01, 0., 0., 0., 0.,
          4.85386223e-01, 7.32053757e-01, 2.74848521e-01,
          -1.59826994e-01, 1.01675801e-01, 0., 0., 0., 0.,
          -3.65148544e-01, -2.05602705e-01, -6.12549365e-01,
          -3.65510792e-01, -6.05789065e-01, 0., 0., 0., 0.,
          7.73525760e-02, 6.54983819e-01, -3.13810080e-01,
          2.62432188e-01, 2.59276479e-01, 0., 0., 0., 0.,
          -2.73890138e-01, 6.45262957e-01, 8.61451328e-02,
          -9.55458879e-02, -1.76921204e-01, 0., 0., 0., 0.,
          -1.05916962e-01, 7.68693566e-01, 1.18258446e-01,
          -1.21848926e-01, 3.70128155e-01, 0., 0., 0., 0.,
          2.05939695e-01, 4.94154215e-01, 1.13776214e-02,
          -6.77890889e-03, -4.80225198e-02, 0., 0., 0., 0.,
          -6.35463655e-01, 5.20747304e-02, -3.83641839e-01,
          3.27547193e-01, -1.00214529e+00, 0., 0., 0., 0.,
          2.20972866e-01, 6.62123322e-01, 4.94440049e-02,
          -1.11132726e-01, 1.02451622e-01, 0., 0., 0., 0.,
          1.73325613e-02, 2.49580145e-01, 1.74593106e-01, 1.51822856e-02,
          -3.95587832e-01, 0., 0., 0., 0., -4.65013653e-01,
          8.33865553e-02, -1.69429511e-01, 3.40856791e-01,
          -7.91996777e-01, 0., 0., 0., 0., -1.00994315e-02,
          -4.06612642e-02, 7.30500817e-02, -1.20515741e-01,
          -3.20812404e-01, 0., 0., 0., 0., -1.62305031e-02,
          3.50544989e-01, 7.13154316e-01, 2.56427705e-01,
          -9.67033207e-02, 0., 0., 0., 0., 3.20280582e-01,
          -1.99356616e-01, 5.47448158e-01, -3.01035028e-02,
          -4.24226254e-01, 0., 0., 0., 0., -3.04538399e-01,
          -6.32735118e-02, -6.08351938e-02, -1.23382941e-01,
          -6.86696053e-01, 0., 0., 0., 0., 5.21613300e-01,
          -6.84205890e-02, 6.48038983e-01, -2.52934247e-02,
          5.14296353e-01, 0., 0., 0., 0., 5.68145104e-02,
          -2.53401220e-01, 2.52618611e-01, -3.16224620e-02,
          -1.01907921e+00, 0., 0., 0., 0., -2.50107050e-02,
          -1.21328659e-01, 5.69826901e-01, -1.75562445e-02,
          2.37230480e-01, 0., 0., 0., 0., 1.10590494e+00, 4.16520745e-01,
          -8.41503367e-02, -2.18077466e-01, -3.51418138e-01, 0., 0., 0.,
          0., 6.81310058e-01, 3.72252241e-02, 1.40595600e-01,
          -2.86861956e-01, -9.63842630e-01, 0., 0., 0., 0.,
          -6.84697509e-01, 1.71809079e-04, -2.86141336e-02,
          -5.01823187e-01, 1.98351488e-01, 0., 0., 0., 0.,
          -8.32652748e-02, -1.18593007e-01, 3.13547403e-01,
          8.65090173e-03, 4.19065475e-01, 0., 0., 0., 0., 1.21617027e-01,
          1.46059142e-02, 1.78487957e-01, -4.32152033e-01,
          -1.99176148e-01, 0., 0., 0., 0., 7.39634812e-01,
          -4.58693683e-01, 3.13633941e-02, -2.14012265e-01,
          5.15537225e-02, 0., 0., 0., 0., -3.55065167e-01,
          -6.87998086e-02, -3.45316052e-01, -3.61386873e-03,
          1.77884892e-01, 0., 0., 0., 0., 2.77444154e-01,
          -1.51139095e-01, 3.61227065e-01, -6.40985668e-01,
          7.86007762e-01, 0., 0., 0., 0., -3.28161776e-01,
          -5.53495526e-01, -1.86709940e-01, -2.85528481e-01,
          -4.52982873e-01, 0., 0., 0., 0., 1.98458910e-01,
          7.22789705e-01, 5.57924435e-03, -1.24196775e-01,
          1.86297163e-01, 0., 0., 0., 0., -4.68476593e-01,
          -2.63974428e-01, -2.94246137e-01, -7.10347474e-01,
          1.32007962e-02, 0., 0., 0., 0., 2.32180599e-02, 4.00612317e-03,
          4.51876551e-01, -1.93054214e-01, 8.69090915e-01, 0., 0., 0.,
          0., -6.10559165e-01, 5.70570111e-01, -4.47914869e-01,
          -9.10411626e-02, -4.82429832e-01, 0., 0., 0., 0.,
          2.84650236e-01, 7.62629509e-01, -4.88296300e-01,
          -1.09849498e-01, 9.20534581e-02, 0., 0., 0., 0.,
          -3.69526595e-01, -1.89342052e-01, -6.39579117e-01,
          -8.84798244e-02, 9.84554961e-02, 0., 0., 0., 0.,
          4.89709735e-01, 3.89631629e-01, 2.35828996e-01, 1.19662262e-01,
          4.73827004e-01, 0., 0., 0., 0., 1.91154689e-01, 5.51888824e-01,
          -5.59420288e-01, -2.45966017e-01, -1.80083200e-01, 0., 0., 0.,
          0., -2.74987638e-01, 2.01338783e-01, -3.25072050e-01,
          3.05317086e-03, -8.81143153e-01, 0., 0., 0., 0.,
          1.00215948e+00, 2.54947126e-01, 2.73528337e-01,
          -9.72399563e-02, 1.74606249e-01, 0., 0., 0., 0.,
          -2.86615957e-02, 1.22058645e-01, 4.03008312e-01,
          -4.69813764e-01, -1.15355536e-01, 0., 0., 0., 0.,
          -3.59026253e-01, 1.90349475e-01, 3.79229635e-02,
          9.68771651e-02, -2.09357098e-01, 0., 0., 0., 0.,
          -6.24323403e-03, -2.76651710e-01, 9.18738618e-02,
          -1.33246198e-01, -5.82305729e-01, 0., 0., 0., 0.,
          9.82315466e-02, 1.54708147e-01, 4.95030612e-01,
          -3.52324754e-01, 5.93234062e-01, 0., 0., 0., 0.,
          6.29083216e-01, -1.28860876e-01, 2.04586461e-02,
          -3.77520055e-01, 1.77669376e-02, 0., 0., 0., 0.,
          -2.39620060e-01, -2.55453438e-01, -1.40927777e-01,
          -9.62536549e-04, -8.63197267e-01, 0., 0., 0., 0.,
          -1.19059175e-01, -6.13897666e-02, 1.78726897e-01,
          8.29868391e-02, 2.38321140e-01, 0., 0., 0., 0., 7.27779746e-01,
          -2.97947209e-02, 1.34916559e-01, -1.44923240e-01,
          1.38538033e-01, 0., 0., 0., 0., 2.27169827e-01,
          -2.21621007e-01, 9.07437325e-01, -5.93040586e-01,
          3.41133699e-02, 0., 0., 0., 0., -1.68411255e-01,
          5.05153500e-02, -3.52678537e-01, -3.27892035e-01,
          1.73257500e-01, 0., 0., 0., 0., 4.05166537e-01,
          -1.98228452e-02, 2.36734778e-01, 7.61667117e-02,
          4.18169908e-02, 0., 0., 0., 0., 8.57338786e-01, 1.11644052e-01,
          -4.32020694e-01, -5.20389497e-01, -5.64241648e-01, 0., 0., 0.,
          0., -3.55164647e-01, -8.71316716e-02, 2.29146913e-01,
          5.53186297e-01, 9.27775651e-02, 0., 0., 0., 0.,
          -3.33954930e-01, -6.68474585e-02, -2.06973106e-01,
          1.91098601e-02, 7.54218847e-02, 0., 0., 0., 0., 1.78795531e-01,
          -1.29417941e-01, -1.47912279e-01, -5.87201536e-01,
          1.83879714e-02, 0., 0., 0., 0., -3.05917650e-01,
          -1.37855321e-01, 6.00042120e-02, 3.93176258e-01,
          -2.28976190e-01, 0., 0., 0., 0., 6.23056352e-01,
          -3.38233918e-01, 6.92582786e-01, -5.52542396e-02,
          4.75444108e-01, 0., 0., 0., 0., -2.96597570e-01,
          -1.80446833e-01, -1.24042496e-01, -7.12457418e-01,
          -7.25270689e-01, 0., 0., 0., 0., -1.11186951e-01,
          4.72718515e-02, 2.41384655e-02, -7.15779439e-02,
          3.02164733e-01, 0., 0., 0., 0., -9.99223739e-02,
          -4.69064832e-01, -1.19504370e-01, -1.66334063e-01,
          -5.45560718e-02, 0., 0., 0., 0., 3.43659908e-01,
          -5.48070848e-01, 7.26182759e-01, 2.19419986e-01,
          6.29538357e-01, 0., 0., 0., 0., -5.00962436e-01,
          -7.63633475e-02, -1.05313838e+00, -1.68920457e-02,
          2.42829189e-01, 0., 0., 0., 0., -1.71469182e-01,
          2.75886595e-01, -1.52751178e-01, 6.83065206e-02,
          2.62795508e-01, 0., 0., 0., 0., -4.86901581e-01,
          -6.46256328e-01, -2.15698823e-01, 3.73247474e-01,
          -1.38203213e-02, 0., 0., 0., 0., 7.44014978e-02,
          4.66262549e-01, 1.93529651e-01, 2.18999803e-01,
          -2.28662327e-01, 0., 0., 0., 0., 5.38684607e-01,
          1.92464679e-01, -7.11262971e-02, -1.99009627e-01,
          -3.43686007e-02, 0., 0., 0., 0., 2.24237442e-01,
          7.64493598e-03, 3.98183167e-02, -3.70433241e-01,
          -3.03048551e-01, 0., 0., 0., 0., 6.41019702e-01,
          3.14298511e-01, -1.11494631e-01, 2.16136668e-02,
          -3.77822787e-01, 0., 0., 0., 0., 5.76416031e-02,
          -3.37455124e-01, -6.14218265e-02, 1.31860320e-02,
          -1.84429184e-01, 0., 0., 0., 0., -1.91668957e-01,
          4.66821156e-02, 1.01555452e-01, -4.36313361e-01,
          2.69559979e-01, 0., 0., 0., 0., 3.96805286e-01,
          -1.58503726e-01, -2.84466267e-01, -3.26622427e-01,
          -1.42734870e-01, 0., 0., 0., 0., -1.68941587e-01,
          -2.90667444e-01, 1.62163958e-01, -9.73966345e-02,
          1.05354385e-02, 0., 0., 0., 0., 5.32187700e-01,
          -6.06039912e-02, 6.55570507e-01, -2.08619654e-01,
          1.91477969e-01, 0., 0., 0., 0., -2.31147632e-01,
          -2.07971781e-01, -6.16783381e-01, -2.09020138e-01,
          1.36913851e-01, 0., 0., 0., 0., -1.39291614e-01,
          -2.54358619e-01, 4.49319482e-01, -6.01697266e-01,
          -3.24238986e-02, 0., 0., 0., 0., 5.40227294e-01,
          -1.41187593e-01, 6.52261555e-01, -1.06857814e-01,
          1.68948308e-01, 0., 0., 0., 0., 4.22633111e-01,
          -5.89382350e-01, 6.32018685e-01, 1.52364179e-01,
          -2.45643407e-02, 0., 0., 0., 0., 6.42443001e-01,
          2.51150280e-01, -8.85741115e-01, -4.65274096e-01,
          -6.58641934e-01, 0., 0., 0., 0., 6.73063874e-01,
          -1.05971493e-01, -2.58631796e-01, 6.31926477e-01,
          1.69767469e-01, 0., 0., 0., 0., 2.74435570e-03,
          -3.83824825e-01, 1.48176467e-02, -1.09286979e-01,
          -2.24891707e-01, 0., 0., 0., 0., -2.89909095e-01,
          -5.92136160e-02, 7.38224804e-01, 2.13559970e-01,
          1.03689440e-01, 0., 0., 0., 0., -4.30140674e-01,
          -2.22033530e-01, -4.19686586e-01, 3.99160147e-01,
          -7.37360358e-01, 0., 0., 0., 0., 7.42917955e-01,
          -3.27106446e-01, 1.20221451e-01, -9.13762152e-02,
          3.26839030e-01, 0., 0., 0., 0., -4.99009877e-01,
          -1.22210113e-02, 3.54967475e-01, -6.87934831e-02,
          4.28535081e-02, 0., 0., 0., 0., -1.04670510e-01,
          1.01157658e-01, 3.24199647e-01, -1.36898339e-01,
          -7.28774965e-02, 0., 0., 0., 0., 1.59052283e-01,
          -5.81248224e-01, -2.35421300e-01, -2.35384807e-01,
          -2.78252244e-01, 0., 0., 0., 0., 5.56292117e-01,
          -6.02541268e-01, 4.92590129e-01, 1.10148579e-01,
          3.46402287e-01, 0., 0., 0., 0., -6.02899849e-01,
          7.80123174e-02, 1.74599588e-01, -2.53885984e-01,
          -5.28664470e-01, 0., 0., 0., 0., -1.44525141e-01,
          -3.45225245e-01, 2.76831329e-01, -2.98996449e-01,
          5.26459515e-01, 0., 0., 0., 0., -4.74863708e-01,
          -6.52423918e-01, -1.22254351e-02, 4.20226574e-01,
          -2.75179654e-01, 0., 0., 0., 0., -1.13722878e-02,
          4.52353030e-01, 1.41213655e-01, 1.16234839e-01,
          -3.93811971e-01, 0., 0., 0., 0., -1.23159146e+00,
          -5.78977823e-01, -6.24714315e-01, -3.47772956e-01,
          4.24867533e-02, 0., 0., 0., 0., 1.36002809e-01, 1.28826499e-01,
          7.91270792e-01, 4.01469797e-01, 5.86192548e-01, 0., 0., 0., 0.,
          9.27972272e-02, 4.31303501e-01, -3.72141689e-01,
          8.71019345e-03, -6.31219625e-01, 0., 0., 0., 0.,
          -1.31301165e-01, -2.62411118e-01, -3.51454854e-01,
          -3.47383916e-02, -2.63794571e-01, 0., 0., 0., 0.,
          2.26349041e-01, 5.48993461e-02, 2.64869303e-01, 1.40380263e-01,
          3.79853368e-01, 0., 0., 0., 0., -7.37215951e-02,
          4.79673930e-02, 2.24903956e-01, -1.28950074e-01,
          3.77699286e-01, 0., 0., 0., 0., -8.50080073e-01,
          -3.51928860e-01, -2.43643299e-01, -2.11393729e-01,
          -9.35412869e-02, 0., 0., 0., 0., -3.97053838e-01,
          -1.21823512e-01, 1.26234397e-01, -2.69611925e-01,
          5.29604331e-02, 0., 0., 0., 0., -1.25000298e-01,
          -7.43005134e-04, 4.94449019e-01, -1.27341464e-01,
          7.29751945e-01, 0., 0., 0., 0., 3.45985174e-01,
          -3.04659218e-01, 4.87675786e-01, 4.91588026e-01,
          3.68175328e-01, 0., 0., 0., 0., -2.67780572e-01,
          -3.04332525e-01, -1.12188965e-01, -3.10044765e-01,
          -2.61125326e-01, 0., 0., 0., 0., 3.05712700e-01,
          -5.88897228e-01, 1.03146903e-01, 1.15964241e-01,
          -2.34772265e-01, 0., 0., 0., 0., 2.21293613e-01,
          -4.73686010e-01, 4.70308453e-01, 5.91465116e-01,
          4.16049480e-01, 0., 0., 0., 0., -3.43089908e-01,
          -4.99907076e-01, 1.29180774e-01, 5.36282837e-01,
          5.06420553e-01, 0., 0., 0., 0., -2.39149690e-01,
          -3.94355804e-01, -8.82405639e-01, -1.39280438e-01,
          -3.35308224e-01, 0., 0., 0., 0., 1.53428748e-01,
          -4.67446148e-02, -6.02892116e-02, 1.69571236e-01,
          -1.80160001e-01, 0., 0., 0., 0., -1.94573879e-01,
          2.18211591e-01, 3.04972053e-01, 3.25597167e-01, 4.05940741e-01,
          0., 0., 0., 0., 4.81544062e-03, -2.98584312e-01,
          2.38423079e-01, 3.79236668e-01, 5.63644707e-01, 0., 0., 0., 0.,
          -8.69260877e-02, -5.73343225e-02, 1.54047474e-01,
          -6.59853816e-02, -3.94012094e-01, 0., 0., 0., 0.,
          6.99213684e-01, 1.26777768e-01, 2.04659238e-01,
          -1.79210231e-02, -6.89138472e-02, 0., 0., 0., 0.,
          -6.30468965e-01, -1.78704679e-01, 4.34103429e-01,
          2.25542516e-01, 2.70078272e-01, 0., 0., 0., 0., 2.13889718e-01,
          -3.85268688e-01, -1.13905020e-01, -3.34360272e-01,
          5.48861362e-03, 0., 0., 0., 0., -1.82721198e-01,
          3.34143005e-02, 2.97026724e-01, -1.78528547e-01,
          -3.82607996e-01, 0., 0., 0., 0., 7.26948082e-01,
          -1.62151471e-01, 1.10956691e-01, -1.73408046e-01,
          3.74986231e-01, 0., 0., 0., 0., -8.66460741e-01,
          -5.49356997e-01, -1.08562835e-01, -3.25115830e-01,
          -4.04587239e-01, 0., 0., 0., 0., 2.96600401e-01,
          4.12443466e-02, 1.36016452e+00, -1.42447874e-01,
          2.34606937e-01, 0., 0., 0., 0., -7.53077865e-01,
          -4.10035431e-01, -7.14660048e-01, -2.32850447e-01,
          -1.74986884e-01, 0., 0., 0., 0., 2.61832625e-01,
          1.29934743e-01, 6.56666875e-01, 3.54894727e-01, 8.43480587e-01,
          0., 0., 0., 0., -7.58254290e-01, -1.44677252e-01,
          -5.83848096e-02, -3.19248617e-01, -4.25275177e-01, 0., 0., 0.,
          0., 2.29404807e-01, 2.36859784e-01, 6.07155323e-01,
          -3.79653759e-02, 7.09186494e-01, 0., 0., 0., 0.,
          -5.15526533e-02, 8.27844217e-02, 1.18086971e-02,
          1.07150137e-01, 2.27750421e-01, 0., 0., 0., 0., 2.07469970e-01,
          8.91506951e-03, 6.02088831e-02, -2.72913218e-01,
          6.01341166e-02, 0., 0., 0., 0., -3.28672498e-01,
          4.96176556e-02, -1.61515668e-01, -9.35742781e-02,
          1.82444364e-01, 0., 0., 0., 0., -5.74458530e-03,
          -2.94057131e-01, -1.29255772e-01, 3.84549022e-01,
          -4.55466993e-02, 0., 0., 0., 0., -7.82988429e-01,
          -1.48195729e-01, 2.51558214e-01, -3.45262080e-01,
          3.21690142e-01, 0., 0., 0., 0., -1.71266779e-01,
          -3.40786368e-01, -1.28467560e-01, 4.72121984e-01,
          3.93492013e-01, 0., 0., 0., 0., -4.69284430e-02,
          -3.54877830e-01, -6.26569986e-02, 2.75181234e-01,
          1.74365103e-01, 0., 0., 0., 0., -2.49874979e-01,
          1.10672623e-01, 3.55014652e-02, 2.90945798e-01, 3.05775940e-01,
          0., 0., 0., 0., -6.48584664e-02, -4.90371466e-01,
          -2.01174602e-01, 5.46062708e-01, 3.04989070e-01, 0., 0., 0.,
          0., -6.81614041e-01, -5.80539644e-01, -2.85586789e-02,
          4.73324001e-01, 1.94300279e-01, 0., 0., 0., 0.,
          -1.80584788e-01, 1.09408893e-01, 1.30695090e-01,
          3.46379936e-01, 2.54922301e-01, 0., 0., 0., 0., 1.24183185e-02,
          -6.68238759e-01, -4.94571477e-01, 6.06607258e-01,
          4.11403567e-01, 0., 0., 0., 0., -4.93631274e-01,
          2.41477311e-01, 1.33476347e-01, 2.80669987e-01,
          -1.33871203e-02, 0., 0., 0., 0., 1.77636400e-01,
          -3.57076377e-01, -3.95381540e-01, 2.92171180e-01,
          4.06691022e-02, 0., 0., 0., 0., 4.82051700e-01,
          -3.85511704e-02, -5.18357828e-02, -5.13539493e-01,
          9.65909585e-02, 0., 0., 0., 0., 3.85880321e-02,
          -5.29670529e-02, 2.28637844e-01, 2.41745219e-01,
          -3.44353944e-01, 0., 0., 0., 0., -2.19635088e-02,
          -2.06127465e-01, 2.73717999e-01, 2.23008335e-01,
          -1.39013734e-02, 0., 0., 0., 0., -1.18029833e-01,
          -3.93472612e-01, -5.74779809e-01, -2.66262949e-01,
          -5.71658194e-01, 0., 0., 0., 0., -3.12686116e-01,
          -2.49201097e-02, 3.20824742e-01, 3.33533257e-01,
          -6.69344664e-01, 0., 0., 0., 0., 5.76758564e-01,
          -1.95988744e-01, 8.75345230e-01, 4.24659371e-01,
          3.41286987e-01, 0., 0., 0., 0., -6.72758162e-01,
          -2.56700665e-01, -2.10733816e-01, -3.37385863e-01,
          -5.63734651e-01, 0., 0., 0., 0., -4.37802188e-02,
          -1.53499097e-02, 1.09308623e-01, -1.55387744e-01,
          9.21582580e-02, 0., 0., 0., 0., -1.02786757e-01,
          -4.00496632e-01, 2.46705741e-01, 2.44281605e-01,
          1.53950810e-01, 0., 0., 0., 0., 4.77402419e-01, 2.85706837e-02,
          5.65791190e-01, 3.62285733e-01, 4.78628755e-01, 0., 0., 0., 0.,
          -4.38353151e-01, -1.22120254e-01, -7.18366206e-01,
          -1.63320854e-01, -4.55489665e-01, 0., 0., 0., 0.,
          6.84259057e-01, 2.14350104e-01, 5.95316470e-01, 8.89480412e-02,
          2.42343530e-01, 0., 0., 0., 0., -2.29487479e-01,
          -3.82034704e-02, -1.31663024e-01, 2.34023333e-01,
          2.93908194e-02, 0., 0., 0., 0., -2.79793859e-01,
          -4.65183407e-02, 1.62756175e-01, 5.90971768e-01,
          -2.19043046e-01, 0., 0., 0., 0., 2.04089716e-01,
          8.56143534e-02, 5.28045535e-01, -4.69728969e-02,
          1.51346624e-01, 0., 0., 0., 0., 2.98490465e-01,
          -3.13363224e-01, -7.00924471e-02, 4.70617443e-01,
          1.03139291e-02, 0., 0., 0., 0., -3.83298516e-01,
          -8.95544440e-02, -1.01602435e-01, 4.44523633e-01,
          -5.37378371e-01, 0., 0., 0., 0., 3.28255370e-02,
          -1.96598157e-01, -1.61525145e-01, -1.35304719e-01,
          -1.90177083e-01, 0., 0., 0., 0., -1.69936121e-01,
          -3.90465111e-01, 6.61750063e-02, 3.39267343e-01,
          2.56736781e-02, 0., 0., 0., 0., 1.14918806e-01, 7.87824765e-02,
          1.82587653e-01, 2.63249636e-01, 1.54127389e-01, 0., 0., 0., 0.,
          -3.80715907e-01, -2.17354089e-01, -5.08436918e-01,
          -2.19520465e-01, -1.51341945e-01, 0., 0., 0., 0.,
          8.53865668e-02, -4.50476199e-01, -1.10542607e-02,
          4.82463300e-01, 7.06669152e-01, 0., 0., 0., 0.,
          -1.41400412e-01, 5.56899831e-02, 4.12171185e-01,
          3.16313118e-01, -2.80487508e-01, 0., 0., 0., 0.,
          4.90469225e-02, -6.41095221e-01, -3.81718397e-01,
          6.49896026e-01, 2.30119273e-01, 0., 0., 0., 0.,
          -3.00820529e-01, -4.04960006e-01, -5.17906189e-01,
          6.83735013e-01, 4.95308012e-01, 0., 0., 0., 0., 2.18684644e-01,
          -1.21483713e-01, -3.31503863e-04, 6.48661613e-01,
          -6.36797249e-01, 0., 0., 0., 0., 4.65485156e-01,
          4.43256758e-02, -1.25926659e-01, -4.63025361e-01,
          5.69696054e-02, 0., 0., 0., 0., 5.28319962e-02, 1.62755042e-01,
          -4.97819573e-01, 1.36541575e-01, -9.79338065e-02, 0., 0., 0.,
          0., -5.74628830e-01, 1.52070999e-01, -1.14738867e-01,
          -7.75089920e-01, -1.19799420e-01, 0., 0., 0., 0.,
          5.77391744e-01, -6.69858307e-02, 5.23928702e-01,
          1.47509575e-01, 5.16137660e-01, 0., 0., 0., 0.,
          -6.22741461e-01, -2.49133352e-02, -6.63448870e-02,
          3.35787535e-01, -6.22269034e-01, 0., 0., 0., 0.,
          2.08274126e-02, -2.04254940e-01, 3.01606692e-02,
          3.98337394e-01, -1.31567687e-01, 0., 0., 0., 0.,
          1.38265193e-01, -4.53083329e-02, 2.10521758e-01,
          1.19671471e-01, -1.53708637e-01, 0., 0., 0., 0.,
          5.65882087e-01, -4.18463022e-01, 3.70356217e-02,
          1.99256733e-01, 2.26815522e-01, 0., 0., 0., 0.,
          -3.63864750e-01, -3.62163454e-01, 1.47966221e-01,
          2.23847166e-01, -5.73132001e-02, 0., 0., 0., 0.,
          -2.51770824e-01, -1.23207672e-02, 3.02024126e-01,
          8.49459544e-02, 5.99593408e-02, 0., 0., 0., 0.,
          -3.91767740e-01, -4.17499334e-01, -3.20274234e-01,
          1.26879930e-01, -1.44997299e-01, 0., 0., 0., 0.,
          4.80605990e-01, -5.66754490e-02, 6.08716011e-01,
          4.78468120e-01, -1.73266232e-01, 0., 0., 0., 0.,
          -5.33746779e-01, -3.25134546e-02, -8.88996385e-03,
          1.53447151e-01, -1.71685427e-01, 0., 0., 0., 0.,
          -2.35390112e-01, -7.96839371e-02, 3.12372386e-01,
          5.46360016e-01, -3.52175474e-01, 0., 0., 0., 0.,
          -9.46791470e-03, -1.91477209e-01, -2.14000180e-01,
          2.66487569e-01, -1.90226004e-01, 0., 0., 0., 0.,
          -1.42993689e-01, -2.82764882e-01, 1.64882496e-01,
          6.39978349e-01, 3.22986841e-01, 0., 0., 0., 0.,
          -3.87316287e-01, -4.30011190e-02, -4.47079502e-02,
          4.85035539e-01, -8.09205651e-01, 0., 0., 0., 0.,
          4.04726006e-02, -9.20732915e-02, 1.16295919e-01,
          2.26990432e-02, -7.71934092e-02, 0., 0., 0., 0.,
          -2.11009592e-01, -3.08038831e-01, 1.92958370e-01,
          5.68084300e-01, 7.20128566e-02, 0., 0., 0., 0., 1.34556785e-01,
          4.29225355e-01, -4.75898907e-02, -8.84472951e-02,
          8.74254946e-03, 0., 0., 0., 0., -5.11650026e-01,
          -1.99059501e-01, 1.83923207e-02, -6.66107610e-02,
          -1.77199543e-02, 0., 0., 0., 0., 8.50714147e-02,
          -4.44832921e-01, 6.40728995e-02, 5.65082014e-01,
          8.76583159e-01, 0., 0., 0., 0., -2.63282925e-01,
          3.87261391e-01, -6.07317924e-01, -1.55883923e-01,
          -4.16285127e-01, 0., 0., 0., 0., 1.29757851e-01,
          8.17066357e-02, -1.41332448e-01, 4.74643737e-01,
          4.74029243e-01, 0., 0., 0., 0., -1.63377032e-01,
          -4.37662840e-01, 4.03221101e-01, 7.34769404e-01,
          8.26403618e-01, 0., 0., 0., 0., 2.50332177e-01,
          -1.43187761e-01, -2.13528350e-01, 6.71008110e-01,
          -4.90975350e-01, 0., 0., 0., 0., 2.45899186e-01,
          2.99030840e-02, -3.53375196e-01, 5.67270875e-01,
          4.37986791e-01, 0., 0., 0., 0., -3.86503726e-01,
          -6.63348496e-01, -4.63059187e-01, -8.98292512e-02,
          -4.29321885e-01, 0., 0., 0., 0., -8.49852040e-02,
          -9.64740105e-03, 3.70275490e-02, -9.55462754e-01,
          -2.84734279e-01, 0., 0., 0., 0., 9.03313041e-01,
          -1.35626420e-01, -5.17460287e-01, 8.57563615e-02,
          -9.26157013e-02, 0., 0., 0., 0., 3.46444309e-01,
          -2.89754961e-02, -4.35914904e-01, -5.22304356e-01,
          -9.96879712e-02, 0., 0., 0., 0., 6.43618822e-01,
          2.51825362e-01, 4.95661914e-01, -6.08197898e-02,
          4.64586735e-01, 0., 0., 0., 0., 4.96894903e-02,
          -1.20842122e-02, -5.78607261e-01, 1.06199980e-01,
          -4.72259313e-01, 0., 0., 0., 0., 6.29898906e-01,
          -3.65634143e-01, 1.19322278e-01, 2.21534088e-01,
          -1.05820730e-01, 0., 0., 0., 0., -7.49701083e-01,
          2.45030493e-01, 2.67341554e-01, -3.42040807e-02,
          -1.26464173e-01, 0., 0., 0., 0., 4.72050369e-01,
          -1.20787285e-01, 8.89663100e-02, 1.26191691e-01,
          1.93826556e-01, 0., 0., 0., 0., -4.71900851e-01,
          -3.91718805e-01, -8.88690818e-03, 1.55680269e-01,
          -1.04637064e-01, 0., 0., 0., 0., -1.79025024e-01,
          -5.27091622e-02, 5.56352377e-01, 1.63735271e-01,
          8.27750470e-03, 0., 0., 0., 0., 8.99147540e-02,
          -2.07798332e-01, 2.49787703e-01, 1.06657565e-01,
          1.84169099e-01, 0., 0., 0., 0., -1.27785914e-02,
          -3.77261013e-01, 2.69575566e-01, 9.06024966e-03,
          -2.49951221e-02, 0., 0., 0., 0., -3.09382588e-01,
          -1.80486023e-01, 4.09293771e-01, 1.17475696e-01,
          -4.14967351e-02, 0., 0., 0., 0., -9.49413329e-02,
          -2.41362855e-01, 5.11015892e-01, 6.37684822e-01,
          5.39612234e-01, 0., 0., 0., 0., -1.33429959e-01,
          -4.92605716e-01, 3.78525108e-02, -3.93768474e-02,
          -3.10206652e-01, 0., 0., 0., 0., -1.38318256e-01,
          1.07936524e-02, -1.24850184e-01, 4.77881124e-03,
          -2.00550705e-01, 0., 0., 0., 0., -2.79975027e-01,
          -2.63102800e-01, 1.26299500e-01, 5.56708872e-01,
          5.74577972e-02, 0., 0., 0., 0., -2.41334736e-01,
          4.05641615e-01, 2.41957754e-01, -1.06169373e-01,
          2.28263810e-01, 0., 0., 0., 0., -1.63262457e-01,
          -8.24490413e-02, -5.16874254e-01, -1.38399228e-01,
          -7.74890661e-01, 0., 0., 0., 0., 3.00709121e-02,
          1.27582252e-01, 5.13104856e-01, 2.36703008e-01, 4.16700821e-03,
          0., 0., 0., 0., -5.14164984e-01, 3.87635320e-01,
          -3.35437596e-01, -1.13377839e-01, -1.28515601e-01, 0., 0., 0.,
          0., -1.50433835e-03, 8.47412571e-02, -1.67489111e-01,
          4.85602260e-01, 4.27249461e-01, 0., 0., 0., 0.,
          -2.63578534e-01, -1.60189271e-02, 9.14468840e-02,
          1.78860083e-01, -3.52450669e-01, 0., 0., 0., 0.,
          1.84769258e-01, 1.87527463e-01, 6.36517070e-03,
          -3.28952760e-01, 5.19918144e-01, 0., 0., 0., 0.,
          6.93215877e-02, -1.17374798e-02, -2.40855992e-01,
          5.41264236e-01, 5.09397149e-01, 0., 0., 0., 0.,
          -3.08083355e-01, -6.58931434e-01, 1.73272014e-01,
          -3.46257258e-03, -4.44484562e-01, 0., 0., 0., 0.,
          5.92517436e-01, 1.22688532e-01, 3.09044302e-01,
          -3.55723947e-01, 3.83176208e-01, 0., 0., 0., 0.,
          -1.24416731e-01, -3.55351418e-01, -4.91785169e-01,
          4.89912421e-01, 1.36863992e-01, 0., 0., 0., 0.,
          -5.53856529e-02, -7.44487941e-02, -8.48837078e-01,
          -4.87705141e-01, -3.05732757e-01, 0., 0., 0., 0.,
          7.34283626e-01, 2.16455758e-01, 6.79423884e-02,
          -3.00241262e-02, -1.00060090e-01, 0., 0., 0., 0.,
          1.47089198e-01, 2.66050518e-01, 1.44976616e-01, 1.12259053e-01,
          -4.98391956e-01, 0., 0., 0., 0., 2.56005257e-01,
          -1.08480878e-01, -3.12215149e-01, 3.69840354e-01,
          5.06378829e-01, 0., 0., 0., 0., -2.50625253e-01,
          2.07557619e-01, 4.20312524e-01, -2.83465423e-02,
          -4.01640326e-01, 0., 0., 0., 0., 4.63448197e-01,
          -2.55468398e-01, -2.98226982e-01, 6.81982487e-02,
          -2.87389904e-02, 0., 0., 0., 0., -2.26754159e-01,
          -8.87172818e-02, -1.58627167e-01, 3.10207814e-01,
          1.66101992e-01, 0., 0., 0., 0., -2.02154480e-02,
          -4.05993491e-01, -4.77117077e-02, 3.27847987e-01,
          2.01880157e-01, 0., 0., 0., 0., 4.12432551e-02,
          -2.94815958e-01, 2.33927250e-01, 1.33481026e-01,
          -1.75090544e-02, 0., 0., 0., 0., 2.71173090e-01,
          -3.49050105e-01, 3.05029243e-01, 1.02668785e-01,
          -1.33529365e-01, 0., 0., 0., 0., -6.60642684e-01,
          -4.77360606e-01, 2.98403293e-01, 1.74406752e-01,
          1.14949629e-01, 0., 0., 0., 0., -4.46440727e-02,
          -2.07646832e-01, -6.32933602e-02, 8.04038584e-01,
          -2.76339114e-01, 0., 0., 0., 0., -2.96472490e-01,
          -4.74358112e-01, 2.95351356e-01, -7.46244639e-02,
          -4.18914199e-01, 0., 0., 0., 0., -2.84890771e-01,
          -6.70902804e-02, 3.29635769e-01, -5.10360766e-03,
          3.40568982e-02, 0., 0., 0., 0., -1.74761713e-01,
          -2.55662858e-01, 7.27495253e-02, 7.25388706e-01,
          -4.85783130e-01, 0., 0., 0., 0., 4.82696176e-01,
          2.07301304e-01, 1.95678711e-01, 4.43742722e-01, 4.51853871e-02,
          0., 0., 0., 0., 1.55669153e-01, -1.98360384e-01,
          -2.47038499e-01, -3.14985543e-01, -7.81517863e-01, 0., 0., 0.,
          0., 2.55638361e-01, 1.27921328e-01, 4.09962326e-01,
          1.82478443e-01, -1.12765148e-01, 0., 0., 0., 0.,
          4.26617414e-01, 1.00161955e-01, -1.01022594e-01,
          2.34290421e-01, -4.77395296e-01, 0., 0., 0., 0.,
          8.85255635e-01, -3.62557918e-03, -3.63375217e-01,
          4.75326806e-01, -3.20632666e-01, 0., 0., 0., 0.,
          -1.58161983e-01, 6.12628646e-02, 1.07658207e-02,
          1.70610547e-01, -3.72834891e-01, 0., 0., 0., 0.,
          3.54064465e-01, 2.01330379e-01, 2.52693314e-02,
          -2.68668950e-01, 5.61759889e-01, 0., 0., 0., 0.,
          5.47171116e-01, -6.57748654e-02, -5.05270839e-01,
          4.09732789e-01, -4.08974469e-01, 0., 0., 0., 0.,
          -6.69201016e-02, -2.73209671e-03, -2.54983515e-01,
          1.81626663e-01, -8.66465867e-02, 0., 0., 0., 0.,
          5.97270668e-01, 1.77428216e-01, 4.38186824e-01,
          -2.59985685e-01, 5.21238804e-01, 0., 0., 0., 0.,
          -1.63012430e-01, -3.72292846e-01, -1.30801558e-01,
          5.29524505e-01, 2.62701988e-01, 0., 0., 0., 0.,
          -9.69646797e-02, -5.17123984e-03, -4.76910055e-01,
          1.72280014e-01, -2.69123495e-01, 0., 0., 0., 0.,
          7.18021840e-02, -2.87230872e-02, -2.40428716e-01,
          1.23982131e-01, -5.18376172e-01, 0., 0., 0., 0.,
          -2.20189080e-01, 2.25543275e-01, -5.52607924e-02,
          9.66638029e-02, -4.57600981e-01, 0., 0., 0., 0.,
          -1.91177562e-01, -2.45878413e-01, -1.43113226e-01,
          4.88649100e-01, 3.83814096e-01, 0., 0., 0., 0.,
          -4.55029219e-01, -2.17955858e-01, -4.88629013e-01,
          -3.41635883e-01, 5.11000216e-01, 0., 0., 0., 0.,
          1.08178854e+00, -8.27127814e-01, 1.41455099e-01,
          -9.86026693e-03, 7.24543929e-01, 0., 0., 0., 0.,
          -8.66258681e-01, -2.08194688e-01, 2.54590005e-01,
          3.77083391e-01, 5.31597137e-01, 0., 0., 0., 0.,
          -4.88999426e-01, -5.32254636e-01, 2.07339585e-01,
          2.64083862e-01, 1.79747000e-01, 0., 0., 0., 0.,
          -5.52762449e-02, -8.07302415e-01, 3.31887245e-01,
          -6.76826835e-02, 3.63072336e-01, 0., 0., 0., 0.,
          3.15484583e-01, -2.92805940e-01, 3.04573804e-01,
          -1.34453416e-01, 3.23769033e-01, 0., 0., 0., 0.,
          -1.13475502e+00, -6.02491617e-01, 3.45983692e-02,
          2.19108969e-01, 3.77344906e-01, 0., 0., 0., 0., 3.28007936e-01,
          -1.66041955e-01, -3.69674087e-01, 8.71857822e-01,
          -4.45125133e-01, 0., 0., 0., 0., -2.90222093e-02,
          -2.97044486e-01, -5.97576573e-02, -1.39504120e-01,
          -4.30193096e-02, 0., 0., 0., 0., 5.86478472e-01,
          -5.14419615e-01, -1.21994697e-01, 8.97140920e-01,
          6.08312666e-01, 0., 0., 0., 0., -1.25366008e+00,
          -3.27301651e-01, -2.11595178e-01, 8.06686401e-01,
          -7.81160831e-01, 0., 0., 0., 0., -4.24857080e-01,
          1.68528050e-01, -1.22152247e-01, 5.02613842e-01,
          -1.89114898e-01, 0., 0., 0., 0., -1.19534358e-01,
          -5.33447564e-01, -1.33276984e-01, 7.86404371e-01,
          4.26200002e-01, 0., 0., 0., 0., -1.70325279e-01,
          8.81012455e-02, -3.37487012e-01, 9.39756513e-01,
          5.46983182e-01, 0., 0., 0., 0., -5.05319655e-01,
          7.41833150e-02, 4.72595058e-02, 2.50652850e-01,
          -5.22232771e-01, 0., 0., 0., 0., 1.69442102e-01,
          -9.31038335e-02, -2.79471576e-01, 4.01087552e-01,
          -2.75282800e-01, 0., 0., 0., 0., -2.32791319e-01,
          9.39268097e-02, -3.55347514e-01, 9.13089633e-01,
          9.01832730e-02, 0., 0., 0., 0., 1.53365776e-01,
          -6.33136779e-02, -1.64489791e-01, 7.50291049e-01,
          -1.19503975e-01, 0., 0., 0., 0., 4.77792889e-01,
          -7.65603334e-02, 1.28754869e-01, 3.85622561e-01,
          3.25193666e-02, 0., 0., 0., 0., -3.96389216e-01,
          -5.19818030e-02, 3.40967625e-02, 2.30335593e-01,
          3.99642259e-01, 0., 0., 0., 0., 1.40093639e-01, 9.35097877e-03,
          -9.21923220e-02, 7.29905427e-01, -2.86395904e-02, 0., 0., 0.,
          0., -1.03241181e+00, -2.92232960e-01, -4.16554034e-01,
          3.24995726e-01, -1.73522666e-01, 0., 0., 0., 0.,
          1.98778957e-01, -1.14174196e-02, 7.70433426e-01,
          1.98239207e-01, 3.42145652e-01, 0., 0., 0., 0., 7.78464898e-02,
          -3.17854062e-02, 1.55121967e-01, 1.59244686e-01,
          -1.25250116e-01, 0., 0., 0., 0., -3.78025442e-01,
          -3.02490115e-01, -3.75186175e-01, 2.57071733e-01,
          -3.98863137e-01, 0., 0., 0., 0., -7.71764144e-02,
          6.42164871e-02, -9.10670459e-01, 1.80717802e+00,
          -1.08678675e+00 ]
   decision_functions:
      -
         sv_count: 1
         rho: -6.5357277856949225e-01
         alpha: [ 1. ]
         index: [ 0 ]
