%YAML:1.0
my_svm: !!opencv-ml-svm
   svm_type: C_SVC
   kernel: { type:LINEAR }
   C: 2.6699999999999999e+00
   term_criteria: { epsilon:1.1920928955078125e-07, iterations:1000 }
   var_all: 3780
   var_count: 3780
   class_count: 2
   class_labels: !!opencv-matrix
      rows: 1
      cols: 2
      dt: i
      data: [ 0, 1 ]
   sv_total: 1
   support_vectors:
      - [ -1.08240701e-01, 7.80524872e-03, 2.17751767e-02,
          -2.77700722e-01, -5.83600663e-02, -1.91602468e-01,
          -1.89261846e-02, 9.11340341e-02, -5.48053235e-02,
          -1.65759966e-01, -4.53580655e-02, -4.10699807e-02,
          1.91308148e-02, -7.76255503e-02, -8.97458866e-02,
          2.05589365e-02, -5.47463559e-02, -8.24858714e-03,
          -5.89596294e-02, 5.43943308e-02, 6.36879280e-02,
          -7.20440596e-02, 3.78734409e-03, -1.60156395e-02,
          5.73649891e-02, -1.19945109e-01, -7.11649358e-02,
          6.76132366e-02, 5.21552712e-02, 1.01974256e-01,
          -2.94963457e-02, 1.00685343e-01, -5.94385602e-02,
          1.46624800e-02, -1.03933327e-02, -2.93128733e-02,
          -1.98165119e-01, -7.69117475e-02, 2.70514563e-02,
          1.45399533e-02, -1.72869310e-01, -9.82007086e-02,
          1.25420585e-01, -6.63381442e-02, -7.54146203e-02,
          -2.39796668e-01, -7.39632174e-02, 3.13755199e-02,
          8.68507847e-02, -4.45352606e-02, -3.46527621e-02,
          1.73822224e-01, -5.22673205e-02, -1.46715954e-01,
          -1.58541068e-01, -6.04604222e-02, -4.66817431e-02,
          -1.38880566e-01, -3.64192948e-02, -1.26639754e-01,
          -1.65104926e-01, -7.55488826e-03, -2.02711046e-01,
          -1.62310584e-03, -2.82805189e-02, -1.74587831e-01,
          -5.99990152e-02, -3.97454109e-03, 6.64229542e-02,
          -9.10842791e-02, -4.30436991e-02, -2.74161734e-02,
          -1.02431431e-01, 1.31483793e-01, 1.96991801e-01,
          1.48807809e-01, 7.87629411e-02, -5.49451727e-03,
          1.50657654e-01, 1.18394271e-01, 3.74786071e-02,
          -1.19700924e-01, -6.31482108e-04, 2.37095684e-01,
          4.80131321e-02, 3.44064645e-02, 1.77846861e-03, 2.71981917e-02,
          2.26575453e-02, 1.30145699e-01, -6.70574531e-02,
          4.39343490e-02, -6.54004291e-02, 1.09772738e-02,
          -5.09120040e-02, -1.12369284e-01, -8.08485523e-02,
          -5.48740588e-02, 8.04450549e-03, 1.35664985e-01,
          -3.43387090e-02, -1.02687202e-01, -6.52580559e-02,
          7.04300180e-02, -8.14389735e-02, -5.63161336e-02,
          -8.10162276e-02, 7.81330839e-02, -9.77519974e-02,
          -6.65098801e-02, 8.81474912e-02, -5.89645989e-02,
          -1.46948874e-01, -1.26540855e-01, -6.84098080e-02,
          -5.06148189e-02, 9.10892040e-02, -1.86646357e-02,
          -2.14948028e-01, -1.02295510e-01, 4.67493050e-02,
          -3.90986502e-02, 1.36101916e-01, -7.67484540e-03,
          -1.16289467e-01, -2.65228190e-02, -3.75607498e-02,
          -6.15428202e-02, 1.05341813e-02, 1.78551506e-02,
          1.18157975e-01, -7.09987357e-02, 3.33852991e-02,
          -1.15241772e-02, -5.98397404e-02, -1.68746531e-01,
          1.27806008e-01, 1.71226546e-01, 1.07407741e-01, 1.80355266e-01,
          4.63807322e-02, 1.35214612e-01, -5.43786511e-02,
          -1.21067703e-01, 1.05204955e-01, -1.64494775e-02,
          7.07682967e-02, -7.21163973e-02, -1.77129030e-01,
          -9.05608758e-02, -1.75126418e-02, -5.49973771e-02,
          -3.72197665e-02, 3.84624451e-02, -5.25697600e-03,
          1.95562050e-01, -2.25355756e-02, -8.61173123e-02,
          -1.12355515e-01, -2.32704487e-02, -7.90183321e-02,
          9.50073972e-02, 5.99598214e-02, 2.66552959e-02, 1.08254097e-01,
          6.40610754e-02, 2.44556982e-02, 1.61884502e-01,
          -3.65025699e-02, -8.43197182e-02, 3.10921799e-02,
          9.53162536e-02, 6.32216036e-02, 1.30146101e-01, 1.94822848e-01,
          2.25089248e-02, -4.16046456e-02, -1.84754565e-01,
          -2.54780173e-01, 3.00664343e-02, -1.89067841e-01,
          -6.92354143e-02, -6.85292929e-02, -2.62610167e-02,
          -1.28352270e-01, -1.30263403e-01, -1.63883418e-02,
          -8.77827182e-02, 7.37325698e-02, -2.10753351e-01,
          -4.47116755e-02, 1.01817764e-01, 5.70607148e-02,
          3.39464620e-02, 1.18091673e-01, 8.49625692e-02, 6.30156472e-02,
          -6.22669645e-02, -3.36029828e-02, -1.79991320e-01,
          -5.43361567e-02, 1.20434277e-01, 1.19780272e-01,
          4.26572859e-02, -3.32366414e-02, -4.94154990e-02,
          -2.45752726e-02, 6.98970929e-02, 8.25617686e-02,
          1.48987267e-02, 5.51587529e-03, -6.30784407e-02,
          -5.70123978e-02, -1.59295704e-02, -9.32492837e-02,
          -1.12814575e-01, -1.24420129e-01, -3.24519612e-02,
          6.89223632e-02, -3.06048431e-02, -1.74460262e-01,
          -2.51626343e-01, 3.81467715e-02, -3.73332505e-03,
          -1.58864260e-02, 5.46496250e-02, -8.42369720e-02,
          1.34010462e-03, 1.08117513e-01, -1.02230996e-01,
          5.40660694e-05, 2.24906996e-01, -8.68040770e-02,
          1.68675110e-01, -5.70608750e-02, 2.26979032e-02,
          6.16022479e-03, -1.47195950e-01, -9.96467546e-02,
          -1.71514392e-01, -3.64746787e-02, -7.13611096e-02,
          -1.24892719e-01, -2.64698155e-02, -1.48909748e-01,
          -2.68139265e-04, 5.98886870e-02, 4.28678142e-03,
          2.01883659e-01, 2.42890894e-01, 3.16896923e-02,
          -1.95712876e-02, 1.47340268e-01, -9.02079567e-02,
          5.51804565e-02, 1.25197515e-01, -1.86091602e-01,
          2.94921119e-02, 1.43651932e-01, -1.23305306e-01,
          7.14230463e-02, 1.43412217e-01, -1.81792453e-01,
          3.92733552e-02, 2.93975472e-01, -2.76007298e-02,
          1.09219164e-01, 2.48363897e-01, -9.41892043e-02,
          5.61816841e-02, -1.46290749e-01, 1.24003418e-01,
          3.26070413e-02, 4.15151054e-03, -5.70018068e-02,
          -2.49103196e-02, 1.32444650e-01, -7.08956718e-02,
          -5.26751988e-02, 8.40112641e-02, 7.99303129e-02,
          1.49006352e-01, 1.55944780e-01, -1.42571568e-01,
          2.58544777e-02, 1.70857474e-01, -3.43834087e-02,
          5.38133904e-02, 1.49060845e-01, -2.14973930e-02,
          4.97667082e-02, 1.68152936e-02, -1.73441619e-01,
          4.11725603e-02, 1.58249065e-02, -2.29966547e-02,
          3.14175412e-02, 1.73823789e-01, 3.54900886e-03, 1.28348544e-01,
          -7.81952888e-02, -6.46096375e-03, 6.05552159e-02,
          -3.12165339e-02, -1.08059883e-01, 1.54990315e-01,
          1.29747286e-01, 1.42996594e-01, -3.40748094e-02,
          7.65198916e-02, -3.37555073e-02, -3.49061675e-02,
          9.89668295e-02, 2.52569392e-02, 2.11555377e-01, 2.00066283e-01,
          1.20450482e-01, 1.23227790e-01, 3.58317010e-02, 7.40283057e-02,
          3.07886228e-02, 1.65038928e-01, -4.63958718e-02,
          1.36094168e-01, 1.25095770e-01, 1.59065016e-02, 4.97656390e-02,
          -4.04886492e-02, -9.43325981e-02, -5.62761389e-02,
          -4.25383970e-02, -4.32862304e-02, 3.99164110e-02,
          1.58481747e-01, 2.13360548e-01, 1.32415947e-02,
          -1.18817976e-02, 3.49012017e-02, 1.31991759e-01,
          1.75347760e-01, 1.18129469e-01, 8.77899583e-03,
          -4.95347679e-02, 7.76358843e-02, 6.95095882e-02,
          1.68187946e-01, 1.73532113e-01, 6.95091709e-02, 4.91601378e-02,
          -1.11063145e-01, -6.01899065e-03, -5.31613566e-02,
          -4.11455184e-02, 6.52871579e-02, 3.19601968e-02,
          1.50869012e-01, 1.20148666e-01, 5.54734878e-02,
          -1.49010317e-02, -6.33107573e-02, 6.90376908e-02,
          6.95217699e-02, -1.87524945e-01, -1.94898158e-01,
          -7.94584975e-02, 1.15155615e-01, 8.66376981e-02,
          9.73334312e-02, 1.99894477e-02, -4.58451994e-02,
          6.55367449e-02, 3.85082699e-02, -2.37514339e-02,
          3.95021737e-02, 5.74663691e-02, -3.40503044e-02,
          -6.79848865e-02, 8.29473883e-02, -1.90843880e-01,
          -1.05763204e-01, -1.43585671e-02, -8.90017524e-02,
          3.14726800e-01, 1.18218489e-01, -4.12453525e-02,
          4.21526134e-02, -4.87112813e-02, -2.54975967e-02,
          -5.48310913e-02, -1.67262927e-01, 1.57782480e-01,
          2.09826887e-01, 1.54049337e-01, 8.25077593e-02, 7.65782148e-02,
          7.73525611e-02, 1.65336132e-01, 4.82318439e-02, 2.79152337e-02,
          8.90142918e-02, -6.21129982e-02, 7.38624781e-02,
          4.57559787e-02, -7.27417022e-02, 5.84161356e-02,
          1.86343744e-01, -1.80757958e-02, -2.27901572e-03,
          7.20601678e-02, -9.58506241e-02, 5.88814169e-02,
          9.29659456e-02, 9.36702639e-02, -1.04899155e-02,
          1.87555000e-01, -3.61847766e-02, -6.06690422e-02,
          1.70465007e-01, -1.53776169e-01, -7.13600814e-02,
          5.14114909e-02, 8.27641636e-02, 1.01547197e-01, 6.53043017e-02,
          2.38442384e-02, 8.54047947e-03, 1.07252739e-01,
          -1.41580924e-01, 5.16544096e-02, 1.01687564e-02,
          -3.37330550e-02, 1.09626368e-01, -1.07097827e-01,
          -6.35313317e-02, -8.68244693e-02, 1.24370102e-02,
          -4.43417765e-02, -1.16816781e-01, 1.29847787e-02,
          -1.36433721e-01, -2.40246341e-01, -5.18878875e-03,
          9.36603695e-02, -9.28461924e-02, -2.09461838e-01,
          -1.10627729e-02, -4.10855971e-02, 1.06876604e-01,
          -5.03771491e-02, -1.49684533e-01, 4.87851864e-03,
          -1.61322877e-02, 1.34885803e-01, 2.09593847e-01,
          6.07792893e-03, -1.44442134e-02, -3.10052820e-02,
          -2.32181311e-01, -1.18628599e-01, 1.22981742e-01,
          1.01948991e-01, 4.43386324e-02, 1.32892773e-01, 8.08158144e-02,
          1.15187578e-01, 1.43446758e-01, -2.51465254e-02,
          1.00906730e-01, 8.57580751e-02, 1.14747118e-02,
          -6.80720583e-02, -1.59150243e-01, 1.68163870e-02,
          -1.02519847e-01, 1.43090457e-01, -2.24776641e-02,
          -7.97994435e-02, 1.01617284e-01, 5.38341179e-02,
          8.64762440e-03, 1.29003659e-01, 1.81559086e-01,
          -1.41489640e-01, -6.39554411e-02, 3.69246677e-02,
          -6.94186985e-02, 1.25350922e-01, -1.27707064e-01,
          -1.05339758e-01, -2.13621795e-01, 6.49204701e-02,
          -9.98426303e-02, -1.35945240e-02, 2.38629039e-02,
          1.93411484e-02, 1.04788356e-01, -4.45292480e-02,
          -6.06299266e-02, -2.10884124e-01, 2.35739022e-01,
          -2.99258959e-02, 1.03331998e-01, 1.16090558e-01,
          1.45846382e-01, 1.08885895e-02, -7.85069913e-03,
          -4.29116450e-02, 2.00572331e-02, 5.06255403e-02,
          -2.88146529e-02, 5.57554327e-02, 8.24623629e-02,
          -8.47117975e-02, -2.34790072e-01, -4.42764573e-02,
          1.06087252e-01, -1.02735395e-02, 3.18384124e-03,
          5.39093465e-03, 9.04394314e-02, 2.11463958e-01,
          -7.51907229e-02, -4.68549654e-02, -1.13762617e-01,
          -7.46956989e-02, -1.07915103e-01, -6.57784045e-02,
          -1.69399276e-01, 3.18192914e-02, -6.05642870e-02,
          9.02497247e-02, -1.16278552e-01, 4.62375246e-02,
          3.97590175e-02, -1.79366827e-01, 5.61801046e-02,
          1.07546531e-01, -1.66883972e-02, -1.10203810e-01,
          -5.84581820e-03, -1.19467601e-01, 6.10428629e-03,
          3.38086560e-02, 2.16879938e-02, -1.11018550e-02,
          8.30884874e-02, 6.33115023e-02, -4.15297523e-02,
          -1.02867641e-01, 1.24918804e-01, 8.01869482e-03,
          1.36480823e-01, -8.18706816e-04, 6.44749999e-02,
          -2.81893723e-02, -1.64471660e-02, 1.44273594e-01,
          -8.75806585e-02, -1.25825912e-01, 1.41022384e-01,
          8.40759799e-02, -1.03118204e-01, 7.51974732e-02,
          -1.43918097e-01, 7.43834153e-02, 1.20118447e-01,
          -9.51781869e-02, 2.69743241e-02, 1.58126827e-03,
          1.05562426e-01, -6.34640679e-02, -1.66905671e-02,
          -2.01500237e-01, -3.44130234e-03, -3.13498043e-02,
          5.18819690e-02, -7.46062621e-02, 1.01109453e-01,
          5.51668517e-02, -7.71484375e-02, -2.31818575e-02,
          -2.33121887e-02, 8.99335966e-02, 1.07945792e-01,
          -1.55184582e-01, -3.32356751e-01, 7.40284696e-02,
          -6.84147552e-02, 6.55249283e-02, -8.85703694e-03,
          3.19204740e-02, 1.13719426e-01, -3.20946276e-02,
          -8.87578651e-02, -6.25332119e-03, 3.32414955e-02,
          -2.19679140e-02, -1.71520114e-01, 1.40508041e-02,
          4.53258008e-02, 9.33626741e-02, 7.66374171e-02, 1.10264331e-01,
          -1.21796146e-01, 8.69977176e-02, -9.64182541e-02,
          9.51530859e-02, -3.07090897e-02, -5.74618019e-02,
          -1.11138180e-01, 1.01256467e-01, 6.20438543e-04,
          6.64818753e-03, 4.53290790e-02, 1.16804251e-02, 1.54264376e-01,
          -6.90836785e-03, -1.58476666e-01, 1.50759816e-01,
          -2.27199085e-02, 9.75441467e-03, 1.63955212e-01,
          -5.94535954e-02, -8.76399428e-02, -7.36798644e-02,
          1.58504583e-02, -9.25327763e-02, 1.32625833e-01,
          -1.88844621e-01, -6.14592340e-03, -7.48266205e-02,
          -2.97298618e-02, -1.48364246e-01, -3.23137864e-02,
          -4.79727314e-04, -1.86117887e-01, -6.96570426e-02,
          2.01512408e-02, -1.71402283e-02, 5.53629436e-02,
          2.47993954e-02, -8.16134512e-02, -1.34569788e-02,
          -6.35688305e-02, -4.09121625e-02, 3.22605222e-02,
          6.68170825e-02, -4.55788523e-02, -2.47689411e-02,
          1.68566983e-02, 3.51872072e-02, -1.53802052e-01,
          -3.97640094e-03, -1.21406212e-01, 6.31686747e-02,
          -9.07289237e-02, -5.42775877e-02, -7.01739127e-03,
          1.21176548e-01, -7.27900490e-02, -2.63192263e-02,
          3.43766510e-02, -1.76679105e-01, -8.04303810e-02,
          -8.45459849e-02, -1.00999884e-01, 1.58372313e-01,
          1.14941835e-01, 1.04373448e-01, -1.18536726e-01,
          -1.48008782e-02, -9.32176784e-03, -2.13655140e-02,
          -6.40529618e-02, 7.81660974e-02, 1.23807922e-01,
          2.44982600e-01, 1.47889793e-01, 6.40430003e-02,
          -1.53476179e-01, -1.27402972e-02, -1.22099750e-01,
          -9.89669561e-02, 3.63461338e-02, 1.25072449e-02,
          7.66513944e-02, -1.11900434e-01, 1.27508834e-01,
          3.67915407e-02, -8.42340067e-02, -8.42730142e-03,
          -7.45299272e-03, -9.32299197e-02, -5.12047857e-02,
          2.13319227e-01, 5.94714805e-02, 1.02737978e-01,
          -4.08696905e-02, 4.47169226e-03, 2.17913732e-01,
          1.28219396e-01, 1.34760775e-02, -1.26872826e-02,
          -1.50789157e-01, -2.68421993e-02, 1.04150534e-01,
          3.23671773e-02, -7.04226568e-02, -7.08718374e-02,
          -4.27868776e-02, 6.70471117e-02, -1.88902821e-02,
          7.14925118e-03, 8.25697631e-02, 1.23362720e-01, 1.14150204e-01,
          -2.24232730e-02, -3.21603417e-02, 2.11075544e-02,
          1.23848002e-02, 5.20035140e-02, -2.04095002e-02,
          1.29740769e-02, 3.29979658e-02, 6.79909857e-03, 7.57129118e-02,
          1.40190423e-02, 7.56961778e-02, 1.10903591e-01, 3.41078453e-02,
          2.92754965e-03, 1.68230474e-01, 1.24770738e-01, 2.94498242e-02,
          6.36977479e-02, -9.69922543e-03, -6.90939203e-02,
          5.23557775e-02, 8.23188666e-03, -1.99404225e-01,
          6.38971478e-02, -2.93362308e-02, -3.52124870e-02,
          -6.65454492e-02, -2.12318882e-01, -9.12880301e-02,
          5.87027483e-02, -7.65912458e-02, -1.34566173e-01,
          8.91215056e-02, -1.27484009e-01, 2.13361587e-02,
          -2.79606488e-02, -1.47342190e-01, 1.49527006e-02,
          1.45479873e-01, 4.31386717e-02, 1.24733662e-02, 2.33966783e-02,
          -1.54667944e-01, 1.17548235e-01, 8.19378570e-02,
          -1.20963454e-01, -3.35326120e-02, -1.48664102e-01,
          3.81399058e-02, -4.38498007e-03, -8.83518979e-02,
          -1.60547554e-01, 8.66577029e-02, 7.29672238e-02,
          -2.53723878e-02, -8.12047943e-02, -1.22748390e-01,
          3.75661440e-02, -5.69388270e-02, 2.28759516e-02,
          -2.08704472e-01, 1.05839849e-01, 1.06622308e-01,
          -8.00145231e-03, 4.93256859e-02, 2.40608126e-01,
          4.92641926e-02, -1.94351433e-03, -7.79444873e-02,
          -2.01653630e-01, -1.99225053e-01, -1.50682256e-01,
          -4.33333144e-02, 6.04944900e-02, 2.98024714e-01,
          2.04179585e-02, 1.41867429e-01, 8.12157243e-03,
          -6.21663639e-03, -7.79923983e-03, -4.75778729e-02,
          2.09886044e-01, -7.10886046e-02, -2.25784943e-01,
          4.34456244e-02, 2.89327145e-01, 1.78800181e-01, 8.94145742e-02,
          9.24033374e-02, 1.01829909e-01, 1.35372311e-01,
          -5.36113419e-02, -2.49624681e-02, -1.73494652e-01,
          -8.52054209e-02, -1.06806695e-01, -3.95773537e-02,
          7.74862915e-02, -6.28119707e-02, 1.15976945e-01,
          -1.34879500e-01, -2.02621445e-02, -7.73197934e-02,
          1.57703131e-01, 7.68327937e-02, 7.87604973e-02, 1.97589889e-01,
          3.58804017e-02, 1.29500762e-01, -7.70825148e-02,
          -1.10562727e-01, 1.17147639e-01, 1.23781536e-03,
          -2.06310805e-02, -3.12945321e-02, -1.41056487e-02,
          1.96931258e-01, 3.02556884e-02, 1.11032121e-01, 3.01488079e-02,
          9.41867977e-02, -7.11845607e-02, -1.40738577e-01,
          -1.36526544e-02, 1.45043470e-02, 8.45966265e-02,
          1.23647742e-01, 8.09696168e-02, 2.66441796e-02, 8.00030157e-02,
          1.00467578e-01, -1.21772312e-01, -5.11497818e-02,
          2.15577688e-02, -1.13428801e-01, -1.87872313e-02,
          -3.91688086e-02, 7.49512091e-02, 3.90728526e-02,
          -2.98816175e-03, -7.37391114e-02, -2.18821093e-01,
          -6.34627268e-02, -1.19277097e-01, 3.38294208e-02,
          -9.44730192e-02, 1.53435379e-01, -9.41788778e-02,
          -5.22812605e-02, -3.55108157e-02, 4.57735099e-02,
          9.16648358e-02, 1.18101522e-01, 9.65236053e-02,
          -8.52895826e-02, 4.13761102e-02, -5.42942900e-04,
          7.10041970e-02, 8.48054290e-02, 4.06026803e-02,
          -8.95809904e-02, 4.68532518e-02, 1.53911328e-02,
          -7.59952366e-02, 1.55599236e-01, -3.01171374e-02,
          -5.00474684e-02, 1.73297487e-02, -1.02657571e-01,
          -4.48611006e-02, -1.81074152e-04, -1.66173935e-01,
          -1.25681415e-01, 2.52094120e-01, 1.62188262e-02,
          9.25710145e-03, 2.76366975e-02, -1.12179168e-01,
          -1.60428464e-01, -8.01350549e-03, 2.25386210e-02,
          9.70781893e-02, 2.66648352e-01, -2.43508909e-03,
          3.13888751e-02, 5.18812835e-02, -1.71515569e-01,
          4.48313076e-03, -2.94269938e-02, -7.77471438e-02,
          7.53707811e-02, 1.23512715e-01, 1.33450463e-01,
          -2.10838895e-02, 2.45219581e-02, 1.27835870e-02,
          1.74939595e-02, 1.15467653e-01, -1.14776127e-01,
          6.37208149e-02, -6.00112714e-02, -5.99259213e-02,
          -2.45401002e-02, -3.16521153e-02, -1.14444777e-01,
          -1.39557630e-01, -1.26963839e-01, 1.52898610e-01,
          5.97759970e-02, 1.79476291e-01, -1.17657155e-01,
          -1.55695155e-02, 1.57451913e-01, -9.09445956e-02,
          -1.15905024e-01, -1.01497449e-01, -6.34439364e-02,
          -5.61909825e-02, -8.95178318e-02, 8.23514313e-02,
          -2.31419858e-02, 1.37157785e-02, -5.08883186e-02,
          -2.80106347e-02, 5.77601837e-04, 2.40848139e-02,
          5.38519863e-03, -3.90962772e-02, -3.72129604e-02,
          -2.36525349e-02, 2.35637818e-02, -1.76481605e-02,
          -5.42771146e-02, 1.27703538e-02, 1.17019586e-01,
          -5.83195388e-02, 5.98358996e-02, -8.51256475e-02,
          -1.09410785e-01, 4.87138964e-02, -1.07662112e-01,
          -2.22334731e-02, -1.45905875e-02, -8.86295587e-02,
          -1.98619649e-01, -2.93387473e-02, 2.11068660e-01,
          -3.03221326e-02, -2.69177333e-02, -3.85983326e-02,
          -1.89775348e-01, -8.12151935e-04, -2.13125665e-02,
          2.90762708e-02, -6.43063858e-02, -3.83167379e-02,
          -1.36888504e-01, 4.65425700e-02, 2.13710237e-02,
          -9.62224149e-04, 8.77459273e-02, 3.72927524e-02,
          -5.02709188e-02, -1.64870009e-01, -3.76698598e-02,
          8.87659863e-02, -8.83270428e-03, -5.20549752e-02,
          7.20919520e-02, 1.89894751e-01, 3.80542651e-02, 7.02569559e-02,
          4.05361913e-02, 2.87783751e-05, 4.10982929e-02,
          -1.22248538e-01, 4.87727532e-03, 7.90244248e-03,
          -2.50047585e-03, -1.13363400e-01, -3.12289167e-02,
          3.59388464e-03, -1.04635291e-01, 1.23193830e-01,
          -9.68716368e-02, -1.21595822e-01, 1.20460555e-01,
          2.01427847e-01, -1.67905521e-02, -1.45764975e-02,
          8.07644650e-02, -3.29954997e-02, -1.65665653e-02,
          -3.90941910e-02, -6.48845583e-02, 1.44729793e-01,
          1.68014660e-01, 2.80417558e-02, -7.59082437e-02,
          -8.68221074e-02, -5.92780970e-02, 3.68352346e-02,
          9.87453852e-03, 1.66411288e-02, 2.96472888e-02, 1.79357957e-02,
          1.50411855e-02, -1.15341179e-01, -1.37073204e-01,
          -1.62922777e-02, 1.07338205e-01, 3.29568051e-02,
          -1.48226261e-01, -5.93020767e-02, -5.32663288e-03,
          -1.41254231e-01, -1.09942146e-01, -9.37050655e-02,
          -2.73365527e-02, 3.00825164e-02, -2.03079935e-02,
          3.76021899e-02, -6.51339116e-03, -6.60519823e-02,
          3.56007330e-02, 8.01382139e-02, -3.64358611e-02,
          1.10981926e-01, 2.41886377e-02, 3.02536767e-02, 3.70632322e-03,
          -8.00648406e-02, -8.22462961e-02, 1.37208596e-01,
          -2.44068373e-02, 3.78428996e-02, -1.13205701e-01,
          9.08638015e-02, 1.80992976e-01, 4.44584452e-02, 1.58754379e-01,
          7.32713416e-02, 2.10305572e-01, -4.52563278e-02,
          -3.32432389e-02, 4.87996526e-02, 4.56000352e-03,
          -2.06431584e-03, 8.91600270e-03, -1.07790001e-01,
          -9.80432332e-02, -8.29953328e-03, 1.21346481e-01,
          -2.67048981e-02, -2.31483355e-01, 1.44901387e-02,
          1.97159633e-01, -4.22443449e-02, -4.92955884e-03,
          -1.17850073e-01, 7.27969557e-02, 2.58991122e-01,
          -1.56315580e-01, -4.42086793e-02, 1.27516210e-01,
          7.74094388e-02, -2.48372033e-01, -1.08077563e-01,
          -6.16544038e-02, 1.93737950e-02, 1.81292623e-01,
          -7.45013030e-03, -9.01836678e-02, 7.04671144e-02,
          -5.81641868e-02, -1.28180355e-01, -5.32499552e-02,
          -2.16460288e-01, -6.37715757e-02, -1.64428893e-02,
          -4.54538837e-02, -2.79974807e-02, 6.89310506e-02,
          1.96025714e-01, 2.12279297e-02, -1.15506843e-01,
          -1.60332248e-01, 1.03342324e-01, 1.30386695e-01,
          1.33190379e-02, -6.22123182e-02, 7.67091140e-02,
          -1.00437090e-01, -1.72201097e-01, -4.72320952e-02,
          -1.86725661e-01, 1.39231518e-01, -5.03130108e-02,
          -3.30949649e-02, -7.62859285e-02, -4.79325950e-02,
          1.97278103e-04, -8.96083787e-02, -3.33902873e-02,
          2.31231842e-02, -3.33987139e-02, 6.07272647e-02,
          7.83752427e-02, -2.50334591e-01, -4.78566550e-02,
          5.60056455e-02, -8.51839129e-03, 1.69167332e-02,
          -1.00809358e-01, -2.40944251e-01, 4.50942926e-02,
          -8.44565928e-02, -1.24627657e-01, 1.30945235e-01,
          -8.38325247e-02, -1.37137994e-01, -1.85261797e-02,
          -1.32969573e-01, 8.72526616e-02, 3.20816338e-02,
          -3.21216099e-02, -1.19945511e-01, 1.58277035e-01,
          5.94263040e-02, -1.74034368e-02, 8.68452266e-02,
          -2.96078585e-02, 1.64547876e-01, 2.05609515e-01,
          -1.68543644e-02, 4.47214674e-03, -3.97192910e-02,
          -3.20153050e-02, 4.67389561e-02, 1.32602483e-01,
          -9.29087922e-02, 4.42554094e-02, 1.64624318e-01,
          5.81116006e-02, -1.85940668e-01, -5.88474236e-02,
          -3.93660963e-02, 8.64029154e-02, 1.08652070e-01,
          1.73165619e-01, 1.17626764e-01, 1.19801939e-01,
          -1.58791900e-01, 9.33962464e-02, 9.21892971e-02,
          -1.63498804e-01, -2.34735474e-01, -7.14165941e-02,
          -1.60434321e-01, 2.30475605e-01, 3.18896145e-01,
          1.22994490e-01, -9.91442129e-02, -3.58107001e-01,
          -3.46863568e-01, -2.84756899e-01, -9.85620320e-02,
          -7.02841878e-02, 1.01300418e-01, 9.60080326e-02,
          -1.01328127e-01, 1.08447835e-01, 1.42537534e-01,
          1.65523857e-01, 5.17222621e-02, 4.17235792e-02, 1.26499563e-01,
          3.97987999e-02, 4.67282757e-02, -2.99815722e-02,
          1.11659802e-02, 7.27653503e-02, -8.56330842e-02,
          -2.64128577e-02, -1.78997204e-01, 7.40491003e-02,
          1.38213784e-02, -9.59666371e-02, 5.16801178e-02,
          -3.65133405e-01, -2.96178669e-01, 6.77797645e-02,
          -5.43926060e-02, -1.08085219e-02, 1.51476845e-01,
          -7.28234723e-02, -2.08748743e-01, -4.34586704e-01,
          -1.96895838e-01, -1.87687144e-01, -2.38270134e-01,
          -2.89803654e-01, -1.50898769e-01, 1.86126735e-02,
          -1.58944845e-01, -1.75404057e-01, -1.19472563e-01,
          -1.08259104e-01, -2.92289764e-01, -3.14333349e-01,
          9.64261293e-02, -2.83087771e-02, 1.28912508e-01,
          1.24386564e-01, 2.03507990e-02, 1.37715727e-01,
          -1.41477302e-01, -1.32328838e-01, 7.88379014e-02,
          5.44577390e-02, 1.26392826e-01, -1.12636052e-02,
          4.29528132e-02, -6.96811900e-02, 4.45036031e-02,
          1.47021364e-03, -5.44768572e-01, -6.32749259e-01,
          -2.43941218e-01, 3.70683372e-02, 5.71783222e-02,
          1.15669323e-02, -1.54927028e-02, 2.98835278e-01,
          -1.08786277e-01, -2.54117191e-01, 1.17793128e-01,
          8.86326805e-02, 1.59460843e-01, 1.02790810e-01, 1.68545768e-01,
          8.13678503e-02, 2.71531850e-01, -5.01261428e-02,
          -2.47517407e-01, 2.22683012e-01, -8.64439458e-02,
          2.59648357e-02, -1.18995264e-01, -1.96004823e-01,
          -3.34513187e-01, -2.96892375e-02, -1.86744213e-01,
          -1.48555323e-01, 1.57453790e-01, -9.15929526e-02,
          7.53846690e-02, 8.36995244e-02, 3.93800787e-04,
          -1.51116282e-01, -1.82599053e-01, -2.54245311e-01,
          -1.07173026e-01, 3.17755073e-01, 1.24260493e-01,
          1.30938724e-01, -2.48721195e-03, 6.25808835e-02,
          -2.06213057e-01, 7.36167952e-02, -1.50045427e-02,
          6.15850650e-02, 1.74523696e-01, 1.31206453e-01, 1.12872466e-01,
          1.48738459e-01, -1.20230103e-02, -1.39330596e-01,
          -8.80972669e-02, -1.41498983e-01, -1.49095327e-01,
          3.34538631e-02, -8.39194357e-02, 7.73765743e-02,
          2.00898692e-01, 1.72510982e-01, -4.47331928e-02,
          -1.89353172e-02, -2.54551053e-01, -1.15073048e-01,
          -3.05658411e-02, 1.11330887e-02, -1.64305389e-01,
          -1.64346918e-02, 5.73316775e-02, -7.92516842e-02,
          -1.09127223e-01, -7.81243220e-02, -1.12360425e-01,
          4.81954738e-02, -8.05475712e-02, 2.07490847e-02,
          1.50934547e-01, 9.75678936e-02, 2.03945693e-02,
          -6.80697113e-02, -5.04389852e-02, -1.29238948e-01,
          2.45438535e-02, 4.80641052e-02, 4.06820402e-02, 8.85061324e-02,
          3.96864861e-02, -7.66546652e-02, -2.34443545e-01,
          -2.08654419e-01, -2.77494788e-01, -2.53464859e-02,
          1.00026347e-01, 4.86782975e-02, 3.14803906e-02, 2.59845201e-02,
          -1.30353183e-01, -1.97715566e-01, -6.76276237e-02,
          -1.88289270e-01, -3.94771919e-02, 2.43949387e-02,
          6.54104054e-02, -9.06622410e-02, -6.75317971e-03,
          -9.25589949e-02, -5.13723865e-02, -9.33937207e-02,
          -6.59775361e-02, -5.52314818e-02, 6.06154278e-02,
          1.54567614e-01, 1.24600299e-01, 1.03166942e-02,
          -1.17925145e-02, 4.82061915e-02, -9.42961499e-02,
          -1.28443763e-01, 5.32525033e-02, -2.01871302e-02,
          9.68850330e-02, 1.79440215e-01, 2.22143326e-02,
          -5.81217259e-02, -9.36329514e-02, -1.57893877e-02,
          -1.05363615e-01, -1.25198707e-01, -4.01136540e-02,
          7.69742997e-03, -1.57949373e-01, -4.63277958e-02,
          -5.80773801e-02, 1.69342861e-01, -8.30078572e-02,
          -1.89297691e-01, 1.20101504e-01, 4.65804823e-02,
          4.99434173e-02, -1.11827716e-01, -3.75005156e-02,
          -6.65115118e-02, 8.43823552e-02, 2.45025149e-03,
          -8.56156573e-02, 4.81836535e-02, 1.01750501e-01,
          1.14077069e-01, -8.61590952e-02, -8.35103616e-02,
          -1.32008359e-01, -1.71483725e-01, -1.08161479e-01,
          -2.52124399e-01, 1.51104167e-01, 8.52155685e-02,
          1.72816813e-01, 1.04337834e-01, 1.29129842e-01,
          -1.40730828e-01, -7.73842186e-02, -6.83893412e-02,
          -2.19741818e-02, 7.24886954e-02, 3.72565202e-02,
          2.77396031e-02, 6.83934195e-03, -8.48076344e-02,
          -1.12251081e-02, -3.00287809e-02, 2.78908145e-02,
          7.85887018e-02, 3.84049118e-02, -3.98544818e-02,
          1.37651175e-01, 5.84210828e-03, -1.06306355e-02,
          1.40705287e-01, 1.35740191e-01, -1.37282893e-01,
          -2.16607124e-01, 8.49089772e-02, 2.02985242e-01,
          1.43619314e-01, 1.64814025e-01, 1.68234468e-01, 4.54875901e-02,
          6.21538050e-02, -7.39046335e-02, -1.13389142e-01,
          1.17390566e-01, 1.96107030e-01, 1.40039980e-01, 3.43132392e-02,
          -3.01794317e-02, 3.39852236e-02, 1.90141778e-02,
          1.88390240e-02, -1.33899897e-01, -9.24005359e-02,
          -7.50703365e-02, 3.92675139e-02, 3.38254049e-02,
          1.54295340e-01, 2.18320906e-01, 6.42476380e-02,
          -1.20142244e-01, -1.75233111e-01, -5.77238649e-02,
          -7.49327466e-02, 1.45512279e-02, 2.93278135e-02,
          -4.38586734e-02, 3.13490964e-02, -2.74695158e-02,
          -1.32026792e-01, -2.72243768e-02, -1.48440255e-02,
          1.13101065e-01, 1.82780340e-01, 1.70697346e-02,
          -3.05995401e-02, -5.12131974e-02, -6.08421378e-02,
          -1.46517858e-01, -5.03530763e-02, -2.06043959e-01,
          -7.52192512e-02, 1.79655090e-01, 8.16238150e-02,
          9.67679918e-03, -1.47496268e-01, 9.65406373e-03,
          1.18798129e-01, 2.83963904e-02, -8.94364342e-02,
          -6.11242317e-02, -3.16913463e-02, -1.15961328e-01,
          -1.50041670e-01, -7.63109848e-02, 2.74793599e-02,
          3.09710085e-01, 2.13164076e-01, 3.75760570e-02, 1.13405816e-01,
          4.30842601e-02, 5.14396392e-02, 3.86414491e-02, 6.16832590e-03,
          1.79711014e-01, -7.89855346e-02, -1.73700333e-01,
          -3.39153200e-01, -1.92303717e-01, 4.46624979e-02,
          -1.17807575e-01, -2.38809958e-02, -2.01311156e-01,
          -1.10562615e-01, -3.74471843e-02, -1.22521378e-01,
          -1.03073359e-01, 1.23929136e-01, -1.24325819e-01,
          -1.70845971e-01, -4.20994498e-02, -1.80439919e-01,
          -7.75478929e-02, 2.67874934e-02, -4.78250254e-03,
          -1.39762536e-01, 2.87267268e-02, -1.52288591e-02,
          -6.27017692e-02, -2.30454072e-01, -2.23264769e-01,
          2.05571428e-02, 1.13480337e-01, 6.48882538e-02, 1.58610493e-01,
          1.32981434e-01, 2.64917344e-01, 8.55140612e-02, 1.72514677e-01,
          -4.50001471e-02, 1.31217808e-01, -1.54263705e-01,
          -5.67307957e-02, -7.42244571e-02, -1.37458578e-01,
          -1.68938816e-01, -2.68313468e-01, -1.91204980e-01,
          -1.34224921e-01, -1.31350443e-01, 3.25333653e-03,
          1.21425077e-01, 1.88945085e-01, 2.92765629e-03, 8.39988738e-02,
          -2.63539627e-02, 3.31573546e-01, 9.92103890e-02,
          1.81984201e-01, 3.41437235e-02, -1.78717042e-03,
          5.00806086e-02, 1.87534355e-02, 7.96497613e-02, 3.86127345e-02,
          2.03840970e-03, -8.35526437e-02, -8.44180286e-02,
          6.94952011e-02, 3.21700983e-02, -1.04627639e-01,
          9.58748683e-02, -1.76479388e-02, 2.97215860e-02,
          -3.77748832e-02, 2.58992724e-02, 7.90103972e-02,
          -8.05428531e-03, -9.35953669e-03, 1.12725198e-01,
          8.13329816e-02, 2.53946986e-03, -1.81809440e-01,
          -7.82995149e-02, -9.16559026e-02, 6.12273887e-02,
          2.95889508e-02, -3.55150588e-02, -1.55197382e-01,
          7.59388134e-02, -2.45044362e-02, 3.52203436e-02,
          -3.81939113e-02, -1.08996160e-01, -9.49809924e-02,
          8.63368213e-02, 6.69771954e-02, -7.60326385e-02,
          7.92660564e-02, -1.44447356e-01, 1.53195351e-01,
          -8.38857517e-02, 1.31826207e-01, 1.44078627e-01,
          -2.02846736e-01, -7.39661232e-02, -5.04082590e-02,
          5.27889617e-02, 1.20761335e-01, -6.68015406e-02,
          1.72329601e-02, 2.59569228e-01, -7.84567595e-02,
          1.80998072e-01, 9.04421583e-02, -1.12471305e-01,
          -1.20148711e-01, 1.23278582e-02, 2.60258596e-02,
          -6.26416830e-03, 4.00171441e-04, 1.75592244e-01,
          -2.03837194e-02, 2.18856484e-01, 1.94337681e-01,
          -1.65021986e-01, 1.60046354e-01, -1.09269381e-01,
          -1.16358496e-01, 1.29677251e-01, -2.16230437e-01,
          -8.31368119e-02, -3.16352546e-02, 1.28862262e-01,
          -4.62300032e-02, -6.02410808e-02, -1.81035861e-01,
          -3.01196259e-02, -1.14236111e-02, 2.36602407e-02,
          6.58169203e-03, 1.56843275e-01, 5.65188117e-02,
          -6.33354262e-02, 7.66010210e-02, -3.11812945e-02,
          1.55945674e-01, 4.16551828e-02, 5.08630797e-02,
          -5.40180355e-02, 5.62116168e-02, 2.06356764e-01,
          -1.30604789e-01, -4.77291904e-02, -1.09059729e-01,
          1.37281328e-01, 5.87118343e-02, -1.33718908e-01,
          1.49795055e-01, 6.40053302e-02, 6.35538548e-02,
          -1.64324224e-01, 3.54931988e-02, -1.98738709e-01,
          -2.63981000e-02, 1.60331488e-01, 7.57302716e-03,
          -4.54234593e-02, 1.21033534e-01, -6.59568980e-02,
          -5.93190193e-02, 1.50365695e-01, 6.06958978e-02,
          3.78086418e-02, -4.29796129e-02, -1.18723437e-01,
          7.33814854e-03, 1.93679258e-02, 8.62367749e-02,
          -4.63953428e-02, -1.49503559e-01, -4.51921485e-02,
          1.57610238e-01, 1.54352970e-02, -1.09775357e-01,
          -5.48821762e-02, 1.96125843e-02, 9.41624772e-03,
          -3.00140437e-02, 1.28222615e-01, -7.74219781e-02,
          -2.30069891e-01, 1.30140632e-02, -7.92086422e-02,
          -7.88598284e-02, 1.98870804e-02, 8.46135467e-02,
          6.47632778e-02, -1.71421200e-01, -9.33323428e-03,
          7.87095353e-02, 4.25495692e-02, -1.46696597e-01,
          2.86880881e-01, 1.92222387e-01, 1.83240119e-02,
          -1.31718382e-01, -3.94249558e-02, -1.58205330e-01,
          1.05524339e-01, 8.84911343e-02, 1.10656105e-01,
          -1.65768757e-01, -4.16153580e-01, -3.78554612e-01,
          -4.31136459e-01, -3.15240085e-01, -1.69471189e-01,
          -2.07115263e-01, -2.87151814e-01, -2.59852223e-03,
          6.54074401e-02, 1.17819466e-01, 1.15459599e-01, 6.92796856e-02,
          -1.36877205e-02, -2.66529292e-01, -7.10839853e-02,
          1.76442266e-01, 1.83266625e-01, -1.29337087e-01,
          -1.73569977e-01, -8.78417045e-02, -1.74819991e-01,
          -3.47213775e-01, -3.55160117e-01, -4.08316195e-01,
          -5.12250662e-01, -2.27853626e-01, -2.95655072e-01,
          -3.12859058e-01, -1.03719138e-01, 4.23456319e-02,
          1.02196388e-01, 9.45902690e-02, -1.42187282e-01,
          -3.23358864e-01, -2.62160927e-01, 1.15250647e-01,
          -1.50536105e-01, -2.57787853e-01, -3.26826498e-02,
          1.73203126e-01, -1.06474727e-01, -1.88945621e-01,
          -1.10912904e-01, 5.76997250e-02, -2.22736403e-01,
          -4.07270610e-01, -2.51287401e-01, -5.61285317e-02,
          2.55277772e-02, 8.93941708e-03, -1.59851223e-01,
          -3.47993076e-01, -3.45460683e-01, 4.41503786e-02,
          -1.11405686e-01, -2.12094247e-01, -4.59531583e-02,
          1.49140686e-01, 4.01241444e-02, -2.89062589e-01,
          -1.46971747e-01, 2.40087863e-02, 1.59188479e-01,
          -4.43279326e-01, -5.46418190e-01, -3.40354562e-01,
          -4.49594483e-02, -2.16418564e-01, -3.51300657e-01,
          -1.36343941e-01, 2.41219476e-01, 1.50570869e-01,
          -6.40747920e-02, 1.04097560e-01, 1.51995301e-01,
          1.33885816e-01, 1.91743329e-01, -2.13197935e-02,
          5.13352789e-02, 4.37035233e-01, 2.03103542e-01, 3.64742018e-02,
          -1.94042593e-01, -2.22347453e-01, -4.64243926e-02,
          -1.91545725e-01, -5.59694588e-01, -4.14427757e-01,
          9.28613767e-02, 3.93072546e-01, 1.33905131e-02,
          -5.74535318e-03, 1.83037207e-01, 5.30101843e-02,
          1.97981507e-01, -4.62601148e-02, -3.48397382e-02,
          2.47195840e-01, -1.98593557e-01, -1.57119900e-01,
          1.96362305e-02, 1.08218029e-01, 1.61535800e-01,
          -2.91426182e-02, -6.71103150e-02, -9.82837826e-02,
          6.22988567e-02, 8.78107361e-03, 5.13928011e-02, 7.90805966e-02,
          1.83730632e-01, 6.95162406e-03, 1.42576829e-01, 2.07266491e-02,
          3.97104919e-02, 6.04788251e-02, -2.50625946e-02,
          -2.54950106e-01, -6.23130389e-02, -3.85216437e-03,
          1.81439385e-01, -2.71958439e-03, -8.03234428e-02,
          -7.41155073e-02, -4.86818254e-02, -1.54134689e-03,
          4.44605052e-02, 7.32077807e-02, 1.78807333e-01, 1.11945204e-01,
          1.07718341e-01, 7.16136768e-02, -2.06525717e-02,
          -2.79972609e-02, 1.92188114e-01, -2.32837405e-02,
          -5.14121950e-02, -1.97615251e-01, -1.65626287e-01,
          -5.41986488e-02, -9.99284834e-02, -1.05942979e-01,
          6.87872991e-02, 2.03943893e-01, -1.28956549e-02,
          3.66308689e-02, -9.70110670e-02, -9.90684107e-02,
          -1.32909209e-01, 9.02105868e-02, 4.22923788e-02,
          1.57833353e-01, 7.04900771e-02, -6.36466965e-02,
          -1.27912879e-01, -1.23237297e-01, -7.91849568e-02,
          -1.03423923e-01, -7.74268582e-02, -5.92857376e-02,
          1.36310458e-01, 7.18082711e-02, -3.17880027e-02,
          -2.63114534e-02, -1.05766244e-01, -7.58597180e-02,
          -2.59871632e-02, 1.10428996e-01, 4.93253805e-02,
          1.83822572e-01, 2.44463205e-01, -9.24046326e-04,
          7.09601073e-03, -8.62022638e-02, -1.42032340e-01,
          -1.43587356e-03, 1.11811876e-01, -9.35426280e-02,
          1.93417683e-01, 1.53758809e-01, 6.92785904e-02,
          -2.10069809e-02, -2.66703535e-02, -6.74233213e-02,
          -1.78859398e-01, -9.18210074e-02, -9.64454710e-02,
          1.86713472e-01, 4.66739424e-02, -5.07625081e-02,
          -6.57261685e-02, 2.82149948e-02, -1.31633729e-01,
          -1.40570804e-01, 3.91177535e-02, -5.15325889e-02,
          1.40891418e-01, 2.14038923e-01, -9.76711884e-02,
          -4.74911854e-02, 1.62259191e-02, 1.75853132e-03,
          2.87821796e-02, -2.63870861e-02, 4.01052162e-02,
          4.68475297e-02, 2.28124216e-01, 1.76041216e-01, 2.68301163e-02,
          1.75890535e-01, 4.79504988e-02, -7.70498961e-02,
          -3.32584307e-02, -1.23091854e-01, -1.16280034e-01,
          -1.29232004e-01, -1.69496894e-01, -5.34342192e-02,
          9.23074856e-02, -9.38404724e-03, 6.78138286e-02,
          1.15935616e-01, -2.67685145e-01, -1.63301155e-01,
          8.69939253e-02, -2.72869729e-02, -2.41774656e-02,
          -8.06597471e-02, -2.43427847e-02, 1.64691687e-01,
          7.27545843e-02, 2.28150547e-01, 6.21617027e-02, 3.54757644e-02,
          -9.54198241e-02, 8.23831037e-02, -3.67255956e-02,
          -7.41915107e-02, 1.59073815e-01, -1.13268293e-01,
          -1.24038897e-01, -2.36225292e-01, -2.05077097e-01,
          -2.55795658e-01, -2.54429709e-02, 1.88180938e-01,
          1.22246355e-01, 1.98824808e-01, 2.17223495e-01, 3.76338288e-02,
          -2.43534818e-02, -7.58789033e-02, -1.66708976e-01,
          1.78183660e-01, 1.07678033e-01, 1.97094753e-01, 1.09123833e-01,
          1.02007799e-01, -9.38644633e-04, -1.56410709e-01,
          4.57779551e-03, -1.94370747e-02, 1.05815031e-01,
          8.31394941e-02, 1.11842081e-01, 1.67259946e-01,
          -2.46956176e-03, -2.45489687e-01, -1.64425299e-01,
          -5.77372685e-02, -8.02069530e-02, -4.58992757e-02,
          1.31037951e-01, 1.59084901e-01, 1.21215545e-01, 2.55164534e-01,
          -1.73506632e-01, 5.50845154e-02, -4.98827035e-03,
          2.12038711e-01, 1.58717424e-01, 8.29508826e-02, 2.83103079e-01,
          -8.95301710e-05, 4.78797667e-02, -2.97597330e-02,
          -1.69793293e-01, -3.26007038e-01, -7.26906136e-02,
          -5.41800372e-02, 7.06600249e-02, 3.48547131e-01,
          5.12635112e-02, 5.88153787e-02, 2.96473112e-02,
          -1.60924435e-01, -9.39857028e-03, 6.40326515e-02,
          8.44039991e-02, 9.28036049e-02, 1.36416435e-01,
          -7.25428909e-02, 1.45290479e-01, 6.05963683e-03,
          -1.15585898e-03, -1.12183899e-01, -2.37998348e-02,
          -1.56449862e-02, 2.45542184e-01, 1.79814935e-01,
          -5.78675494e-02, -8.37766454e-02, -2.62254290e-02,
          -2.70592958e-01, -1.52823731e-01, -2.02218369e-01,
          -2.55096316e-01, -1.09421147e-03, 1.36839136e-01,
          3.33930999e-02, 7.13482946e-02, 8.18587169e-02,
          -1.52759835e-01, 3.10251452e-02, -2.59874277e-02,
          -1.02199540e-01, 1.27302393e-01, -1.97272971e-01,
          -1.40444875e-01, -7.92464092e-02, 8.71026143e-02,
          8.62176791e-02, -2.01684386e-01, -7.05715716e-02,
          -1.51609080e-02, -3.77310328e-02, 1.05379634e-01,
          -1.62953436e-02, -1.76365450e-01, -1.20514371e-01,
          -2.07714275e-01, -2.10774355e-02, -1.15193635e-01,
          -1.27177596e-01, -1.74591377e-01, -2.55533248e-01,
          3.33745629e-02, -7.34220594e-02, 1.33748325e-02,
          4.25422415e-02, 5.57400472e-02, 2.60653738e-02,
          -8.24606195e-02, -1.72345474e-01, -4.39367771e-01,
          -2.55275995e-01, -2.02611014e-01, -4.66865342e-04,
          2.89119799e-02, 3.15491557e-01, 1.67957902e-01, 1.58165604e-01,
          6.34238347e-02, -6.71103820e-02, -3.58710848e-02,
          6.57623559e-02, 1.20944567e-01, 2.75061250e-01,
          -9.21332240e-02, -9.03116837e-02, -3.03195208e-01,
          -2.80512303e-01, -4.33818787e-01, -2.03506663e-01,
          -1.02784134e-01, -4.78209928e-02, 3.79016213e-02,
          2.19801381e-01, 3.67706432e-03, 4.51871604e-02, 1.46716367e-02,
          -2.68607046e-02, 8.88063908e-02, 1.57866806e-01,
          4.57816832e-02, 1.92264453e-01, 3.33164968e-02,
          -1.44735977e-01, -2.94226874e-02, -8.13374445e-02,
          6.59537874e-03, -4.78622653e-02, -5.32504581e-02,
          -1.36526063e-01, 8.37594364e-03, 4.19424735e-02,
          -8.46199095e-02, -2.34599620e-01, 1.11940550e-02,
          -5.90558089e-02, -4.38859053e-02, -1.57316569e-02,
          -9.20232292e-03, 6.18999302e-02, -3.20027992e-02,
          -2.17480376e-01, 6.12332746e-02, -7.80466720e-02,
          9.79383811e-02, 2.43724883e-02, 1.03379957e-01,
          -4.74671461e-02, 9.03009530e-03, 7.13467747e-02,
          -1.64966267e-02, 8.30010399e-02, -7.19205067e-02,
          -8.45734105e-02, -7.86615908e-03, -1.01983368e-01,
          4.04381081e-02, 1.37301132e-01, -1.94845628e-02,
          4.44705859e-02, -2.12665070e-02, 4.88648973e-02,
          -7.57860988e-02, 1.38783157e-02, 1.24672224e-04,
          6.02381453e-02, -2.35425550e-02, -1.38884068e-01,
          2.40843058e-01, 3.81905511e-02, -1.39708340e-01,
          3.55251759e-01, -5.24451435e-02, -1.71559960e-01,
          1.45873070e-01, -2.77995408e-01, 9.13643241e-02,
          9.22728255e-02, 5.37472032e-03, 2.69165933e-02,
          -9.45324227e-02, 3.13643739e-02, 3.37223075e-02,
          1.84190735e-01, 1.29104733e-01, -1.77361593e-01,
          1.24426641e-01, -1.15237221e-01, 1.67202145e-01,
          3.94965887e-01, -2.10031763e-01, 9.15396512e-02,
          2.91296929e-01, 1.69246795e-03, 8.08228031e-02,
          -1.30713801e-03, 3.89775820e-02, -1.52076140e-01,
          -5.27991578e-02, 9.93934199e-02, 8.71667936e-02,
          1.25088885e-01, -8.83384794e-02, -6.62653074e-02,
          -2.02334560e-02, -1.07651092e-01, -2.42559984e-01,
          -1.04931563e-01, -9.36069116e-02, -1.06902361e-01,
          1.17784552e-01, -1.23649985e-01, -2.04526871e-01,
          -1.27630970e-02, 1.22793242e-02, -1.58040538e-01,
          -1.30046517e-01, -1.58936009e-01, -1.77208167e-02,
          -3.61931100e-02, -1.02261446e-01, -9.65920985e-02,
          8.81613493e-02, -1.02065384e-01, -1.98664293e-01,
          -1.07425645e-01, -1.03140533e-01, -6.21139221e-02,
          1.06085010e-01, 8.80512595e-03, -6.12022988e-02,
          1.33242279e-01, -3.50795127e-02, -8.81052539e-02,
          7.32015520e-02, 5.13268039e-02, -1.62583277e-01,
          1.51612982e-01, -4.78821807e-02, -2.38479916e-02,
          4.41434644e-02, -1.18085057e-01, 4.63728234e-02,
          2.48462602e-01, 8.16911086e-02, 3.63082513e-02, 5.76089621e-02,
          -4.72739898e-02, -7.78309032e-02, 1.63139835e-01,
          -2.64383536e-02, 5.97795248e-02, -4.96039577e-02,
          9.23348591e-03, 7.23808259e-02, 6.99439645e-02, 7.85807893e-03,
          -1.23431839e-01, -2.01489613e-03, -1.65034473e-01,
          4.10749502e-02, -1.01857588e-01, -1.27430961e-01,
          -5.26185371e-02, -1.00178100e-01, -1.26822814e-01,
          1.02825820e-01, 1.52366221e-01, -1.72152724e-02,
          -1.11079983e-01, -5.31710535e-02, -7.02134743e-02,
          -3.04525718e-02, 6.05256781e-02, 4.25546207e-02,
          -5.87194525e-02, 1.25036046e-01, 1.49647579e-01,
          -6.23163469e-02, -1.73655003e-01, -1.58709913e-01,
          -3.11479121e-01, -2.30314657e-01, -2.14254946e-01,
          1.03336111e-01, 1.22224458e-01, 5.65618426e-02, 3.79241891e-02,
          -5.62837310e-02, -8.29164758e-02, -1.11088470e-01,
          -8.86122882e-02, 5.05735390e-02, -2.51866486e-02,
          7.72593394e-02, 1.35347426e-01, 1.32668450e-01, 7.02888444e-02,
          1.61303163e-01, -1.46120880e-02, -1.03208281e-01,
          -1.79863468e-01, -2.56121337e-01, -2.02643797e-01,
          -4.07670774e-02, 6.17095642e-02, 3.40521410e-02,
          1.62285287e-02, 2.91667394e-02, -4.65725735e-02,
          -1.79624766e-01, 3.21591347e-02, -1.65682837e-01,
          -1.68387756e-01, 6.67340355e-03, -1.86778158e-02,
          -1.05188407e-01, -2.97905028e-01, -2.73853332e-01,
          -1.55291781e-01, 7.79187307e-02, 3.94359902e-02,
          3.89103033e-02, 1.31443426e-01, 9.38887596e-02, 5.07023185e-02,
          9.45879593e-02, 1.98094174e-01, 2.31316015e-02, 8.25500414e-02,
          1.03761837e-01, -1.48547500e-01, -4.81735170e-03,
          -1.48927897e-01, 3.39849144e-02, -3.15560214e-02,
          9.51085463e-02, 5.31937033e-02, 3.00186187e-01, 5.55782132e-02,
          1.23006115e-02, -3.20331305e-02, -4.26285192e-02,
          -9.67428163e-02, -4.61710662e-01, -5.03445089e-01,
          -6.77026361e-02, 2.87983358e-01, 5.46138845e-02,
          2.07015648e-01, 1.15670174e-01, 1.50173008e-01, 1.36231482e-01,
          6.14822470e-02, -1.36966318e-01, -1.80287480e-01,
          1.36677459e-01, 1.14646666e-01, 3.80113833e-02, 3.79198343e-02,
          -8.77742767e-02, 4.70916070e-02, -9.73579437e-02,
          -2.22598851e-01, -1.20076522e-01, 8.91062897e-03,
          7.85254966e-03, 1.66652307e-01, 2.53922362e-02,
          -3.59166898e-02, 3.55138630e-02, 2.92827990e-02,
          -6.99202865e-02, -1.91334501e-01, 1.37554526e-01,
          -1.53614849e-01, 8.62405226e-02, 3.64660919e-02,
          1.91023350e-01, 1.30391702e-01, 2.67398000e-01,
          -3.38605791e-02, -2.10185826e-01, -3.94099541e-02,
          -4.86788675e-02, 1.09177969e-01, 6.66298568e-02,
          1.59491450e-01, 1.84412137e-01, 8.15341696e-02,
          -8.51738974e-02, -2.97469459e-02, -8.64687711e-02,
          -1.43858910e-01, -2.97174100e-02, -7.57113025e-02,
          3.57581303e-02, 4.36661728e-02, 1.12335205e-01,
          -1.09404840e-01, -2.23097965e-01, -8.25085640e-02,
          -1.95292562e-01, 9.69148576e-02, -1.60422232e-02,
          6.49938732e-02, 2.09490657e-02, 9.26237628e-02,
          -7.87957683e-02, -2.58412242e-01, -6.84133992e-02,
          -9.12730489e-03, -9.52114239e-02, 2.08568964e-02,
          1.97994143e-01, -2.70928275e-02, -1.11679859e-01,
          -1.85096636e-01, -5.47571182e-02, -2.18628183e-01,
          -1.17153801e-01, -5.11995032e-02, 7.60649070e-02,
          7.59498626e-02, 3.31865884e-02, -3.06527894e-02,
          -9.71678719e-02, -8.34604446e-03, 2.51928866e-02,
          -7.55576566e-02, 6.60874397e-02, 7.75017515e-02,
          1.43127307e-01, -5.06463349e-02, -1.05991192e-01,
          -4.37070690e-02, -2.18298018e-01, -4.99351546e-02,
          -9.23453271e-02, 4.07880060e-02, 1.33276405e-02,
          -2.10080609e-01, -1.77831911e-02, -6.33367598e-02,
          5.00815585e-02, -2.11555958e-01, 4.87802178e-02,
          2.16185842e-02, 6.04315400e-02, 8.59556571e-02, 6.17924072e-02,
          4.29124758e-02, -3.91920283e-02, -1.95082664e-01,
          -3.14729847e-02, -5.74897379e-02, -6.23791441e-02,
          7.75005221e-02, 7.39947036e-02, 1.23056196e-01, 1.12249576e-01,
          8.35023448e-02, -4.50639240e-02, -2.77128778e-02,
          -1.43753558e-01, -6.46134466e-02, 1.21244408e-01,
          2.28352714e-02, -3.49926427e-02, 4.73560132e-02,
          8.09037760e-02, -1.70524508e-01, -1.39089808e-01,
          -6.98387101e-02, -1.90495681e-02, 6.36037365e-02,
          -4.36342843e-02, 1.54967560e-02, 3.01164836e-02,
          2.24594437e-02, -1.68025810e-02, -1.11047350e-01,
          -1.88476011e-01, -1.80947214e-01, 2.84714550e-02,
          -6.28845617e-02, 1.03895299e-01, 7.38128349e-02,
          9.77927223e-02, 9.85372718e-03, -5.61140329e-02,
          -1.98933426e-02, 4.24656756e-02, 1.95177674e-01,
          3.74221429e-03, 1.44095561e-02, 1.01099029e-01, 1.50327668e-01,
          -1.10244811e-01, -1.34159520e-01, -4.44950424e-02,
          -9.74876806e-02, 5.32018431e-02, -3.62095200e-02,
          -3.10209207e-02, -2.26573981e-02, -1.04267173e-01,
          1.08636059e-02, 1.12054329e-02, -7.14227483e-02,
          4.13101241e-02, 2.85294414e-01, 6.66487738e-02,
          -1.14547938e-01, -3.26865241e-02, 2.15950534e-01,
          -9.24006775e-02, -9.10001323e-02, 1.78418130e-01,
          7.60480240e-02, 2.05464691e-01, 4.18623425e-02, 6.90772161e-02,
          1.89265728e-01, 1.47044599e-01, -1.76932886e-01,
          -1.38381973e-01, -1.07341036e-01, -8.02049413e-02,
          4.16965224e-02, 6.67073950e-02, 1.53670117e-01, 1.78088978e-01,
          1.11823462e-01, -1.33450389e-01, -9.70569327e-02,
          -8.64520017e-03, -3.30224186e-02, 6.54213056e-02,
          7.97619820e-02, -6.58326829e-03, 2.53720023e-02,
          1.35182038e-01, 2.27383431e-02, -7.43218958e-02,
          -7.81345088e-03, -7.14450106e-02, -1.83456428e-02,
          3.93358525e-03, 1.24468394e-01, -1.04327850e-01,
          1.20833941e-01, 9.82101709e-02, 2.23718677e-02,
          -6.11043051e-02, -1.49131328e-01, 6.02488182e-02,
          -5.44221662e-02, -1.27401594e-02, -1.52078032e-01,
          -1.01237051e-01, -8.72183070e-02, 1.41270142e-02,
          -2.58449633e-02, -2.47185916e-01, -1.19993314e-02,
          7.92008191e-02, 1.22935779e-01, -1.34039491e-01,
          -2.75446773e-01, -1.00190930e-01, -1.03148021e-01,
          3.46136205e-02, 1.25468254e-01, 2.20603719e-01,
          -4.45284918e-02, -6.29881620e-02, -2.27968842e-01,
          -6.84480593e-02, -2.31319498e-02, 6.91702664e-02,
          -2.22521517e-02, 4.26626839e-02, 3.41478698e-02,
          6.85097054e-02, 1.00214817e-02, 6.48682937e-04, 3.66100972e-03,
          -1.12687252e-01, -1.22097418e-01, -2.60103643e-01,
          -2.34753475e-01, 3.41620296e-02, -1.22669682e-01,
          2.49266364e-02, -1.96571991e-01, -4.15143192e-01,
          -2.40947098e-01, -1.98764101e-01, -8.33392143e-02,
          -1.80644110e-01, -1.00045204e-01, -1.06034510e-01,
          -8.01365376e-02, -1.25690233e-02, -7.60597661e-02,
          -4.33417708e-02, 2.14722734e-02, 4.85400110e-02,
          -1.29615396e-01, -9.61118788e-02, -1.79768264e-01,
          1.14301093e-01, -7.69559219e-02, -1.08614348e-01,
          -2.60998923e-02, -5.20922355e-02, 1.41814470e-01,
          6.99348599e-02, -2.31735408e-03, -1.33138252e-02,
          1.14549935e-01, 9.25403088e-02, 1.03068426e-01, 1.02212198e-01,
          2.16199577e-01, -1.30414337e-01, -7.40053207e-02,
          -2.50309587e-01, -2.47037023e-01, -1.69159189e-01,
          -7.14832470e-02, -1.56044051e-01, -8.32502246e-02,
          -4.43617726e-04, 2.26498157e-01, 1.56051964e-01,
          1.46843225e-01, 3.67452428e-02, -4.99142660e-03,
          9.18419063e-02, 1.42582178e-01, 1.86289921e-02, 1.30236298e-01,
          5.30563761e-04, -8.94558430e-03, -2.45855212e-01,
          -1.33068055e-01, -4.40293327e-02, 2.97507737e-02,
          -6.13204278e-02, 5.76271350e-03, 4.25078832e-02,
          7.74952695e-02, 5.63380681e-03, 6.34412989e-02, 2.15452574e-02,
          2.09232017e-01, 4.26463522e-02, 1.33224249e-01, 1.32064279e-02,
          1.15068197e-01, -3.16500142e-02, -1.51755184e-01,
          3.84135842e-02, -1.48876458e-01, 5.68543188e-02,
          9.23739448e-02, 1.38716176e-01, 5.35566956e-02, 6.04271255e-02,
          2.84063593e-02, 2.43726503e-02, -1.91804636e-02,
          -6.57222513e-03, -1.39591517e-02, 1.27736464e-01,
          -1.65413737e-01, -6.43955097e-02, 5.60269617e-02,
          -6.31126389e-02, -1.21829696e-01, -6.23172224e-02,
          -3.90314981e-02, 6.38388991e-02, -1.09241270e-01,
          3.33103947e-02, -1.68912821e-02, 9.64146852e-02,
          4.59509604e-02, 1.96776867e-01, -4.93695363e-02,
          -1.44362589e-02, -5.30169047e-02, -9.13245678e-02,
          -1.00450695e-01, 1.03101060e-01, -1.08551949e-01,
          2.05382168e-01, 3.67870070e-02, -1.52716950e-01,
          9.24589187e-02, -2.57415362e-02, -2.28751555e-01,
          -2.12130547e-01, -1.82927828e-02, 1.33190706e-01,
          -1.48591757e-01, 1.85232207e-01, -7.04274848e-02,
          -2.87319683e-02, 2.29795337e-01, -9.55599174e-02,
          -6.62090033e-02, 2.12755904e-01, 1.50910951e-02,
          1.04302280e-01, 1.36275649e-01, -5.73688336e-02,
          -1.16933435e-01, -5.48711270e-02, -1.92667302e-02,
          -1.07268788e-01, 1.86358809e-01, 4.42662463e-02,
          -2.57064551e-01, 3.14237624e-01, 8.22494999e-02,
          -1.31971478e-01, 8.49932283e-02, 1.23180300e-01,
          -8.20027515e-02, -3.17077041e-02, -2.30926722e-01,
          -8.65815654e-02, 1.49814352e-01, 1.18038110e-01,
          -1.19351417e-01, -4.77936827e-02, 2.15672818e-03,
          1.11927450e-01, 2.57050898e-02, -1.03274353e-01,
          6.55469894e-02, 1.50594890e-01, 1.68370008e-01,
          -2.02242911e-01, -7.85067007e-02, -4.10549156e-02,
          2.66232658e-02, 1.49518345e-02, 1.06532380e-01,
          -2.15884939e-01, 1.66335121e-01, 3.90119441e-02,
          7.25654215e-02, -4.10669334e-02, -1.84420496e-01,
          1.09291337e-01, 5.91646507e-02, -1.43898830e-01,
          -1.37599364e-01, -1.40451929e-02, -8.22660699e-02,
          -6.25226051e-02, -8.10453817e-02, -1.76513240e-01,
          -1.56338811e-02, -1.41340038e-02, -2.58851983e-02,
          1.17994636e-01, 1.38928100e-01, 2.03633115e-01, 4.12014201e-02,
          2.18110643e-02, -1.11650191e-01, 9.70473662e-02,
          5.23981638e-03, 8.39719698e-02, 1.58682521e-02, 6.79563880e-02,
          2.19152533e-02, 5.18904142e-02, -6.32464420e-03,
          -5.70321567e-02, -5.51376641e-02, 2.91197952e-02,
          -1.42301872e-01, -1.70694336e-01, 8.88445675e-02,
          1.30381763e-01, -3.47279385e-02, -1.08804367e-01,
          -1.56459957e-01, 1.65404622e-02, 3.60285267e-02,
          -1.34958670e-01, -1.29862100e-01, -7.85286203e-02,
          -1.94537435e-02, -1.22599028e-01, -8.18059742e-02,
          5.51238097e-02, 7.33782798e-02, 1.08665489e-01,
          -3.05308908e-01, 1.45636827e-01, 1.44827262e-01,
          -3.86577733e-02, 9.47100110e-03, -2.30206493e-02,
          -1.49722518e-02, -8.79193097e-02, 6.03402667e-02,
          -1.16617093e-02, 1.32096946e-01, 6.51939660e-02,
          -1.29728734e-01, -1.05673753e-01, -7.99722075e-02,
          6.16551787e-02, 1.51429325e-03, -2.25157887e-02,
          6.96816742e-02, -1.01112433e-01, -6.23165071e-02,
          -1.41111523e-01, -8.41007084e-02, 5.28188646e-02,
          2.61657089e-01, 1.63853303e-01, 6.77689090e-02,
          -1.03826866e-01, -1.22574620e-01, -2.08667353e-01,
          -7.49265179e-02, -6.12913743e-02, -1.64326027e-01,
          -6.31047459e-03, -4.11300808e-02, -8.29578936e-02,
          -7.93847069e-02, 1.47575378e-01, -4.76193167e-02,
          -1.03152432e-01, -7.31032901e-03, -1.36335678e-02,
          -7.55025148e-02, 1.08641788e-01, 1.85209569e-02,
          4.58826087e-02, 1.63398087e-01, 1.07857309e-01,
          -1.72184914e-01, -5.42067736e-02, -4.37265448e-02,
          -3.62864025e-02, -1.30741335e-02, 8.02480578e-02,
          4.27249931e-02, 1.40856104e-02, -7.43163303e-02,
          1.04458146e-02, -4.95848991e-02, 6.01361915e-02,
          -1.09434634e-01, 1.13381565e-01, -3.10530118e-03,
          -1.19279258e-01, -7.67116845e-02, -8.47076401e-02,
          1.80887990e-02, -9.19399709e-02, 2.51476794e-01,
          -7.23379925e-02, -1.01179606e-03, 1.86210275e-01,
          -6.91886619e-02, -7.60693252e-02, -1.58910945e-01,
          -3.53373736e-02, 5.21099344e-02, 1.31215885e-01,
          7.29068294e-02, -1.04462370e-01, -1.47953197e-01,
          -1.80549800e-01, 8.09927955e-02, 6.29036203e-02,
          6.83323443e-02, 5.38563840e-02, 1.13376833e-01, 2.54699111e-01,
          7.56970495e-02, 5.77418767e-02, 1.94576401e-02,
          -3.05330232e-02, -2.31950670e-01, -2.02180771e-03,
          -1.07847862e-01, 1.97069839e-01, 8.01241100e-02,
          -7.20658302e-02, 8.16346928e-02, -5.33618452e-03,
          1.87849402e-01, 1.22496352e-01, 2.80791581e-01,
          -7.72098303e-02, -2.94325501e-02, 5.98052591e-02,
          9.65197310e-02, -2.78523238e-03, -3.27796713e-02,
          -7.86405429e-02, -1.05411373e-01, -7.42724314e-02,
          -1.00480065e-01, -7.74502829e-02, -5.71409576e-02,
          -1.24611244e-01, -1.83895499e-01, -7.44504407e-02,
          2.46073157e-02, 2.29799282e-02, 6.14942349e-02, 1.43620539e-02,
          3.33825499e-02, 1.72942281e-02, 4.09881249e-02,
          -8.25534761e-02, -1.27565846e-01, 1.28731295e-01,
          -3.13243605e-02, 2.36668549e-02, -5.83306737e-02,
          -1.08196579e-01, -1.47171974e-01, -9.32841301e-02,
          -9.08146054e-02, 3.20731178e-02, 6.66495487e-02,
          8.06489866e-03, 3.54816131e-02, 9.35844779e-02, 9.35133826e-03,
          4.42726053e-02, 1.78993672e-01, 2.81420369e-02,
          -5.52387461e-02, 1.15536951e-01, -8.68924931e-02,
          -1.80914458e-02, -6.57078028e-02, 4.10219133e-02,
          -1.73366740e-01, -1.73968330e-01, -3.15624103e-02,
          -6.63767457e-02, 1.99678048e-01, -6.20964020e-02,
          1.46275952e-01, -2.88873427e-02, -2.11455554e-01,
          -2.12508187e-01, -1.50961876e-01, 1.02044858e-01,
          9.82216969e-02, -3.93463038e-02, -6.39372692e-02,
          -1.43244848e-01, 8.45292136e-02, 1.69383198e-01,
          -1.08956769e-01, 3.96608710e-02, -5.28660230e-02,
          4.85682711e-02, -9.00751203e-02, -1.16068885e-01,
          5.67220487e-02, 2.07460344e-01, -4.03672345e-02,
          -8.93604383e-02, -8.57106447e-02, 3.98581102e-02,
          1.69901371e-01, -1.37442961e-01, -2.12812439e-01,
          1.53636351e-01, -8.87092724e-02, 1.52650988e-02,
          -1.79773616e-03, -1.50193140e-01, -5.19284941e-02,
          -8.43430534e-02, -1.83310136e-01, -1.00367434e-01,
          1.15954973e-01, -4.31146584e-02, 3.10080349e-02,
          -2.06740592e-02, 5.17114950e-03, 5.39670102e-02,
          2.59760879e-02, -1.48390695e-01, -1.69694066e-01,
          1.23777255e-01, -9.83134657e-02, -1.04268886e-01,
          -7.22789243e-02, -1.19800810e-02, 2.99620125e-02,
          1.21986754e-01, -7.57082403e-02, -3.31418663e-02,
          1.26143202e-01, 1.46377191e-03, -2.54728664e-02,
          -1.45551926e-02, 8.74328464e-02, 4.24671546e-02,
          5.64531386e-02, -2.32075527e-02, -8.87143016e-02,
          -6.02426492e-02, 3.18849422e-02, -2.20497157e-02,
          -4.77808826e-02, -8.52085203e-02, 2.07717031e-01,
          1.00501351e-01, 2.32802853e-01, 2.85812784e-02, 1.08551078e-01,
          1.14550598e-01, -5.10657914e-02, -1.98314384e-01,
          -1.67132765e-01, 4.84217256e-02, 8.87183473e-02,
          6.73108101e-02, 1.73697602e-02, 1.59752741e-01, 7.25681633e-02,
          -4.00195606e-02, -1.16432436e-01, -1.56647041e-01,
          5.24694379e-03, -3.46782082e-03, 5.76655529e-02,
          8.96247011e-03, 1.18516199e-01, 1.27264798e-01, 1.79221816e-02,
          5.20835223e-04, -1.56582832e-01, 5.72878309e-02,
          -3.88744548e-02, 1.45610705e-01, -1.43990397e-01,
          -1.68010741e-01, 1.07784290e-02, 1.16942218e-02,
          -1.82205468e-01, -3.26560736e-02, 2.98006386e-02,
          6.60769790e-02, 1.31187558e-01, -1.36039615e-01,
          -9.55318660e-02, -2.25658923e-01, -1.46588027e-01,
          -1.96108326e-01, 3.83621193e-02, 4.46247905e-02,
          1.98203828e-02, 2.90445685e-02, -2.93130632e-02,
          9.95258708e-03, 1.74121127e-01, 7.94381425e-02, 2.06051171e-01,
          1.69480875e-01, 1.99642643e-01, -8.74459092e-03,
          -2.10626069e-02, 8.44932906e-03, 5.76601829e-04,
          -2.41767168e-02, -1.81723163e-02, 1.46355759e-02,
          1.30732238e-01, 1.42520919e-01, 5.16822152e-02, 1.82832286e-01,
          9.52551588e-02, 1.27676144e-01, -1.25801146e-01,
          -7.16720000e-02, -1.33222640e-01, 1.67366955e-02,
          1.40651723e-03, 9.15631279e-02, 1.37896452e-03,
          -1.35585487e-01, -3.11782975e-02, -9.57101211e-02,
          -1.49742916e-01, 1.86182652e-02, 1.05557986e-01,
          -7.78287351e-02, 7.55612403e-02, 5.79216518e-02,
          7.57197067e-02, 1.19389646e-01, 6.97101876e-02, 1.12696595e-01,
          -1.09787807e-01, 4.55817990e-02, 2.04843208e-02,
          7.47436360e-02, 3.05150039e-02, -6.95029721e-02,
          9.80726853e-02, 6.80270344e-02, -6.82954416e-02,
          1.82123035e-02, -1.15039116e-02, -5.23156896e-02,
          5.88591956e-02, 5.59161194e-02, -1.53447449e-01,
          -1.92433104e-01, -1.27782136e-01, -1.30169317e-02,
          -1.02197394e-01, -5.67103662e-02, -1.75149962e-01,
          -8.30755085e-02, 6.36665747e-02, 6.50202408e-02,
          -1.28062731e-02, -3.56912334e-03, 4.60489392e-02,
          6.52181730e-02, -1.44339744e-02, -6.53044134e-02,
          1.17629118e-01, 8.85461420e-02, 1.69563755e-01, 9.87777673e-03,
          5.30790351e-03, -1.14112794e-02, -1.53374895e-01,
          -1.65820286e-01, -1.68970555e-01, -1.13153838e-01,
          1.66352376e-01, 8.38990062e-02, 7.26230741e-02, 1.48496151e-01,
          2.96550356e-02, 2.21578148e-03, 9.03491303e-02,
          -1.31384162e-02, -3.36300731e-02, -5.98272048e-02,
          6.12496689e-04, -1.02389110e-02, 2.39051413e-02,
          -2.22000405e-02, 4.17240709e-02, -9.77441967e-02,
          -5.75480936e-03, 1.15658762e-02, 5.07146530e-02,
          -6.95261881e-02, -4.61680070e-02, 6.60923645e-02,
          -7.39327492e-03, -1.46956295e-01, 3.71703804e-02,
          1.73393823e-03, -1.89580899e-02, -1.44554358e-02,
          -3.30059156e-02, 5.47573576e-03, 4.80548702e-02,
          -6.60948306e-02, 5.04296161e-02, 8.14407878e-03,
          4.07302231e-02, -4.59381193e-03, 1.14179309e-02,
          -1.07947749e-03, 1.20998835e-02, 5.52895926e-02,
          3.41905281e-03, -1.17996195e-03, 8.91047046e-02,
          1.01921834e-01, -9.86518245e-03, -1.15035288e-01,
          -9.59510803e-02, -7.74319693e-02, 7.73939267e-02,
          9.90295336e-02, -1.60831034e-01, 1.10078610e-01,
          1.24888448e-03, -2.48120185e-02, 5.44582494e-02,
          7.59298131e-02, 7.67069906e-02, 3.90995741e-02, 6.27916753e-02,
          1.39846072e-01, 9.72345471e-03, 5.72709031e-02,
          -9.16962326e-02, -8.95646885e-02, -1.11064233e-01,
          4.41218503e-02, 2.11748537e-02, 1.15817115e-01,
          -1.43528834e-01, 1.71761271e-02, 2.39929203e-02,
          2.73915250e-02, 8.17175396e-03, -1.74796328e-01,
          3.69842984e-02, 5.60776629e-02, 3.11647486e-02, 2.32668445e-01,
          -7.69486204e-02, -7.50147402e-02, -3.56335455e-04,
          8.33177418e-02, 3.17581780e-02, 3.99823627e-03,
          -2.79486537e-01, -1.23824254e-01, 2.19942722e-02,
          -2.65220795e-02, 5.14857657e-02, -3.07319723e-02,
          -2.41689652e-01, 1.53697103e-01, 5.46400957e-02,
          -6.91936389e-02, -1.80098210e-02, -4.79410812e-02,
          4.04514298e-02, -1.57172345e-02, -1.93792656e-01,
          1.33844048e-01, 2.74336524e-03, -1.95712093e-02,
          -2.27191165e-01, -1.54531477e-02, -4.43867482e-02,
          -1.04276426e-01, 3.53951268e-02, 4.75016870e-02,
          -1.47669479e-01, 6.23130947e-02, 1.05218224e-01,
          5.17570786e-02, 1.86256737e-01, 1.20825350e-01, 1.52752370e-01,
          5.99244200e-02, -1.68771505e-01, -5.03329420e-03,
          2.01439895e-02, -9.16462913e-02, 4.60917726e-02,
          -7.88884833e-02, -6.64690062e-02, 1.37729838e-01,
          2.15937108e-01, -1.91270374e-02, -6.82017803e-02,
          7.57846702e-03, -5.68482466e-02, -1.33998143e-02,
          -1.32088801e-02, -3.84412631e-02, 1.13011815e-01,
          1.35930866e-01, -1.10229820e-01, -1.82856947e-01,
          1.64800331e-01, 3.97969224e-02, -2.58607507e-01,
          -1.25604227e-01, -1.13603167e-01, -5.88932484e-02,
          4.34836978e-03, -1.51666701e-01, -6.72312751e-02,
          6.42444566e-02, 6.58267289e-02, -3.95460762e-02,
          1.44877639e-02, -7.79371783e-02, -4.67712991e-03,
          5.42846695e-02, -2.50245422e-01, 2.81427093e-02,
          -3.69628817e-02, 6.71258988e-03, 1.59646496e-02,
          -4.83705737e-02, -4.62079383e-02, 3.95410955e-02,
          -4.22483608e-02, -9.31842029e-02, 7.50424564e-02,
          -1.27913252e-01, 6.27115518e-02, -4.66229245e-02,
          -6.68883845e-02, 1.88887445e-03, -1.67044252e-02,
          -4.38940227e-02, -9.24555212e-02, 3.31963180e-03,
          -2.43572611e-03, 1.22837782e-01, -9.29988623e-02,
          -1.26618668e-01, -7.34739900e-02, 3.78583968e-02,
          1.22558236e-01, -1.97008133e-01, -5.85203245e-02,
          3.85292806e-02, 1.40283138e-01, -1.51091367e-01,
          -1.38586178e-01, -2.88174059e-02, -2.52901185e-02,
          1.36669815e-01, -6.32992387e-02, 2.28596441e-02,
          -1.34640083e-01, -9.09667164e-02, -7.93305859e-02,
          -3.69071998e-02, 5.44011295e-02, -4.98708785e-02,
          -1.39047846e-01, -9.60541740e-02, 9.53535587e-02,
          -1.25672102e-01, 8.91207438e-03, 1.18411206e-01,
          4.56545912e-02, -2.20034756e-02, -2.99486872e-02,
          3.79876606e-02, -1.33679947e-02, 1.63914133e-02,
          1.41833961e-01, 1.87131628e-01, -1.02115842e-02,
          -9.96050015e-02, 3.53271589e-02, -1.34834610e-02,
          3.42758931e-02, 5.26920743e-02, 1.29839987e-03, 1.02368623e-01,
          1.22523472e-01, 3.31352539e-02, 1.21511996e-01, 6.91207275e-02,
          1.59416437e-01, -9.02316868e-02, -1.60976544e-01,
          7.05926046e-02, -4.11965139e-03, 2.90300101e-02,
          5.31707406e-02, 2.26473212e-01, -1.70121677e-02,
          -5.66262826e-02, 2.22208761e-02, -9.51597765e-02,
          -3.77547443e-02, 2.04113889e-02, 1.98203206e-01,
          -3.77047397e-02, 2.69726366e-01, -6.29902780e-02,
          1.70018107e-01, 1.05189115e-01, -7.08815381e-02,
          5.29413708e-02, 1.97287202e-02, -1.43306583e-01,
          -1.50644720e-01, -1.53797328e-01, -5.64677194e-02,
          3.15505415e-02, -5.38916402e-02, -7.39369094e-02,
          -6.71758829e-03, 4.22721878e-02, 7.37395510e-02,
          2.95908488e-02, 4.87194434e-02, -1.84334546e-01,
          -8.47635791e-02, -1.79795548e-01, 3.18130590e-02,
          -1.68921556e-02, -2.15371057e-01, 1.04581937e-02,
          -1.65672958e-01, 8.87615755e-02, 5.80904596e-02,
          1.07938118e-01, 9.51772928e-02, 1.10145040e-01, 2.39859909e-01,
          -1.19658537e-01, -3.26432548e-02, -7.64642209e-02,
          -1.10768028e-01, 1.90643612e-02, 1.49411514e-01,
          7.06771836e-02, 1.63275763e-01, 1.23394784e-02,
          -2.46316381e-02, 4.54302989e-02, 8.63637682e-03,
          4.34319898e-02, -2.02175781e-01, 4.50718254e-02,
          -6.50188848e-02, 1.93386059e-02, 1.68498501e-01,
          1.24953806e-01, -5.55509981e-03, 8.34125653e-02,
          -9.74514037e-02, -4.69451174e-02, 1.23579808e-01,
          -7.91191757e-02, 6.61010742e-02, 6.07536845e-02,
          -2.16087490e-01, -1.07435398e-01, 1.74657777e-02,
          8.38578027e-03, 5.51466718e-02, 5.40881120e-02,
          -7.90681690e-02, 6.44405708e-02, -5.23825213e-02,
          -1.94859341e-01, 1.46347964e-02, 4.77801897e-02,
          5.68621606e-02, 4.97632697e-02, 2.44493484e-01, 1.22557715e-01,
          -4.05709483e-02, 3.34500708e-02, -1.96336344e-01,
          -9.69007313e-02, -9.52801257e-02, -1.69390544e-01,
          -9.77886096e-03, 4.97021377e-02, -1.13092303e-01,
          4.28538173e-02, -1.23595279e-02, -1.03209235e-01,
          1.65417939e-01, 1.40167370e-01, 9.56542790e-03, 9.70319808e-02,
          8.94547328e-02, -8.43472183e-02, -8.18750113e-02,
          -1.89508293e-02, -1.43770203e-01, -1.16036788e-01,
          -1.68423772e-01, -3.03982217e-02, -1.10836744e-01,
          1.30944386e-01, -3.49717513e-02, 1.09698407e-01,
          -1.09685771e-01, 8.76008533e-04, 1.05611049e-01,
          1.75673887e-01, 3.07989307e-02, 8.08093026e-02, 6.39993027e-02,
          -5.81994392e-02, 1.07377633e-01, -4.94934805e-03,
          4.17598523e-02, 1.76443502e-01, -1.13079451e-01,
          -2.63046473e-02, -3.84756215e-02, -7.67902136e-02,
          -1.05591699e-01, -5.28503172e-02, 8.86225700e-02,
          4.01725397e-02, 1.96010545e-01, -3.29812914e-02,
          -4.41207550e-02, 1.30629450e-01, 1.35799702e-02,
          1.90274976e-02, 1.77449375e-01, -6.59489408e-02,
          -5.93758821e-02, 6.86907694e-02, 8.27460214e-02,
          -1.62620824e-02, 3.70106585e-02, -1.39172062e-01,
          5.63532747e-02, -3.82273495e-02, -1.27167888e-02,
          -9.66458395e-02, 2.14477926e-02, -5.43237738e-02,
          -1.27138823e-01, 2.75329463e-02, -7.95891695e-03,
          3.46680395e-02, 7.02621862e-02, 4.58450392e-02,
          -4.86989319e-02, 1.59086704e-01, 3.90391760e-02,
          -1.29682004e-01, 1.19947232e-01, -1.60753116e-01,
          -5.37803024e-02, 1.73256565e-02, 1.88337844e-02,
          -1.29686937e-01, 1.08696058e-01, 1.19005620e-01,
          -5.06935269e-02, 1.63548112e-01, -2.55161431e-02,
          -1.39475003e-01, 1.12383312e-03, 1.59828186e-01,
          -6.83676749e-02, 8.60004872e-03, -1.20202288e-01,
          -7.19386563e-02, 6.08225130e-02, -2.90298928e-02,
          2.50888467e-01, 1.45984650e-01, 1.52841099e-02,
          -2.79816873e-02, 6.98666498e-02, 8.49805474e-02,
          3.80732492e-02, 1.31305471e-01, 3.73674147e-02, 5.24066156e-03,
          1.82903334e-01, -3.39451954e-02, 8.79622623e-02,
          -2.78517082e-02, -1.86547898e-02, -2.71547176e-02,
          5.74361794e-02, -1.14511484e-02, 4.10620309e-02,
          2.57091254e-01, -4.00948860e-02, 9.47635621e-02,
          -2.78268605e-02, -2.59606242e-02, -8.99426937e-02,
          -1.67859427e-04, 2.10642796e-02, -3.08219716e-02,
          1.72102213e-01, -1.97985619e-02, -8.48689154e-02,
          1.98992360e-02, 9.76084322e-02, 1.99291781e-01, 1.74235821e-01,
          -1.46370558e-02, -1.22134415e-02, 1.61470138e-02,
          -7.47610256e-02, 9.56061482e-02, -2.91648321e-02,
          4.54438552e-02, 1.66189849e-01, 8.31154436e-02,
          -1.42729213e-03, -3.21964361e-02, -2.82113329e-02,
          -2.71977521e-02, 4.59548607e-02, 1.27259105e-01,
          -1.15188681e-01, 5.52529581e-02, 7.57374018e-02,
          -1.03675455e-01, 1.56559814e-02, 1.91532657e-01,
          6.07357621e-02, 9.26259160e-02, 1.37531117e-01,
          -3.69351208e-02, -1.65777542e-02, 6.52751420e-03,
          -6.82399124e-02, 1.82363480e-01, 2.47834533e-01,
          -6.59560636e-02, -6.05215132e-03, -6.16291631e-03,
          1.21950015e-01, 2.46749461e-01, -2.27062609e-02,
          -8.78389180e-03, -8.66850689e-02, -1.75934926e-01,
          -3.48949805e-02, -1.20076865e-01, 2.22605109e-01,
          2.40830630e-01, -1.01488158e-02, 1.27494439e-01,
          -2.35499032e-02, -4.30797366e-03, -7.31212944e-02,
          -4.53144610e-02, -1.13129765e-02, 1.26519516e-01,
          -4.22894210e-02, 4.23458889e-02, -5.30995652e-02,
          -1.73400119e-01, 9.81170535e-02, -5.38190156e-02,
          6.75028563e-02, -7.15159103e-02, 7.56177157e-02,
          1.45449206e-01, 9.76679474e-02, 1.47695914e-01, 2.80170310e-02,
          5.10756858e-02, -7.20569342e-02, -6.27292618e-02,
          2.37737745e-02, 6.56607300e-02, -5.84500469e-02,
          -1.28741845e-01, -3.57400179e-02, -3.13782878e-02,
          -3.02444561e-04, -3.91059779e-02, 4.85895798e-02,
          -1.25439882e-01, -1.27946720e-01, -2.89922152e-02,
          -6.54434934e-02, 5.20813949e-02, -3.48191825e-03,
          7.70075098e-02, 3.46765332e-02, 4.60445508e-02, 7.68577009e-02,
          1.30052909e-01, 1.06647365e-01, -1.01201214e-01,
          1.08241290e-01, -3.03453822e-02, 7.14135915e-02,
          9.55285355e-02, 1.74439326e-01, 1.69857636e-01,
          -3.19501036e-03, 1.61347166e-02, -1.48857191e-01,
          1.14923015e-01, -6.92922100e-02, 1.58413395e-01,
          2.13993251e-01, 6.59321919e-02, -2.39073083e-01,
          -1.07626207e-01, 2.90515944e-02, -3.49285565e-02,
          1.20024092e-01, 7.96526298e-02, 8.56507197e-02, 2.47989118e-01,
          1.43324941e-01, -1.74919963e-01, 8.41212869e-02,
          1.36210293e-01, -1.98219828e-02, -6.10283948e-02,
          -1.63277481e-02, 3.24307615e-03, 1.49938434e-01,
          -5.99596687e-02, -1.12272933e-01, -2.77090352e-02,
          -4.67930920e-02, -5.76555654e-02, 1.64445728e-01,
          -5.71881868e-02, 6.95590675e-02, 4.90396842e-02,
          -1.17010787e-01, -1.97075307e-01, 1.16822511e-01,
          -7.74384513e-02, -1.92697085e-02, -9.02219340e-02,
          7.37231150e-02, 1.28609047e-03, -1.50569662e-01,
          1.59836910e-03, -1.29398622e-03, 8.33878219e-02,
          -2.02314351e-02, 1.98951915e-01, -2.21090823e-01,
          -8.59628916e-02, -3.17126699e-02, 1.55781060e-01,
          1.07447147e-01, 4.10185568e-02, 1.55224472e-01, 8.33286420e-02,
          9.14596543e-02, 7.94805493e-03, -1.22419655e-01,
          2.95107309e-02, 1.51496515e-01, -1.15116902e-01,
          -7.47873157e-04, 1.85891449e-01, -8.34664330e-02,
          2.56518990e-01, -1.29292801e-01, 5.07477857e-02,
          4.05322798e-02, -2.62151062e-02, 5.88920014e-03,
          1.33676797e-01, -2.96692969e-03, 1.43726975e-01,
          1.27798960e-01, 1.79519895e-02, 1.43744322e-02, 5.31246997e-02,
          9.83167738e-02, 1.24203209e-02, -1.60015989e-02,
          -4.36091647e-02, -2.02057570e-01, -9.27999318e-02,
          -4.68804501e-02, -1.56216502e-01, -7.87956920e-03,
          1.70794949e-01, -9.97163579e-02, 1.20753475e-01,
          -4.70756181e-02, -5.94076663e-02, -2.59331334e-02,
          8.75974670e-02, 1.50096655e-01, 6.19491301e-02,
          -8.36149603e-02, -9.89361703e-02, 2.56418049e-01,
          2.29028035e-02, 7.90569633e-02, 7.77228698e-02,
          -4.27883118e-02, -2.60084234e-02, 7.32897744e-02,
          6.88967407e-02, -8.33161026e-02, 2.77158380e-01,
          5.10170050e-02, -1.66286826e-01, 1.69315264e-01,
          -5.06823584e-02, 7.29486421e-02, 5.84036000e-02,
          -1.53808519e-01 ]
   decision_functions:
      -
         sv_count: 1
         rho: -5.0005807482026947e+00
         alpha: [ 1. ]
         index: [ 0 ]
